0.000000
0.000000
0.000000
0.000000
0.000000
0.000000
0.000000
0.000000
0.000000
0.000000
0.000000
0.000000
0.000000
0.000000
0.000000
0.000000
0.000000
0.000000
0.000000
0.000000
0.000000
0.000000
0.000000
0.000000
0.000000
0.000000
0.000000
0.000000
0.000000
0.000000
0.000000
0.000000
0.000000
0.000000
0.000000
0.000000
0.000000
0.000000
0.000000
0.000000
0.000000
0.000000
0.000000
0.000000
0.000000
0.000000
0.000000
0.000000
0.000000
0.000000
0.000000
0.000000
0.000000
0.000000
0.000000
0.000000
0.000000
0.000000
0.000000
0.000000
0.000000
0.000000
0.000000
0.000000
0.000000
0.000000
0.000000
0.000000
0.000000
0.000000
0.000000
0.000000
0.000000
0.000000
0.000000
0.000000
0.000000
0.000000
0.000000
0.000000
0.000000
0.000000
0.000000
0.000000
0.000000
0.000000
0.000000
0.000000
0.000000
0.000000
0.000000
0.000000
0.000000
0.000000
0.000000
0.000000
0.000000
0.000000
0.000000
0.000000
0.000000
0.000000
0.000000
0.000000
0.000000
0.000000
0.000000
0.000000
0.000000
0.000000
0.000000
0.000000
0.000000
0.000000
0.000000
0.000000
0.000000
0.000000
0.000000
0.000000
0.000000
0.000000
0.000000
0.000000
0.000000
0.000000
0.000000
0.000000
0.000000
-0.012929
-0.012929
-0.012929
-0.012929
-0.012929
-0.012929
-0.012929
-0.012929
-0.012929
-0.012929
-0.012929
-0.012929
-0.012929
-0.012929
-0.012929
-0.012929
-0.012929
-0.012929
-0.012929
-0.012929
-0.012929
-0.012929
-0.012929
-0.012929
-0.012929
-0.012929
-0.012929
-0.012929
-0.012929
-0.012929
-0.012929
-0.012929
-0.012929
-0.012929
-0.012929
-0.012929
-0.012929
-0.012929
-0.012929
-0.012929
-0.012929
-0.012929
-0.012929
-0.012929
-0.012929
-0.012929
-0.012929
-0.012929
-0.012929
-0.012929
-0.012929
-0.012929
-0.012929
-0.012929
-0.012929
-0.012929
-0.012929
-0.012929
-0.012929
-0.012929
-0.012929
-0.012929
-0.012929
-0.012929
-0.012929
-0.012929
-0.012929
-0.012929
-0.012929
-0.012929
-0.012929
-0.012929
-0.012929
-0.012929
-0.012929
-0.012929
-0.012929
-0.012929
-0.012929
-0.012929
-0.012929
-0.012929
-0.012929
-0.012929
-0.012929
-0.012929
-0.012929
-0.012929
-0.012929
-0.012929
-0.012929
-0.012929
-0.012929
-0.012929
-0.012929
-0.012929
-0.012929
-0.012929
-0.012929
-0.012929
-0.012929
-0.012929
-0.012929
-0.012929
-0.012929
-0.012929
-0.012929
-0.012929
-0.012929
-0.012929
-0.012929
-0.012929
-0.012929
-0.012929
-0.012929
-0.012929
-0.012929
-0.012929
-0.012929
-0.012929
-0.012929
-0.012929
-0.012929
-0.012929
-0.012929
-0.012929
-0.012929
-0.012929
0.000000
0.028767
0.028767
0.028767
0.028767
0.028767
0.028767
0.028767
0.028767
0.028767
0.028767
0.028767
0.028767
0.028767
0.028767
0.028767
0.028767
0.028767
0.028767
0.028767
0.028767
0.028767
0.028767
0.028767
0.028767
0.028767
0.028767
0.028767
0.028767
0.028767
0.028767
0.028767
0.028767
0.028767
0.028767
0.028767
0.028767
0.028767
0.028767
0.028767
0.028767
0.028767
0.028767
0.028767
0.028767
0.028767
0.028767
0.028767
0.028767
0.028767
0.028767
0.028767
0.028767
0.028767
0.028767
0.028767
0.028767
0.028767
0.028767
0.028767
0.028767
0.028767
0.028767
0.028767
0.028767
0.028767
0.028767
0.028767
0.028767
0.028767
0.028767
0.028767
0.028767
0.028767
0.028767
0.028767
0.028767
0.028767
0.028767
0.028767
0.028767
0.028767
0.028767
0.028767
0.028767
0.028767
0.028767
0.028767
0.028767
0.028767
0.028767
0.028767
0.028767
0.028767
0.028767
0.028767
0.028767
0.028767
0.028767
0.028767
0.028767
0.028767
0.028767
0.028767
0.028767
0.028767
0.028767
0.028767
0.028767
0.028767
0.028767
0.028767
0.028767
0.028767
0.028767
0.028767
0.028767
0.028767
0.028767
0.028767
0.028767
0.028767
0.028767
0.028767
0.028767
0.028767
0.028767
0.028767
0.028767
0.000000
-0.006412
-0.006412
-0.006412
-0.006412
-0.006412
-0.006412
-0.006412
-0.006412
-0.006412
-0.006412
-0.006412
-0.006412
-0.006412
-0.006412
-0.006412
-0.006412
-0.006412
-0.006412
-0.006412
-0.006412
-0.006412
-0.006412
-0.006412
-0.006412
-0.006412
-0.006412
-0.006412
-0.006412
-0.006412
-0.006412
-0.006412
-0.006412
-0.006412
-0.006412
-0.006412
-0.006412
-0.006412
-0.006412
-0.006412
-0.006412
-0.006412
-0.006412
-0.006412
-0.006412
-0.006412
-0.006412
-0.006412
-0.006412
-0.006412
-0.006412
-0.006412
-0.006412
-0.006412
-0.006412
-0.006412
-0.006412
-0.006412
-0.006412
-0.006412
-0.006412
-0.006412
-0.006412
-0.006412
-0.006412
-0.006412
-0.006412
-0.006412
-0.006412
-0.006412
-0.006412
-0.006412
-0.006412
-0.006412
-0.006412
-0.006412
-0.006412
-0.006412
-0.006412
-0.006412
-0.006412
-0.006412
-0.006412
-0.006412
-0.006412
-0.006412
-0.006412
-0.006412
-0.006412
-0.006412
-0.006412
-0.006412
-0.006412
-0.006412
-0.006412
-0.006412
-0.006412
-0.006412
-0.006412
-0.006412
-0.006412
-0.006412
-0.006412
-0.006412
-0.006412
-0.006412
-0.006412
-0.006412
-0.006412
-0.006412
-0.006412
-0.006412
-0.006412
-0.006412
-0.006412
-0.006412
-0.006412
-0.006412
-0.006412
-0.006412
-0.006412
-0.006412
-0.006412
-0.006412
-0.006412
-0.006412
-0.006412
-0.006412
-0.006412
0.000000
-0.017165
-0.017165
-0.017165
-0.017165
-0.017165
-0.017165
-0.017165
-0.017165
-0.017165
-0.017165
-0.017165
-0.017165
-0.017165
-0.017165
-0.017165
-0.017165
-0.017165
-0.017165
-0.017165
-0.017165
-0.017165
-0.017165
-0.017165
-0.017165
-0.017165
-0.017165
-0.017165
-0.017165
-0.017165
-0.017165
-0.017165
-0.017165
-0.017165
-0.017165
-0.017165
-0.017165
-0.017165
-0.017165
-0.017165
-0.017165
-0.017165
-0.017165
-0.017165
-0.017165
-0.017165
-0.017165
-0.017165
-0.017165
-0.017165
-0.017165
-0.017165
-0.017165
-0.017165
-0.017165
-0.017165
-0.017165
-0.017165
-0.017165
-0.017165
-0.017165
-0.017165
-0.017165
-0.017165
-0.017165
-0.017165
-0.017165
-0.017165
-0.017165
-0.017165
-0.017165
-0.017165
-0.017165
-0.017165
-0.017165
-0.017165
-0.017165
-0.017165
-0.017165
-0.017165
-0.017165
-0.017165
-0.017165
-0.017165
-0.017165
-0.017165
-0.017165
-0.017165
-0.017165
-0.017165
-0.017165
-0.017165
-0.017165
-0.017165
-0.017165
-0.017165
-0.017165
-0.017165
-0.017165
-0.017165
-0.017165
-0.017165
-0.017165
-0.017165
-0.017165
-0.017165
-0.017165
-0.017165
-0.017165
-0.017165
-0.017165
-0.017165
-0.017165
-0.017165
-0.017165
-0.017165
-0.017165
-0.017165
-0.017165
-0.017165
-0.017165
-0.017165
-0.017165
-0.017165
-0.017165
-0.017165
-0.017165
-0.017165
-0.017165
0.000000
-0.053266
-0.053266
-0.053266
-0.053266
-0.053266
-0.053266
-0.053266
-0.053266
-0.053266
-0.053266
-0.053266
-0.053266
-0.053266
-0.053266
-0.053266
-0.053266
-0.053266
-0.053266
-0.053266
-0.053266
-0.053266
-0.053266
-0.053266
-0.053266
-0.053266
-0.053266
-0.053266
-0.053266
-0.053266
-0.053266
-0.053266
-0.053266
-0.053266
-0.053266
-0.053266
-0.053266
-0.053266
-0.053266
-0.053266
-0.053266
-0.053266
-0.053266
-0.053266
-0.053266
-0.053266
-0.053266
-0.053266
-0.053266
-0.053266
-0.053266
-0.053266
-0.053266
-0.053266
-0.053266
-0.053266
-0.053266
-0.053266
-0.053266
-0.053266
-0.053266
-0.053266
-0.053266
-0.053266
-0.053266
-0.053266
-0.053266
-0.053266
-0.053266
-0.053266
-0.053266
-0.053266
-0.053266
-0.053266
-0.053266
-0.053266
-0.053266
-0.053266
-0.053266
-0.053266
-0.053266
-0.053266
-0.053266
-0.053266
-0.053266
-0.053266
-0.053266
-0.053266
-0.053266
-0.053266
-0.053266
-0.053266
-0.053266
-0.053266
-0.053266
-0.053266
-0.053266
-0.053266
-0.053266
-0.053266
-0.053266
-0.053266
-0.053266
-0.053266
-0.053266
-0.053266
-0.053266
-0.053266
-0.053266
-0.053266
-0.053266
-0.053266
-0.053266
-0.053266
-0.053266
-0.053266
-0.053266
-0.053266
-0.053266
-0.053266
-0.053266
-0.053266
-0.053266
-0.053266
-0.053266
-0.053266
-0.053266
-0.053266
-0.053266
0.000000
-0.011444
-0.011444
-0.011444
-0.011444
-0.011444
-0.011444
-0.011444
-0.011444
-0.011444
-0.011444
-0.011444
-0.011444
-0.011444
-0.011444
-0.011444
-0.011444
-0.011444
-0.011444
-0.011444
-0.011444
-0.011444
-0.011444
-0.011444
-0.011444
-0.011444
-0.011444
-0.011444
-0.011444
-0.011444
-0.011444
-0.011444
-0.011444
-0.011444
-0.011444
-0.011444
-0.011444
-0.011444
-0.011444
-0.011444
-0.011444
-0.011444
-0.011444
-0.011444
-0.011444
-0.011444
-0.011444
-0.011444
-0.011444
-0.011444
-0.011444
-0.011444
-0.011444
-0.011444
-0.011444
-0.011444
-0.011444
-0.011444
-0.011444
-0.011444
-0.011444
-0.011444
-0.011444
-0.011444
-0.011444
-0.011444
-0.011444
-0.011444
-0.011444
-0.011444
-0.011444
-0.011444
-0.011444
-0.011444
-0.011444
-0.011444
-0.011444
-0.011444
-0.011444
-0.011444
-0.011444
-0.011444
-0.011444
-0.011444
-0.011444
-0.011444
-0.011444
-0.011444
-0.011444
-0.011444
-0.011444
-0.011444
-0.011444
-0.011444
-0.011444
-0.011444
-0.011444
-0.011444
-0.011444
-0.011444
-0.011444
-0.011444
-0.011444
-0.011444
-0.011444
-0.011444
-0.011444
-0.011444
-0.011444
-0.011444
-0.011444
-0.011444
-0.011444
-0.011444
-0.011444
-0.011444
-0.011444
-0.011444
-0.011444
-0.011444
-0.011444
-0.011444
-0.011444
-0.011444
-0.011444
-0.011444
-0.011444
-0.011444
-0.011444
0.000000
0.000000
0.000000
0.000000
0.000000
0.000000
0.000000
0.000000
0.000000
0.000000
0.000000
0.000000
0.000000
0.000000
0.000000
0.000000
0.000000
0.000000
0.000000
0.000000
0.000000
0.000000
0.000000
0.000000
0.000000
0.000000
0.000000
0.000000
0.000000
0.000000
0.000000
0.000000
0.000000
0.000000
0.000000
0.000000
0.000000
0.000000
0.000000
0.000000
0.000000
0.000000
0.000000
0.000000
0.000000
0.000000
0.000000
0.000000
0.000000
0.000000
0.000000
0.000000
0.000000
0.000000
0.000000
0.000000
0.000000
0.000000
0.000000
0.000000
0.000000
0.000000
0.000000
0.000000
0.000000
0.000000
0.000000
0.000000
0.000000
0.000000
0.000000
0.000000
0.000000
0.000000
0.000000
0.000000
0.000000
0.000000
0.000000
0.000000
0.000000
0.000000
0.000000
0.000000
0.000000
0.000000
0.000000
0.000000
0.000000
0.000000
0.000000
0.000000
0.000000
0.000000
0.000000
0.000000
0.000000
0.000000
0.000000
0.000000
0.000000
0.000000
0.000000
0.000000
0.000000
0.000000
0.000000
0.000000
0.000000
0.000000
0.000000
0.000000
0.000000
0.000000
0.000000
0.000000
0.000000
0.000000
0.000000
0.000000
0.000000
0.000000
0.000000
0.000000
0.000000
0.000000
0.000000
0.000000
0.000000
0.000000
-0.048105
-0.048105
-0.048105
-0.048105
-0.048105
-0.048105
-0.048105
-0.048105
-0.048105
-0.048105
-0.048105
-0.048105
-0.048105
-0.048105
-0.048105
-0.048105
-0.048105
-0.048105
-0.048105
-0.048105
-0.048105
-0.048105
-0.048105
-0.048105
-0.048105
-0.048105
-0.048105
-0.048105
-0.048105
-0.048105
-0.048105
-0.048105
-0.048105
-0.048105
-0.048105
-0.048105
-0.048105
-0.048105
-0.048105
-0.048105
-0.048105
-0.048105
-0.048105
-0.048105
-0.048105
-0.048105
-0.048105
-0.048105
-0.048105
-0.048105
-0.048105
-0.048105
-0.048105
-0.048105
-0.048105
-0.048105
-0.048105
-0.048105
-0.048105
-0.048105
-0.048105
-0.048105
-0.048105
-0.048105
-0.048105
-0.048105
-0.048105
-0.048105
-0.048105
-0.048105
-0.048105
-0.048105
-0.048105
-0.048105
-0.048105
-0.048105
-0.048105
-0.048105
-0.048105
-0.048105
-0.048105
-0.048105
-0.048105
-0.048105
-0.048105
-0.048105
-0.048105
-0.048105
-0.048105
-0.048105
-0.048105
-0.048105
-0.048105
-0.048105
-0.048105
-0.048105
-0.048105
-0.048105
-0.048105
-0.048105
-0.048105
-0.048105
-0.048105
-0.048105
-0.048105
-0.048105
-0.048105
-0.048105
-0.048105
-0.048105
-0.048105
-0.048105
-0.048105
-0.048105
-0.048105
-0.048105
-0.048105
-0.048105
-0.048105
-0.048105
-0.048105
-0.048105
-0.048105
-0.048105
-0.048105
-0.048105
-0.048105
-0.048105
0.000000
-0.031623
-0.031623
-0.031623
-0.031623
-0.031623
-0.031623
-0.031623
-0.031623
-0.031623
-0.031623
-0.031623
-0.031623
-0.031623
-0.031623
-0.031623
-0.031623
-0.031623
-0.031623
-0.031623
-0.031623
-0.031623
-0.031623
-0.031623
-0.031623
-0.031623
-0.031623
-0.031623
-0.031623
-0.031623
-0.031623
-0.031623
-0.031623
-0.031623
-0.031623
-0.031623
-0.031623
-0.031623
-0.031623
-0.031623
-0.031623
-0.031623
-0.031623
-0.031623
-0.031623
-0.031623
-0.031623
-0.031623
-0.031623
-0.031623
-0.031623
-0.031623
-0.031623
-0.031623
-0.031623
-0.031623
-0.031623
-0.031623
-0.031623
-0.031623
-0.031623
-0.031623
-0.031623
-0.031623
-0.031623
-0.031623
-0.031623
-0.031623
-0.031623
-0.031623
-0.031623
-0.031623
-0.031623
-0.031623
-0.031623
-0.031623
-0.031623
-0.031623
-0.031623
-0.031623
-0.031623
-0.031623
-0.031623
-0.031623
-0.031623
-0.031623
-0.031623
-0.031623
-0.031623
-0.031623
-0.031623
-0.031623
-0.031623
-0.031623
-0.031623
-0.031623
-0.031623
-0.031623
-0.031623
-0.031623
-0.031623
-0.031623
-0.031623
-0.031623
-0.031623
-0.031623
-0.031623
-0.031623
-0.031623
-0.031623
-0.031623
-0.031623
-0.031623
-0.031623
-0.031623
-0.031623
-0.031623
-0.031623
-0.031623
-0.031623
-0.031623
-0.031623
-0.031623
-0.031623
-0.031623
-0.031623
-0.031623
-0.031623
-0.031623
0.000000
-0.017165
-0.017165
-0.017165
-0.017165
-0.017165
-0.017165
-0.017165
-0.017165
-0.017165
-0.017165
-0.017165
-0.017165
-0.017165
-0.017165
-0.017165
-0.017165
-0.017165
-0.017165
-0.017165
-0.017165
-0.017165
-0.017165
-0.017165
-0.017165
-0.017165
-0.017165
-0.017165
-0.017165
-0.017165
-0.017165
-0.017165
-0.017165
-0.017165
-0.017165
-0.017165
-0.017165
-0.017165
-0.017165
-0.017165
-0.017165
-0.017165
-0.017165
-0.017165
-0.017165
-0.017165
-0.017165
-0.017165
-0.017165
-0.017165
-0.017165
-0.017165
-0.017165
-0.017165
-0.017165
-0.017165
-0.017165
-0.017165
-0.017165
-0.017165
-0.017165
-0.017165
-0.017165
-0.017165
-0.017165
-0.017165
-0.017165
-0.017165
-0.017165
-0.017165
-0.017165
-0.017165
-0.017165
-0.017165
-0.017165
-0.017165
-0.017165
-0.017165
-0.017165
-0.017165
-0.017165
-0.017165
-0.017165
-0.017165
-0.017165
-0.017165
-0.017165
-0.017165
-0.017165
-0.017165
-0.017165
-0.017165
-0.017165
-0.017165
-0.017165
-0.017165
-0.017165
-0.017165
-0.017165
-0.017165
-0.017165
-0.017165
-0.017165
-0.017165
-0.017165
-0.017165
-0.017165
-0.017165
-0.017165
-0.017165
-0.017165
-0.017165
-0.017165
-0.017165
-0.017165
-0.017165
-0.017165
-0.017165
-0.017165
-0.017165
-0.017165
-0.017165
-0.017165
-0.017165
-0.017165
-0.017165
-0.017165
-0.017165
-0.017165
0.000000
-0.012929
-0.012929
-0.012929
-0.012929
-0.012929
-0.012929
-0.012929
-0.012929
-0.012929
-0.012929
-0.012929
-0.012929
-0.012929
-0.012929
-0.012929
-0.012929
-0.012929
-0.012929
-0.012929
-0.012929
-0.012929
-0.012929
-0.012929
-0.012929
-0.012929
-0.012929
-0.012929
-0.012929
-0.012929
-0.012929
-0.012929
-0.012929
-0.012929
-0.012929
-0.012929
-0.012929
-0.012929
-0.012929
-0.012929
-0.012929
-0.012929
-0.012929
-0.012929
-0.012929
-0.012929
-0.012929
-0.012929
-0.012929
-0.012929
-0.012929
-0.012929
-0.012929
-0.012929
-0.012929
-0.012929
-0.012929
-0.012929
-0.012929
-0.012929
-0.012929
-0.012929
-0.012929
-0.012929
-0.012929
-0.012929
-0.012929
-0.012929
-0.012929
-0.012929
-0.012929
-0.012929
-0.012929
-0.012929
-0.012929
-0.012929
-0.012929
-0.012929
-0.012929
-0.012929
-0.012929
-0.012929
-0.012929
-0.012929
-0.012929
-0.012929
-0.012929
-0.012929
-0.012929
-0.012929
-0.012929
-0.012929
-0.012929
-0.012929
-0.012929
-0.012929
-0.012929
-0.012929
-0.012929
-0.012929
-0.012929
-0.012929
-0.012929
-0.012929
-0.012929
-0.012929
-0.012929
-0.012929
-0.012929
-0.012929
-0.012929
-0.012929
-0.012929
-0.012929
-0.012929
-0.012929
-0.012929
-0.012929
-0.012929
-0.012929
-0.012929
-0.012929
-0.012929
-0.012929
-0.012929
-0.012929
-0.012929
-0.012929
-0.012929
0.000000
0.000000
0.000000
0.000000
0.000000
0.000000
0.000000
0.000000
0.000000
0.000000
0.000000
0.000000
0.000000
0.000000
0.000000
0.000000
0.000000
0.000000
0.000000
0.000000
0.000000
0.000000
0.000000
0.000000
0.000000
0.000000
0.000000
0.000000
0.000000
0.000000
0.000000
0.000000
0.000000
0.000000
0.000000
0.000000
0.000000
0.000000
0.000000
0.000000
0.000000
0.000000
0.000000
0.000000
0.000000
0.000000
0.000000
0.000000
0.000000
0.000000
0.000000
0.000000
0.000000
0.000000
0.000000
0.000000
0.000000
0.000000
0.000000
0.000000
0.000000
0.000000
0.000000
0.000000
0.000000
0.000000
0.000000
0.000000
0.000000
0.000000
0.000000
0.000000
0.000000
0.000000
0.000000
0.000000
0.000000
0.000000
0.000000
0.000000
0.000000
0.000000
0.000000
0.000000
0.000000
0.000000
0.000000
0.000000
0.000000
0.000000
0.000000
0.000000
0.000000
0.000000
0.000000
0.000000
0.000000
0.000000
0.000000
0.000000
0.000000
0.000000
0.000000
0.000000
0.000000
0.000000
0.000000
0.000000
0.000000
0.000000
0.000000
0.000000
0.000000
0.000000
0.000000
0.000000
0.000000
0.000000
0.000000
0.000000
0.000000
0.000000
0.000000
0.000000
0.000000
0.000000
0.000000
0.000000
0.000000
0.000000
0.000000
0.000000
0.000000
0.000000
0.000000
0.000000
0.000000
0.000000
0.000000
0.000000
0.000000
0.000000
0.000000
0.000000
0.000000
0.000000
0.000000
0.000000
0.000000
0.000000
0.000000
0.000000
0.000000
0.000000
0.000000
0.000000
0.000000
0.000000
0.000000
0.000000
0.000000
0.000000
0.000000
0.000000
0.000000
0.000000
0.000000
0.000000
0.000000
0.000000
0.000000
0.000000
0.000000
0.000000
0.000000
0.000000
0.000000
0.000000
0.000000
0.000000
0.000000
0.000000
0.000000
0.000000
0.000000
0.000000
0.000000
0.000000
0.000000
0.000000
0.000000
0.000000
0.000000
0.000000
0.000000
0.000000
0.000000
0.000000
0.000000
0.000000
0.000000
0.000000
0.000000
0.000000
0.000000
0.000000
0.000000
0.000000
0.000000
0.000000
0.000000
0.000000
0.000000
0.000000
0.000000
0.000000
0.000000
0.000000
0.000000
0.000000
0.000000
0.000000
0.000000
0.000000
0.000000
0.000000
0.000000
0.000000
0.000000
0.000000
0.000000
0.000000
0.000000
0.000000
0.000000
0.000000
0.000000
0.000000
0.000000
0.000000
0.000000
0.000000
0.000000
0.000000
0.000000
0.000000
0.000000
0.000000
0.000000
0.000000
0.000000
0.000000
0.000000
0.000000
0.000000
0.000000
0.000000
0.000000
0.000000
0.028767
0.028767
0.028767
0.028767
0.028767
0.028767
0.028767
0.028767
0.028767
0.028767
0.028767
0.028767
0.028767
0.028767
0.028767
0.028767
0.028767
0.028767
0.028767
0.028767
0.028767
0.028767
0.028767
0.028767
0.028767
0.028767
0.028767
0.028767
0.028767
0.028767
0.028767
0.028767
0.028767
0.028767
0.028767
0.028767
0.028767
0.028767
0.028767
0.028767
0.028767
0.028767
0.028767
0.028767
0.028767
0.028767
0.028767
0.028767
0.028767
0.028767
0.028767
0.028767
0.028767
0.028767
0.028767
0.028767
0.028767
0.028767
0.028767
0.028767
0.028767
0.028767
0.028767
0.028767
0.028767
0.028767
0.028767
0.028767
0.028767
0.028767
0.028767
0.028767
0.028767
0.028767
0.028767
0.028767
0.028767
0.028767
0.028767
0.028767
0.028767
0.028767
0.028767
0.028767
0.028767
0.028767
0.028767
0.028767
0.028767
0.028767
0.028767
0.028767
0.028767
0.028767
0.028767
0.028767
0.028767
0.028767
0.028767
0.028767
0.028767
0.028767
0.028767
0.028767
0.028767
0.028767
0.028767
0.028767
0.028767
0.028767
0.028767
0.028767
0.028767
0.028767
0.028767
0.028767
0.028767
0.028767
0.028767
0.028767
0.028767
0.028767
0.028767
0.028767
0.028767
0.028767
0.028767
0.028767
0.000000
0.028767
0.028767
0.028767
0.028767
0.028767
0.028767
0.028767
0.028767
0.028767
0.028767
0.028767
0.028767
0.028767
0.028767
0.028767
0.028767
0.028767
0.028767
0.028767
0.028767
0.028767
0.028767
0.028767
0.028767
0.028767
0.028767
0.028767
0.028767
0.028767
0.028767
0.028767
0.028767
0.028767
0.028767
0.028767
0.028767
0.028767
0.028767
0.028767
0.028767
0.028767
0.028767
0.028767
0.028767
0.028767
0.028767
0.028767
0.028767
0.028767
0.028767
0.028767
0.028767
0.028767
0.028767
0.028767
0.028767
0.028767
0.028767
0.028767
0.028767
0.028767
0.028767
0.028767
0.028767
0.028767
0.028767
0.028767
0.028767
0.028767
0.028767
0.028767
0.028767
0.028767
0.028767
0.028767
0.028767
0.028767
0.028767
0.028767
0.028767
0.028767
0.028767
0.028767
0.028767
0.028767
0.028767
0.028767
0.028767
0.028767
0.028767
0.028767
0.028767
0.028767
0.028767
0.028767
0.028767
0.028767
0.028767
0.028767
0.028767
0.028767
0.028767
0.028767
0.028767
0.028767
0.028767
0.028767
0.028767
0.028767
0.028767
0.028767
0.028767
0.028767
0.028767
0.028767
0.028767
0.028767
0.028767
0.028767
0.028767
0.028767
0.028767
0.028767
0.028767
0.028767
0.028767
0.028767
0.028767
0.000000
0.000000
0.000000
0.000000
0.000000
0.000000
0.000000
0.000000
0.000000
0.000000
0.000000
0.000000
0.000000
0.000000
0.000000
0.000000
0.000000
0.000000
0.000000
0.000000
0.000000
0.000000
0.000000
0.000000
0.000000
0.000000
0.000000
0.000000
0.000000
0.000000
0.000000
0.000000
0.000000
0.000000
0.000000
0.000000
0.000000
0.000000
0.000000
0.000000
0.000000
0.000000
0.000000
0.000000
0.000000
0.000000
0.000000
0.000000
0.000000
0.000000
0.000000
0.000000
0.000000
0.000000
0.000000
0.000000
0.000000
0.000000
0.000000
0.000000
0.000000
0.000000
0.000000
0.000000
0.000000
0.000000
0.000000
0.000000
0.000000
0.000000
0.000000
0.000000
0.000000
0.000000
0.000000
0.000000
0.000000
0.000000
0.000000
0.000000
0.000000
0.000000
0.000000
0.000000
0.000000
0.000000
0.000000
0.000000
0.000000
0.000000
0.000000
0.000000
0.000000
0.000000
0.000000
0.000000
0.000000
0.000000
0.000000
0.000000
0.000000
0.000000
0.000000
0.000000
0.000000
0.000000
0.000000
0.000000
0.000000
0.000000
0.000000
0.000000
0.000000
0.000000
0.000000
0.000000
0.000000
0.000000
0.000000
0.000000
0.000000
0.000000
0.000000
0.000000
0.000000
0.000000
0.000000
0.000000
0.000000
0.000000
0.000000
0.000000
0.000000
0.000000
0.000000
0.000000
0.000000
0.000000
0.000000
0.000000
0.000000
0.000000
0.000000
0.000000
0.000000
0.000000
0.000000
0.000000
0.000000
0.000000
0.000000
0.000000
0.000000
0.000000
0.000000
0.000000
0.000000
0.000000
0.000000
0.000000
0.000000
0.000000
0.000000
0.000000
0.000000
0.000000
0.000000
0.000000
0.000000
0.000000
0.000000
0.000000
0.000000
0.000000
0.000000
0.000000
0.000000
0.000000
0.000000
0.000000
0.000000
0.000000
0.000000
0.000000
0.000000
0.000000
0.000000
0.000000
0.000000
0.000000
0.000000
0.000000
0.000000
0.000000
0.000000
0.000000
0.000000
0.000000
0.000000
0.000000
0.000000
0.000000
0.000000
0.000000
0.000000
0.000000
0.000000
0.000000
0.000000
0.000000
0.000000
0.000000
0.000000
0.000000
0.000000
0.000000
0.000000
0.000000
0.000000
0.000000
0.000000
0.000000
0.000000
0.000000
0.000000
0.000000
0.000000
0.000000
0.000000
0.000000
0.000000
0.000000
0.000000
0.000000
0.000000
0.000000
0.000000
0.000000
0.000000
0.000000
0.000000
0.000000
0.000000
0.000000
0.000000
0.000000
0.000000
0.000000
0.000000
0.000000
0.000000
0.000000
0.000000
0.000000
0.000000
0.000000
0.000000
0.000000
0.000000
0.011599
0.011599
0.011599
0.011599
0.011599
0.011599
0.011599
0.011599
0.011599
0.011599
0.011599
0.011599
0.011599
0.011599
0.011599
0.011599
0.011599
0.011599
0.011599
0.011599
0.011599
0.011599
0.011599
0.011599
0.011599
0.011599
0.011599
0.011599
0.011599
0.011599
0.011599
0.011599
0.011599
0.011599
0.011599
0.011599
0.011599
0.011599
0.011599
0.011599
0.011599
0.011599
0.011599
0.011599
0.011599
0.011599
0.011599
0.011599
0.011599
0.011599
0.011599
0.011599
0.011599
0.011599
0.011599
0.011599
0.011599
0.011599
0.011599
0.011599
0.011599
0.011599
0.011599
0.011599
0.011599
0.011599
0.011599
0.011599
0.011599
0.011599
0.011599
0.011599
0.011599
0.011599
0.011599
0.011599
0.011599
0.011599
0.011599
0.011599
0.011599
0.011599
0.011599
0.011599
0.011599
0.011599
0.011599
0.011599
0.011599
0.011599
0.011599
0.011599
0.011599
0.011599
0.011599
0.011599
0.011599
0.011599
0.011599
0.011599
0.011599
0.011599
0.011599
0.011599
0.011599
0.011599
0.011599
0.011599
0.011599
0.011599
0.011599
0.011599
0.011599
0.011599
0.011599
0.011599
0.011599
0.011599
0.011599
0.011599
0.011599
0.011599
0.011599
0.011599
0.011599
0.011599
0.011599
0.011599
0.000000
0.011599
0.011599
0.011599
0.011599
0.011599
0.011599
0.011599
0.011599
0.011599
0.011599
0.011599
0.011599
0.011599
0.011599
0.011599
0.011599
0.011599
0.011599
0.011599
0.011599
0.011599
0.011599
0.011599
0.011599
0.011599
0.011599
0.011599
0.011599
0.011599
0.011599
0.011599
0.011599
0.011599
0.011599
0.011599
0.011599
0.011599
0.011599
0.011599
0.011599
0.011599
0.011599
0.011599
0.011599
0.011599
0.011599
0.011599
0.011599
0.011599
0.011599
0.011599
0.011599
0.011599
0.011599
0.011599
0.011599
0.011599
0.011599
0.011599
0.011599
0.011599
0.011599
0.011599
0.011599
0.011599
0.011599
0.011599
0.011599
0.011599
0.011599
0.011599
0.011599
0.011599
0.011599
0.011599
0.011599
0.011599
0.011599
0.011599
0.011599
0.011599
0.011599
0.011599
0.011599
0.011599
0.011599
0.011599
0.011599
0.011599
0.011599
0.011599
0.011599
0.011599
0.011599
0.011599
0.011599
0.011599
0.011599
0.011599
0.011599
0.011599
0.011599
0.011599
0.011599
0.011599
0.011599
0.011599
0.011599
0.011599
0.011599
0.011599
0.011599
0.011599
0.011599
0.011599
0.011599
0.011599
0.011599
0.011599
0.011599
0.011599
0.011599
0.011599
0.011599
0.011599
0.011599
0.011599
0.011599
0.000000
0.000000
0.000000
0.000000
0.000000
0.000000
0.000000
0.000000
0.000000
0.000000
0.000000
0.000000
0.000000
0.000000
0.000000
0.000000
0.000000
0.000000
0.000000
0.000000
0.000000
0.000000
0.000000
0.000000
0.000000
0.000000
0.000000
0.000000
0.000000
0.000000
0.000000
0.000000
0.000000
0.000000
0.000000
0.000000
0.000000
0.000000
0.000000
0.000000
0.000000
0.000000
0.000000
0.000000
0.000000
0.000000
0.000000
0.000000
0.000000
0.000000
0.000000
0.000000
0.000000
0.000000
0.000000
0.000000
0.000000
0.000000
0.000000
0.000000
0.000000
0.000000
0.000000
0.000000
0.000000
0.000000
0.000000
0.000000
0.000000
0.000000
0.000000
0.000000
0.000000
0.000000
0.000000
0.000000
0.000000
0.000000
0.000000
0.000000
0.000000
0.000000
0.000000
0.000000
0.000000
0.000000
0.000000
0.000000
0.000000
0.000000
0.000000
0.000000
0.000000
0.000000
0.000000
0.000000
0.000000
0.000000
0.000000
0.000000
0.000000
0.000000
0.000000
0.000000
0.000000
0.000000
0.000000
0.000000
0.000000
0.000000
0.000000
0.000000
0.000000
0.000000
0.000000
0.000000
0.000000
0.000000
0.000000
0.000000
0.000000
0.000000
0.000000
0.000000
0.000000
0.000000
0.000000
0.000000
0.000000
0.000000
-0.066003
-0.066003
-0.066003
-0.066003
-0.066003
-0.066003
-0.066003
-0.066003
-0.066003
-0.066003
-0.066003
-0.066003
-0.066003
-0.066003
-0.066003
-0.066003
-0.066003
-0.066003
-0.066003
-0.066003
-0.066003
-0.066003
-0.066003
-0.066003
-0.066003
-0.066003
-0.066003
-0.066003
-0.066003
-0.066003
-0.066003
-0.066003
-0.066003
-0.066003
-0.066003
-0.066003
-0.066003
-0.066003
-0.066003
-0.066003
-0.066003
-0.066003
-0.066003
-0.066003
-0.066003
-0.066003
-0.066003
-0.066003
-0.066003
-0.066003
-0.066003
-0.066003
-0.066003
-0.066003
-0.066003
-0.066003
-0.066003
-0.066003
-0.066003
-0.066003
-0.066003
-0.066003
-0.066003
-0.066003
-0.066003
-0.066003
-0.066003
-0.066003
-0.066003
-0.066003
-0.066003
-0.066003
-0.066003
-0.066003
-0.066003
-0.066003
-0.066003
-0.066003
-0.066003
-0.066003
-0.066003
-0.066003
-0.066003
-0.066003
-0.066003
-0.066003
-0.066003
-0.066003
-0.066003
-0.066003
-0.066003
-0.066003
-0.066003
-0.066003
-0.066003
-0.066003
-0.066003
-0.066003
-0.066003
-0.066003
-0.066003
-0.066003
-0.066003
-0.066003
-0.066003
-0.066003
-0.066003
-0.066003
-0.066003
-0.066003
-0.066003
-0.066003
-0.066003
-0.066003
-0.066003
-0.066003
-0.066003
-0.066003
-0.066003
-0.066003
-0.066003
-0.066003
-0.066003
-0.066003
-0.066003
-0.066003
-0.066003
-0.066003
0.000000
-0.066003
-0.066003
-0.066003
-0.066003
-0.066003
-0.066003
-0.066003
-0.066003
-0.066003
-0.066003
-0.066003
-0.066003
-0.066003
-0.066003
-0.066003
-0.066003
-0.066003
-0.066003
-0.066003
-0.066003
-0.066003
-0.066003
-0.066003
-0.066003
-0.066003
-0.066003
-0.066003
-0.066003
-0.066003
-0.066003
-0.066003
-0.066003
-0.066003
-0.066003
-0.066003
-0.066003
-0.066003
-0.066003
-0.066003
-0.066003
-0.066003
-0.066003
-0.066003
-0.066003
-0.066003
-0.066003
-0.066003
-0.066003
-0.066003
-0.066003
-0.066003
-0.066003
-0.066003
-0.066003
-0.066003
-0.066003
-0.066003
-0.066003
-0.066003
-0.066003
-0.066003
-0.066003
-0.066003
-0.066003
-0.066003
-0.066003
-0.066003
-0.066003
-0.066003
-0.066003
-0.066003
-0.066003
-0.066003
-0.066003
-0.066003
-0.066003
-0.066003
-0.066003
-0.066003
-0.066003
-0.066003
-0.066003
-0.066003
-0.066003
-0.066003
-0.066003
-0.066003
-0.066003
-0.066003
-0.066003
-0.066003
-0.066003
-0.066003
-0.066003
-0.066003
-0.066003
-0.066003
-0.066003
-0.066003
-0.066003
-0.066003
-0.066003
-0.066003
-0.066003
-0.066003
-0.066003
-0.066003
-0.066003
-0.066003
-0.066003
-0.066003
-0.066003
-0.066003
-0.066003
-0.066003
-0.066003
-0.066003
-0.066003
-0.066003
-0.066003
-0.066003
-0.066003
-0.066003
-0.066003
-0.066003
-0.066003
-0.066003
-0.066003
0.000000
0.022993
0.022993
0.022993
0.022993
0.022993
0.022993
0.022993
0.022993
0.022993
0.022993
0.022993
0.022993
0.022993
0.022993
0.022993
0.022993
0.022993
0.022993
0.022993
0.022993
0.022993
0.022993
0.022993
0.022993
0.022993
0.022993
0.022993
0.022993
0.022993
0.022993
0.022993
0.022993
0.022993
0.022993
0.022993
0.022993
0.022993
0.022993
0.022993
0.022993
0.022993
0.022993
0.022993
0.022993
0.022993
0.022993
0.022993
0.022993
0.022993
0.022993
0.022993
0.022993
0.022993
0.022993
0.022993
0.022993
0.022993
0.022993
0.022993
0.022993
0.022993
0.022993
0.022993
0.022993
0.022993
0.022993
0.022993
0.022993
0.022993
0.022993
0.022993
0.022993
0.022993
0.022993
0.022993
0.022993
0.022993
0.022993
0.022993
0.022993
0.022993
0.022993
0.022993
0.022993
0.022993
0.022993
0.022993
0.022993
0.022993
0.022993
0.022993
0.022993
0.022993
0.022993
0.022993
0.022993
0.022993
0.022993
0.022993
0.022993
0.022993
0.022993
0.022993
0.022993
0.022993
0.022993
0.022993
0.022993
0.022993
0.022993
0.022993
0.022993
0.022993
0.022993
0.022993
0.022993
0.022993
0.022993
0.022993
0.022993
0.022993
0.022993
0.022993
0.022993
0.022993
0.022993
0.022993
0.022993
0.000000
0.000000
0.000000
0.000000
0.000000
0.000000
0.000000
0.000000
0.000000
0.000000
0.000000
0.000000
0.000000
0.000000
0.000000
0.000000
0.000000
0.000000
0.000000
0.000000
0.000000
0.000000
0.000000
0.000000
0.000000
0.000000
0.000000
0.000000
0.000000
0.000000
0.000000
0.000000
0.000000
0.000000
0.000000
0.000000
0.000000
0.000000
0.000000
0.000000
0.000000
0.000000
0.000000
0.000000
0.000000
0.000000
0.000000
0.000000
0.000000
0.000000
0.000000
0.000000
0.000000
0.000000
0.000000
0.000000
0.000000
0.000000
0.000000
0.000000
0.000000
0.000000
0.000000
0.000000
0.000000
0.000000
0.000000
0.000000
0.000000
0.000000
0.000000
0.000000
0.000000
0.000000
0.000000
0.000000
0.000000
0.000000
0.000000
0.000000
0.000000
0.000000
0.000000
0.000000
0.000000
0.000000
0.000000
0.000000
0.000000
0.000000
0.000000
0.000000
0.000000
0.000000
0.000000
0.000000
0.000000
0.000000
0.000000
0.000000
0.000000
0.000000
0.000000
0.000000
0.000000
0.000000
0.000000
0.000000
0.000000
0.000000
0.000000
0.000000
0.000000
0.000000
0.000000
0.000000
0.000000
0.000000
0.000000
0.000000
0.000000
0.000000
0.000000
0.000000
0.000000
0.000000
0.000000
0.000000
0.000000
0.000000
-0.031073
-0.031073
-0.031073
-0.031073
-0.031073
-0.031073
-0.031073
-0.031073
-0.031073
-0.031073
-0.031073
-0.031073
-0.031073
-0.031073
-0.031073
-0.031073
-0.031073
-0.031073
-0.031073
-0.031073
-0.031073
-0.031073
-0.031073
-0.031073
-0.031073
-0.031073
-0.031073
-0.031073
-0.031073
-0.031073
-0.031073
-0.031073
-0.031073
-0.031073
-0.031073
-0.031073
-0.031073
-0.031073
-0.031073
-0.031073
-0.031073
-0.031073
-0.031073
-0.031073
-0.031073
-0.031073
-0.031073
-0.031073
-0.031073
-0.031073
-0.031073
-0.031073
-0.031073
-0.031073
-0.031073
-0.031073
-0.031073
-0.031073
-0.031073
-0.031073
-0.031073
-0.031073
-0.031073
-0.031073
-0.031073
-0.031073
-0.031073
-0.031073
-0.031073
-0.031073
-0.031073
-0.031073
-0.031073
-0.031073
-0.031073
-0.031073
-0.031073
-0.031073
-0.031073
-0.031073
-0.031073
-0.031073
-0.031073
-0.031073
-0.031073
-0.031073
-0.031073
-0.031073
-0.031073
-0.031073
-0.031073
-0.031073
-0.031073
-0.031073
-0.031073
-0.031073
-0.031073
-0.031073
-0.031073
-0.031073
-0.031073
-0.031073
-0.031073
-0.031073
-0.031073
-0.031073
-0.031073
-0.031073
-0.031073
-0.031073
-0.031073
-0.031073
-0.031073
-0.031073
-0.031073
-0.031073
-0.031073
-0.031073
-0.031073
-0.031073
-0.031073
-0.031073
-0.031073
-0.031073
-0.031073
-0.031073
-0.031073
-0.031073
0.000000
0.000000
0.000000
0.000000
0.000000
0.000000
0.000000
0.000000
0.000000
0.000000
0.000000
0.000000
0.000000
0.000000
0.000000
0.000000
0.000000
0.000000
0.000000
0.000000
0.000000
0.000000
0.000000
0.000000
0.000000
0.000000
0.000000
0.000000
0.000000
0.000000
0.000000
0.000000
0.000000
0.000000
0.000000
0.000000
0.000000
0.000000
0.000000
0.000000
0.000000
0.000000
0.000000
0.000000
0.000000
0.000000
0.000000
0.000000
0.000000
0.000000
0.000000
0.000000
0.000000
0.000000
0.000000
0.000000
0.000000
0.000000
0.000000
0.000000
0.000000
0.000000
0.000000
0.000000
0.000000
0.000000
0.000000
0.000000
0.000000
0.000000
0.000000
0.000000
0.000000
0.000000
0.000000
0.000000
0.000000
0.000000
0.000000
0.000000
0.000000
0.000000
0.000000
0.000000
0.000000
0.000000
0.000000
0.000000
0.000000
0.000000
0.000000
0.000000
0.000000
0.000000
0.000000
0.000000
0.000000
0.000000
0.000000
0.000000
0.000000
0.000000
0.000000
0.000000
0.000000
0.000000
0.000000
0.000000
0.000000
0.000000
0.000000
0.000000
0.000000
0.000000
0.000000
0.000000
0.000000
0.000000
0.000000
0.000000
0.000000
0.000000
0.000000
0.000000
0.000000
0.000000
0.000000
0.000000
0.000000
0.000000
-0.003658
-0.003658
-0.003658
-0.003658
-0.003658
-0.003658
-0.003658
-0.003658
-0.003658
-0.003658
-0.003658
-0.003658
-0.003658
-0.003658
-0.003658
-0.003658
-0.003658
-0.003658
-0.003658
-0.003658
-0.003658
-0.003658
-0.003658
-0.003658
-0.003658
-0.003658
-0.003658
-0.003658
-0.003658
-0.003658
-0.003658
-0.003658
-0.003658
-0.003658
-0.003658
-0.003658
-0.003658
-0.003658
-0.003658
-0.003658
-0.003658
-0.003658
-0.003658
-0.003658
-0.003658
-0.003658
-0.003658
-0.003658
-0.003658
-0.003658
-0.003658
-0.003658
-0.003658
-0.003658
-0.003658
-0.003658
-0.003658
-0.003658
-0.003658
-0.003658
-0.003658
-0.003658
-0.003658
-0.003658
-0.003658
-0.003658
-0.003658
-0.003658
-0.003658
-0.003658
-0.003658
-0.003658
-0.003658
-0.003658
-0.003658
-0.003658
-0.003658
-0.003658
-0.003658
-0.003658
-0.003658
-0.003658
-0.003658
-0.003658
-0.003658
-0.003658
-0.003658
-0.003658
-0.003658
-0.003658
-0.003658
-0.003658
-0.003658
-0.003658
-0.003658
-0.003658
-0.003658
-0.003658
-0.003658
-0.003658
-0.003658
-0.003658
-0.003658
-0.003658
-0.003658
-0.003658
-0.003658
-0.003658
-0.003658
-0.003658
-0.003658
-0.003658
-0.003658
-0.003658
-0.003658
-0.003658
-0.003658
-0.003658
-0.003658
-0.003658
-0.003658
-0.003658
-0.003658
-0.003658
-0.003658
-0.003658
-0.003658
-0.003658
0.000000
0.000000
0.000000
0.000000
0.000000
0.000000
0.000000
0.000000
0.000000
0.000000
0.000000
0.000000
0.000000
0.000000
0.000000
0.000000
0.000000
0.000000
0.000000
0.000000
0.000000
0.000000
0.000000
0.000000
0.000000
0.000000
0.000000
0.000000
0.000000
0.000000
0.000000
0.000000
0.000000
0.000000
0.000000
0.000000
0.000000
0.000000
0.000000
0.000000
0.000000
0.000000
0.000000
0.000000
0.000000
0.000000
0.000000
0.000000
0.000000
0.000000
0.000000
0.000000
0.000000
0.000000
0.000000
0.000000
0.000000
0.000000
0.000000
0.000000
0.000000
0.000000
0.000000
0.000000
0.000000
0.000000
0.000000
0.000000
0.000000
0.000000
0.000000
0.000000
0.000000
0.000000
0.000000
0.000000
0.000000
0.000000
0.000000
0.000000
0.000000
0.000000
0.000000
0.000000
0.000000
0.000000
0.000000
0.000000
0.000000
0.000000
0.000000
0.000000
0.000000
0.000000
0.000000
0.000000
0.000000
0.000000
0.000000
0.000000
0.000000
0.000000
0.000000
0.000000
0.000000
0.000000
0.000000
0.000000
0.000000
0.000000
0.000000
0.000000
0.000000
0.000000
0.000000
0.000000
0.000000
0.000000
0.000000
0.000000
0.000000
0.000000
0.000000
0.000000
0.000000
0.000000
0.000000
0.000000
0.000000
0.000000
-0.017165
-0.017165
-0.017165
-0.017165
-0.017165
-0.017165
-0.017165
-0.017165
-0.017165
-0.017165
-0.017165
-0.017165
-0.017165
-0.017165
-0.017165
-0.017165
-0.017165
-0.017165
-0.017165
-0.017165
-0.017165
-0.017165
-0.017165
-0.017165
-0.017165
-0.017165
-0.017165
-0.017165
-0.017165
-0.017165
-0.017165
-0.017165
-0.017165
-0.017165
-0.017165
-0.017165
-0.017165
-0.017165
-0.017165
-0.017165
-0.017165
-0.017165
-0.017165
-0.017165
-0.017165
-0.017165
-0.017165
-0.017165
-0.017165
-0.017165
-0.017165
-0.017165
-0.017165
-0.017165
-0.017165
-0.017165
-0.017165
-0.017165
-0.017165
-0.017165
-0.017165
-0.017165
-0.017165
-0.017165
-0.017165
-0.017165
-0.017165
-0.017165
-0.017165
-0.017165
-0.017165
-0.017165
-0.017165
-0.017165
-0.017165
-0.017165
-0.017165
-0.017165
-0.017165
-0.017165
-0.017165
-0.017165
-0.017165
-0.017165
-0.017165
-0.017165
-0.017165
-0.017165
-0.017165
-0.017165
-0.017165
-0.017165
-0.017165
-0.017165
-0.017165
-0.017165
-0.017165
-0.017165
-0.017165
-0.017165
-0.017165
-0.017165
-0.017165
-0.017165
-0.017165
-0.017165
-0.017165
-0.017165
-0.017165
-0.017165
-0.017165
-0.017165
-0.017165
-0.017165
-0.017165
-0.017165
-0.017165
-0.017165
-0.017165
-0.017165
-0.017165
-0.017165
-0.017165
-0.017165
-0.017165
-0.017165
-0.017165
-0.017165
0.000000
0.000000
0.000000
0.000000
0.000000
0.000000
0.000000
0.000000
0.000000
0.000000
0.000000
0.000000
0.000000
0.000000
0.000000
0.000000
0.000000
0.000000
0.000000
0.000000
0.000000
0.000000
0.000000
0.000000
0.000000
0.000000
0.000000
0.000000
0.000000
0.000000
0.000000
0.000000
0.000000
0.000000
0.000000
0.000000
0.000000
0.000000
0.000000
0.000000
0.000000
0.000000
0.000000
0.000000
0.000000
0.000000
0.000000
0.000000
0.000000
0.000000
0.000000
0.000000
0.000000
0.000000
0.000000
0.000000
0.000000
0.000000
0.000000
0.000000
0.000000
0.000000
0.000000
0.000000
0.000000
0.000000
0.000000
0.000000
0.000000
0.000000
0.000000
0.000000
0.000000
0.000000
0.000000
0.000000
0.000000
0.000000
0.000000
0.000000
0.000000
0.000000
0.000000
0.000000
0.000000
0.000000
0.000000
0.000000
0.000000
0.000000
0.000000
0.000000
0.000000
0.000000
0.000000
0.000000
0.000000
0.000000
0.000000
0.000000
0.000000
0.000000
0.000000
0.000000
0.000000
0.000000
0.000000
0.000000
0.000000
0.000000
0.000000
0.000000
0.000000
0.000000
0.000000
0.000000
0.000000
0.000000
0.000000
0.000000
0.000000
0.000000
0.000000
0.000000
0.000000
0.000000
0.000000
0.000000
0.000000
0.000000
-0.012929
-0.012929
-0.012929
-0.012929
-0.012929
-0.012929
-0.012929
-0.012929
-0.012929
-0.012929
-0.012929
-0.012929
-0.012929
-0.012929
-0.012929
-0.012929
-0.012929
-0.012929
-0.012929
-0.012929
-0.012929
-0.012929
-0.012929
-0.012929
-0.012929
-0.012929
-0.012929
-0.012929
-0.012929
-0.012929
-0.012929
-0.012929
-0.012929
-0.012929
-0.012929
-0.012929
-0.012929
-0.012929
-0.012929
-0.012929
-0.012929
-0.012929
-0.012929
-0.012929
-0.012929
-0.012929
-0.012929
-0.012929
-0.012929
-0.012929
-0.012929
-0.012929
-0.012929
-0.012929
-0.012929
-0.012929
-0.012929
-0.012929
-0.012929
-0.012929
-0.012929
-0.012929
-0.012929
-0.012929
-0.012929
-0.012929
-0.012929
-0.012929
-0.012929
-0.012929
-0.012929
-0.012929
-0.012929
-0.012929
-0.012929
-0.012929
-0.012929
-0.012929
-0.012929
-0.012929
-0.012929
-0.012929
-0.012929
-0.012929
-0.012929
-0.012929
-0.012929
-0.012929
-0.012929
-0.012929
-0.012929
-0.012929
-0.012929
-0.012929
-0.012929
-0.012929
-0.012929
-0.012929
-0.012929
-0.012929
-0.012929
-0.012929
-0.012929
-0.012929
-0.012929
-0.012929
-0.012929
-0.012929
-0.012929
-0.012929
-0.012929
-0.012929
-0.012929
-0.012929
-0.012929
-0.012929
-0.012929
-0.012929
-0.012929
-0.012929
-0.012929
-0.012929
-0.012929
-0.012929
-0.012929
-0.012929
-0.012929
-0.012929
0.000000
-0.012929
-0.012929
-0.012929
-0.012929
-0.012929
-0.012929
-0.012929
-0.012929
-0.012929
-0.012929
-0.012929
-0.012929
-0.012929
-0.012929
-0.012929
-0.012929
-0.012929
-0.012929
-0.012929
-0.012929
-0.012929
-0.012929
-0.012929
-0.012929
-0.012929
-0.012929
-0.012929
-0.012929
-0.012929
-0.012929
-0.012929
-0.012929
-0.012929
-0.012929
-0.012929
-0.012929
-0.012929
-0.012929
-0.012929
-0.012929
-0.012929
-0.012929
-0.012929
-0.012929
-0.012929
-0.012929
-0.012929
-0.012929
-0.012929
-0.012929
-0.012929
-0.012929
-0.012929
-0.012929
-0.012929
-0.012929
-0.012929
-0.012929
-0.012929
-0.012929
-0.012929
-0.012929
-0.012929
-0.012929
-0.012929
-0.012929
-0.012929
-0.012929
-0.012929
-0.012929
-0.012929
-0.012929
-0.012929
-0.012929
-0.012929
-0.012929
-0.012929
-0.012929
-0.012929
-0.012929
-0.012929
-0.012929
-0.012929
-0.012929
-0.012929
-0.012929
-0.012929
-0.012929
-0.012929
-0.012929
-0.012929
-0.012929
-0.012929
-0.012929
-0.012929
-0.012929
-0.012929
-0.012929
-0.012929
-0.012929
-0.012929
-0.012929
-0.012929
-0.012929
-0.012929
-0.012929
-0.012929
-0.012929
-0.012929
-0.012929
-0.012929
-0.012929
-0.012929
-0.012929
-0.012929
-0.012929
-0.012929
-0.012929
-0.012929
-0.012929
-0.012929
-0.012929
-0.012929
-0.012929
-0.012929
-0.012929
-0.012929
-0.012929
0.000000
0.000000
0.000000
0.000000
0.000000
0.000000
0.000000
0.000000
0.000000
0.000000
0.000000
0.000000
0.000000
0.000000
0.000000
0.000000
0.000000
0.000000
0.000000
0.000000
0.000000
0.000000
0.000000
0.000000
0.000000
0.000000
0.000000
0.000000
0.000000
0.000000
0.000000
0.000000
0.000000
0.000000
0.000000
0.000000
0.000000
0.000000
0.000000
0.000000
0.000000
0.000000
0.000000
0.000000
0.000000
0.000000
0.000000
0.000000
0.000000
0.000000
0.000000
0.000000
0.000000
0.000000
0.000000
0.000000
0.000000
0.000000
0.000000
0.000000
0.000000
0.000000
0.000000
0.000000
0.000000
0.000000
0.000000
0.000000
0.000000
0.000000
0.000000
0.000000
0.000000
0.000000
0.000000
0.000000
0.000000
0.000000
0.000000
0.000000
0.000000
0.000000
0.000000
0.000000
0.000000
0.000000
0.000000
0.000000
0.000000
0.000000
0.000000
0.000000
0.000000
0.000000
0.000000
0.000000
0.000000
0.000000
0.000000
0.000000
0.000000
0.000000
0.000000
0.000000
0.000000
0.000000
0.000000
0.000000
0.000000
0.000000
0.000000
0.000000
0.000000
0.000000
0.000000
0.000000
0.000000
0.000000
0.000000
0.000000
0.000000
0.000000
0.000000
0.000000
0.000000
0.000000
0.000000
0.000000
0.000000
0.000000
-0.035279
-0.035279
-0.035279
-0.035279
-0.035279
-0.035279
-0.035279
-0.035279
-0.035279
-0.035279
-0.035279
-0.035279
-0.035279
-0.035279
-0.035279
-0.035279
-0.035279
-0.035279
-0.035279
-0.035279
-0.035279
-0.035279
-0.035279
-0.035279
-0.035279
-0.035279
-0.035279
-0.035279
-0.035279
-0.035279
-0.035279
-0.035279
-0.035279
-0.035279
-0.035279
-0.035279
-0.035279
-0.035279
-0.035279
-0.035279
-0.035279
-0.035279
-0.035279
-0.035279
-0.035279
-0.035279
-0.035279
-0.035279
-0.035279
-0.035279
-0.035279
-0.035279
-0.035279
-0.035279
-0.035279
-0.035279
-0.035279
-0.035279
-0.035279
-0.035279
-0.035279
-0.035279
-0.035279
-0.035279
-0.035279
-0.035279
-0.035279
-0.035279
-0.035279
-0.035279
-0.035279
-0.035279
-0.035279
-0.035279
-0.035279
-0.035279
-0.035279
-0.035279
-0.035279
-0.035279
-0.035279
-0.035279
-0.035279
-0.035279
-0.035279
-0.035279
-0.035279
-0.035279
-0.035279
-0.035279
-0.035279
-0.035279
-0.035279
-0.035279
-0.035279
-0.035279
-0.035279
-0.035279
-0.035279
-0.035279
-0.035279
-0.035279
-0.035279
-0.035279
-0.035279
-0.035279
-0.035279
-0.035279
-0.035279
-0.035279
-0.035279
-0.035279
-0.035279
-0.035279
-0.035279
-0.035279
-0.035279
-0.035279
-0.035279
-0.035279
-0.035279
-0.035279
-0.035279
-0.035279
-0.035279
-0.035279
-0.035279
-0.035279
0.000000
-0.048786
-0.048786
-0.048786
-0.048786
-0.048786
-0.048786
-0.048786
-0.048786
-0.048786
-0.048786
-0.048786
-0.048786
-0.048786
-0.048786
-0.048786
-0.048786
-0.048786
-0.048786
-0.048786
-0.048786
-0.048786
-0.048786
-0.048786
-0.048786
-0.048786
-0.048786
-0.048786
-0.048786
-0.048786
-0.048786
-0.048786
-0.048786
-0.048786
-0.048786
-0.048786
-0.048786
-0.048786
-0.048786
-0.048786
-0.048786
-0.048786
-0.048786
-0.048786
-0.048786
-0.048786
-0.048786
-0.048786
-0.048786
-0.048786
-0.048786
-0.048786
-0.048786
-0.048786
-0.048786
-0.048786
-0.048786
-0.048786
-0.048786
-0.048786
-0.048786
-0.048786
-0.048786
-0.048786
-0.048786
-0.048786
-0.048786
-0.048786
-0.048786
-0.048786
-0.048786
-0.048786
-0.048786
-0.048786
-0.048786
-0.048786
-0.048786
-0.048786
-0.048786
-0.048786
-0.048786
-0.048786
-0.048786
-0.048786
-0.048786
-0.048786
-0.048786
-0.048786
-0.048786
-0.048786
-0.048786
-0.048786
-0.048786
-0.048786
-0.048786
-0.048786
-0.048786
-0.048786
-0.048786
-0.048786
-0.048786
-0.048786
-0.048786
-0.048786
-0.048786
-0.048786
-0.048786
-0.048786
-0.048786
-0.048786
-0.048786
-0.048786
-0.048786
-0.048786
-0.048786
-0.048786
-0.048786
-0.048786
-0.048786
-0.048786
-0.048786
-0.048786
-0.048786
-0.048786
-0.048786
-0.048786
-0.048786
-0.048786
-0.048786
0.000000
-0.018738
-0.018738
-0.018738
-0.018738
-0.018738
-0.018738
-0.018738
-0.018738
-0.018738
-0.018738
-0.018738
-0.018738
-0.018738
-0.018738
-0.018738
-0.018738
-0.018738
-0.018738
-0.018738
-0.018738
-0.018738
-0.018738
-0.018738
-0.018738
-0.018738
-0.018738
-0.018738
-0.018738
-0.018738
-0.018738
-0.018738
-0.018738
-0.018738
-0.018738
-0.018738
-0.018738
-0.018738
-0.018738
-0.018738
-0.018738
-0.018738
-0.018738
-0.018738
-0.018738
-0.018738
-0.018738
-0.018738
-0.018738
-0.018738
-0.018738
-0.018738
-0.018738
-0.018738
-0.018738
-0.018738
-0.018738
-0.018738
-0.018738
-0.018738
-0.018738
-0.018738
-0.018738
-0.018738
-0.018738
-0.018738
-0.018738
-0.018738
-0.018738
-0.018738
-0.018738
-0.018738
-0.018738
-0.018738
-0.018738
-0.018738
-0.018738
-0.018738
-0.018738
-0.018738
-0.018738
-0.018738
-0.018738
-0.018738
-0.018738
-0.018738
-0.018738
-0.018738
-0.018738
-0.018738
-0.018738
-0.018738
-0.018738
-0.018738
-0.018738
-0.018738
-0.018738
-0.018738
-0.018738
-0.018738
-0.018738
-0.018738
-0.018738
-0.018738
-0.018738
-0.018738
-0.018738
-0.018738
-0.018738
-0.018738
-0.018738
-0.018738
-0.018738
-0.018738
-0.018738
-0.018738
-0.018738
-0.018738
-0.018738
-0.018738
-0.018738
-0.018738
-0.018738
-0.018738
-0.018738
-0.018738
-0.018738
-0.018738
-0.018738
0.000000
-0.060379
-0.060379
-0.060379
-0.060379
-0.060379
-0.060379
-0.060379
-0.060379
-0.060379
-0.060379
-0.060379
-0.060379
-0.060379
-0.060379
-0.060379
-0.060379
-0.060379
-0.060379
-0.060379
-0.060379
-0.060379
-0.060379
-0.060379
-0.060379
-0.060379
-0.060379
-0.060379
-0.060379
-0.060379
-0.060379
-0.060379
-0.060379
-0.060379
-0.060379
-0.060379
-0.060379
-0.060379
-0.060379
-0.060379
-0.060379
-0.060379
-0.060379
-0.060379
-0.060379
-0.060379
-0.060379
-0.060379
-0.060379
-0.060379
-0.060379
-0.060379
-0.060379
-0.060379
-0.060379
-0.060379
-0.060379
-0.060379
-0.060379
-0.060379
-0.060379
-0.060379
-0.060379
-0.060379
-0.060379
-0.060379
-0.060379
-0.060379
-0.060379
-0.060379
-0.060379
-0.060379
-0.060379
-0.060379
-0.060379
-0.060379
-0.060379
-0.060379
-0.060379
-0.060379
-0.060379
-0.060379
-0.060379
-0.060379
-0.060379
-0.060379
-0.060379
-0.060379
-0.060379
-0.060379
-0.060379
-0.060379
-0.060379
-0.060379
-0.060379
-0.060379
-0.060379
-0.060379
-0.060379
-0.060379
-0.060379
-0.060379
-0.060379
-0.060379
-0.060379
-0.060379
-0.060379
-0.060379
-0.060379
-0.060379
-0.060379
-0.060379
-0.060379
-0.060379
-0.060379
-0.060379
-0.060379
-0.060379
-0.060379
-0.060379
-0.060379
-0.060379
-0.060379
-0.060379
-0.060379
-0.060379
-0.060379
-0.060379
-0.060379
0.000000
-0.048593
-0.048593
-0.048593
-0.048593
-0.048593
-0.048593
-0.048593
-0.048593
-0.048593
-0.048593
-0.048593
-0.048593
-0.048593
-0.048593
-0.048593
-0.048593
-0.048593
-0.048593
-0.048593
-0.048593
-0.048593
-0.048593
-0.048593
-0.048593
-0.048593
-0.048593
-0.048593
-0.048593
-0.048593
-0.048593
-0.048593
-0.048593
-0.048593
-0.048593
-0.048593
-0.048593
-0.048593
-0.048593
-0.048593
-0.048593
-0.048593
-0.048593
-0.048593
-0.048593
-0.048593
-0.048593
-0.048593
-0.048593
-0.048593
-0.048593
-0.048593
-0.048593
-0.048593
-0.048593
-0.048593
-0.048593
-0.048593
-0.048593
-0.048593
-0.048593
-0.048593
-0.048593
-0.048593
-0.048593
-0.048593
-0.048593
-0.048593
-0.048593
-0.048593
-0.048593
-0.048593
-0.048593
-0.048593
-0.048593
-0.048593
-0.048593
-0.048593
-0.048593
-0.048593
-0.048593
-0.048593
-0.048593
-0.048593
-0.048593
-0.048593
-0.048593
-0.048593
-0.048593
-0.048593
-0.048593
-0.048593
-0.048593
-0.048593
-0.048593
-0.048593
-0.048593
-0.048593
-0.048593
-0.048593
-0.048593
-0.048593
-0.048593
-0.048593
-0.048593
-0.048593
-0.048593
-0.048593
-0.048593
-0.048593
-0.048593
-0.048593
-0.048593
-0.048593
-0.048593
-0.048593
-0.048593
-0.048593
-0.048593
-0.048593
-0.048593
-0.048593
-0.048593
-0.048593
-0.048593
-0.048593
-0.048593
-0.048593
-0.048593
0.000000
-0.048864
-0.048864
-0.048864
-0.048864
-0.048864
-0.048864
-0.048864
-0.048864
-0.048864
-0.048864
-0.048864
-0.048864
-0.048864
-0.048864
-0.048864
-0.048864
-0.048864
-0.048864
-0.048864
-0.048864
-0.048864
-0.048864
-0.048864
-0.048864
-0.048864
-0.048864
-0.048864
-0.048864
-0.048864
-0.048864
-0.048864
-0.048864
-0.048864
-0.048864
-0.048864
-0.048864
-0.048864
-0.048864
-0.048864
-0.048864
-0.048864
-0.048864
-0.048864
-0.048864
-0.048864
-0.048864
-0.048864
-0.048864
-0.048864
-0.048864
-0.048864
-0.048864
-0.048864
-0.048864
-0.048864
-0.048864
-0.048864
-0.048864
-0.048864
-0.048864
-0.048864
-0.048864
-0.048864
-0.048864
-0.048864
-0.048864
-0.048864
-0.048864
-0.048864
-0.048864
-0.048864
-0.048864
-0.048864
-0.048864
-0.048864
-0.048864
-0.048864
-0.048864
-0.048864
-0.048864
-0.048864
-0.048864
-0.048864
-0.048864
-0.048864
-0.048864
-0.048864
-0.048864
-0.048864
-0.048864
-0.048864
-0.048864
-0.048864
-0.048864
-0.048864
-0.048864
-0.048864
-0.048864
-0.048864
-0.048864
-0.048864
-0.048864
-0.048864
-0.048864
-0.048864
-0.048864
-0.048864
-0.048864
-0.048864
-0.048864
-0.048864
-0.048864
-0.048864
-0.048864
-0.048864
-0.048864
-0.048864
-0.048864
-0.048864
-0.048864
-0.048864
-0.048864
-0.048864
-0.048864
-0.048864
-0.048864
-0.048864
-0.048864
0.000000
-0.039570
-0.039570
-0.039570
-0.039570
-0.039570
-0.039570
-0.039570
-0.039570
-0.039570
-0.039570
-0.039570
-0.039570
-0.039570
-0.039570
-0.039570
-0.039570
-0.039570
-0.039570
-0.039570
-0.039570
-0.039570
-0.039570
-0.039570
-0.039570
-0.039570
-0.039570
-0.039570
-0.039570
-0.039570
-0.039570
-0.039570
-0.039570
-0.039570
-0.039570
-0.039570
-0.039570
-0.039570
-0.039570
-0.039570
-0.039570
-0.039570
-0.039570
-0.039570
-0.039570
-0.039570
-0.039570
-0.039570
-0.039570
-0.039570
-0.039570
-0.039570
-0.039570
-0.039570
-0.039570
-0.039570
-0.039570
-0.039570
-0.039570
-0.039570
-0.039570
-0.039570
-0.039570
-0.039570
-0.039570
-0.039570
-0.039570
-0.039570
-0.039570
-0.039570
-0.039570
-0.039570
-0.039570
-0.039570
-0.039570
-0.039570
-0.039570
-0.039570
-0.039570
-0.039570
-0.039570
-0.039570
-0.039570
-0.039570
-0.039570
-0.039570
-0.039570
-0.039570
-0.039570
-0.039570
-0.039570
-0.039570
-0.039570
-0.039570
-0.039570
-0.039570
-0.039570
-0.039570
-0.039570
-0.039570
-0.039570
-0.039570
-0.039570
-0.039570
-0.039570
-0.039570
-0.039570
-0.039570
-0.039570
-0.039570
-0.039570
-0.039570
-0.039570
-0.039570
-0.039570
-0.039570
-0.039570
-0.039570
-0.039570
-0.039570
-0.039570
-0.039570
-0.039570
-0.039570
-0.039570
-0.039570
-0.039570
-0.039570
-0.039570
0.000000
-0.064062
-0.064062
-0.064062
-0.064062
-0.064062
-0.064062
-0.064062
-0.064062
-0.064062
-0.064062
-0.064062
-0.064062
-0.064062
-0.064062
-0.064062
-0.064062
-0.064062
-0.064062
-0.064062
-0.064062
-0.064062
-0.064062
-0.064062
-0.064062
-0.064062
-0.064062
-0.064062
-0.064062
-0.064062
-0.064062
-0.064062
-0.064062
-0.064062
-0.064062
-0.064062
-0.064062
-0.064062
-0.064062
-0.064062
-0.064062
-0.064062
-0.064062
-0.064062
-0.064062
-0.064062
-0.064062
-0.064062
-0.064062
-0.064062
-0.064062
-0.064062
-0.064062
-0.064062
-0.064062
-0.064062
-0.064062
-0.064062
-0.064062
-0.064062
-0.064062
-0.064062
-0.064062
-0.064062
-0.064062
-0.064062
-0.064062
-0.064062
-0.064062
-0.064062
-0.064062
-0.064062
-0.064062
-0.064062
-0.064062
-0.064062
-0.064062
-0.064062
-0.064062
-0.064062
-0.064062
-0.064062
-0.064062
-0.064062
-0.064062
-0.064062
-0.064062
-0.064062
-0.064062
-0.064062
-0.064062
-0.064062
-0.064062
-0.064062
-0.064062
-0.064062
-0.064062
-0.064062
-0.064062
-0.064062
-0.064062
-0.064062
-0.064062
-0.064062
-0.064062
-0.064062
-0.064062
-0.064062
-0.064062
-0.064062
-0.064062
-0.064062
-0.064062
-0.064062
-0.064062
-0.064062
-0.064062
-0.064062
-0.064062
-0.064062
-0.064062
-0.064062
-0.064062
-0.064062
-0.064062
-0.064062
-0.064062
-0.064062
-0.064062
0.000000
-0.051293
-0.051293
-0.051293
-0.051293
-0.051293
-0.051293
-0.051293
-0.051293
-0.051293
-0.051293
-0.051293
-0.051293
-0.051293
-0.051293
-0.051293
-0.051293
-0.051293
-0.051293
-0.051293
-0.051293
-0.051293
-0.051293
-0.051293
-0.051293
-0.051293
-0.051293
-0.051293
-0.051293
-0.051293
-0.051293
-0.051293
-0.051293
-0.051293
-0.051293
-0.051293
-0.051293
-0.051293
-0.051293
-0.051293
-0.051293
-0.051293
-0.051293
-0.051293
-0.051293
-0.051293
-0.051293
-0.051293
-0.051293
-0.051293
-0.051293
-0.051293
-0.051293
-0.051293
-0.051293
-0.051293
-0.051293
-0.051293
-0.051293
-0.051293
-0.051293
-0.051293
-0.051293
-0.051293
-0.051293
-0.051293
-0.051293
-0.051293
-0.051293
-0.051293
-0.051293
-0.051293
-0.051293
-0.051293
-0.051293
-0.051293
-0.051293
-0.051293
-0.051293
-0.051293
-0.051293
-0.051293
-0.051293
-0.051293
-0.051293
-0.051293
-0.051293
-0.051293
-0.051293
-0.051293
-0.051293
-0.051293
-0.051293
-0.051293
-0.051293
-0.051293
-0.051293
-0.051293
-0.051293
-0.051293
-0.051293
-0.051293
-0.051293
-0.051293
-0.051293
-0.051293
-0.051293
-0.051293
-0.051293
-0.051293
-0.051293
-0.051293
-0.051293
-0.051293
-0.051293
-0.051293
-0.051293
-0.051293
-0.051293
-0.051293
-0.051293
-0.051293
-0.051293
-0.051293
-0.051293
-0.051293
-0.051293
-0.051293
-0.051293
0.000000
-0.084041
-0.084041
-0.084041
-0.084041
-0.084041
-0.084041
-0.084041
-0.084041
-0.084041
-0.084041
-0.084041
-0.084041
-0.084041
-0.084041
-0.084041
-0.084041
-0.084041
-0.084041
-0.084041
-0.084041
-0.084041
-0.084041
-0.084041
-0.084041
-0.084041
-0.084041
-0.084041
-0.084041
-0.084041
-0.084041
-0.084041
-0.084041
-0.084041
-0.084041
-0.084041
-0.084041
-0.084041
-0.084041
-0.084041
-0.084041
-0.084041
-0.084041
-0.084041
-0.084041
-0.084041
-0.084041
-0.084041
-0.084041
-0.084041
-0.084041
-0.084041
-0.084041
-0.084041
-0.084041
-0.084041
-0.084041
-0.084041
-0.084041
-0.084041
-0.084041
-0.084041
-0.084041
-0.084041
-0.084041
-0.084041
-0.084041
-0.084041
-0.084041
-0.084041
-0.084041
-0.084041
-0.084041
-0.084041
-0.084041
-0.084041
-0.084041
-0.084041
-0.084041
-0.084041
-0.084041
-0.084041
-0.084041
-0.084041
-0.084041
-0.084041
-0.084041
-0.084041
-0.084041
-0.084041
-0.084041
-0.084041
-0.084041
-0.084041
-0.084041
-0.084041
-0.084041
-0.084041
-0.084041
-0.084041
-0.084041
-0.084041
-0.084041
-0.084041
-0.084041
-0.084041
-0.084041
-0.084041
-0.084041
-0.084041
-0.084041
-0.084041
-0.084041
-0.084041
-0.084041
-0.084041
-0.084041
-0.084041
-0.084041
-0.084041
-0.084041
-0.084041
-0.084041
-0.084041
-0.084041
-0.084041
-0.084041
-0.084041
-0.084041
0.000000
-0.055953
-0.055953
-0.055953
-0.055953
-0.055953
-0.055953
-0.055953
-0.055953
-0.055953
-0.055953
-0.055953
-0.055953
-0.055953
-0.055953
-0.055953
-0.055953
-0.055953
-0.055953
-0.055953
-0.055953
-0.055953
-0.055953
-0.055953
-0.055953
-0.055953
-0.055953
-0.055953
-0.055953
-0.055953
-0.055953
-0.055953
-0.055953
-0.055953
-0.055953
-0.055953
-0.055953
-0.055953
-0.055953
-0.055953
-0.055953
-0.055953
-0.055953
-0.055953
-0.055953
-0.055953
-0.055953
-0.055953
-0.055953
-0.055953
-0.055953
-0.055953
-0.055953
-0.055953
-0.055953
-0.055953
-0.055953
-0.055953
-0.055953
-0.055953
-0.055953
-0.055953
-0.055953
-0.055953
-0.055953
-0.055953
-0.055953
-0.055953
-0.055953
-0.055953
-0.055953
-0.055953
-0.055953
-0.055953
-0.055953
-0.055953
-0.055953
-0.055953
-0.055953
-0.055953
-0.055953
-0.055953
-0.055953
-0.055953
-0.055953
-0.055953
-0.055953
-0.055953
-0.055953
-0.055953
-0.055953
-0.055953
-0.055953
-0.055953
-0.055953
-0.055953
-0.055953
-0.055953
-0.055953
-0.055953
-0.055953
-0.055953
-0.055953
-0.055953
-0.055953
-0.055953
-0.055953
-0.055953
-0.055953
-0.055953
-0.055953
-0.055953
-0.055953
-0.055953
-0.055953
-0.055953
-0.055953
-0.055953
-0.055953
-0.055953
-0.055953
-0.055953
-0.055953
-0.055953
-0.055953
-0.055953
-0.055953
-0.055953
-0.055953
0.000000
-0.012929
-0.012929
-0.012929
-0.012929
-0.012929
-0.012929
-0.012929
-0.012929
-0.012929
-0.012929
-0.012929
-0.012929
-0.012929
-0.012929
-0.012929
-0.012929
-0.012929
-0.012929
-0.012929
-0.012929
-0.012929
-0.012929
-0.012929
-0.012929
-0.012929
-0.012929
-0.012929
-0.012929
-0.012929
-0.012929
-0.012929
-0.012929
-0.012929
-0.012929
-0.012929
-0.012929
-0.012929
-0.012929
-0.012929
-0.012929
-0.012929
-0.012929
-0.012929
-0.012929
-0.012929
-0.012929
-0.012929
-0.012929
-0.012929
-0.012929
-0.012929
-0.012929
-0.012929
-0.012929
-0.012929
-0.012929
-0.012929
-0.012929
-0.012929
-0.012929
-0.012929
-0.012929
-0.012929
-0.012929
-0.012929
-0.012929
-0.012929
-0.012929
-0.012929
-0.012929
-0.012929
-0.012929
-0.012929
-0.012929
-0.012929
-0.012929
-0.012929
-0.012929
-0.012929
-0.012929
-0.012929
-0.012929
-0.012929
-0.012929
-0.012929
-0.012929
-0.012929
-0.012929
-0.012929
-0.012929
-0.012929
-0.012929
-0.012929
-0.012929
-0.012929
-0.012929
-0.012929
-0.012929
-0.012929
-0.012929
-0.012929
-0.012929
-0.012929
-0.012929
-0.012929
-0.012929
-0.012929
-0.012929
-0.012929
-0.012929
-0.012929
-0.012929
-0.012929
-0.012929
-0.012929
-0.012929
-0.012929
-0.012929
-0.012929
-0.012929
-0.012929
-0.012929
-0.012929
-0.012929
-0.012929
-0.012929
-0.012929
-0.012929
0.000000
-0.065376
-0.065376
-0.065376
-0.065376
-0.065376
-0.065376
-0.065376
-0.065376
-0.065376
-0.065376
-0.065376
-0.065376
-0.065376
-0.065376
-0.065376
-0.065376
-0.065376
-0.065376
-0.065376
-0.065376
-0.065376
-0.065376
-0.065376
-0.065376
-0.065376
-0.065376
-0.065376
-0.065376
-0.065376
-0.065376
-0.065376
-0.065376
-0.065376
-0.065376
-0.065376
-0.065376
-0.065376
-0.065376
-0.065376
-0.065376
-0.065376
-0.065376
-0.065376
-0.065376
-0.065376
-0.065376
-0.065376
-0.065376
-0.065376
-0.065376
-0.065376
-0.065376
-0.065376
-0.065376
-0.065376
-0.065376
-0.065376
-0.065376
-0.065376
-0.065376
-0.065376
-0.065376
-0.065376
-0.065376
-0.065376
-0.065376
-0.065376
-0.065376
-0.065376
-0.065376
-0.065376
-0.065376
-0.065376
-0.065376
-0.065376
-0.065376
-0.065376
-0.065376
-0.065376
-0.065376
-0.065376
-0.065376
-0.065376
-0.065376
-0.065376
-0.065376
-0.065376
-0.065376
-0.065376
-0.065376
-0.065376
-0.065376
-0.065376
-0.065376
-0.065376
-0.065376
-0.065376
-0.065376
-0.065376
-0.065376
-0.065376
-0.065376
-0.065376
-0.065376
-0.065376
-0.065376
-0.065376
-0.065376
-0.065376
-0.065376
-0.065376
-0.065376
-0.065376
-0.065376
-0.065376
-0.065376
-0.065376
-0.065376
-0.065376
-0.065376
-0.065376
-0.065376
-0.065376
-0.065376
-0.065376
-0.065376
-0.065376
-0.065376
0.000000
-0.012929
-0.012929
-0.012929
-0.012929
-0.012929
-0.012929
-0.012929
-0.012929
-0.012929
-0.012929
-0.012929
-0.012929
-0.012929
-0.012929
-0.012929
-0.012929
-0.012929
-0.012929
-0.012929
-0.012929
-0.012929
-0.012929
-0.012929
-0.012929
-0.012929
-0.012929
-0.012929
-0.012929
-0.012929
-0.012929
-0.012929
-0.012929
-0.012929
-0.012929
-0.012929
-0.012929
-0.012929
-0.012929
-0.012929
-0.012929
-0.012929
-0.012929
-0.012929
-0.012929
-0.012929
-0.012929
-0.012929
-0.012929
-0.012929
-0.012929
-0.012929
-0.012929
-0.012929
-0.012929
-0.012929
-0.012929
-0.012929
-0.012929
-0.012929
-0.012929
-0.012929
-0.012929
-0.012929
-0.012929
-0.012929
-0.012929
-0.012929
-0.012929
-0.012929
-0.012929
-0.012929
-0.012929
-0.012929
-0.012929
-0.012929
-0.012929
-0.012929
-0.012929
-0.012929
-0.012929
-0.012929
-0.012929
-0.012929
-0.012929
-0.012929
-0.012929
-0.012929
-0.012929
-0.012929
-0.012929
-0.012929
-0.012929
-0.012929
-0.012929
-0.012929
-0.012929
-0.012929
-0.012929
-0.012929
-0.012929
-0.012929
-0.012929
-0.012929
-0.012929
-0.012929
-0.012929
-0.012929
-0.012929
-0.012929
-0.012929
-0.012929
-0.012929
-0.012929
-0.012929
-0.012929
-0.012929
-0.012929
-0.012929
-0.012929
-0.012929
-0.012929
-0.012929
-0.012929
-0.012929
-0.012929
-0.012929
-0.012929
-0.012929
0.000000
0.000000
0.000000
0.000000
0.000000
0.000000
0.000000
0.000000
0.000000
0.000000
0.000000
0.000000
0.000000
0.000000
0.000000
0.000000
0.000000
0.000000
0.000000
0.000000
0.000000
0.000000
0.000000
0.000000
0.000000
0.000000
0.000000
0.000000
0.000000
0.000000
0.000000
0.000000
0.000000
0.000000
0.000000
0.000000
0.000000
0.000000
0.000000
0.000000
0.000000
0.000000
0.000000
0.000000
0.000000
0.000000
0.000000
0.000000
0.000000
0.000000
0.000000
0.000000
0.000000
0.000000
0.000000
0.000000
0.000000
0.000000
0.000000
0.000000
0.000000
0.000000
0.000000
0.000000
0.000000
0.000000
0.000000
0.000000
0.000000
0.000000
0.000000
0.000000
0.000000
0.000000
0.000000
0.000000
0.000000
0.000000
0.000000
0.000000
0.000000
0.000000
0.000000
0.000000
0.000000
0.000000
0.000000
0.000000
0.000000
0.000000
0.000000
0.000000
0.000000
0.000000
0.000000
0.000000
0.000000
0.000000
0.000000
0.000000
0.000000
0.000000
0.000000
0.000000
0.000000
0.000000
0.000000
0.000000
0.000000
0.000000
0.000000
0.000000
0.000000
0.000000
0.000000
0.000000
0.000000
0.000000
0.000000
0.000000
0.000000
0.000000
0.000000
0.000000
0.000000
0.000000
0.000000
0.000000
0.000000
0.000000
-0.020824
-0.020824
-0.020824
-0.020824
-0.020824
-0.020824
-0.020824
-0.020824
-0.020824
-0.020824
-0.020824
-0.020824
-0.020824
-0.020824
-0.020824
-0.020824
-0.020824
-0.020824
-0.020824
-0.020824
-0.020824
-0.020824
-0.020824
-0.020824
-0.020824
-0.020824
-0.020824
-0.020824
-0.020824
-0.020824
-0.020824
-0.020824
-0.020824
-0.020824
-0.020824
-0.020824
-0.020824
-0.020824
-0.020824
-0.020824
-0.020824
-0.020824
-0.020824
-0.020824
-0.020824
-0.020824
-0.020824
-0.020824
-0.020824
-0.020824
-0.020824
-0.020824
-0.020824
-0.020824
-0.020824
-0.020824
-0.020824
-0.020824
-0.020824
-0.020824
-0.020824
-0.020824
-0.020824
-0.020824
-0.020824
-0.020824
-0.020824
-0.020824
-0.020824
-0.020824
-0.020824
-0.020824
-0.020824
-0.020824
-0.020824
-0.020824
-0.020824
-0.020824
-0.020824
-0.020824
-0.020824
-0.020824
-0.020824
-0.020824
-0.020824
-0.020824
-0.020824
-0.020824
-0.020824
-0.020824
-0.020824
-0.020824
-0.020824
-0.020824
-0.020824
-0.020824
-0.020824
-0.020824
-0.020824
-0.020824
-0.020824
-0.020824
-0.020824
-0.020824
-0.020824
-0.020824
-0.020824
-0.020824
-0.020824
-0.020824
-0.020824
-0.020824
-0.020824
-0.020824
-0.020824
-0.020824
-0.020824
-0.020824
-0.020824
-0.020824
-0.020824
-0.020824
-0.020824
-0.020824
-0.020824
-0.020824
-0.020824
-0.020824
0.000000
0.000000
0.000000
0.000000
0.000000
0.000000
0.000000
0.000000
0.000000
0.000000
0.000000
0.000000
0.000000
0.000000
0.000000
0.000000
0.000000
0.000000
0.000000
0.000000
0.000000
0.000000
0.000000
0.000000
0.000000
0.000000
0.000000
0.000000
0.000000
0.000000
0.000000
0.000000
0.000000
0.000000
0.000000
0.000000
0.000000
0.000000
0.000000
0.000000
0.000000
0.000000
0.000000
0.000000
0.000000
0.000000
0.000000
0.000000
0.000000
0.000000
0.000000
0.000000
0.000000
0.000000
0.000000
0.000000
0.000000
0.000000
0.000000
0.000000
0.000000
0.000000
0.000000
0.000000
0.000000
0.000000
0.000000
0.000000
0.000000
0.000000
0.000000
0.000000
0.000000
0.000000
0.000000
0.000000
0.000000
0.000000
0.000000
0.000000
0.000000
0.000000
0.000000
0.000000
0.000000
0.000000
0.000000
0.000000
0.000000
0.000000
0.000000
0.000000
0.000000
0.000000
0.000000
0.000000
0.000000
0.000000
0.000000
0.000000
0.000000
0.000000
0.000000
0.000000
0.000000
0.000000
0.000000
0.000000
0.000000
0.000000
0.000000
0.000000
0.000000
0.000000
0.000000
0.000000
0.000000
0.000000
0.000000
0.000000
0.000000
0.000000
0.000000
0.000000
0.000000
0.000000
0.000000
0.000000
0.000000
0.000000
-0.012929
-0.012929
-0.012929
-0.012929
-0.012929
-0.012929
-0.012929
-0.012929
-0.012929
-0.012929
-0.012929
-0.012929
-0.012929
-0.012929
-0.012929
-0.012929
-0.012929
-0.012929
-0.012929
-0.012929
-0.012929
-0.012929
-0.012929
-0.012929
-0.012929
-0.012929
-0.012929
-0.012929
-0.012929
-0.012929
-0.012929
-0.012929
-0.012929
-0.012929
-0.012929
-0.012929
-0.012929
-0.012929
-0.012929
-0.012929
-0.012929
-0.012929
-0.012929
-0.012929
-0.012929
-0.012929
-0.012929
-0.012929
-0.012929
-0.012929
-0.012929
-0.012929
-0.012929
-0.012929
-0.012929
-0.012929
-0.012929
-0.012929
-0.012929
-0.012929
-0.012929
-0.012929
-0.012929
-0.012929
-0.012929
-0.012929
-0.012929
-0.012929
-0.012929
-0.012929
-0.012929
-0.012929
-0.012929
-0.012929
-0.012929
-0.012929
-0.012929
-0.012929
-0.012929
-0.012929
-0.012929
-0.012929
-0.012929
-0.012929
-0.012929
-0.012929
-0.012929
-0.012929
-0.012929
-0.012929
-0.012929
-0.012929
-0.012929
-0.012929
-0.012929
-0.012929
-0.012929
-0.012929
-0.012929
-0.012929
-0.012929
-0.012929
-0.012929
-0.012929
-0.012929
-0.012929
-0.012929
-0.012929
-0.012929
-0.012929
-0.012929
-0.012929
-0.012929
-0.012929
-0.012929
-0.012929
-0.012929
-0.012929
-0.012929
-0.012929
-0.012929
-0.012929
-0.012929
-0.012929
-0.012929
-0.012929
-0.012929
-0.012929
0.000000
-0.059395
-0.059395
-0.059395
-0.059395
-0.059395
-0.059395
-0.059395
-0.059395
-0.059395
-0.059395
-0.059395
-0.059395
-0.059395
-0.059395
-0.059395
-0.059395
-0.059395
-0.059395
-0.059395
-0.059395
-0.059395
-0.059395
-0.059395
-0.059395
-0.059395
-0.059395
-0.059395
-0.059395
-0.059395
-0.059395
-0.059395
-0.059395
-0.059395
-0.059395
-0.059395
-0.059395
-0.059395
-0.059395
-0.059395
-0.059395
-0.059395
-0.059395
-0.059395
-0.059395
-0.059395
-0.059395
-0.059395
-0.059395
-0.059395
-0.059395
-0.059395
-0.059395
-0.059395
-0.059395
-0.059395
-0.059395
-0.059395
-0.059395
-0.059395
-0.059395
-0.059395
-0.059395
-0.059395
-0.059395
-0.059395
-0.059395
-0.059395
-0.059395
-0.059395
-0.059395
-0.059395
-0.059395
-0.059395
-0.059395
-0.059395
-0.059395
-0.059395
-0.059395
-0.059395
-0.059395
-0.059395
-0.059395
-0.059395
-0.059395
-0.059395
-0.059395
-0.059395
-0.059395
-0.059395
-0.059395
-0.059395
-0.059395
-0.059395
-0.059395
-0.059395
-0.059395
-0.059395
-0.059395
-0.059395
-0.059395
-0.059395
-0.059395
-0.059395
-0.059395
-0.059395
-0.059395
-0.059395
-0.059395
-0.059395
-0.059395
-0.059395
-0.059395
-0.059395
-0.059395
-0.059395
-0.059395
-0.059395
-0.059395
-0.059395
-0.059395
-0.059395
-0.059395
-0.059395
-0.059395
-0.059395
-0.059395
-0.059395
-0.059395
0.000000
-0.035908
-0.035908
-0.035908
-0.035908
-0.035908
-0.035908
-0.035908
-0.035908
-0.035908
-0.035908
-0.035908
-0.035908
-0.035908
-0.035908
-0.035908
-0.035908
-0.035908
-0.035908
-0.035908
-0.035908
-0.035908
-0.035908
-0.035908
-0.035908
-0.035908
-0.035908
-0.035908
-0.035908
-0.035908
-0.035908
-0.035908
-0.035908
-0.035908
-0.035908
-0.035908
-0.035908
-0.035908
-0.035908
-0.035908
-0.035908
-0.035908
-0.035908
-0.035908
-0.035908
-0.035908
-0.035908
-0.035908
-0.035908
-0.035908
-0.035908
-0.035908
-0.035908
-0.035908
-0.035908
-0.035908
-0.035908
-0.035908
-0.035908
-0.035908
-0.035908
-0.035908
-0.035908
-0.035908
-0.035908
-0.035908
-0.035908
-0.035908
-0.035908
-0.035908
-0.035908
-0.035908
-0.035908
-0.035908
-0.035908
-0.035908
-0.035908
-0.035908
-0.035908
-0.035908
-0.035908
-0.035908
-0.035908
-0.035908
-0.035908
-0.035908
-0.035908
-0.035908
-0.035908
-0.035908
-0.035908
-0.035908
-0.035908
-0.035908
-0.035908
-0.035908
-0.035908
-0.035908
-0.035908
-0.035908
-0.035908
-0.035908
-0.035908
-0.035908
-0.035908
-0.035908
-0.035908
-0.035908
-0.035908
-0.035908
-0.035908
-0.035908
-0.035908
-0.035908
-0.035908
-0.035908
-0.035908
-0.035908
-0.035908
-0.035908
-0.035908
-0.035908
-0.035908
-0.035908
-0.035908
-0.035908
-0.035908
-0.035908
-0.035908
0.000000
-0.048786
-0.048786
-0.048786
-0.048786
-0.048786
-0.048786
-0.048786
-0.048786
-0.048786
-0.048786
-0.048786
-0.048786
-0.048786
-0.048786
-0.048786
-0.048786
-0.048786
-0.048786
-0.048786
-0.048786
-0.048786
-0.048786
-0.048786
-0.048786
-0.048786
-0.048786
-0.048786
-0.048786
-0.048786
-0.048786
-0.048786
-0.048786
-0.048786
-0.048786
-0.048786
-0.048786
-0.048786
-0.048786
-0.048786
-0.048786
-0.048786
-0.048786
-0.048786
-0.048786
-0.048786
-0.048786
-0.048786
-0.048786
-0.048786
-0.048786
-0.048786
-0.048786
-0.048786
-0.048786
-0.048786
-0.048786
-0.048786
-0.048786
-0.048786
-0.048786
-0.048786
-0.048786
-0.048786
-0.048786
-0.048786
-0.048786
-0.048786
-0.048786
-0.048786
-0.048786
-0.048786
-0.048786
-0.048786
-0.048786
-0.048786
-0.048786
-0.048786
-0.048786
-0.048786
-0.048786
-0.048786
-0.048786
-0.048786
-0.048786
-0.048786
-0.048786
-0.048786
-0.048786
-0.048786
-0.048786
-0.048786
-0.048786
-0.048786
-0.048786
-0.048786
-0.048786
-0.048786
-0.048786
-0.048786
-0.048786
-0.048786
-0.048786
-0.048786
-0.048786
-0.048786
-0.048786
-0.048786
-0.048786
-0.048786
-0.048786
-0.048786
-0.048786
-0.048786
-0.048786
-0.048786
-0.048786
-0.048786
-0.048786
-0.048786
-0.048786
-0.048786
-0.048786
-0.048786
-0.048786
-0.048786
-0.048786
-0.048786
-0.048786
0.000000
0.020048
0.020048
0.020048
0.020048
0.020048
0.020048
0.020048
0.020048
0.020048
0.020048
0.020048
0.020048
0.020048
0.020048
0.020048
0.020048
0.020048
0.020048
0.020048
0.020048
0.020048
0.020048
0.020048
0.020048
0.020048
0.020048
0.020048
0.020048
0.020048
0.020048
0.020048
0.020048
0.020048
0.020048
0.020048
0.020048
0.020048
0.020048
0.020048
0.020048
0.020048
0.020048
0.020048
0.020048
0.020048
0.020048
0.020048
0.020048
0.020048
0.020048
0.020048
0.020048
0.020048
0.020048
0.020048
0.020048
0.020048
0.020048
0.020048
0.020048
0.020048
0.020048
0.020048
0.020048
0.020048
0.020048
0.020048
0.020048
0.020048
0.020048
0.020048
0.020048
0.020048
0.020048
0.020048
0.020048
0.020048
0.020048
0.020048
0.020048
0.020048
0.020048
0.020048
0.020048
0.020048
0.020048
0.020048
0.020048
0.020048
0.020048
0.020048
0.020048
0.020048
0.020048
0.020048
0.020048
0.020048
0.020048
0.020048
0.020048
0.020048
0.020048
0.020048
0.020048
0.020048
0.020048
0.020048
0.020048
0.020048
0.020048
0.020048
0.020048
0.020048
0.020048
0.020048
0.020048
0.020048
0.020048
0.020048
0.020048
0.020048
0.020048
0.020048
0.020048
0.020048
0.020048
0.020048
0.020048
0.000000
-0.104792
-0.104792
-0.104792
-0.104792
-0.104792
-0.104792
-0.104792
-0.104792
-0.104792
-0.104792
-0.104792
-0.104792
-0.104792
-0.104792
-0.104792
-0.104792
-0.104792
-0.104792
-0.104792
-0.104792
-0.104792
-0.104792
-0.104792
-0.104792
-0.104792
-0.104792
-0.104792
-0.104792
-0.104792
-0.104792
-0.104792
-0.104792
-0.104792
-0.104792
-0.104792
-0.104792
-0.104792
-0.104792
-0.104792
-0.104792
-0.104792
-0.104792
-0.104792
-0.104792
-0.104792
-0.104792
-0.104792
-0.104792
-0.104792
-0.104792
-0.104792
-0.104792
-0.104792
-0.104792
-0.104792
-0.104792
-0.104792
-0.104792
-0.104792
-0.104792
-0.104792
-0.104792
-0.104792
-0.104792
-0.104792
-0.104792
-0.104792
-0.104792
-0.104792
-0.104792
-0.104792
-0.104792
-0.104792
-0.104792
-0.104792
-0.104792
-0.104792
-0.104792
-0.104792
-0.104792
-0.104792
-0.104792
-0.104792
-0.104792
-0.104792
-0.104792
-0.104792
-0.104792
-0.104792
-0.104792
-0.104792
-0.104792
-0.104792
-0.104792
-0.104792
-0.104792
-0.104792
-0.104792
-0.104792
-0.104792
-0.104792
-0.104792
-0.104792
-0.104792
-0.104792
-0.104792
-0.104792
-0.104792
-0.104792
-0.104792
-0.104792
-0.104792
-0.104792
-0.104792
-0.104792
-0.104792
-0.104792
-0.104792
-0.104792
-0.104792
-0.104792
-0.104792
-0.104792
-0.104792
-0.104792
-0.104792
-0.104792
-0.104792
0.000000
-0.008283
-0.008283
-0.008283
-0.008283
-0.008283
-0.008283
-0.008283
-0.008283
-0.008283
-0.008283
-0.008283
-0.008283
-0.008283
-0.008283
-0.008283
-0.008283
-0.008283
-0.008283
-0.008283
-0.008283
-0.008283
-0.008283
-0.008283
-0.008283
-0.008283
-0.008283
-0.008283
-0.008283
-0.008283
-0.008283
-0.008283
-0.008283
-0.008283
-0.008283
-0.008283
-0.008283
-0.008283
-0.008283
-0.008283
-0.008283
-0.008283
-0.008283
-0.008283
-0.008283
-0.008283
-0.008283
-0.008283
-0.008283
-0.008283
-0.008283
-0.008283
-0.008283
-0.008283
-0.008283
-0.008283
-0.008283
-0.008283
-0.008283
-0.008283
-0.008283
-0.008283
-0.008283
-0.008283
-0.008283
-0.008283
-0.008283
-0.008283
-0.008283
-0.008283
-0.008283
-0.008283
-0.008283
-0.008283
-0.008283
-0.008283
-0.008283
-0.008283
-0.008283
-0.008283
-0.008283
-0.008283
-0.008283
-0.008283
-0.008283
-0.008283
-0.008283
-0.008283
-0.008283
-0.008283
-0.008283
-0.008283
-0.008283
-0.008283
-0.008283
-0.008283
-0.008283
-0.008283
-0.008283
-0.008283
-0.008283
-0.008283
-0.008283
-0.008283
-0.008283
-0.008283
-0.008283
-0.008283
-0.008283
-0.008283
-0.008283
-0.008283
-0.008283
-0.008283
-0.008283
-0.008283
-0.008283
-0.008283
-0.008283
-0.008283
-0.008283
-0.008283
-0.008283
-0.008283
-0.008283
-0.008283
-0.008283
-0.008283
-0.008283
0.000000
-0.016967
-0.016967
-0.016967
-0.016967
-0.016967
-0.016967
-0.016967
-0.016967
-0.016967
-0.016967
-0.016967
-0.016967
-0.016967
-0.016967
-0.016967
-0.016967
-0.016967
-0.016967
-0.016967
-0.016967
-0.016967
-0.016967
-0.016967
-0.016967
-0.016967
-0.016967
-0.016967
-0.016967
-0.016967
-0.016967
-0.016967
-0.016967
-0.016967
-0.016967
-0.016967
-0.016967
-0.016967
-0.016967
-0.016967
-0.016967
-0.016967
-0.016967
-0.016967
-0.016967
-0.016967
-0.016967
-0.016967
-0.016967
-0.016967
-0.016967
-0.016967
-0.016967
-0.016967
-0.016967
-0.016967
-0.016967
-0.016967
-0.016967
-0.016967
-0.016967
-0.016967
-0.016967
-0.016967
-0.016967
-0.016967
-0.016967
-0.016967
-0.016967
-0.016967
-0.016967
-0.016967
-0.016967
-0.016967
-0.016967
-0.016967
-0.016967
-0.016967
-0.016967
-0.016967
-0.016967
-0.016967
-0.016967
-0.016967
-0.016967
-0.016967
-0.016967
-0.016967
-0.016967
-0.016967
-0.016967
-0.016967
-0.016967
-0.016967
-0.016967
-0.016967
-0.016967
-0.016967
-0.016967
-0.016967
-0.016967
-0.016967
-0.016967
-0.016967
-0.016967
-0.016967
-0.016967
-0.016967
-0.016967
-0.016967
-0.016967
-0.016967
-0.016967
-0.016967
-0.016967
-0.016967
-0.016967
-0.016967
-0.016967
-0.016967
-0.016967
-0.016967
-0.016967
-0.016967
-0.016967
-0.016967
-0.016967
-0.016967
-0.016967
0.000000
0.017764
0.017764
0.017764
0.017764
0.017764
0.017764
0.017764
0.017764
0.017764
0.017764
0.017764
0.017764
0.017764
0.017764
0.017764
0.017764
0.017764
0.017764
0.017764
0.017764
0.017764
0.017764
0.017764
0.017764
0.017764
0.017764
0.017764
0.017764
0.017764
0.017764
0.017764
0.017764
0.017764
0.017764
0.017764
0.017764
0.017764
0.017764
0.017764
0.017764
0.017764
0.017764
0.017764
0.017764
0.017764
0.017764
0.017764
0.017764
0.017764
0.017764
0.017764
0.017764
0.017764
0.017764
0.017764
0.017764
0.017764
0.017764
0.017764
0.017764
0.017764
0.017764
0.017764
0.017764
0.017764
0.017764
0.017764
0.017764
0.017764
0.017764
0.017764
0.017764
0.017764
0.017764
0.017764
0.017764
0.017764
0.017764
0.017764
0.017764
0.017764
0.017764
0.017764
0.017764
0.017764
0.017764
0.017764
0.017764
0.017764
0.017764
0.017764
0.017764
0.017764
0.017764
0.017764
0.017764
0.017764
0.017764
0.017764
0.017764
0.017764
0.017764
0.017764
0.017764
0.017764
0.017764
0.017764
0.017764
0.017764
0.017764
0.017764
0.017764
0.017764
0.017764
0.017764
0.017764
0.017764
0.017764
0.017764
0.017764
0.017764
0.017764
0.017764
0.017764
0.017764
0.017764
0.017764
0.017764
0.000000
-0.078197
-0.078197
-0.078197
-0.078197
-0.078197
-0.078197
-0.078197
-0.078197
-0.078197
-0.078197
-0.078197
-0.078197
-0.078197
-0.078197
-0.078197
-0.078197
-0.078197
-0.078197
-0.078197
-0.078197
-0.078197
-0.078197
-0.078197
-0.078197
-0.078197
-0.078197
-0.078197
-0.078197
-0.078197
-0.078197
-0.078197
-0.078197
-0.078197
-0.078197
-0.078197
-0.078197
-0.078197
-0.078197
-0.078197
-0.078197
-0.078197
-0.078197
-0.078197
-0.078197
-0.078197
-0.078197
-0.078197
-0.078197
-0.078197
-0.078197
-0.078197
-0.078197
-0.078197
-0.078197
-0.078197
-0.078197
-0.078197
-0.078197
-0.078197
-0.078197
-0.078197
-0.078197
-0.078197
-0.078197
-0.078197
-0.078197
-0.078197
-0.078197
-0.078197
-0.078197
-0.078197
-0.078197
-0.078197
-0.078197
-0.078197
-0.078197
-0.078197
-0.078197
-0.078197
-0.078197
-0.078197
-0.078197
-0.078197
-0.078197
-0.078197
-0.078197
-0.078197
-0.078197
-0.078197
-0.078197
-0.078197
-0.078197
-0.078197
-0.078197
-0.078197
-0.078197
-0.078197
-0.078197
-0.078197
-0.078197
-0.078197
-0.078197
-0.078197
-0.078197
-0.078197
-0.078197
-0.078197
-0.078197
-0.078197
-0.078197
-0.078197
-0.078197
-0.078197
-0.078197
-0.078197
-0.078197
-0.078197
-0.078197
-0.078197
-0.078197
-0.078197
-0.078197
-0.078197
-0.078197
-0.078197
-0.078197
-0.078197
-0.078197
0.000000
-0.048786
-0.048786
-0.048786
-0.048786
-0.048786
-0.048786
-0.048786
-0.048786
-0.048786
-0.048786
-0.048786
-0.048786
-0.048786
-0.048786
-0.048786
-0.048786
-0.048786
-0.048786
-0.048786
-0.048786
-0.048786
-0.048786
-0.048786
-0.048786
-0.048786
-0.048786
-0.048786
-0.048786
-0.048786
-0.048786
-0.048786
-0.048786
-0.048786
-0.048786
-0.048786
-0.048786
-0.048786
-0.048786
-0.048786
-0.048786
-0.048786
-0.048786
-0.048786
-0.048786
-0.048786
-0.048786
-0.048786
-0.048786
-0.048786
-0.048786
-0.048786
-0.048786
-0.048786
-0.048786
-0.048786
-0.048786
-0.048786
-0.048786
-0.048786
-0.048786
-0.048786
-0.048786
-0.048786
-0.048786
-0.048786
-0.048786
-0.048786
-0.048786
-0.048786
-0.048786
-0.048786
-0.048786
-0.048786
-0.048786
-0.048786
-0.048786
-0.048786
-0.048786
-0.048786
-0.048786
-0.048786
-0.048786
-0.048786
-0.048786
-0.048786
-0.048786
-0.048786
-0.048786
-0.048786
-0.048786
-0.048786
-0.048786
-0.048786
-0.048786
-0.048786
-0.048786
-0.048786
-0.048786
-0.048786
-0.048786
-0.048786
-0.048786
-0.048786
-0.048786
-0.048786
-0.048786
-0.048786
-0.048786
-0.048786
-0.048786
-0.048786
-0.048786
-0.048786
-0.048786
-0.048786
-0.048786
-0.048786
-0.048786
-0.048786
-0.048786
-0.048786
-0.048786
-0.048786
-0.048786
-0.048786
-0.048786
-0.048786
-0.048786
0.000000
-0.008084
-0.008084
-0.008084
-0.008084
-0.008084
-0.008084
-0.008084
-0.008084
-0.008084
-0.008084
-0.008084
-0.008084
-0.008084
-0.008084
-0.008084
-0.008084
-0.008084
-0.008084
-0.008084
-0.008084
-0.008084
-0.008084
-0.008084
-0.008084
-0.008084
-0.008084
-0.008084
-0.008084
-0.008084
-0.008084
-0.008084
-0.008084
-0.008084
-0.008084
-0.008084
-0.008084
-0.008084
-0.008084
-0.008084
-0.008084
-0.008084
-0.008084
-0.008084
-0.008084
-0.008084
-0.008084
-0.008084
-0.008084
-0.008084
-0.008084
-0.008084
-0.008084
-0.008084
-0.008084
-0.008084
-0.008084
-0.008084
-0.008084
-0.008084
-0.008084
-0.008084
-0.008084
-0.008084
-0.008084
-0.008084
-0.008084
-0.008084
-0.008084
-0.008084
-0.008084
-0.008084
-0.008084
-0.008084
-0.008084
-0.008084
-0.008084
-0.008084
-0.008084
-0.008084
-0.008084
-0.008084
-0.008084
-0.008084
-0.008084
-0.008084
-0.008084
-0.008084
-0.008084
-0.008084
-0.008084
-0.008084
-0.008084
-0.008084
-0.008084
-0.008084
-0.008084
-0.008084
-0.008084
-0.008084
-0.008084
-0.008084
-0.008084
-0.008084
-0.008084
-0.008084
-0.008084
-0.008084
-0.008084
-0.008084
-0.008084
-0.008084
-0.008084
-0.008084
-0.008084
-0.008084
-0.008084
-0.008084
-0.008084
-0.008084
-0.008084
-0.008084
-0.008084
-0.008084
-0.008084
-0.008084
-0.008084
-0.008084
-0.008084
0.000000
0.000000
0.000000
0.000000
0.000000
0.000000
0.000000
0.000000
0.000000
0.000000
0.000000
0.000000
0.000000
0.000000
0.000000
0.000000
0.000000
0.000000
0.000000
0.000000
0.000000
0.000000
0.000000
0.000000
0.000000
0.000000
0.000000
0.000000
0.000000
0.000000
0.000000
0.000000
0.000000
0.000000
0.000000
0.000000
0.000000
0.000000
0.000000
0.000000
0.000000
0.000000
0.000000
0.000000
0.000000
0.000000
0.000000
0.000000
0.000000
0.000000
0.000000
0.000000
0.000000
0.000000
0.000000
0.000000
0.000000
0.000000
0.000000
0.000000
0.000000
0.000000
0.000000
0.000000
0.000000
0.000000
0.000000
0.000000
0.000000
0.000000
0.000000
0.000000
0.000000
0.000000
0.000000
0.000000
0.000000
0.000000
0.000000
0.000000
0.000000
0.000000
0.000000
0.000000
0.000000
0.000000
0.000000
0.000000
0.000000
0.000000
0.000000
0.000000
0.000000
0.000000
0.000000
0.000000
0.000000
0.000000
0.000000
0.000000
0.000000
0.000000
0.000000
0.000000
0.000000
0.000000
0.000000
0.000000
0.000000
0.000000
0.000000
0.000000
0.000000
0.000000
0.000000
0.000000
0.000000
0.000000
0.000000
0.000000
0.000000
0.000000
0.000000
0.000000
0.000000
0.000000
0.000000
0.000000
0.000000
0.000000
-0.012929
-0.012929
-0.012929
-0.012929
-0.012929
-0.012929
-0.012929
-0.012929
-0.012929
-0.012929
-0.012929
-0.012929
-0.012929
-0.012929
-0.012929
-0.012929
-0.012929
-0.012929
-0.012929
-0.012929
-0.012929
-0.012929
-0.012929
-0.012929
-0.012929
-0.012929
-0.012929
-0.012929
-0.012929
-0.012929
-0.012929
-0.012929
-0.012929
-0.012929
-0.012929
-0.012929
-0.012929
-0.012929
-0.012929
-0.012929
-0.012929
-0.012929
-0.012929
-0.012929
-0.012929
-0.012929
-0.012929
-0.012929
-0.012929
-0.012929
-0.012929
-0.012929
-0.012929
-0.012929
-0.012929
-0.012929
-0.012929
-0.012929
-0.012929
-0.012929
-0.012929
-0.012929
-0.012929
-0.012929
-0.012929
-0.012929
-0.012929
-0.012929
-0.012929
-0.012929
-0.012929
-0.012929
-0.012929
-0.012929
-0.012929
-0.012929
-0.012929
-0.012929
-0.012929
-0.012929
-0.012929
-0.012929
-0.012929
-0.012929
-0.012929
-0.012929
-0.012929
-0.012929
-0.012929
-0.012929
-0.012929
-0.012929
-0.012929
-0.012929
-0.012929
-0.012929
-0.012929
-0.012929
-0.012929
-0.012929
-0.012929
-0.012929
-0.012929
-0.012929
-0.012929
-0.012929
-0.012929
-0.012929
-0.012929
-0.012929
-0.012929
-0.012929
-0.012929
-0.012929
-0.012929
-0.012929
-0.012929
-0.012929
-0.012929
-0.012929
-0.012929
-0.012929
-0.012929
-0.012929
-0.012929
-0.012929
-0.012929
-0.012929
0.000000
-0.003658
-0.003658
-0.003658
-0.003658
-0.003658
-0.003658
-0.003658
-0.003658
-0.003658
-0.003658
-0.003658
-0.003658
-0.003658
-0.003658
-0.003658
-0.003658
-0.003658
-0.003658
-0.003658
-0.003658
-0.003658
-0.003658
-0.003658
-0.003658
-0.003658
-0.003658
-0.003658
-0.003658
-0.003658
-0.003658
-0.003658
-0.003658
-0.003658
-0.003658
-0.003658
-0.003658
-0.003658
-0.003658
-0.003658
-0.003658
-0.003658
-0.003658
-0.003658
-0.003658
-0.003658
-0.003658
-0.003658
-0.003658
-0.003658
-0.003658
-0.003658
-0.003658
-0.003658
-0.003658
-0.003658
-0.003658
-0.003658
-0.003658
-0.003658
-0.003658
-0.003658
-0.003658
-0.003658
-0.003658
-0.003658
-0.003658
-0.003658
-0.003658
-0.003658
-0.003658
-0.003658
-0.003658
-0.003658
-0.003658
-0.003658
-0.003658
-0.003658
-0.003658
-0.003658
-0.003658
-0.003658
-0.003658
-0.003658
-0.003658
-0.003658
-0.003658
-0.003658
-0.003658
-0.003658
-0.003658
-0.003658
-0.003658
-0.003658
-0.003658
-0.003658
-0.003658
-0.003658
-0.003658
-0.003658
-0.003658
-0.003658
-0.003658
-0.003658
-0.003658
-0.003658
-0.003658
-0.003658
-0.003658
-0.003658
-0.003658
-0.003658
-0.003658
-0.003658
-0.003658
-0.003658
-0.003658
-0.003658
-0.003658
-0.003658
-0.003658
-0.003658
-0.003658
-0.003658
-0.003658
-0.003658
-0.003658
-0.003658
-0.003658
0.000000
0.000000
0.000000
0.000000
0.000000
0.000000
0.000000
0.000000
0.000000
0.000000
0.000000
0.000000
0.000000
0.000000
0.000000
0.000000
0.000000
0.000000
0.000000
0.000000
0.000000
0.000000
0.000000
0.000000
0.000000
0.000000
0.000000
0.000000
0.000000
0.000000
0.000000
0.000000
0.000000
0.000000
0.000000
0.000000
0.000000
0.000000
0.000000
0.000000
0.000000
0.000000
0.000000
0.000000
0.000000
0.000000
0.000000
0.000000
0.000000
0.000000
0.000000
0.000000
0.000000
0.000000
0.000000
0.000000
0.000000
0.000000
0.000000
0.000000
0.000000
0.000000
0.000000
0.000000
0.000000
0.000000
0.000000
0.000000
0.000000
0.000000
0.000000
0.000000
0.000000
0.000000
0.000000
0.000000
0.000000
0.000000
0.000000
0.000000
0.000000
0.000000
0.000000
0.000000
0.000000
0.000000
0.000000
0.000000
0.000000
0.000000
0.000000
0.000000
0.000000
0.000000
0.000000
0.000000
0.000000
0.000000
0.000000
0.000000
0.000000
0.000000
0.000000
0.000000
0.000000
0.000000
0.000000
0.000000
0.000000
0.000000
0.000000
0.000000
0.000000
0.000000
0.000000
0.000000
0.000000
0.000000
0.000000
0.000000
0.000000
0.000000
0.000000
0.000000
0.000000
0.000000
0.000000
0.000000
0.000000
0.000000
-0.012929
-0.012929
-0.012929
-0.012929
-0.012929
-0.012929
-0.012929
-0.012929
-0.012929
-0.012929
-0.012929
-0.012929
-0.012929
-0.012929
-0.012929
-0.012929
-0.012929
-0.012929
-0.012929
-0.012929
-0.012929
-0.012929
-0.012929
-0.012929
-0.012929
-0.012929
-0.012929
-0.012929
-0.012929
-0.012929
-0.012929
-0.012929
-0.012929
-0.012929
-0.012929
-0.012929
-0.012929
-0.012929
-0.012929
-0.012929
-0.012929
-0.012929
-0.012929
-0.012929
-0.012929
-0.012929
-0.012929
-0.012929
-0.012929
-0.012929
-0.012929
-0.012929
-0.012929
-0.012929
-0.012929
-0.012929
-0.012929
-0.012929
-0.012929
-0.012929
-0.012929
-0.012929
-0.012929
-0.012929
-0.012929
-0.012929
-0.012929
-0.012929
-0.012929
-0.012929
-0.012929
-0.012929
-0.012929
-0.012929
-0.012929
-0.012929
-0.012929
-0.012929
-0.012929
-0.012929
-0.012929
-0.012929
-0.012929
-0.012929
-0.012929
-0.012929
-0.012929
-0.012929
-0.012929
-0.012929
-0.012929
-0.012929
-0.012929
-0.012929
-0.012929
-0.012929
-0.012929
-0.012929
-0.012929
-0.012929
-0.012929
-0.012929
-0.012929
-0.012929
-0.012929
-0.012929
-0.012929
-0.012929
-0.012929
-0.012929
-0.012929
-0.012929
-0.012929
-0.012929
-0.012929
-0.012929
-0.012929
-0.012929
-0.012929
-0.012929
-0.012929
-0.012929
-0.012929
-0.012929
-0.012929
-0.012929
-0.012929
-0.012929
0.000000
-0.083728
-0.083728
-0.083728
-0.083728
-0.083728
-0.083728
-0.083728
-0.083728
-0.083728
-0.083728
-0.083728
-0.083728
-0.083728
-0.083728
-0.083728
-0.083728
-0.083728
-0.083728
-0.083728
-0.083728
-0.083728
-0.083728
-0.083728
-0.083728
-0.083728
-0.083728
-0.083728
-0.083728
-0.083728
-0.083728
-0.083728
-0.083728
-0.083728
-0.083728
-0.083728
-0.083728
-0.083728
-0.083728
-0.083728
-0.083728
-0.083728
-0.083728
-0.083728
-0.083728
-0.083728
-0.083728
-0.083728
-0.083728
-0.083728
-0.083728
-0.083728
-0.083728
-0.083728
-0.083728
-0.083728
-0.083728
-0.083728
-0.083728
-0.083728
-0.083728
-0.083728
-0.083728
-0.083728
-0.083728
-0.083728
-0.083728
-0.083728
-0.083728
-0.083728
-0.083728
-0.083728
-0.083728
-0.083728
-0.083728
-0.083728
-0.083728
-0.083728
-0.083728
-0.083728
-0.083728
-0.083728
-0.083728
-0.083728
-0.083728
-0.083728
-0.083728
-0.083728
-0.083728
-0.083728
-0.083728
-0.083728
-0.083728
-0.083728
-0.083728
-0.083728
-0.083728
-0.083728
-0.083728
-0.083728
-0.083728
-0.083728
-0.083728
-0.083728
-0.083728
-0.083728
-0.083728
-0.083728
-0.083728
-0.083728
-0.083728
-0.083728
-0.083728
-0.083728
-0.083728
-0.083728
-0.083728
-0.083728
-0.083728
-0.083728
-0.083728
-0.083728
-0.083728
-0.083728
-0.083728
-0.083728
-0.083728
-0.083728
-0.083728
0.000000
0.026847
0.026847
0.026847
0.026847
0.026847
0.026847
0.026847
0.026847
0.026847
0.026847
0.026847
0.026847
0.026847
0.026847
0.026847
0.026847
0.026847
0.026847
0.026847
0.026847
0.026847
0.026847
0.026847
0.026847
0.026847
0.026847
0.026847
0.026847
0.026847
0.026847
0.026847
0.026847
0.026847
0.026847
0.026847
0.026847
0.026847
0.026847
0.026847
0.026847
0.026847
0.026847
0.026847
0.026847
0.026847
0.026847
0.026847
0.026847
0.026847
0.026847
0.026847
0.026847
0.026847
0.026847
0.026847
0.026847
0.026847
0.026847
0.026847
0.026847
0.026847
0.026847
0.026847
0.026847
0.026847
0.026847
0.026847
0.026847
0.026847
0.026847
0.026847
0.026847
0.026847
0.026847
0.026847
0.026847
0.026847
0.026847
0.026847
0.026847
0.026847
0.026847
0.026847
0.026847
0.026847
0.026847
0.026847
0.026847
0.026847
0.026847
0.026847
0.026847
0.026847
0.026847
0.026847
0.026847
0.026847
0.026847
0.026847
0.026847
0.026847
0.026847
0.026847
0.026847
0.026847
0.026847
0.026847
0.026847
0.026847
0.026847
0.026847
0.026847
0.026847
0.026847
0.026847
0.026847
0.026847
0.026847
0.026847
0.026847
0.026847
0.026847
0.026847
0.026847
0.026847
0.026847
0.026847
0.026847
0.000000
-0.017165
-0.017165
-0.017165
-0.017165
-0.017165
-0.017165
-0.017165
-0.017165
-0.017165
-0.017165
-0.017165
-0.017165
-0.017165
-0.017165
-0.017165
-0.017165
-0.017165
-0.017165
-0.017165
-0.017165
-0.017165
-0.017165
-0.017165
-0.017165
-0.017165
-0.017165
-0.017165
-0.017165
-0.017165
-0.017165
-0.017165
-0.017165
-0.017165
-0.017165
-0.017165
-0.017165
-0.017165
-0.017165
-0.017165
-0.017165
-0.017165
-0.017165
-0.017165
-0.017165
-0.017165
-0.017165
-0.017165
-0.017165
-0.017165
-0.017165
-0.017165
-0.017165
-0.017165
-0.017165
-0.017165
-0.017165
-0.017165
-0.017165
-0.017165
-0.017165
-0.017165
-0.017165
-0.017165
-0.017165
-0.017165
-0.017165
-0.017165
-0.017165
-0.017165
-0.017165
-0.017165
-0.017165
-0.017165
-0.017165
-0.017165
-0.017165
-0.017165
-0.017165
-0.017165
-0.017165
-0.017165
-0.017165
-0.017165
-0.017165
-0.017165
-0.017165
-0.017165
-0.017165
-0.017165
-0.017165
-0.017165
-0.017165
-0.017165
-0.017165
-0.017165
-0.017165
-0.017165
-0.017165
-0.017165
-0.017165
-0.017165
-0.017165
-0.017165
-0.017165
-0.017165
-0.017165
-0.017165
-0.017165
-0.017165
-0.017165
-0.017165
-0.017165
-0.017165
-0.017165
-0.017165
-0.017165
-0.017165
-0.017165
-0.017165
-0.017165
-0.017165
-0.017165
-0.017165
-0.017165
-0.017165
-0.017165
-0.017165
-0.017165
0.000000
0.002445
0.002445
0.002445
0.002445
0.002445
0.002445
0.002445
0.002445
0.002445
0.002445
0.002445
0.002445
0.002445
0.002445
0.002445
0.002445
0.002445
0.002445
0.002445
0.002445
0.002445
0.002445
0.002445
0.002445
0.002445
0.002445
0.002445
0.002445
0.002445
0.002445
0.002445
0.002445
0.002445
0.002445
0.002445
0.002445
0.002445
0.002445
0.002445
0.002445
0.002445
0.002445
0.002445
0.002445
0.002445
0.002445
0.002445
0.002445
0.002445
0.002445
0.002445
0.002445
0.002445
0.002445
0.002445
0.002445
0.002445
0.002445
0.002445
0.002445
0.002445
0.002445
0.002445
0.002445
0.002445
0.002445
0.002445
0.002445
0.002445
0.002445
0.002445
0.002445
0.002445
0.002445
0.002445
0.002445
0.002445
0.002445
0.002445
0.002445
0.002445
0.002445
0.002445
0.002445
0.002445
0.002445
0.002445
0.002445
0.002445
0.002445
0.002445
0.002445
0.002445
0.002445
0.002445
0.002445
0.002445
0.002445
0.002445
0.002445
0.002445
0.002445
0.002445
0.002445
0.002445
0.002445
0.002445
0.002445
0.002445
0.002445
0.002445
0.002445
0.002445
0.002445
0.002445
0.002445
0.002445
0.002445
0.002445
0.002445
0.002445
0.002445
0.002445
0.002445
0.002445
0.002445
0.002445
0.002445
0.000000
-0.111111
-0.111111
-0.111111
-0.111111
-0.111111
-0.111111
-0.111111
-0.111111
-0.111111
-0.111111
-0.111111
-0.111111
-0.111111
-0.111111
-0.111111
-0.111111
-0.111111
-0.111111
-0.111111
-0.111111
-0.111111
-0.111111
-0.111111
-0.111111
-0.111111
-0.111111
-0.111111
-0.111111
-0.111111
-0.111111
-0.111111
-0.111111
-0.111111
-0.111111
-0.111111
-0.111111
-0.111111
-0.111111
-0.111111
-0.111111
-0.111111
-0.111111
-0.111111
-0.111111
-0.111111
-0.111111
-0.111111
-0.111111
-0.111111
-0.111111
-0.111111
-0.111111
-0.111111
-0.111111
-0.111111
-0.111111
-0.111111
-0.111111
-0.111111
-0.111111
-0.111111
-0.111111
-0.111111
-0.111111
-0.111111
-0.111111
-0.111111
-0.111111
-0.111111
-0.111111
-0.111111
-0.111111
-0.111111
-0.111111
-0.111111
-0.111111
-0.111111
-0.111111
-0.111111
-0.111111
-0.111111
-0.111111
-0.111111
-0.111111
-0.111111
-0.111111
-0.111111
-0.111111
-0.111111
-0.111111
-0.111111
-0.111111
-0.111111
-0.111111
-0.111111
-0.111111
-0.111111
-0.111111
-0.111111
-0.111111
-0.111111
-0.111111
-0.111111
-0.111111
-0.111111
-0.111111
-0.111111
-0.111111
-0.111111
-0.111111
-0.111111
-0.111111
-0.111111
-0.111111
-0.111111
-0.111111
-0.111111
-0.111111
-0.111111
-0.111111
-0.111111
-0.111111
-0.111111
-0.111111
-0.111111
-0.111111
-0.111111
-0.111111
0.000000
-0.070410
-0.070410
-0.070410
-0.070410
-0.070410
-0.070410
-0.070410
-0.070410
-0.070410
-0.070410
-0.070410
-0.070410
-0.070410
-0.070410
-0.070410
-0.070410
-0.070410
-0.070410
-0.070410
-0.070410
-0.070410
-0.070410
-0.070410
-0.070410
-0.070410
-0.070410
-0.070410
-0.070410
-0.070410
-0.070410
-0.070410
-0.070410
-0.070410
-0.070410
-0.070410
-0.070410
-0.070410
-0.070410
-0.070410
-0.070410
-0.070410
-0.070410
-0.070410
-0.070410
-0.070410
-0.070410
-0.070410
-0.070410
-0.070410
-0.070410
-0.070410
-0.070410
-0.070410
-0.070410
-0.070410
-0.070410
-0.070410
-0.070410
-0.070410
-0.070410
-0.070410
-0.070410
-0.070410
-0.070410
-0.070410
-0.070410
-0.070410
-0.070410
-0.070410
-0.070410
-0.070410
-0.070410
-0.070410
-0.070410
-0.070410
-0.070410
-0.070410
-0.070410
-0.070410
-0.070410
-0.070410
-0.070410
-0.070410
-0.070410
-0.070410
-0.070410
-0.070410
-0.070410
-0.070410
-0.070410
-0.070410
-0.070410
-0.070410
-0.070410
-0.070410
-0.070410
-0.070410
-0.070410
-0.070410
-0.070410
-0.070410
-0.070410
-0.070410
-0.070410
-0.070410
-0.070410
-0.070410
-0.070410
-0.070410
-0.070410
-0.070410
-0.070410
-0.070410
-0.070410
-0.070410
-0.070410
-0.070410
-0.070410
-0.070410
-0.070410
-0.070410
-0.070410
-0.070410
-0.070410
-0.070410
-0.070410
-0.070410
-0.070410
0.000000
-0.011444
-0.011444
-0.011444
-0.011444
-0.011444
-0.011444
-0.011444
-0.011444
-0.011444
-0.011444
-0.011444
-0.011444
-0.011444
-0.011444
-0.011444
-0.011444
-0.011444
-0.011444
-0.011444
-0.011444
-0.011444
-0.011444
-0.011444
-0.011444
-0.011444
-0.011444
-0.011444
-0.011444
-0.011444
-0.011444
-0.011444
-0.011444
-0.011444
-0.011444
-0.011444
-0.011444
-0.011444
-0.011444
-0.011444
-0.011444
-0.011444
-0.011444
-0.011444
-0.011444
-0.011444
-0.011444
-0.011444
-0.011444
-0.011444
-0.011444
-0.011444
-0.011444
-0.011444
-0.011444
-0.011444
-0.011444
-0.011444
-0.011444
-0.011444
-0.011444
-0.011444
-0.011444
-0.011444
-0.011444
-0.011444
-0.011444
-0.011444
-0.011444
-0.011444
-0.011444
-0.011444
-0.011444
-0.011444
-0.011444
-0.011444
-0.011444
-0.011444
-0.011444
-0.011444
-0.011444
-0.011444
-0.011444
-0.011444
-0.011444
-0.011444
-0.011444
-0.011444
-0.011444
-0.011444
-0.011444
-0.011444
-0.011444
-0.011444
-0.011444
-0.011444
-0.011444
-0.011444
-0.011444
-0.011444
-0.011444
-0.011444
-0.011444
-0.011444
-0.011444
-0.011444
-0.011444
-0.011444
-0.011444
-0.011444
-0.011444
-0.011444
-0.011444
-0.011444
-0.011444
-0.011444
-0.011444
-0.011444
-0.011444
-0.011444
-0.011444
-0.011444
-0.011444
-0.011444
-0.011444
-0.011444
-0.011444
-0.011444
-0.011444
0.000000
0.004837
0.004837
0.004837
0.004837
0.004837
0.004837
0.004837
0.004837
0.004837
0.004837
0.004837
0.004837
0.004837
0.004837
0.004837
0.004837
0.004837
0.004837
0.004837
0.004837
0.004837
0.004837
0.004837
0.004837
0.004837
0.004837
0.004837
0.004837
0.004837
0.004837
0.004837
0.004837
0.004837
0.004837
0.004837
0.004837
0.004837
0.004837
0.004837
0.004837
0.004837
0.004837
0.004837
0.004837
0.004837
0.004837
0.004837
0.004837
0.004837
0.004837
0.004837
0.004837
0.004837
0.004837
0.004837
0.004837
0.004837
0.004837
0.004837
0.004837
0.004837
0.004837
0.004837
0.004837
0.004837
0.004837
0.004837
0.004837
0.004837
0.004837
0.004837
0.004837
0.004837
0.004837
0.004837
0.004837
0.004837
0.004837
0.004837
0.004837
0.004837
0.004837
0.004837
0.004837
0.004837
0.004837
0.004837
0.004837
0.004837
0.004837
0.004837
0.004837
0.004837
0.004837
0.004837
0.004837
0.004837
0.004837
0.004837
0.004837
0.004837
0.004837
0.004837
0.004837
0.004837
0.004837
0.004837
0.004837
0.004837
0.004837
0.004837
0.004837
0.004837
0.004837
0.004837
0.004837
0.004837
0.004837
0.004837
0.004837
0.004837
0.004837
0.004837
0.004837
0.004837
0.004837
0.004837
0.004837
0.000000
0.003221
0.003221
0.003221
0.003221
0.003221
0.003221
0.003221
0.003221
0.003221
0.003221
0.003221
0.003221
0.003221
0.003221
0.003221
0.003221
0.003221
0.003221
0.003221
0.003221
0.003221
0.003221
0.003221
0.003221
0.003221
0.003221
0.003221
0.003221
0.003221
0.003221
0.003221
0.003221
0.003221
0.003221
0.003221
0.003221
0.003221
0.003221
0.003221
0.003221
0.003221
0.003221
0.003221
0.003221
0.003221
0.003221
0.003221
0.003221
0.003221
0.003221
0.003221
0.003221
0.003221
0.003221
0.003221
0.003221
0.003221
0.003221
0.003221
0.003221
0.003221
0.003221
0.003221
0.003221
0.003221
0.003221
0.003221
0.003221
0.003221
0.003221
0.003221
0.003221
0.003221
0.003221
0.003221
0.003221
0.003221
0.003221
0.003221
0.003221
0.003221
0.003221
0.003221
0.003221
0.003221
0.003221
0.003221
0.003221
0.003221
0.003221
0.003221
0.003221
0.003221
0.003221
0.003221
0.003221
0.003221
0.003221
0.003221
0.003221
0.003221
0.003221
0.003221
0.003221
0.003221
0.003221
0.003221
0.003221
0.003221
0.003221
0.003221
0.003221
0.003221
0.003221
0.003221
0.003221
0.003221
0.003221
0.003221
0.003221
0.003221
0.003221
0.003221
0.003221
0.003221
0.003221
0.003221
0.003221
0.000000
-0.017165
-0.017165
-0.017165
-0.017165
-0.017165
-0.017165
-0.017165
-0.017165
-0.017165
-0.017165
-0.017165
-0.017165
-0.017165
-0.017165
-0.017165
-0.017165
-0.017165
-0.017165
-0.017165
-0.017165
-0.017165
-0.017165
-0.017165
-0.017165
-0.017165
-0.017165
-0.017165
-0.017165
-0.017165
-0.017165
-0.017165
-0.017165
-0.017165
-0.017165
-0.017165
-0.017165
-0.017165
-0.017165
-0.017165
-0.017165
-0.017165
-0.017165
-0.017165
-0.017165
-0.017165
-0.017165
-0.017165
-0.017165
-0.017165
-0.017165
-0.017165
-0.017165
-0.017165
-0.017165
-0.017165
-0.017165
-0.017165
-0.017165
-0.017165
-0.017165
-0.017165
-0.017165
-0.017165
-0.017165
-0.017165
-0.017165
-0.017165
-0.017165
-0.017165
-0.017165
-0.017165
-0.017165
-0.017165
-0.017165
-0.017165
-0.017165
-0.017165
-0.017165
-0.017165
-0.017165
-0.017165
-0.017165
-0.017165
-0.017165
-0.017165
-0.017165
-0.017165
-0.017165
-0.017165
-0.017165
-0.017165
-0.017165
-0.017165
-0.017165
-0.017165
-0.017165
-0.017165
-0.017165
-0.017165
-0.017165
-0.017165
-0.017165
-0.017165
-0.017165
-0.017165
-0.017165
-0.017165
-0.017165
-0.017165
-0.017165
-0.017165
-0.017165
-0.017165
-0.017165
-0.017165
-0.017165
-0.017165
-0.017165
-0.017165
-0.017165
-0.017165
-0.017165
-0.017165
-0.017165
-0.017165
-0.017165
-0.017165
-0.017165
0.000000
-0.001570
-0.001570
-0.001570
-0.001570
-0.001570
-0.001570
-0.001570
-0.001570
-0.001570
-0.001570
-0.001570
-0.001570
-0.001570
-0.001570
-0.001570
-0.001570
-0.001570
-0.001570
-0.001570
-0.001570
-0.001570
-0.001570
-0.001570
-0.001570
-0.001570
-0.001570
-0.001570
-0.001570
-0.001570
-0.001570
-0.001570
-0.001570
-0.001570
-0.001570
-0.001570
-0.001570
-0.001570
-0.001570
-0.001570
-0.001570
-0.001570
-0.001570
-0.001570
-0.001570
-0.001570
-0.001570
-0.001570
-0.001570
-0.001570
-0.001570
-0.001570
-0.001570
-0.001570
-0.001570
-0.001570
-0.001570
-0.001570
-0.001570
-0.001570
-0.001570
-0.001570
-0.001570
-0.001570
-0.001570
-0.001570
-0.001570
-0.001570
-0.001570
-0.001570
-0.001570
-0.001570
-0.001570
-0.001570
-0.001570
-0.001570
-0.001570
-0.001570
-0.001570
-0.001570
-0.001570
-0.001570
-0.001570
-0.001570
-0.001570
-0.001570
-0.001570
-0.001570
-0.001570
-0.001570
-0.001570
-0.001570
-0.001570
-0.001570
-0.001570
-0.001570
-0.001570
-0.001570
-0.001570
-0.001570
-0.001570
-0.001570
-0.001570
-0.001570
-0.001570
-0.001570
-0.001570
-0.001570
-0.001570
-0.001570
-0.001570
-0.001570
-0.001570
-0.001570
-0.001570
-0.001570
-0.001570
-0.001570
-0.001570
-0.001570
-0.001570
-0.001570
-0.001570
-0.001570
-0.001570
-0.001570
-0.001570
-0.001570
-0.001570
0.000000
-0.017165
-0.017165
-0.017165
-0.017165
-0.017165
-0.017165
-0.017165
-0.017165
-0.017165
-0.017165
-0.017165
-0.017165
-0.017165
-0.017165
-0.017165
-0.017165
-0.017165
-0.017165
-0.017165
-0.017165
-0.017165
-0.017165
-0.017165
-0.017165
-0.017165
-0.017165
-0.017165
-0.017165
-0.017165
-0.017165
-0.017165
-0.017165
-0.017165
-0.017165
-0.017165
-0.017165
-0.017165
-0.017165
-0.017165
-0.017165
-0.017165
-0.017165
-0.017165
-0.017165
-0.017165
-0.017165
-0.017165
-0.017165
-0.017165
-0.017165
-0.017165
-0.017165
-0.017165
-0.017165
-0.017165
-0.017165
-0.017165
-0.017165
-0.017165
-0.017165
-0.017165
-0.017165
-0.017165
-0.017165
-0.017165
-0.017165
-0.017165
-0.017165
-0.017165
-0.017165
-0.017165
-0.017165
-0.017165
-0.017165
-0.017165
-0.017165
-0.017165
-0.017165
-0.017165
-0.017165
-0.017165
-0.017165
-0.017165
-0.017165
-0.017165
-0.017165
-0.017165
-0.017165
-0.017165
-0.017165
-0.017165
-0.017165
-0.017165
-0.017165
-0.017165
-0.017165
-0.017165
-0.017165
-0.017165
-0.017165
-0.017165
-0.017165
-0.017165
-0.017165
-0.017165
-0.017165
-0.017165
-0.017165
-0.017165
-0.017165
-0.017165
-0.017165
-0.017165
-0.017165
-0.017165
-0.017165
-0.017165
-0.017165
-0.017165
-0.017165
-0.017165
-0.017165
-0.017165
-0.017165
-0.017165
-0.017165
-0.017165
-0.017165
0.000000
0.000000
0.000000
0.000000
0.000000
0.000000
0.000000
0.000000
0.000000
0.000000
0.000000
0.000000
0.000000
0.000000
0.000000
0.000000
0.000000
0.000000
0.000000
0.000000
0.000000
0.000000
0.000000
0.000000
0.000000
0.000000
0.000000
0.000000
0.000000
0.000000
0.000000
0.000000
0.000000
0.000000
0.000000
0.000000
0.000000
0.000000
0.000000
0.000000
0.000000
0.000000
0.000000
0.000000
0.000000
0.000000
0.000000
0.000000
0.000000
0.000000
0.000000
0.000000
