0.000000
0.000000
0.000000
0.000000
0.000000
0.000000
0.000000
0.000000
0.000000
0.000000
0.000000
0.000000
0.000000
0.000000
0.000000
0.000000
0.000000
0.000000
0.000000
0.000000
0.000000
0.000000
0.000000
0.000000
0.000000
0.000000
0.000000
0.000000
0.000000
0.000000
0.000000
0.000000
0.000000
0.000000
0.000000
0.000000
0.000000
0.000000
0.000000
0.000000
0.000000
0.000000
0.000000
0.000000
0.000000
0.000000
0.000000
0.000000
0.000000
0.000000
0.000000
0.000000
0.000000
0.000000
0.000000
0.000000
0.000000
0.000000
0.000000
0.000000
0.000000
0.000000
0.000000
0.000000
0.000000
0.000000
0.000000
0.000000
0.000000
0.000000
0.000000
0.000000
0.000000
0.000000
0.000000
0.000000
0.000000
0.000000
0.000000
0.000000
0.000000
0.000000
0.000000
0.000000
0.000000
0.000000
0.000000
0.000000
0.000000
0.000000
0.000000
0.000000
0.000000
0.000000
0.000000
0.000000
0.000000
0.000000
0.000000
0.000000
0.000000
0.000000
0.000000
0.000000
0.000000
0.000000
0.000000
0.000000
0.000000
0.000000
0.000000
0.000000
0.000000
0.000000
0.000000
0.000000
0.000000
0.000000
0.000000
0.000000
0.000000
0.000000
0.000000
0.000000
0.000000
0.000000
0.000000
0.000000
0.000000
-0.012792
-0.012792
-0.012792
-0.012792
-0.012792
-0.012792
-0.012792
-0.012792
-0.012792
-0.012792
-0.012792
-0.012792
-0.012792
-0.012792
-0.012792
-0.012792
-0.012792
-0.012792
-0.012792
-0.012792
-0.012792
-0.012792
-0.012792
-0.012792
-0.012792
-0.012792
-0.012792
-0.012792
-0.012792
-0.012792
-0.012792
-0.012792
-0.012792
-0.012792
-0.012792
-0.012792
-0.012792
-0.012792
-0.012792
-0.012792
-0.012792
-0.012792
-0.012792
-0.012792
-0.012792
-0.012792
-0.012792
-0.012792
-0.012792
-0.012792
-0.012792
-0.012792
-0.012792
-0.012792
-0.012792
-0.012792
-0.012792
-0.012792
-0.012792
-0.012792
-0.012792
-0.012792
-0.012792
-0.012792
-0.012792
-0.012792
-0.012792
-0.012792
-0.012792
-0.012792
-0.012792
-0.012792
-0.012792
-0.012792
-0.012792
-0.012792
-0.012792
-0.012792
-0.012792
-0.012792
-0.012792
-0.012792
-0.012792
-0.012792
-0.012792
-0.012792
-0.012792
-0.012792
-0.012792
-0.012792
-0.012792
-0.012792
-0.012792
-0.012792
-0.012792
-0.012792
-0.012792
-0.012792
-0.012792
-0.012792
-0.012792
-0.012792
-0.012792
-0.012792
-0.012792
-0.012792
-0.012792
-0.012792
-0.012792
-0.012792
-0.012792
-0.012792
-0.012792
-0.012792
-0.012792
-0.012792
-0.012792
-0.012792
-0.012792
-0.012792
-0.012792
-0.012792
-0.012792
-0.012792
-0.012792
-0.012792
-0.012792
-0.012792
0.000000
0.023908
0.023908
0.023908
0.023908
0.023908
0.023908
0.023908
0.023908
0.023908
0.023908
0.023908
0.023908
0.023908
0.023908
0.023908
0.023908
0.023908
0.023908
0.023908
0.023908
0.023908
0.023908
0.023908
0.023908
0.023908
0.023908
0.023908
0.023908
0.023908
0.023908
0.023908
0.023908
0.023908
0.023908
0.023908
0.023908
0.023908
0.023908
0.023908
0.023908
0.023908
0.023908
0.023908
0.023908
0.023908
0.023908
0.023908
0.023908
0.023908
0.023908
0.023908
0.023908
0.023908
0.023908
0.023908
0.023908
0.023908
0.023908
0.023908
0.023908
0.023908
0.023908
0.023908
0.023908
0.023908
0.023908
0.023908
0.023908
0.023908
0.023908
0.023908
0.023908
0.023908
0.023908
0.023908
0.023908
0.023908
0.023908
0.023908
0.023908
0.023908
0.023908
0.023908
0.023908
0.023908
0.023908
0.023908
0.023908
0.023908
0.023908
0.023908
0.023908
0.023908
0.023908
0.023908
0.023908
0.023908
0.023908
0.023908
0.023908
0.023908
0.023908
0.023908
0.023908
0.023908
0.023908
0.023908
0.023908
0.023908
0.023908
0.023908
0.023908
0.023908
0.023908
0.023908
0.023908
0.023908
0.023908
0.023908
0.023908
0.023908
0.023908
0.023908
0.023908
0.023908
0.023908
0.023908
0.023908
0.000000
-0.003629
-0.003629
-0.003629
-0.003629
-0.003629
-0.003629
-0.003629
-0.003629
-0.003629
-0.003629
-0.003629
-0.003629
-0.003629
-0.003629
-0.003629
-0.003629
-0.003629
-0.003629
-0.003629
-0.003629
-0.003629
-0.003629
-0.003629
-0.003629
-0.003629
-0.003629
-0.003629
-0.003629
-0.003629
-0.003629
-0.003629
-0.003629
-0.003629
-0.003629
-0.003629
-0.003629
-0.003629
-0.003629
-0.003629
-0.003629
-0.003629
-0.003629
-0.003629
-0.003629
-0.003629
-0.003629
-0.003629
-0.003629
-0.003629
-0.003629
-0.003629
-0.003629
-0.003629
-0.003629
-0.003629
-0.003629
-0.003629
-0.003629
-0.003629
-0.003629
-0.003629
-0.003629
-0.003629
-0.003629
-0.003629
-0.003629
-0.003629
-0.003629
-0.003629
-0.003629
-0.003629
-0.003629
-0.003629
-0.003629
-0.003629
-0.003629
-0.003629
-0.003629
-0.003629
-0.003629
-0.003629
-0.003629
-0.003629
-0.003629
-0.003629
-0.003629
-0.003629
-0.003629
-0.003629
-0.003629
-0.003629
-0.003629
-0.003629
-0.003629
-0.003629
-0.003629
-0.003629
-0.003629
-0.003629
-0.003629
-0.003629
-0.003629
-0.003629
-0.003629
-0.003629
-0.003629
-0.003629
-0.003629
-0.003629
-0.003629
-0.003629
-0.003629
-0.003629
-0.003629
-0.003629
-0.003629
-0.003629
-0.003629
-0.003629
-0.003629
-0.003629
-0.003629
-0.003629
-0.003629
-0.003629
-0.003629
-0.003629
-0.003629
0.000000
-0.017000
-0.017000
-0.017000
-0.017000
-0.017000
-0.017000
-0.017000
-0.017000
-0.017000
-0.017000
-0.017000
-0.017000
-0.017000
-0.017000
-0.017000
-0.017000
-0.017000
-0.017000
-0.017000
-0.017000
-0.017000
-0.017000
-0.017000
-0.017000
-0.017000
-0.017000
-0.017000
-0.017000
-0.017000
-0.017000
-0.017000
-0.017000
-0.017000
-0.017000
-0.017000
-0.017000
-0.017000
-0.017000
-0.017000
-0.017000
-0.017000
-0.017000
-0.017000
-0.017000
-0.017000
-0.017000
-0.017000
-0.017000
-0.017000
-0.017000
-0.017000
-0.017000
-0.017000
-0.017000
-0.017000
-0.017000
-0.017000
-0.017000
-0.017000
-0.017000
-0.017000
-0.017000
-0.017000
-0.017000
-0.017000
-0.017000
-0.017000
-0.017000
-0.017000
-0.017000
-0.017000
-0.017000
-0.017000
-0.017000
-0.017000
-0.017000
-0.017000
-0.017000
-0.017000
-0.017000
-0.017000
-0.017000
-0.017000
-0.017000
-0.017000
-0.017000
-0.017000
-0.017000
-0.017000
-0.017000
-0.017000
-0.017000
-0.017000
-0.017000
-0.017000
-0.017000
-0.017000
-0.017000
-0.017000
-0.017000
-0.017000
-0.017000
-0.017000
-0.017000
-0.017000
-0.017000
-0.017000
-0.017000
-0.017000
-0.017000
-0.017000
-0.017000
-0.017000
-0.017000
-0.017000
-0.017000
-0.017000
-0.017000
-0.017000
-0.017000
-0.017000
-0.017000
-0.017000
-0.017000
-0.017000
-0.017000
-0.017000
-0.017000
0.000000
-0.050559
-0.050559
-0.050559
-0.050559
-0.050559
-0.050559
-0.050559
-0.050559
-0.050559
-0.050559
-0.050559
-0.050559
-0.050559
-0.050559
-0.050559
-0.050559
-0.050559
-0.050559
-0.050559
-0.050559
-0.050559
-0.050559
-0.050559
-0.050559
-0.050559
-0.050559
-0.050559
-0.050559
-0.050559
-0.050559
-0.050559
-0.050559
-0.050559
-0.050559
-0.050559
-0.050559
-0.050559
-0.050559
-0.050559
-0.050559
-0.050559
-0.050559
-0.050559
-0.050559
-0.050559
-0.050559
-0.050559
-0.050559
-0.050559
-0.050559
-0.050559
-0.050559
-0.050559
-0.050559
-0.050559
-0.050559
-0.050559
-0.050559
-0.050559
-0.050559
-0.050559
-0.050559
-0.050559
-0.050559
-0.050559
-0.050559
-0.050559
-0.050559
-0.050559
-0.050559
-0.050559
-0.050559
-0.050559
-0.050559
-0.050559
-0.050559
-0.050559
-0.050559
-0.050559
-0.050559
-0.050559
-0.050559
-0.050559
-0.050559
-0.050559
-0.050559
-0.050559
-0.050559
-0.050559
-0.050559
-0.050559
-0.050559
-0.050559
-0.050559
-0.050559
-0.050559
-0.050559
-0.050559
-0.050559
-0.050559
-0.050559
-0.050559
-0.050559
-0.050559
-0.050559
-0.050559
-0.050559
-0.050559
-0.050559
-0.050559
-0.050559
-0.050559
-0.050559
-0.050559
-0.050559
-0.050559
-0.050559
-0.050559
-0.050559
-0.050559
-0.050559
-0.050559
-0.050559
-0.050559
-0.050559
-0.050559
-0.050559
-0.050559
0.000000
-0.008083
-0.008083
-0.008083
-0.008083
-0.008083
-0.008083
-0.008083
-0.008083
-0.008083
-0.008083
-0.008083
-0.008083
-0.008083
-0.008083
-0.008083
-0.008083
-0.008083
-0.008083
-0.008083
-0.008083
-0.008083
-0.008083
-0.008083
-0.008083
-0.008083
-0.008083
-0.008083
-0.008083
-0.008083
-0.008083
-0.008083
-0.008083
-0.008083
-0.008083
-0.008083
-0.008083
-0.008083
-0.008083
-0.008083
-0.008083
-0.008083
-0.008083
-0.008083
-0.008083
-0.008083
-0.008083
-0.008083
-0.008083
-0.008083
-0.008083
-0.008083
-0.008083
-0.008083
-0.008083
-0.008083
-0.008083
-0.008083
-0.008083
-0.008083
-0.008083
-0.008083
-0.008083
-0.008083
-0.008083
-0.008083
-0.008083
-0.008083
-0.008083
-0.008083
-0.008083
-0.008083
-0.008083
-0.008083
-0.008083
-0.008083
-0.008083
-0.008083
-0.008083
-0.008083
-0.008083
-0.008083
-0.008083
-0.008083
-0.008083
-0.008083
-0.008083
-0.008083
-0.008083
-0.008083
-0.008083
-0.008083
-0.008083
-0.008083
-0.008083
-0.008083
-0.008083
-0.008083
-0.008083
-0.008083
-0.008083
-0.008083
-0.008083
-0.008083
-0.008083
-0.008083
-0.008083
-0.008083
-0.008083
-0.008083
-0.008083
-0.008083
-0.008083
-0.008083
-0.008083
-0.008083
-0.008083
-0.008083
-0.008083
-0.008083
-0.008083
-0.008083
-0.008083
-0.008083
-0.008083
-0.008083
-0.008083
-0.008083
-0.008083
0.000000
0.000000
0.000000
0.000000
0.000000
0.000000
0.000000
0.000000
0.000000
0.000000
0.000000
0.000000
0.000000
0.000000
0.000000
0.000000
0.000000
0.000000
0.000000
0.000000
0.000000
0.000000
0.000000
0.000000
0.000000
0.000000
0.000000
0.000000
0.000000
0.000000
0.000000
0.000000
0.000000
0.000000
0.000000
0.000000
0.000000
0.000000
0.000000
0.000000
0.000000
0.000000
0.000000
0.000000
0.000000
0.000000
0.000000
0.000000
0.000000
0.000000
0.000000
0.000000
0.000000
0.000000
0.000000
0.000000
0.000000
0.000000
0.000000
0.000000
0.000000
0.000000
0.000000
0.000000
0.000000
0.000000
0.000000
0.000000
0.000000
0.000000
0.000000
0.000000
0.000000
0.000000
0.000000
0.000000
0.000000
0.000000
0.000000
0.000000
0.000000
0.000000
0.000000
0.000000
0.000000
0.000000
0.000000
0.000000
0.000000
0.000000
0.000000
0.000000
0.000000
0.000000
0.000000
0.000000
0.000000
0.000000
0.000000
0.000000
0.000000
0.000000
0.000000
0.000000
0.000000
0.000000
0.000000
0.000000
0.000000
0.000000
0.000000
0.000000
0.000000
0.000000
0.000000
0.000000
0.000000
0.000000
0.000000
0.000000
0.000000
0.000000
0.000000
0.000000
0.000000
0.000000
0.000000
0.000000
0.000000
0.000000
-0.040329
-0.040329
-0.040329
-0.040329
-0.040329
-0.040329
-0.040329
-0.040329
-0.040329
-0.040329
-0.040329
-0.040329
-0.040329
-0.040329
-0.040329
-0.040329
-0.040329
-0.040329
-0.040329
-0.040329
-0.040329
-0.040329
-0.040329
-0.040329
-0.040329
-0.040329
-0.040329
-0.040329
-0.040329
-0.040329
-0.040329
-0.040329
-0.040329
-0.040329
-0.040329
-0.040329
-0.040329
-0.040329
-0.040329
-0.040329
-0.040329
-0.040329
-0.040329
-0.040329
-0.040329
-0.040329
-0.040329
-0.040329
-0.040329
-0.040329
-0.040329
-0.040329
-0.040329
-0.040329
-0.040329
-0.040329
-0.040329
-0.040329
-0.040329
-0.040329
-0.040329
-0.040329
-0.040329
-0.040329
-0.040329
-0.040329
-0.040329
-0.040329
-0.040329
-0.040329
-0.040329
-0.040329
-0.040329
-0.040329
-0.040329
-0.040329
-0.040329
-0.040329
-0.040329
-0.040329
-0.040329
-0.040329
-0.040329
-0.040329
-0.040329
-0.040329
-0.040329
-0.040329
-0.040329
-0.040329
-0.040329
-0.040329
-0.040329
-0.040329
-0.040329
-0.040329
-0.040329
-0.040329
-0.040329
-0.040329
-0.040329
-0.040329
-0.040329
-0.040329
-0.040329
-0.040329
-0.040329
-0.040329
-0.040329
-0.040329
-0.040329
-0.040329
-0.040329
-0.040329
-0.040329
-0.040329
-0.040329
-0.040329
-0.040329
-0.040329
-0.040329
-0.040329
-0.040329
-0.040329
-0.040329
-0.040329
-0.040329
-0.040329
0.000000
-0.030421
-0.030421
-0.030421
-0.030421
-0.030421
-0.030421
-0.030421
-0.030421
-0.030421
-0.030421
-0.030421
-0.030421
-0.030421
-0.030421
-0.030421
-0.030421
-0.030421
-0.030421
-0.030421
-0.030421
-0.030421
-0.030421
-0.030421
-0.030421
-0.030421
-0.030421
-0.030421
-0.030421
-0.030421
-0.030421
-0.030421
-0.030421
-0.030421
-0.030421
-0.030421
-0.030421
-0.030421
-0.030421
-0.030421
-0.030421
-0.030421
-0.030421
-0.030421
-0.030421
-0.030421
-0.030421
-0.030421
-0.030421
-0.030421
-0.030421
-0.030421
-0.030421
-0.030421
-0.030421
-0.030421
-0.030421
-0.030421
-0.030421
-0.030421
-0.030421
-0.030421
-0.030421
-0.030421
-0.030421
-0.030421
-0.030421
-0.030421
-0.030421
-0.030421
-0.030421
-0.030421
-0.030421
-0.030421
-0.030421
-0.030421
-0.030421
-0.030421
-0.030421
-0.030421
-0.030421
-0.030421
-0.030421
-0.030421
-0.030421
-0.030421
-0.030421
-0.030421
-0.030421
-0.030421
-0.030421
-0.030421
-0.030421
-0.030421
-0.030421
-0.030421
-0.030421
-0.030421
-0.030421
-0.030421
-0.030421
-0.030421
-0.030421
-0.030421
-0.030421
-0.030421
-0.030421
-0.030421
-0.030421
-0.030421
-0.030421
-0.030421
-0.030421
-0.030421
-0.030421
-0.030421
-0.030421
-0.030421
-0.030421
-0.030421
-0.030421
-0.030421
-0.030421
-0.030421
-0.030421
-0.030421
-0.030421
-0.030421
-0.030421
0.000000
-0.017000
-0.017000
-0.017000
-0.017000
-0.017000
-0.017000
-0.017000
-0.017000
-0.017000
-0.017000
-0.017000
-0.017000
-0.017000
-0.017000
-0.017000
-0.017000
-0.017000
-0.017000
-0.017000
-0.017000
-0.017000
-0.017000
-0.017000
-0.017000
-0.017000
-0.017000
-0.017000
-0.017000
-0.017000
-0.017000
-0.017000
-0.017000
-0.017000
-0.017000
-0.017000
-0.017000
-0.017000
-0.017000
-0.017000
-0.017000
-0.017000
-0.017000
-0.017000
-0.017000
-0.017000
-0.017000
-0.017000
-0.017000
-0.017000
-0.017000
-0.017000
-0.017000
-0.017000
-0.017000
-0.017000
-0.017000
-0.017000
-0.017000
-0.017000
-0.017000
-0.017000
-0.017000
-0.017000
-0.017000
-0.017000
-0.017000
-0.017000
-0.017000
-0.017000
-0.017000
-0.017000
-0.017000
-0.017000
-0.017000
-0.017000
-0.017000
-0.017000
-0.017000
-0.017000
-0.017000
-0.017000
-0.017000
-0.017000
-0.017000
-0.017000
-0.017000
-0.017000
-0.017000
-0.017000
-0.017000
-0.017000
-0.017000
-0.017000
-0.017000
-0.017000
-0.017000
-0.017000
-0.017000
-0.017000
-0.017000
-0.017000
-0.017000
-0.017000
-0.017000
-0.017000
-0.017000
-0.017000
-0.017000
-0.017000
-0.017000
-0.017000
-0.017000
-0.017000
-0.017000
-0.017000
-0.017000
-0.017000
-0.017000
-0.017000
-0.017000
-0.017000
-0.017000
-0.017000
-0.017000
-0.017000
-0.017000
-0.017000
-0.017000
0.000000
-0.012792
-0.012792
-0.012792
-0.012792
-0.012792
-0.012792
-0.012792
-0.012792
-0.012792
-0.012792
-0.012792
-0.012792
-0.012792
-0.012792
-0.012792
-0.012792
-0.012792
-0.012792
-0.012792
-0.012792
-0.012792
-0.012792
-0.012792
-0.012792
-0.012792
-0.012792
-0.012792
-0.012792
-0.012792
-0.012792
-0.012792
-0.012792
-0.012792
-0.012792
-0.012792
-0.012792
-0.012792
-0.012792
-0.012792
-0.012792
-0.012792
-0.012792
-0.012792
-0.012792
-0.012792
-0.012792
-0.012792
-0.012792
-0.012792
-0.012792
-0.012792
-0.012792
-0.012792
-0.012792
-0.012792
-0.012792
-0.012792
-0.012792
-0.012792
-0.012792
-0.012792
-0.012792
-0.012792
-0.012792
-0.012792
-0.012792
-0.012792
-0.012792
-0.012792
-0.012792
-0.012792
-0.012792
-0.012792
-0.012792
-0.012792
-0.012792
-0.012792
-0.012792
-0.012792
-0.012792
-0.012792
-0.012792
-0.012792
-0.012792
-0.012792
-0.012792
-0.012792
-0.012792
-0.012792
-0.012792
-0.012792
-0.012792
-0.012792
-0.012792
-0.012792
-0.012792
-0.012792
-0.012792
-0.012792
-0.012792
-0.012792
-0.012792
-0.012792
-0.012792
-0.012792
-0.012792
-0.012792
-0.012792
-0.012792
-0.012792
-0.012792
-0.012792
-0.012792
-0.012792
-0.012792
-0.012792
-0.012792
-0.012792
-0.012792
-0.012792
-0.012792
-0.012792
-0.012792
-0.012792
-0.012792
-0.012792
-0.012792
-0.012792
0.000000
0.000000
0.000000
0.000000
0.000000
0.000000
0.000000
0.000000
0.000000
0.000000
0.000000
0.000000
0.000000
0.000000
0.000000
0.000000
0.000000
0.000000
0.000000
0.000000
0.000000
0.000000
0.000000
0.000000
0.000000
0.000000
0.000000
0.000000
0.000000
0.000000
0.000000
0.000000
0.000000
0.000000
0.000000
0.000000
0.000000
0.000000
0.000000
0.000000
0.000000
0.000000
0.000000
0.000000
0.000000
0.000000
0.000000
0.000000
0.000000
0.000000
0.000000
0.000000
0.000000
0.000000
0.000000
0.000000
0.000000
0.000000
0.000000
0.000000
0.000000
0.000000
0.000000
0.000000
0.000000
0.000000
0.000000
0.000000
0.000000
0.000000
0.000000
0.000000
0.000000
0.000000
0.000000
0.000000
0.000000
0.000000
0.000000
0.000000
0.000000
0.000000
0.000000
0.000000
0.000000
0.000000
0.000000
0.000000
0.000000
0.000000
0.000000
0.000000
0.000000
0.000000
0.000000
0.000000
0.000000
0.000000
0.000000
0.000000
0.000000
0.000000
0.000000
0.000000
0.000000
0.000000
0.000000
0.000000
0.000000
0.000000
0.000000
0.000000
0.000000
0.000000
0.000000
0.000000
0.000000
0.000000
0.000000
0.000000
0.000000
0.000000
0.000000
0.000000
0.000000
0.000000
0.000000
0.000000
0.000000
0.000000
0.000000
0.000000
0.000000
0.000000
0.000000
0.000000
0.000000
0.000000
0.000000
0.000000
0.000000
0.000000
0.000000
0.000000
0.000000
0.000000
0.000000
0.000000
0.000000
0.000000
0.000000
0.000000
0.000000
0.000000
0.000000
0.000000
0.000000
0.000000
0.000000
0.000000
0.000000
0.000000
0.000000
0.000000
0.000000
0.000000
0.000000
0.000000
0.000000
0.000000
0.000000
0.000000
0.000000
0.000000
0.000000
0.000000
0.000000
0.000000
0.000000
0.000000
0.000000
0.000000
0.000000
0.000000
0.000000
0.000000
0.000000
0.000000
0.000000
0.000000
0.000000
0.000000
0.000000
0.000000
0.000000
0.000000
0.000000
0.000000
0.000000
0.000000
0.000000
0.000000
0.000000
0.000000
0.000000
0.000000
0.000000
0.000000
0.000000
0.000000
0.000000
0.000000
0.000000
0.000000
0.000000
0.000000
0.000000
0.000000
0.000000
0.000000
0.000000
0.000000
0.000000
0.000000
0.000000
0.000000
0.000000
0.000000
0.000000
0.000000
0.000000
0.000000
0.000000
0.000000
0.000000
0.000000
0.000000
0.000000
0.000000
0.000000
0.000000
0.000000
0.000000
0.000000
0.000000
0.000000
0.000000
0.000000
0.000000
0.000000
0.000000
0.000000
0.000000
0.000000
0.000000
0.000000
0.000000
0.000000
0.000000
0.023908
0.023908
0.023908
0.023908
0.023908
0.023908
0.023908
0.023908
0.023908
0.023908
0.023908
0.023908
0.023908
0.023908
0.023908
0.023908
0.023908
0.023908
0.023908
0.023908
0.023908
0.023908
0.023908
0.023908
0.023908
0.023908
0.023908
0.023908
0.023908
0.023908
0.023908
0.023908
0.023908
0.023908
0.023908
0.023908
0.023908
0.023908
0.023908
0.023908
0.023908
0.023908
0.023908
0.023908
0.023908
0.023908
0.023908
0.023908
0.023908
0.023908
0.023908
0.023908
0.023908
0.023908
0.023908
0.023908
0.023908
0.023908
0.023908
0.023908
0.023908
0.023908
0.023908
0.023908
0.023908
0.023908
0.023908
0.023908
0.023908
0.023908
0.023908
0.023908
0.023908
0.023908
0.023908
0.023908
0.023908
0.023908
0.023908
0.023908
0.023908
0.023908
0.023908
0.023908
0.023908
0.023908
0.023908
0.023908
0.023908
0.023908
0.023908
0.023908
0.023908
0.023908
0.023908
0.023908
0.023908
0.023908
0.023908
0.023908
0.023908
0.023908
0.023908
0.023908
0.023908
0.023908
0.023908
0.023908
0.023908
0.023908
0.023908
0.023908
0.023908
0.023908
0.023908
0.023908
0.023908
0.023908
0.023908
0.023908
0.023908
0.023908
0.023908
0.023908
0.023908
0.023908
0.023908
0.023908
0.000000
0.023908
0.023908
0.023908
0.023908
0.023908
0.023908
0.023908
0.023908
0.023908
0.023908
0.023908
0.023908
0.023908
0.023908
0.023908
0.023908
0.023908
0.023908
0.023908
0.023908
0.023908
0.023908
0.023908
0.023908
0.023908
0.023908
0.023908
0.023908
0.023908
0.023908
0.023908
0.023908
0.023908
0.023908
0.023908
0.023908
0.023908
0.023908
0.023908
0.023908
0.023908
0.023908
0.023908
0.023908
0.023908
0.023908
0.023908
0.023908
0.023908
0.023908
0.023908
0.023908
0.023908
0.023908
0.023908
0.023908
0.023908
0.023908
0.023908
0.023908
0.023908
0.023908
0.023908
0.023908
0.023908
0.023908
0.023908
0.023908
0.023908
0.023908
0.023908
0.023908
0.023908
0.023908
0.023908
0.023908
0.023908
0.023908
0.023908
0.023908
0.023908
0.023908
0.023908
0.023908
0.023908
0.023908
0.023908
0.023908
0.023908
0.023908
0.023908
0.023908
0.023908
0.023908
0.023908
0.023908
0.023908
0.023908
0.023908
0.023908
0.023908
0.023908
0.023908
0.023908
0.023908
0.023908
0.023908
0.023908
0.023908
0.023908
0.023908
0.023908
0.023908
0.023908
0.023908
0.023908
0.023908
0.023908
0.023908
0.023908
0.023908
0.023908
0.023908
0.023908
0.023908
0.023908
0.023908
0.023908
0.000000
0.000000
0.000000
0.000000
0.000000
0.000000
0.000000
0.000000
0.000000
0.000000
0.000000
0.000000
0.000000
0.000000
0.000000
0.000000
0.000000
0.000000
0.000000
0.000000
0.000000
0.000000
0.000000
0.000000
0.000000
0.000000
0.000000
0.000000
0.000000
0.000000
0.000000
0.000000
0.000000
0.000000
0.000000
0.000000
0.000000
0.000000
0.000000
0.000000
0.000000
0.000000
0.000000
0.000000
0.000000
0.000000
0.000000
0.000000
0.000000
0.000000
0.000000
0.000000
0.000000
0.000000
0.000000
0.000000
0.000000
0.000000
0.000000
0.000000
0.000000
0.000000
0.000000
0.000000
0.000000
0.000000
0.000000
0.000000
0.000000
0.000000
0.000000
0.000000
0.000000
0.000000
0.000000
0.000000
0.000000
0.000000
0.000000
0.000000
0.000000
0.000000
0.000000
0.000000
0.000000
0.000000
0.000000
0.000000
0.000000
0.000000
0.000000
0.000000
0.000000
0.000000
0.000000
0.000000
0.000000
0.000000
0.000000
0.000000
0.000000
0.000000
0.000000
0.000000
0.000000
0.000000
0.000000
0.000000
0.000000
0.000000
0.000000
0.000000
0.000000
0.000000
0.000000
0.000000
0.000000
0.000000
0.000000
0.000000
0.000000
0.000000
0.000000
0.000000
0.000000
0.000000
0.000000
0.000000
0.000000
0.000000
0.000000
0.000000
0.000000
0.000000
0.000000
0.000000
0.000000
0.000000
0.000000
0.000000
0.000000
0.000000
0.000000
0.000000
0.000000
0.000000
0.000000
0.000000
0.000000
0.000000
0.000000
0.000000
0.000000
0.000000
0.000000
0.000000
0.000000
0.000000
0.000000
0.000000
0.000000
0.000000
0.000000
0.000000
0.000000
0.000000
0.000000
0.000000
0.000000
0.000000
0.000000
0.000000
0.000000
0.000000
0.000000
0.000000
0.000000
0.000000
0.000000
0.000000
0.000000
0.000000
0.000000
0.000000
0.000000
0.000000
0.000000
0.000000
0.000000
0.000000
0.000000
0.000000
0.000000
0.000000
0.000000
0.000000
0.000000
0.000000
0.000000
0.000000
0.000000
0.000000
0.000000
0.000000
0.000000
0.000000
0.000000
0.000000
0.000000
0.000000
0.000000
0.000000
0.000000
0.000000
0.000000
0.000000
0.000000
0.000000
0.000000
0.000000
0.000000
0.000000
0.000000
0.000000
0.000000
0.000000
0.000000
0.000000
0.000000
0.000000
0.000000
0.000000
0.000000
0.000000
0.000000
0.000000
0.000000
0.000000
0.000000
0.000000
0.000000
0.000000
0.000000
0.000000
0.000000
0.000000
0.000000
0.000000
0.000000
0.000000
0.000000
0.000000
0.000000
0.000000
0.000000
0.000000
0.000000
0.000000
0.000000
0.006908
0.006908
0.006908
0.006908
0.006908
0.006908
0.006908
0.006908
0.006908
0.006908
0.006908
0.006908
0.006908
0.006908
0.006908
0.006908
0.006908
0.006908
0.006908
0.006908
0.006908
0.006908
0.006908
0.006908
0.006908
0.006908
0.006908
0.006908
0.006908
0.006908
0.006908
0.006908
0.006908
0.006908
0.006908
0.006908
0.006908
0.006908
0.006908
0.006908
0.006908
0.006908
0.006908
0.006908
0.006908
0.006908
0.006908
0.006908
0.006908
0.006908
0.006908
0.006908
0.006908
0.006908
0.006908
0.006908
0.006908
0.006908
0.006908
0.006908
0.006908
0.006908
0.006908
0.006908
0.006908
0.006908
0.006908
0.006908
0.006908
0.006908
0.006908
0.006908
0.006908
0.006908
0.006908
0.006908
0.006908
0.006908
0.006908
0.006908
0.006908
0.006908
0.006908
0.006908
0.006908
0.006908
0.006908
0.006908
0.006908
0.006908
0.006908
0.006908
0.006908
0.006908
0.006908
0.006908
0.006908
0.006908
0.006908
0.006908
0.006908
0.006908
0.006908
0.006908
0.006908
0.006908
0.006908
0.006908
0.006908
0.006908
0.006908
0.006908
0.006908
0.006908
0.006908
0.006908
0.006908
0.006908
0.006908
0.006908
0.006908
0.006908
0.006908
0.006908
0.006908
0.006908
0.006908
0.006908
0.000000
0.006908
0.006908
0.006908
0.006908
0.006908
0.006908
0.006908
0.006908
0.006908
0.006908
0.006908
0.006908
0.006908
0.006908
0.006908
0.006908
0.006908
0.006908
0.006908
0.006908
0.006908
0.006908
0.006908
0.006908
0.006908
0.006908
0.006908
0.006908
0.006908
0.006908
0.006908
0.006908
0.006908
0.006908
0.006908
0.006908
0.006908
0.006908
0.006908
0.006908
0.006908
0.006908
0.006908
0.006908
0.006908
0.006908
0.006908
0.006908
0.006908
0.006908
0.006908
0.006908
0.006908
0.006908
0.006908
0.006908
0.006908
0.006908
0.006908
0.006908
0.006908
0.006908
0.006908
0.006908
0.006908
0.006908
0.006908
0.006908
0.006908
0.006908
0.006908
0.006908
0.006908
0.006908
0.006908
0.006908
0.006908
0.006908
0.006908
0.006908
0.006908
0.006908
0.006908
0.006908
0.006908
0.006908
0.006908
0.006908
0.006908
0.006908
0.006908
0.006908
0.006908
0.006908
0.006908
0.006908
0.006908
0.006908
0.006908
0.006908
0.006908
0.006908
0.006908
0.006908
0.006908
0.006908
0.006908
0.006908
0.006908
0.006908
0.006908
0.006908
0.006908
0.006908
0.006908
0.006908
0.006908
0.006908
0.006908
0.006908
0.006908
0.006908
0.006908
0.006908
0.006908
0.006908
0.006908
0.006908
0.000000
0.000000
0.000000
0.000000
0.000000
0.000000
0.000000
0.000000
0.000000
0.000000
0.000000
0.000000
0.000000
0.000000
0.000000
0.000000
0.000000
0.000000
0.000000
0.000000
0.000000
0.000000
0.000000
0.000000
0.000000
0.000000
0.000000
0.000000
0.000000
0.000000
0.000000
0.000000
0.000000
0.000000
0.000000
0.000000
0.000000
0.000000
0.000000
0.000000
0.000000
0.000000
0.000000
0.000000
0.000000
0.000000
0.000000
0.000000
0.000000
0.000000
0.000000
0.000000
0.000000
0.000000
0.000000
0.000000
0.000000
0.000000
0.000000
0.000000
0.000000
0.000000
0.000000
0.000000
0.000000
0.000000
0.000000
0.000000
0.000000
0.000000
0.000000
0.000000
0.000000
0.000000
0.000000
0.000000
0.000000
0.000000
0.000000
0.000000
0.000000
0.000000
0.000000
0.000000
0.000000
0.000000
0.000000
0.000000
0.000000
0.000000
0.000000
0.000000
0.000000
0.000000
0.000000
0.000000
0.000000
0.000000
0.000000
0.000000
0.000000
0.000000
0.000000
0.000000
0.000000
0.000000
0.000000
0.000000
0.000000
0.000000
0.000000
0.000000
0.000000
0.000000
0.000000
0.000000
0.000000
0.000000
0.000000
0.000000
0.000000
0.000000
0.000000
0.000000
0.000000
0.000000
0.000000
0.000000
0.000000
0.000000
-0.064039
-0.064039
-0.064039
-0.064039
-0.064039
-0.064039
-0.064039
-0.064039
-0.064039
-0.064039
-0.064039
-0.064039
-0.064039
-0.064039
-0.064039
-0.064039
-0.064039
-0.064039
-0.064039
-0.064039
-0.064039
-0.064039
-0.064039
-0.064039
-0.064039
-0.064039
-0.064039
-0.064039
-0.064039
-0.064039
-0.064039
-0.064039
-0.064039
-0.064039
-0.064039
-0.064039
-0.064039
-0.064039
-0.064039
-0.064039
-0.064039
-0.064039
-0.064039
-0.064039
-0.064039
-0.064039
-0.064039
-0.064039
-0.064039
-0.064039
-0.064039
-0.064039
-0.064039
-0.064039
-0.064039
-0.064039
-0.064039
-0.064039
-0.064039
-0.064039
-0.064039
-0.064039
-0.064039
-0.064039
-0.064039
-0.064039
-0.064039
-0.064039
-0.064039
-0.064039
-0.064039
-0.064039
-0.064039
-0.064039
-0.064039
-0.064039
-0.064039
-0.064039
-0.064039
-0.064039
-0.064039
-0.064039
-0.064039
-0.064039
-0.064039
-0.064039
-0.064039
-0.064039
-0.064039
-0.064039
-0.064039
-0.064039
-0.064039
-0.064039
-0.064039
-0.064039
-0.064039
-0.064039
-0.064039
-0.064039
-0.064039
-0.064039
-0.064039
-0.064039
-0.064039
-0.064039
-0.064039
-0.064039
-0.064039
-0.064039
-0.064039
-0.064039
-0.064039
-0.064039
-0.064039
-0.064039
-0.064039
-0.064039
-0.064039
-0.064039
-0.064039
-0.064039
-0.064039
-0.064039
-0.064039
-0.064039
-0.064039
-0.064039
0.000000
-0.064039
-0.064039
-0.064039
-0.064039
-0.064039
-0.064039
-0.064039
-0.064039
-0.064039
-0.064039
-0.064039
-0.064039
-0.064039
-0.064039
-0.064039
-0.064039
-0.064039
-0.064039
-0.064039
-0.064039
-0.064039
-0.064039
-0.064039
-0.064039
-0.064039
-0.064039
-0.064039
-0.064039
-0.064039
-0.064039
-0.064039
-0.064039
-0.064039
-0.064039
-0.064039
-0.064039
-0.064039
-0.064039
-0.064039
-0.064039
-0.064039
-0.064039
-0.064039
-0.064039
-0.064039
-0.064039
-0.064039
-0.064039
-0.064039
-0.064039
-0.064039
-0.064039
-0.064039
-0.064039
-0.064039
-0.064039
-0.064039
-0.064039
-0.064039
-0.064039
-0.064039
-0.064039
-0.064039
-0.064039
-0.064039
-0.064039
-0.064039
-0.064039
-0.064039
-0.064039
-0.064039
-0.064039
-0.064039
-0.064039
-0.064039
-0.064039
-0.064039
-0.064039
-0.064039
-0.064039
-0.064039
-0.064039
-0.064039
-0.064039
-0.064039
-0.064039
-0.064039
-0.064039
-0.064039
-0.064039
-0.064039
-0.064039
-0.064039
-0.064039
-0.064039
-0.064039
-0.064039
-0.064039
-0.064039
-0.064039
-0.064039
-0.064039
-0.064039
-0.064039
-0.064039
-0.064039
-0.064039
-0.064039
-0.064039
-0.064039
-0.064039
-0.064039
-0.064039
-0.064039
-0.064039
-0.064039
-0.064039
-0.064039
-0.064039
-0.064039
-0.064039
-0.064039
-0.064039
-0.064039
-0.064039
-0.064039
-0.064039
-0.064039
0.000000
0.014115
0.014115
0.014115
0.014115
0.014115
0.014115
0.014115
0.014115
0.014115
0.014115
0.014115
0.014115
0.014115
0.014115
0.014115
0.014115
0.014115
0.014115
0.014115
0.014115
0.014115
0.014115
0.014115
0.014115
0.014115
0.014115
0.014115
0.014115
0.014115
0.014115
0.014115
0.014115
0.014115
0.014115
0.014115
0.014115
0.014115
0.014115
0.014115
0.014115
0.014115
0.014115
0.014115
0.014115
0.014115
0.014115
0.014115
0.014115
0.014115
0.014115
0.014115
0.014115
0.014115
0.014115
0.014115
0.014115
0.014115
0.014115
0.014115
0.014115
0.014115
0.014115
0.014115
0.014115
0.014115
0.014115
0.014115
0.014115
0.014115
0.014115
0.014115
0.014115
0.014115
0.014115
0.014115
0.014115
0.014115
0.014115
0.014115
0.014115
0.014115
0.014115
0.014115
0.014115
0.014115
0.014115
0.014115
0.014115
0.014115
0.014115
0.014115
0.014115
0.014115
0.014115
0.014115
0.014115
0.014115
0.014115
0.014115
0.014115
0.014115
0.014115
0.014115
0.014115
0.014115
0.014115
0.014115
0.014115
0.014115
0.014115
0.014115
0.014115
0.014115
0.014115
0.014115
0.014115
0.014115
0.014115
0.014115
0.014115
0.014115
0.014115
0.014115
0.014115
0.014115
0.014115
0.014115
0.014115
0.000000
0.000000
0.000000
0.000000
0.000000
0.000000
0.000000
0.000000
0.000000
0.000000
0.000000
0.000000
0.000000
0.000000
0.000000
0.000000
0.000000
0.000000
0.000000
0.000000
0.000000
0.000000
0.000000
0.000000
0.000000
0.000000
0.000000
0.000000
0.000000
0.000000
0.000000
0.000000
0.000000
0.000000
0.000000
0.000000
0.000000
0.000000
0.000000
0.000000
0.000000
0.000000
0.000000
0.000000
0.000000
0.000000
0.000000
0.000000
0.000000
0.000000
0.000000
0.000000
0.000000
0.000000
0.000000
0.000000
0.000000
0.000000
0.000000
0.000000
0.000000
0.000000
0.000000
0.000000
0.000000
0.000000
0.000000
0.000000
0.000000
0.000000
0.000000
0.000000
0.000000
0.000000
0.000000
0.000000
0.000000
0.000000
0.000000
0.000000
0.000000
0.000000
0.000000
0.000000
0.000000
0.000000
0.000000
0.000000
0.000000
0.000000
0.000000
0.000000
0.000000
0.000000
0.000000
0.000000
0.000000
0.000000
0.000000
0.000000
0.000000
0.000000
0.000000
0.000000
0.000000
0.000000
0.000000
0.000000
0.000000
0.000000
0.000000
0.000000
0.000000
0.000000
0.000000
0.000000
0.000000
0.000000
0.000000
0.000000
0.000000
0.000000
0.000000
0.000000
0.000000
0.000000
0.000000
0.000000
0.000000
0.000000
-0.034414
-0.034414
-0.034414
-0.034414
-0.034414
-0.034414
-0.034414
-0.034414
-0.034414
-0.034414
-0.034414
-0.034414
-0.034414
-0.034414
-0.034414
-0.034414
-0.034414
-0.034414
-0.034414
-0.034414
-0.034414
-0.034414
-0.034414
-0.034414
-0.034414
-0.034414
-0.034414
-0.034414
-0.034414
-0.034414
-0.034414
-0.034414
-0.034414
-0.034414
-0.034414
-0.034414
-0.034414
-0.034414
-0.034414
-0.034414
-0.034414
-0.034414
-0.034414
-0.034414
-0.034414
-0.034414
-0.034414
-0.034414
-0.034414
-0.034414
-0.034414
-0.034414
-0.034414
-0.034414
-0.034414
-0.034414
-0.034414
-0.034414
-0.034414
-0.034414
-0.034414
-0.034414
-0.034414
-0.034414
-0.034414
-0.034414
-0.034414
-0.034414
-0.034414
-0.034414
-0.034414
-0.034414
-0.034414
-0.034414
-0.034414
-0.034414
-0.034414
-0.034414
-0.034414
-0.034414
-0.034414
-0.034414
-0.034414
-0.034414
-0.034414
-0.034414
-0.034414
-0.034414
-0.034414
-0.034414
-0.034414
-0.034414
-0.034414
-0.034414
-0.034414
-0.034414
-0.034414
-0.034414
-0.034414
-0.034414
-0.034414
-0.034414
-0.034414
-0.034414
-0.034414
-0.034414
-0.034414
-0.034414
-0.034414
-0.034414
-0.034414
-0.034414
-0.034414
-0.034414
-0.034414
-0.034414
-0.034414
-0.034414
-0.034414
-0.034414
-0.034414
-0.034414
-0.034414
-0.034414
-0.034414
-0.034414
-0.034414
-0.034414
0.000000
0.000000
0.000000
0.000000
0.000000
0.000000
0.000000
0.000000
0.000000
0.000000
0.000000
0.000000
0.000000
0.000000
0.000000
0.000000
0.000000
0.000000
0.000000
0.000000
0.000000
0.000000
0.000000
0.000000
0.000000
0.000000
0.000000
0.000000
0.000000
0.000000
0.000000
0.000000
0.000000
0.000000
0.000000
0.000000
0.000000
0.000000
0.000000
0.000000
0.000000
0.000000
0.000000
0.000000
0.000000
0.000000
0.000000
0.000000
0.000000
0.000000
0.000000
0.000000
0.000000
0.000000
0.000000
0.000000
0.000000
0.000000
0.000000
0.000000
0.000000
0.000000
0.000000
0.000000
0.000000
0.000000
0.000000
0.000000
0.000000
0.000000
0.000000
0.000000
0.000000
0.000000
0.000000
0.000000
0.000000
0.000000
0.000000
0.000000
0.000000
0.000000
0.000000
0.000000
0.000000
0.000000
0.000000
0.000000
0.000000
0.000000
0.000000
0.000000
0.000000
0.000000
0.000000
0.000000
0.000000
0.000000
0.000000
0.000000
0.000000
0.000000
0.000000
0.000000
0.000000
0.000000
0.000000
0.000000
0.000000
0.000000
0.000000
0.000000
0.000000
0.000000
0.000000
0.000000
0.000000
0.000000
0.000000
0.000000
0.000000
0.000000
0.000000
0.000000
0.000000
0.000000
0.000000
0.000000
0.000000
0.000000
-0.002508
-0.002508
-0.002508
-0.002508
-0.002508
-0.002508
-0.002508
-0.002508
-0.002508
-0.002508
-0.002508
-0.002508
-0.002508
-0.002508
-0.002508
-0.002508
-0.002508
-0.002508
-0.002508
-0.002508
-0.002508
-0.002508
-0.002508
-0.002508
-0.002508
-0.002508
-0.002508
-0.002508
-0.002508
-0.002508
-0.002508
-0.002508
-0.002508
-0.002508
-0.002508
-0.002508
-0.002508
-0.002508
-0.002508
-0.002508
-0.002508
-0.002508
-0.002508
-0.002508
-0.002508
-0.002508
-0.002508
-0.002508
-0.002508
-0.002508
-0.002508
-0.002508
-0.002508
-0.002508
-0.002508
-0.002508
-0.002508
-0.002508
-0.002508
-0.002508
-0.002508
-0.002508
-0.002508
-0.002508
-0.002508
-0.002508
-0.002508
-0.002508
-0.002508
-0.002508
-0.002508
-0.002508
-0.002508
-0.002508
-0.002508
-0.002508
-0.002508
-0.002508
-0.002508
-0.002508
-0.002508
-0.002508
-0.002508
-0.002508
-0.002508
-0.002508
-0.002508
-0.002508
-0.002508
-0.002508
-0.002508
-0.002508
-0.002508
-0.002508
-0.002508
-0.002508
-0.002508
-0.002508
-0.002508
-0.002508
-0.002508
-0.002508
-0.002508
-0.002508
-0.002508
-0.002508
-0.002508
-0.002508
-0.002508
-0.002508
-0.002508
-0.002508
-0.002508
-0.002508
-0.002508
-0.002508
-0.002508
-0.002508
-0.002508
-0.002508
-0.002508
-0.002508
-0.002508
-0.002508
-0.002508
-0.002508
-0.002508
-0.002508
0.000000
0.000000
0.000000
0.000000
0.000000
0.000000
0.000000
0.000000
0.000000
0.000000
0.000000
0.000000
0.000000
0.000000
0.000000
0.000000
0.000000
0.000000
0.000000
0.000000
0.000000
0.000000
0.000000
0.000000
0.000000
0.000000
0.000000
0.000000
0.000000
0.000000
0.000000
0.000000
0.000000
0.000000
0.000000
0.000000
0.000000
0.000000
0.000000
0.000000
0.000000
0.000000
0.000000
0.000000
0.000000
0.000000
0.000000
0.000000
0.000000
0.000000
0.000000
0.000000
0.000000
0.000000
0.000000
0.000000
0.000000
0.000000
0.000000
0.000000
0.000000
0.000000
0.000000
0.000000
0.000000
0.000000
0.000000
0.000000
0.000000
0.000000
0.000000
0.000000
0.000000
0.000000
0.000000
0.000000
0.000000
0.000000
0.000000
0.000000
0.000000
0.000000
0.000000
0.000000
0.000000
0.000000
0.000000
0.000000
0.000000
0.000000
0.000000
0.000000
0.000000
0.000000
0.000000
0.000000
0.000000
0.000000
0.000000
0.000000
0.000000
0.000000
0.000000
0.000000
0.000000
0.000000
0.000000
0.000000
0.000000
0.000000
0.000000
0.000000
0.000000
0.000000
0.000000
0.000000
0.000000
0.000000
0.000000
0.000000
0.000000
0.000000
0.000000
0.000000
0.000000
0.000000
0.000000
0.000000
0.000000
0.000000
-0.017000
-0.017000
-0.017000
-0.017000
-0.017000
-0.017000
-0.017000
-0.017000
-0.017000
-0.017000
-0.017000
-0.017000
-0.017000
-0.017000
-0.017000
-0.017000
-0.017000
-0.017000
-0.017000
-0.017000
-0.017000
-0.017000
-0.017000
-0.017000
-0.017000
-0.017000
-0.017000
-0.017000
-0.017000
-0.017000
-0.017000
-0.017000
-0.017000
-0.017000
-0.017000
-0.017000
-0.017000
-0.017000
-0.017000
-0.017000
-0.017000
-0.017000
-0.017000
-0.017000
-0.017000
-0.017000
-0.017000
-0.017000
-0.017000
-0.017000
-0.017000
-0.017000
-0.017000
-0.017000
-0.017000
-0.017000
-0.017000
-0.017000
-0.017000
-0.017000
-0.017000
-0.017000
-0.017000
-0.017000
-0.017000
-0.017000
-0.017000
-0.017000
-0.017000
-0.017000
-0.017000
-0.017000
-0.017000
-0.017000
-0.017000
-0.017000
-0.017000
-0.017000
-0.017000
-0.017000
-0.017000
-0.017000
-0.017000
-0.017000
-0.017000
-0.017000
-0.017000
-0.017000
-0.017000
-0.017000
-0.017000
-0.017000
-0.017000
-0.017000
-0.017000
-0.017000
-0.017000
-0.017000
-0.017000
-0.017000
-0.017000
-0.017000
-0.017000
-0.017000
-0.017000
-0.017000
-0.017000
-0.017000
-0.017000
-0.017000
-0.017000
-0.017000
-0.017000
-0.017000
-0.017000
-0.017000
-0.017000
-0.017000
-0.017000
-0.017000
-0.017000
-0.017000
-0.017000
-0.017000
-0.017000
-0.017000
-0.017000
-0.017000
0.000000
0.000000
0.000000
0.000000
0.000000
0.000000
0.000000
0.000000
0.000000
0.000000
0.000000
0.000000
0.000000
0.000000
0.000000
0.000000
0.000000
0.000000
0.000000
0.000000
0.000000
0.000000
0.000000
0.000000
0.000000
0.000000
0.000000
0.000000
0.000000
0.000000
0.000000
0.000000
0.000000
0.000000
0.000000
0.000000
0.000000
0.000000
0.000000
0.000000
0.000000
0.000000
0.000000
0.000000
0.000000
0.000000
0.000000
0.000000
0.000000
0.000000
0.000000
0.000000
0.000000
0.000000
0.000000
0.000000
0.000000
0.000000
0.000000
0.000000
0.000000
0.000000
0.000000
0.000000
0.000000
0.000000
0.000000
0.000000
0.000000
0.000000
0.000000
0.000000
0.000000
0.000000
0.000000
0.000000
0.000000
0.000000
0.000000
0.000000
0.000000
0.000000
0.000000
0.000000
0.000000
0.000000
0.000000
0.000000
0.000000
0.000000
0.000000
0.000000
0.000000
0.000000
0.000000
0.000000
0.000000
0.000000
0.000000
0.000000
0.000000
0.000000
0.000000
0.000000
0.000000
0.000000
0.000000
0.000000
0.000000
0.000000
0.000000
0.000000
0.000000
0.000000
0.000000
0.000000
0.000000
0.000000
0.000000
0.000000
0.000000
0.000000
0.000000
0.000000
0.000000
0.000000
0.000000
0.000000
0.000000
0.000000
-0.012792
-0.012792
-0.012792
-0.012792
-0.012792
-0.012792
-0.012792
-0.012792
-0.012792
-0.012792
-0.012792
-0.012792
-0.012792
-0.012792
-0.012792
-0.012792
-0.012792
-0.012792
-0.012792
-0.012792
-0.012792
-0.012792
-0.012792
-0.012792
-0.012792
-0.012792
-0.012792
-0.012792
-0.012792
-0.012792
-0.012792
-0.012792
-0.012792
-0.012792
-0.012792
-0.012792
-0.012792
-0.012792
-0.012792
-0.012792
-0.012792
-0.012792
-0.012792
-0.012792
-0.012792
-0.012792
-0.012792
-0.012792
-0.012792
-0.012792
-0.012792
-0.012792
-0.012792
-0.012792
-0.012792
-0.012792
-0.012792
-0.012792
-0.012792
-0.012792
-0.012792
-0.012792
-0.012792
-0.012792
-0.012792
-0.012792
-0.012792
-0.012792
-0.012792
-0.012792
-0.012792
-0.012792
-0.012792
-0.012792
-0.012792
-0.012792
-0.012792
-0.012792
-0.012792
-0.012792
-0.012792
-0.012792
-0.012792
-0.012792
-0.012792
-0.012792
-0.012792
-0.012792
-0.012792
-0.012792
-0.012792
-0.012792
-0.012792
-0.012792
-0.012792
-0.012792
-0.012792
-0.012792
-0.012792
-0.012792
-0.012792
-0.012792
-0.012792
-0.012792
-0.012792
-0.012792
-0.012792
-0.012792
-0.012792
-0.012792
-0.012792
-0.012792
-0.012792
-0.012792
-0.012792
-0.012792
-0.012792
-0.012792
-0.012792
-0.012792
-0.012792
-0.012792
-0.012792
-0.012792
-0.012792
-0.012792
-0.012792
-0.012792
0.000000
-0.012792
-0.012792
-0.012792
-0.012792
-0.012792
-0.012792
-0.012792
-0.012792
-0.012792
-0.012792
-0.012792
-0.012792
-0.012792
-0.012792
-0.012792
-0.012792
-0.012792
-0.012792
-0.012792
-0.012792
-0.012792
-0.012792
-0.012792
-0.012792
-0.012792
-0.012792
-0.012792
-0.012792
-0.012792
-0.012792
-0.012792
-0.012792
-0.012792
-0.012792
-0.012792
-0.012792
-0.012792
-0.012792
-0.012792
-0.012792
-0.012792
-0.012792
-0.012792
-0.012792
-0.012792
-0.012792
-0.012792
-0.012792
-0.012792
-0.012792
-0.012792
-0.012792
-0.012792
-0.012792
-0.012792
-0.012792
-0.012792
-0.012792
-0.012792
-0.012792
-0.012792
-0.012792
-0.012792
-0.012792
-0.012792
-0.012792
-0.012792
-0.012792
-0.012792
-0.012792
-0.012792
-0.012792
-0.012792
-0.012792
-0.012792
-0.012792
-0.012792
-0.012792
-0.012792
-0.012792
-0.012792
-0.012792
-0.012792
-0.012792
-0.012792
-0.012792
-0.012792
-0.012792
-0.012792
-0.012792
-0.012792
-0.012792
-0.012792
-0.012792
-0.012792
-0.012792
-0.012792
-0.012792
-0.012792
-0.012792
-0.012792
-0.012792
-0.012792
-0.012792
-0.012792
-0.012792
-0.012792
-0.012792
-0.012792
-0.012792
-0.012792
-0.012792
-0.012792
-0.012792
-0.012792
-0.012792
-0.012792
-0.012792
-0.012792
-0.012792
-0.012792
-0.012792
-0.012792
-0.012792
-0.012792
-0.012792
-0.012792
-0.012792
0.000000
0.000000
0.000000
0.000000
0.000000
0.000000
0.000000
0.000000
0.000000
0.000000
0.000000
0.000000
0.000000
0.000000
0.000000
0.000000
0.000000
0.000000
0.000000
0.000000
0.000000
0.000000
0.000000
0.000000
0.000000
0.000000
0.000000
0.000000
0.000000
0.000000
0.000000
0.000000
0.000000
0.000000
0.000000
0.000000
0.000000
0.000000
0.000000
0.000000
0.000000
0.000000
0.000000
0.000000
0.000000
0.000000
0.000000
0.000000
0.000000
0.000000
0.000000
0.000000
0.000000
0.000000
0.000000
0.000000
0.000000
0.000000
0.000000
0.000000
0.000000
0.000000
0.000000
0.000000
0.000000
0.000000
0.000000
0.000000
0.000000
0.000000
0.000000
0.000000
0.000000
0.000000
0.000000
0.000000
0.000000
0.000000
0.000000
0.000000
0.000000
0.000000
0.000000
0.000000
0.000000
0.000000
0.000000
0.000000
0.000000
0.000000
0.000000
0.000000
0.000000
0.000000
0.000000
0.000000
0.000000
0.000000
0.000000
0.000000
0.000000
0.000000
0.000000
0.000000
0.000000
0.000000
0.000000
0.000000
0.000000
0.000000
0.000000
0.000000
0.000000
0.000000
0.000000
0.000000
0.000000
0.000000
0.000000
0.000000
0.000000
0.000000
0.000000
0.000000
0.000000
0.000000
0.000000
0.000000
0.000000
0.000000
-0.032929
-0.032929
-0.032929
-0.032929
-0.032929
-0.032929
-0.032929
-0.032929
-0.032929
-0.032929
-0.032929
-0.032929
-0.032929
-0.032929
-0.032929
-0.032929
-0.032929
-0.032929
-0.032929
-0.032929
-0.032929
-0.032929
-0.032929
-0.032929
-0.032929
-0.032929
-0.032929
-0.032929
-0.032929
-0.032929
-0.032929
-0.032929
-0.032929
-0.032929
-0.032929
-0.032929
-0.032929
-0.032929
-0.032929
-0.032929
-0.032929
-0.032929
-0.032929
-0.032929
-0.032929
-0.032929
-0.032929
-0.032929
-0.032929
-0.032929
-0.032929
-0.032929
-0.032929
-0.032929
-0.032929
-0.032929
-0.032929
-0.032929
-0.032929
-0.032929
-0.032929
-0.032929
-0.032929
-0.032929
-0.032929
-0.032929
-0.032929
-0.032929
-0.032929
-0.032929
-0.032929
-0.032929
-0.032929
-0.032929
-0.032929
-0.032929
-0.032929
-0.032929
-0.032929
-0.032929
-0.032929
-0.032929
-0.032929
-0.032929
-0.032929
-0.032929
-0.032929
-0.032929
-0.032929
-0.032929
-0.032929
-0.032929
-0.032929
-0.032929
-0.032929
-0.032929
-0.032929
-0.032929
-0.032929
-0.032929
-0.032929
-0.032929
-0.032929
-0.032929
-0.032929
-0.032929
-0.032929
-0.032929
-0.032929
-0.032929
-0.032929
-0.032929
-0.032929
-0.032929
-0.032929
-0.032929
-0.032929
-0.032929
-0.032929
-0.032929
-0.032929
-0.032929
-0.032929
-0.032929
-0.032929
-0.032929
-0.032929
-0.032929
0.000000
-0.047420
-0.047420
-0.047420
-0.047420
-0.047420
-0.047420
-0.047420
-0.047420
-0.047420
-0.047420
-0.047420
-0.047420
-0.047420
-0.047420
-0.047420
-0.047420
-0.047420
-0.047420
-0.047420
-0.047420
-0.047420
-0.047420
-0.047420
-0.047420
-0.047420
-0.047420
-0.047420
-0.047420
-0.047420
-0.047420
-0.047420
-0.047420
-0.047420
-0.047420
-0.047420
-0.047420
-0.047420
-0.047420
-0.047420
-0.047420
-0.047420
-0.047420
-0.047420
-0.047420
-0.047420
-0.047420
-0.047420
-0.047420
-0.047420
-0.047420
-0.047420
-0.047420
-0.047420
-0.047420
-0.047420
-0.047420
-0.047420
-0.047420
-0.047420
-0.047420
-0.047420
-0.047420
-0.047420
-0.047420
-0.047420
-0.047420
-0.047420
-0.047420
-0.047420
-0.047420
-0.047420
-0.047420
-0.047420
-0.047420
-0.047420
-0.047420
-0.047420
-0.047420
-0.047420
-0.047420
-0.047420
-0.047420
-0.047420
-0.047420
-0.047420
-0.047420
-0.047420
-0.047420
-0.047420
-0.047420
-0.047420
-0.047420
-0.047420
-0.047420
-0.047420
-0.047420
-0.047420
-0.047420
-0.047420
-0.047420
-0.047420
-0.047420
-0.047420
-0.047420
-0.047420
-0.047420
-0.047420
-0.047420
-0.047420
-0.047420
-0.047420
-0.047420
-0.047420
-0.047420
-0.047420
-0.047420
-0.047420
-0.047420
-0.047420
-0.047420
-0.047420
-0.047420
-0.047420
-0.047420
-0.047420
-0.047420
-0.047420
-0.047420
0.000000
-0.016141
-0.016141
-0.016141
-0.016141
-0.016141
-0.016141
-0.016141
-0.016141
-0.016141
-0.016141
-0.016141
-0.016141
-0.016141
-0.016141
-0.016141
-0.016141
-0.016141
-0.016141
-0.016141
-0.016141
-0.016141
-0.016141
-0.016141
-0.016141
-0.016141
-0.016141
-0.016141
-0.016141
-0.016141
-0.016141
-0.016141
-0.016141
-0.016141
-0.016141
-0.016141
-0.016141
-0.016141
-0.016141
-0.016141
-0.016141
-0.016141
-0.016141
-0.016141
-0.016141
-0.016141
-0.016141
-0.016141
-0.016141
-0.016141
-0.016141
-0.016141
-0.016141
-0.016141
-0.016141
-0.016141
-0.016141
-0.016141
-0.016141
-0.016141
-0.016141
-0.016141
-0.016141
-0.016141
-0.016141
-0.016141
-0.016141
-0.016141
-0.016141
-0.016141
-0.016141
-0.016141
-0.016141
-0.016141
-0.016141
-0.016141
-0.016141
-0.016141
-0.016141
-0.016141
-0.016141
-0.016141
-0.016141
-0.016141
-0.016141
-0.016141
-0.016141
-0.016141
-0.016141
-0.016141
-0.016141
-0.016141
-0.016141
-0.016141
-0.016141
-0.016141
-0.016141
-0.016141
-0.016141
-0.016141
-0.016141
-0.016141
-0.016141
-0.016141
-0.016141
-0.016141
-0.016141
-0.016141
-0.016141
-0.016141
-0.016141
-0.016141
-0.016141
-0.016141
-0.016141
-0.016141
-0.016141
-0.016141
-0.016141
-0.016141
-0.016141
-0.016141
-0.016141
-0.016141
-0.016141
-0.016141
-0.016141
-0.016141
-0.016141
0.000000
-0.057483
-0.057483
-0.057483
-0.057483
-0.057483
-0.057483
-0.057483
-0.057483
-0.057483
-0.057483
-0.057483
-0.057483
-0.057483
-0.057483
-0.057483
-0.057483
-0.057483
-0.057483
-0.057483
-0.057483
-0.057483
-0.057483
-0.057483
-0.057483
-0.057483
-0.057483
-0.057483
-0.057483
-0.057483
-0.057483
-0.057483
-0.057483
-0.057483
-0.057483
-0.057483
-0.057483
-0.057483
-0.057483
-0.057483
-0.057483
-0.057483
-0.057483
-0.057483
-0.057483
-0.057483
-0.057483
-0.057483
-0.057483
-0.057483
-0.057483
-0.057483
-0.057483
-0.057483
-0.057483
-0.057483
-0.057483
-0.057483
-0.057483
-0.057483
-0.057483
-0.057483
-0.057483
-0.057483
-0.057483
-0.057483
-0.057483
-0.057483
-0.057483
-0.057483
-0.057483
-0.057483
-0.057483
-0.057483
-0.057483
-0.057483
-0.057483
-0.057483
-0.057483
-0.057483
-0.057483
-0.057483
-0.057483
-0.057483
-0.057483
-0.057483
-0.057483
-0.057483
-0.057483
-0.057483
-0.057483
-0.057483
-0.057483
-0.057483
-0.057483
-0.057483
-0.057483
-0.057483
-0.057483
-0.057483
-0.057483
-0.057483
-0.057483
-0.057483
-0.057483
-0.057483
-0.057483
-0.057483
-0.057483
-0.057483
-0.057483
-0.057483
-0.057483
-0.057483
-0.057483
-0.057483
-0.057483
-0.057483
-0.057483
-0.057483
-0.057483
-0.057483
-0.057483
-0.057483
-0.057483
-0.057483
-0.057483
-0.057483
-0.057483
0.000000
-0.046135
-0.046135
-0.046135
-0.046135
-0.046135
-0.046135
-0.046135
-0.046135
-0.046135
-0.046135
-0.046135
-0.046135
-0.046135
-0.046135
-0.046135
-0.046135
-0.046135
-0.046135
-0.046135
-0.046135
-0.046135
-0.046135
-0.046135
-0.046135
-0.046135
-0.046135
-0.046135
-0.046135
-0.046135
-0.046135
-0.046135
-0.046135
-0.046135
-0.046135
-0.046135
-0.046135
-0.046135
-0.046135
-0.046135
-0.046135
-0.046135
-0.046135
-0.046135
-0.046135
-0.046135
-0.046135
-0.046135
-0.046135
-0.046135
-0.046135
-0.046135
-0.046135
-0.046135
-0.046135
-0.046135
-0.046135
-0.046135
-0.046135
-0.046135
-0.046135
-0.046135
-0.046135
-0.046135
-0.046135
-0.046135
-0.046135
-0.046135
-0.046135
-0.046135
-0.046135
-0.046135
-0.046135
-0.046135
-0.046135
-0.046135
-0.046135
-0.046135
-0.046135
-0.046135
-0.046135
-0.046135
-0.046135
-0.046135
-0.046135
-0.046135
-0.046135
-0.046135
-0.046135
-0.046135
-0.046135
-0.046135
-0.046135
-0.046135
-0.046135
-0.046135
-0.046135
-0.046135
-0.046135
-0.046135
-0.046135
-0.046135
-0.046135
-0.046135
-0.046135
-0.046135
-0.046135
-0.046135
-0.046135
-0.046135
-0.046135
-0.046135
-0.046135
-0.046135
-0.046135
-0.046135
-0.046135
-0.046135
-0.046135
-0.046135
-0.046135
-0.046135
-0.046135
-0.046135
-0.046135
-0.046135
-0.046135
-0.046135
-0.046135
0.000000
-0.045379
-0.045379
-0.045379
-0.045379
-0.045379
-0.045379
-0.045379
-0.045379
-0.045379
-0.045379
-0.045379
-0.045379
-0.045379
-0.045379
-0.045379
-0.045379
-0.045379
-0.045379
-0.045379
-0.045379
-0.045379
-0.045379
-0.045379
-0.045379
-0.045379
-0.045379
-0.045379
-0.045379
-0.045379
-0.045379
-0.045379
-0.045379
-0.045379
-0.045379
-0.045379
-0.045379
-0.045379
-0.045379
-0.045379
-0.045379
-0.045379
-0.045379
-0.045379
-0.045379
-0.045379
-0.045379
-0.045379
-0.045379
-0.045379
-0.045379
-0.045379
-0.045379
-0.045379
-0.045379
-0.045379
-0.045379
-0.045379
-0.045379
-0.045379
-0.045379
-0.045379
-0.045379
-0.045379
-0.045379
-0.045379
-0.045379
-0.045379
-0.045379
-0.045379
-0.045379
-0.045379
-0.045379
-0.045379
-0.045379
-0.045379
-0.045379
-0.045379
-0.045379
-0.045379
-0.045379
-0.045379
-0.045379
-0.045379
-0.045379
-0.045379
-0.045379
-0.045379
-0.045379
-0.045379
-0.045379
-0.045379
-0.045379
-0.045379
-0.045379
-0.045379
-0.045379
-0.045379
-0.045379
-0.045379
-0.045379
-0.045379
-0.045379
-0.045379
-0.045379
-0.045379
-0.045379
-0.045379
-0.045379
-0.045379
-0.045379
-0.045379
-0.045379
-0.045379
-0.045379
-0.045379
-0.045379
-0.045379
-0.045379
-0.045379
-0.045379
-0.045379
-0.045379
-0.045379
-0.045379
-0.045379
-0.045379
-0.045379
-0.045379
0.000000
-0.036756
-0.036756
-0.036756
-0.036756
-0.036756
-0.036756
-0.036756
-0.036756
-0.036756
-0.036756
-0.036756
-0.036756
-0.036756
-0.036756
-0.036756
-0.036756
-0.036756
-0.036756
-0.036756
-0.036756
-0.036756
-0.036756
-0.036756
-0.036756
-0.036756
-0.036756
-0.036756
-0.036756
-0.036756
-0.036756
-0.036756
-0.036756
-0.036756
-0.036756
-0.036756
-0.036756
-0.036756
-0.036756
-0.036756
-0.036756
-0.036756
-0.036756
-0.036756
-0.036756
-0.036756
-0.036756
-0.036756
-0.036756
-0.036756
-0.036756
-0.036756
-0.036756
-0.036756
-0.036756
-0.036756
-0.036756
-0.036756
-0.036756
-0.036756
-0.036756
-0.036756
-0.036756
-0.036756
-0.036756
-0.036756
-0.036756
-0.036756
-0.036756
-0.036756
-0.036756
-0.036756
-0.036756
-0.036756
-0.036756
-0.036756
-0.036756
-0.036756
-0.036756
-0.036756
-0.036756
-0.036756
-0.036756
-0.036756
-0.036756
-0.036756
-0.036756
-0.036756
-0.036756
-0.036756
-0.036756
-0.036756
-0.036756
-0.036756
-0.036756
-0.036756
-0.036756
-0.036756
-0.036756
-0.036756
-0.036756
-0.036756
-0.036756
-0.036756
-0.036756
-0.036756
-0.036756
-0.036756
-0.036756
-0.036756
-0.036756
-0.036756
-0.036756
-0.036756
-0.036756
-0.036756
-0.036756
-0.036756
-0.036756
-0.036756
-0.036756
-0.036756
-0.036756
-0.036756
-0.036756
-0.036756
-0.036756
-0.036756
-0.036756
0.000000
-0.061155
-0.061155
-0.061155
-0.061155
-0.061155
-0.061155
-0.061155
-0.061155
-0.061155
-0.061155
-0.061155
-0.061155
-0.061155
-0.061155
-0.061155
-0.061155
-0.061155
-0.061155
-0.061155
-0.061155
-0.061155
-0.061155
-0.061155
-0.061155
-0.061155
-0.061155
-0.061155
-0.061155
-0.061155
-0.061155
-0.061155
-0.061155
-0.061155
-0.061155
-0.061155
-0.061155
-0.061155
-0.061155
-0.061155
-0.061155
-0.061155
-0.061155
-0.061155
-0.061155
-0.061155
-0.061155
-0.061155
-0.061155
-0.061155
-0.061155
-0.061155
-0.061155
-0.061155
-0.061155
-0.061155
-0.061155
-0.061155
-0.061155
-0.061155
-0.061155
-0.061155
-0.061155
-0.061155
-0.061155
-0.061155
-0.061155
-0.061155
-0.061155
-0.061155
-0.061155
-0.061155
-0.061155
-0.061155
-0.061155
-0.061155
-0.061155
-0.061155
-0.061155
-0.061155
-0.061155
-0.061155
-0.061155
-0.061155
-0.061155
-0.061155
-0.061155
-0.061155
-0.061155
-0.061155
-0.061155
-0.061155
-0.061155
-0.061155
-0.061155
-0.061155
-0.061155
-0.061155
-0.061155
-0.061155
-0.061155
-0.061155
-0.061155
-0.061155
-0.061155
-0.061155
-0.061155
-0.061155
-0.061155
-0.061155
-0.061155
-0.061155
-0.061155
-0.061155
-0.061155
-0.061155
-0.061155
-0.061155
-0.061155
-0.061155
-0.061155
-0.061155
-0.061155
-0.061155
-0.061155
-0.061155
-0.061155
-0.061155
-0.061155
0.000000
-0.049031
-0.049031
-0.049031
-0.049031
-0.049031
-0.049031
-0.049031
-0.049031
-0.049031
-0.049031
-0.049031
-0.049031
-0.049031
-0.049031
-0.049031
-0.049031
-0.049031
-0.049031
-0.049031
-0.049031
-0.049031
-0.049031
-0.049031
-0.049031
-0.049031
-0.049031
-0.049031
-0.049031
-0.049031
-0.049031
-0.049031
-0.049031
-0.049031
-0.049031
-0.049031
-0.049031
-0.049031
-0.049031
-0.049031
-0.049031
-0.049031
-0.049031
-0.049031
-0.049031
-0.049031
-0.049031
-0.049031
-0.049031
-0.049031
-0.049031
-0.049031
-0.049031
-0.049031
-0.049031
-0.049031
-0.049031
-0.049031
-0.049031
-0.049031
-0.049031
-0.049031
-0.049031
-0.049031
-0.049031
-0.049031
-0.049031
-0.049031
-0.049031
-0.049031
-0.049031
-0.049031
-0.049031
-0.049031
-0.049031
-0.049031
-0.049031
-0.049031
-0.049031
-0.049031
-0.049031
-0.049031
-0.049031
-0.049031
-0.049031
-0.049031
-0.049031
-0.049031
-0.049031
-0.049031
-0.049031
-0.049031
-0.049031
-0.049031
-0.049031
-0.049031
-0.049031
-0.049031
-0.049031
-0.049031
-0.049031
-0.049031
-0.049031
-0.049031
-0.049031
-0.049031
-0.049031
-0.049031
-0.049031
-0.049031
-0.049031
-0.049031
-0.049031
-0.049031
-0.049031
-0.049031
-0.049031
-0.049031
-0.049031
-0.049031
-0.049031
-0.049031
-0.049031
-0.049031
-0.049031
-0.049031
-0.049031
-0.049031
-0.049031
0.000000
-0.072916
-0.072916
-0.072916
-0.072916
-0.072916
-0.072916
-0.072916
-0.072916
-0.072916
-0.072916
-0.072916
-0.072916
-0.072916
-0.072916
-0.072916
-0.072916
-0.072916
-0.072916
-0.072916
-0.072916
-0.072916
-0.072916
-0.072916
-0.072916
-0.072916
-0.072916
-0.072916
-0.072916
-0.072916
-0.072916
-0.072916
-0.072916
-0.072916
-0.072916
-0.072916
-0.072916
-0.072916
-0.072916
-0.072916
-0.072916
-0.072916
-0.072916
-0.072916
-0.072916
-0.072916
-0.072916
-0.072916
-0.072916
-0.072916
-0.072916
-0.072916
-0.072916
-0.072916
-0.072916
-0.072916
-0.072916
-0.072916
-0.072916
-0.072916
-0.072916
-0.072916
-0.072916
-0.072916
-0.072916
-0.072916
-0.072916
-0.072916
-0.072916
-0.072916
-0.072916
-0.072916
-0.072916
-0.072916
-0.072916
-0.072916
-0.072916
-0.072916
-0.072916
-0.072916
-0.072916
-0.072916
-0.072916
-0.072916
-0.072916
-0.072916
-0.072916
-0.072916
-0.072916
-0.072916
-0.072916
-0.072916
-0.072916
-0.072916
-0.072916
-0.072916
-0.072916
-0.072916
-0.072916
-0.072916
-0.072916
-0.072916
-0.072916
-0.072916
-0.072916
-0.072916
-0.072916
-0.072916
-0.072916
-0.072916
-0.072916
-0.072916
-0.072916
-0.072916
-0.072916
-0.072916
-0.072916
-0.072916
-0.072916
-0.072916
-0.072916
-0.072916
-0.072916
-0.072916
-0.072916
-0.072916
-0.072916
-0.072916
-0.072916
0.000000
-0.053964
-0.053964
-0.053964
-0.053964
-0.053964
-0.053964
-0.053964
-0.053964
-0.053964
-0.053964
-0.053964
-0.053964
-0.053964
-0.053964
-0.053964
-0.053964
-0.053964
-0.053964
-0.053964
-0.053964
-0.053964
-0.053964
-0.053964
-0.053964
-0.053964
-0.053964
-0.053964
-0.053964
-0.053964
-0.053964
-0.053964
-0.053964
-0.053964
-0.053964
-0.053964
-0.053964
-0.053964
-0.053964
-0.053964
-0.053964
-0.053964
-0.053964
-0.053964
-0.053964
-0.053964
-0.053964
-0.053964
-0.053964
-0.053964
-0.053964
-0.053964
-0.053964
-0.053964
-0.053964
-0.053964
-0.053964
-0.053964
-0.053964
-0.053964
-0.053964
-0.053964
-0.053964
-0.053964
-0.053964
-0.053964
-0.053964
-0.053964
-0.053964
-0.053964
-0.053964
-0.053964
-0.053964
-0.053964
-0.053964
-0.053964
-0.053964
-0.053964
-0.053964
-0.053964
-0.053964
-0.053964
-0.053964
-0.053964
-0.053964
-0.053964
-0.053964
-0.053964
-0.053964
-0.053964
-0.053964
-0.053964
-0.053964
-0.053964
-0.053964
-0.053964
-0.053964
-0.053964
-0.053964
-0.053964
-0.053964
-0.053964
-0.053964
-0.053964
-0.053964
-0.053964
-0.053964
-0.053964
-0.053964
-0.053964
-0.053964
-0.053964
-0.053964
-0.053964
-0.053964
-0.053964
-0.053964
-0.053964
-0.053964
-0.053964
-0.053964
-0.053964
-0.053964
-0.053964
-0.053964
-0.053964
-0.053964
-0.053964
-0.053964
0.000000
-0.012792
-0.012792
-0.012792
-0.012792
-0.012792
-0.012792
-0.012792
-0.012792
-0.012792
-0.012792
-0.012792
-0.012792
-0.012792
-0.012792
-0.012792
-0.012792
-0.012792
-0.012792
-0.012792
-0.012792
-0.012792
-0.012792
-0.012792
-0.012792
-0.012792
-0.012792
-0.012792
-0.012792
-0.012792
-0.012792
-0.012792
-0.012792
-0.012792
-0.012792
-0.012792
-0.012792
-0.012792
-0.012792
-0.012792
-0.012792
-0.012792
-0.012792
-0.012792
-0.012792
-0.012792
-0.012792
-0.012792
-0.012792
-0.012792
-0.012792
-0.012792
-0.012792
-0.012792
-0.012792
-0.012792
-0.012792
-0.012792
-0.012792
-0.012792
-0.012792
-0.012792
-0.012792
-0.012792
-0.012792
-0.012792
-0.012792
-0.012792
-0.012792
-0.012792
-0.012792
-0.012792
-0.012792
-0.012792
-0.012792
-0.012792
-0.012792
-0.012792
-0.012792
-0.012792
-0.012792
-0.012792
-0.012792
-0.012792
-0.012792
-0.012792
-0.012792
-0.012792
-0.012792
-0.012792
-0.012792
-0.012792
-0.012792
-0.012792
-0.012792
-0.012792
-0.012792
-0.012792
-0.012792
-0.012792
-0.012792
-0.012792
-0.012792
-0.012792
-0.012792
-0.012792
-0.012792
-0.012792
-0.012792
-0.012792
-0.012792
-0.012792
-0.012792
-0.012792
-0.012792
-0.012792
-0.012792
-0.012792
-0.012792
-0.012792
-0.012792
-0.012792
-0.012792
-0.012792
-0.012792
-0.012792
-0.012792
-0.012792
-0.012792
0.000000
-0.062723
-0.062723
-0.062723
-0.062723
-0.062723
-0.062723
-0.062723
-0.062723
-0.062723
-0.062723
-0.062723
-0.062723
-0.062723
-0.062723
-0.062723
-0.062723
-0.062723
-0.062723
-0.062723
-0.062723
-0.062723
-0.062723
-0.062723
-0.062723
-0.062723
-0.062723
-0.062723
-0.062723
-0.062723
-0.062723
-0.062723
-0.062723
-0.062723
-0.062723
-0.062723
-0.062723
-0.062723
-0.062723
-0.062723
-0.062723
-0.062723
-0.062723
-0.062723
-0.062723
-0.062723
-0.062723
-0.062723
-0.062723
-0.062723
-0.062723
-0.062723
-0.062723
-0.062723
-0.062723
-0.062723
-0.062723
-0.062723
-0.062723
-0.062723
-0.062723
-0.062723
-0.062723
-0.062723
-0.062723
-0.062723
-0.062723
-0.062723
-0.062723
-0.062723
-0.062723
-0.062723
-0.062723
-0.062723
-0.062723
-0.062723
-0.062723
-0.062723
-0.062723
-0.062723
-0.062723
-0.062723
-0.062723
-0.062723
-0.062723
-0.062723
-0.062723
-0.062723
-0.062723
-0.062723
-0.062723
-0.062723
-0.062723
-0.062723
-0.062723
-0.062723
-0.062723
-0.062723
-0.062723
-0.062723
-0.062723
-0.062723
-0.062723
-0.062723
-0.062723
-0.062723
-0.062723
-0.062723
-0.062723
-0.062723
-0.062723
-0.062723
-0.062723
-0.062723
-0.062723
-0.062723
-0.062723
-0.062723
-0.062723
-0.062723
-0.062723
-0.062723
-0.062723
-0.062723
-0.062723
-0.062723
-0.062723
-0.062723
-0.062723
0.000000
-0.012792
-0.012792
-0.012792
-0.012792
-0.012792
-0.012792
-0.012792
-0.012792
-0.012792
-0.012792
-0.012792
-0.012792
-0.012792
-0.012792
-0.012792
-0.012792
-0.012792
-0.012792
-0.012792
-0.012792
-0.012792
-0.012792
-0.012792
-0.012792
-0.012792
-0.012792
-0.012792
-0.012792
-0.012792
-0.012792
-0.012792
-0.012792
-0.012792
-0.012792
-0.012792
-0.012792
-0.012792
-0.012792
-0.012792
-0.012792
-0.012792
-0.012792
-0.012792
-0.012792
-0.012792
-0.012792
-0.012792
-0.012792
-0.012792
-0.012792
-0.012792
-0.012792
-0.012792
-0.012792
-0.012792
-0.012792
-0.012792
-0.012792
-0.012792
-0.012792
-0.012792
-0.012792
-0.012792
-0.012792
-0.012792
-0.012792
-0.012792
-0.012792
-0.012792
-0.012792
-0.012792
-0.012792
-0.012792
-0.012792
-0.012792
-0.012792
-0.012792
-0.012792
-0.012792
-0.012792
-0.012792
-0.012792
-0.012792
-0.012792
-0.012792
-0.012792
-0.012792
-0.012792
-0.012792
-0.012792
-0.012792
-0.012792
-0.012792
-0.012792
-0.012792
-0.012792
-0.012792
-0.012792
-0.012792
-0.012792
-0.012792
-0.012792
-0.012792
-0.012792
-0.012792
-0.012792
-0.012792
-0.012792
-0.012792
-0.012792
-0.012792
-0.012792
-0.012792
-0.012792
-0.012792
-0.012792
-0.012792
-0.012792
-0.012792
-0.012792
-0.012792
-0.012792
-0.012792
-0.012792
-0.012792
-0.012792
-0.012792
-0.012792
0.000000
0.000000
0.000000
0.000000
0.000000
0.000000
0.000000
0.000000
0.000000
0.000000
0.000000
0.000000
0.000000
0.000000
0.000000
0.000000
0.000000
0.000000
0.000000
0.000000
0.000000
0.000000
0.000000
0.000000
0.000000
0.000000
0.000000
0.000000
0.000000
0.000000
0.000000
0.000000
0.000000
0.000000
0.000000
0.000000
0.000000
0.000000
0.000000
0.000000
0.000000
0.000000
0.000000
0.000000
0.000000
0.000000
0.000000
0.000000
0.000000
0.000000
0.000000
0.000000
0.000000
0.000000
0.000000
0.000000
0.000000
0.000000
0.000000
0.000000
0.000000
0.000000
0.000000
0.000000
0.000000
0.000000
0.000000
0.000000
0.000000
0.000000
0.000000
0.000000
0.000000
0.000000
0.000000
0.000000
0.000000
0.000000
0.000000
0.000000
0.000000
0.000000
0.000000
0.000000
0.000000
0.000000
0.000000
0.000000
0.000000
0.000000
0.000000
0.000000
0.000000
0.000000
0.000000
0.000000
0.000000
0.000000
0.000000
0.000000
0.000000
0.000000
0.000000
0.000000
0.000000
0.000000
0.000000
0.000000
0.000000
0.000000
0.000000
0.000000
0.000000
0.000000
0.000000
0.000000
0.000000
0.000000
0.000000
0.000000
0.000000
0.000000
0.000000
0.000000
0.000000
0.000000
0.000000
0.000000
0.000000
0.000000
-0.019510
-0.019510
-0.019510
-0.019510
-0.019510
-0.019510
-0.019510
-0.019510
-0.019510
-0.019510
-0.019510
-0.019510
-0.019510
-0.019510
-0.019510
-0.019510
-0.019510
-0.019510
-0.019510
-0.019510
-0.019510
-0.019510
-0.019510
-0.019510
-0.019510
-0.019510
-0.019510
-0.019510
-0.019510
-0.019510
-0.019510
-0.019510
-0.019510
-0.019510
-0.019510
-0.019510
-0.019510
-0.019510
-0.019510
-0.019510
-0.019510
-0.019510
-0.019510
-0.019510
-0.019510
-0.019510
-0.019510
-0.019510
-0.019510
-0.019510
-0.019510
-0.019510
-0.019510
-0.019510
-0.019510
-0.019510
-0.019510
-0.019510
-0.019510
-0.019510
-0.019510
-0.019510
-0.019510
-0.019510
-0.019510
-0.019510
-0.019510
-0.019510
-0.019510
-0.019510
-0.019510
-0.019510
-0.019510
-0.019510
-0.019510
-0.019510
-0.019510
-0.019510
-0.019510
-0.019510
-0.019510
-0.019510
-0.019510
-0.019510
-0.019510
-0.019510
-0.019510
-0.019510
-0.019510
-0.019510
-0.019510
-0.019510
-0.019510
-0.019510
-0.019510
-0.019510
-0.019510
-0.019510
-0.019510
-0.019510
-0.019510
-0.019510
-0.019510
-0.019510
-0.019510
-0.019510
-0.019510
-0.019510
-0.019510
-0.019510
-0.019510
-0.019510
-0.019510
-0.019510
-0.019510
-0.019510
-0.019510
-0.019510
-0.019510
-0.019510
-0.019510
-0.019510
-0.019510
-0.019510
-0.019510
-0.019510
-0.019510
-0.019510
0.000000
0.000000
0.000000
0.000000
0.000000
0.000000
0.000000
0.000000
0.000000
0.000000
0.000000
0.000000
0.000000
0.000000
0.000000
0.000000
0.000000
0.000000
0.000000
0.000000
0.000000
0.000000
0.000000
0.000000
0.000000
0.000000
0.000000
0.000000
0.000000
0.000000
0.000000
0.000000
0.000000
0.000000
0.000000
0.000000
0.000000
0.000000
0.000000
0.000000
0.000000
0.000000
0.000000
0.000000
0.000000
0.000000
0.000000
0.000000
0.000000
0.000000
0.000000
0.000000
0.000000
0.000000
0.000000
0.000000
0.000000
0.000000
0.000000
0.000000
0.000000
0.000000
0.000000
0.000000
0.000000
0.000000
0.000000
0.000000
0.000000
0.000000
0.000000
0.000000
0.000000
0.000000
0.000000
0.000000
0.000000
0.000000
0.000000
0.000000
0.000000
0.000000
0.000000
0.000000
0.000000
0.000000
0.000000
0.000000
0.000000
0.000000
0.000000
0.000000
0.000000
0.000000
0.000000
0.000000
0.000000
0.000000
0.000000
0.000000
0.000000
0.000000
0.000000
0.000000
0.000000
0.000000
0.000000
0.000000
0.000000
0.000000
0.000000
0.000000
0.000000
0.000000
0.000000
0.000000
0.000000
0.000000
0.000000
0.000000
0.000000
0.000000
0.000000
0.000000
0.000000
0.000000
0.000000
0.000000
0.000000
0.000000
-0.012792
-0.012792
-0.012792
-0.012792
-0.012792
-0.012792
-0.012792
-0.012792
-0.012792
-0.012792
-0.012792
-0.012792
-0.012792
-0.012792
-0.012792
-0.012792
-0.012792
-0.012792
-0.012792
-0.012792
-0.012792
-0.012792
-0.012792
-0.012792
-0.012792
-0.012792
-0.012792
-0.012792
-0.012792
-0.012792
-0.012792
-0.012792
-0.012792
-0.012792
-0.012792
-0.012792
-0.012792
-0.012792
-0.012792
-0.012792
-0.012792
-0.012792
-0.012792
-0.012792
-0.012792
-0.012792
-0.012792
-0.012792
-0.012792
-0.012792
-0.012792
-0.012792
-0.012792
-0.012792
-0.012792
-0.012792
-0.012792
-0.012792
-0.012792
-0.012792
-0.012792
-0.012792
-0.012792
-0.012792
-0.012792
-0.012792
-0.012792
-0.012792
-0.012792
-0.012792
-0.012792
-0.012792
-0.012792
-0.012792
-0.012792
-0.012792
-0.012792
-0.012792
-0.012792
-0.012792
-0.012792
-0.012792
-0.012792
-0.012792
-0.012792
-0.012792
-0.012792
-0.012792
-0.012792
-0.012792
-0.012792
-0.012792
-0.012792
-0.012792
-0.012792
-0.012792
-0.012792
-0.012792
-0.012792
-0.012792
-0.012792
-0.012792
-0.012792
-0.012792
-0.012792
-0.012792
-0.012792
-0.012792
-0.012792
-0.012792
-0.012792
-0.012792
-0.012792
-0.012792
-0.012792
-0.012792
-0.012792
-0.012792
-0.012792
-0.012792
-0.012792
-0.012792
-0.012792
-0.012792
-0.012792
-0.012792
-0.012792
-0.012792
0.000000
-0.057047
-0.057047
-0.057047
-0.057047
-0.057047
-0.057047
-0.057047
-0.057047
-0.057047
-0.057047
-0.057047
-0.057047
-0.057047
-0.057047
-0.057047
-0.057047
-0.057047
-0.057047
-0.057047
-0.057047
-0.057047
-0.057047
-0.057047
-0.057047
-0.057047
-0.057047
-0.057047
-0.057047
-0.057047
-0.057047
-0.057047
-0.057047
-0.057047
-0.057047
-0.057047
-0.057047
-0.057047
-0.057047
-0.057047
-0.057047
-0.057047
-0.057047
-0.057047
-0.057047
-0.057047
-0.057047
-0.057047
-0.057047
-0.057047
-0.057047
-0.057047
-0.057047
-0.057047
-0.057047
-0.057047
-0.057047
-0.057047
-0.057047
-0.057047
-0.057047
-0.057047
-0.057047
-0.057047
-0.057047
-0.057047
-0.057047
-0.057047
-0.057047
-0.057047
-0.057047
-0.057047
-0.057047
-0.057047
-0.057047
-0.057047
-0.057047
-0.057047
-0.057047
-0.057047
-0.057047
-0.057047
-0.057047
-0.057047
-0.057047
-0.057047
-0.057047
-0.057047
-0.057047
-0.057047
-0.057047
-0.057047
-0.057047
-0.057047
-0.057047
-0.057047
-0.057047
-0.057047
-0.057047
-0.057047
-0.057047
-0.057047
-0.057047
-0.057047
-0.057047
-0.057047
-0.057047
-0.057047
-0.057047
-0.057047
-0.057047
-0.057047
-0.057047
-0.057047
-0.057047
-0.057047
-0.057047
-0.057047
-0.057047
-0.057047
-0.057047
-0.057047
-0.057047
-0.057047
-0.057047
-0.057047
-0.057047
-0.057047
-0.057047
0.000000
-0.034247
-0.034247
-0.034247
-0.034247
-0.034247
-0.034247
-0.034247
-0.034247
-0.034247
-0.034247
-0.034247
-0.034247
-0.034247
-0.034247
-0.034247
-0.034247
-0.034247
-0.034247
-0.034247
-0.034247
-0.034247
-0.034247
-0.034247
-0.034247
-0.034247
-0.034247
-0.034247
-0.034247
-0.034247
-0.034247
-0.034247
-0.034247
-0.034247
-0.034247
-0.034247
-0.034247
-0.034247
-0.034247
-0.034247
-0.034247
-0.034247
-0.034247
-0.034247
-0.034247
-0.034247
-0.034247
-0.034247
-0.034247
-0.034247
-0.034247
-0.034247
-0.034247
-0.034247
-0.034247
-0.034247
-0.034247
-0.034247
-0.034247
-0.034247
-0.034247
-0.034247
-0.034247
-0.034247
-0.034247
-0.034247
-0.034247
-0.034247
-0.034247
-0.034247
-0.034247
-0.034247
-0.034247
-0.034247
-0.034247
-0.034247
-0.034247
-0.034247
-0.034247
-0.034247
-0.034247
-0.034247
-0.034247
-0.034247
-0.034247
-0.034247
-0.034247
-0.034247
-0.034247
-0.034247
-0.034247
-0.034247
-0.034247
-0.034247
-0.034247
-0.034247
-0.034247
-0.034247
-0.034247
-0.034247
-0.034247
-0.034247
-0.034247
-0.034247
-0.034247
-0.034247
-0.034247
-0.034247
-0.034247
-0.034247
-0.034247
-0.034247
-0.034247
-0.034247
-0.034247
-0.034247
-0.034247
-0.034247
-0.034247
-0.034247
-0.034247
-0.034247
-0.034247
-0.034247
-0.034247
-0.034247
-0.034247
-0.034247
-0.034247
0.000000
-0.047420
-0.047420
-0.047420
-0.047420
-0.047420
-0.047420
-0.047420
-0.047420
-0.047420
-0.047420
-0.047420
-0.047420
-0.047420
-0.047420
-0.047420
-0.047420
-0.047420
-0.047420
-0.047420
-0.047420
-0.047420
-0.047420
-0.047420
-0.047420
-0.047420
-0.047420
-0.047420
-0.047420
-0.047420
-0.047420
-0.047420
-0.047420
-0.047420
-0.047420
-0.047420
-0.047420
-0.047420
-0.047420
-0.047420
-0.047420
-0.047420
-0.047420
-0.047420
-0.047420
-0.047420
-0.047420
-0.047420
-0.047420
-0.047420
-0.047420
-0.047420
-0.047420
-0.047420
-0.047420
-0.047420
-0.047420
-0.047420
-0.047420
-0.047420
-0.047420
-0.047420
-0.047420
-0.047420
-0.047420
-0.047420
-0.047420
-0.047420
-0.047420
-0.047420
-0.047420
-0.047420
-0.047420
-0.047420
-0.047420
-0.047420
-0.047420
-0.047420
-0.047420
-0.047420
-0.047420
-0.047420
-0.047420
-0.047420
-0.047420
-0.047420
-0.047420
-0.047420
-0.047420
-0.047420
-0.047420
-0.047420
-0.047420
-0.047420
-0.047420
-0.047420
-0.047420
-0.047420
-0.047420
-0.047420
-0.047420
-0.047420
-0.047420
-0.047420
-0.047420
-0.047420
-0.047420
-0.047420
-0.047420
-0.047420
-0.047420
-0.047420
-0.047420
-0.047420
-0.047420
-0.047420
-0.047420
-0.047420
-0.047420
-0.047420
-0.047420
-0.047420
-0.047420
-0.047420
-0.047420
-0.047420
-0.047420
-0.047420
-0.047420
0.000000
0.018969
0.018969
0.018969
0.018969
0.018969
0.018969
0.018969
0.018969
0.018969
0.018969
0.018969
0.018969
0.018969
0.018969
0.018969
0.018969
0.018969
0.018969
0.018969
0.018969
0.018969
0.018969
0.018969
0.018969
0.018969
0.018969
0.018969
0.018969
0.018969
0.018969
0.018969
0.018969
0.018969
0.018969
0.018969
0.018969
0.018969
0.018969
0.018969
0.018969
0.018969
0.018969
0.018969
0.018969
0.018969
0.018969
0.018969
0.018969
0.018969
0.018969
0.018969
0.018969
0.018969
0.018969
0.018969
0.018969
0.018969
0.018969
0.018969
0.018969
0.018969
0.018969
0.018969
0.018969
0.018969
0.018969
0.018969
0.018969
0.018969
0.018969
0.018969
0.018969
0.018969
0.018969
0.018969
0.018969
0.018969
0.018969
0.018969
0.018969
0.018969
0.018969
0.018969
0.018969
0.018969
0.018969
0.018969
0.018969
0.018969
0.018969
0.018969
0.018969
0.018969
0.018969
0.018969
0.018969
0.018969
0.018969
0.018969
0.018969
0.018969
0.018969
0.018969
0.018969
0.018969
0.018969
0.018969
0.018969
0.018969
0.018969
0.018969
0.018969
0.018969
0.018969
0.018969
0.018969
0.018969
0.018969
0.018969
0.018969
0.018969
0.018969
0.018969
0.018969
0.018969
0.018969
0.018969
0.018969
0.000000
-0.101003
-0.101003
-0.101003
-0.101003
-0.101003
-0.101003
-0.101003
-0.101003
-0.101003
-0.101003
-0.101003
-0.101003
-0.101003
-0.101003
-0.101003
-0.101003
-0.101003
-0.101003
-0.101003
-0.101003
-0.101003
-0.101003
-0.101003
-0.101003
-0.101003
-0.101003
-0.101003
-0.101003
-0.101003
-0.101003
-0.101003
-0.101003
-0.101003
-0.101003
-0.101003
-0.101003
-0.101003
-0.101003
-0.101003
-0.101003
-0.101003
-0.101003
-0.101003
-0.101003
-0.101003
-0.101003
-0.101003
-0.101003
-0.101003
-0.101003
-0.101003
-0.101003
-0.101003
-0.101003
-0.101003
-0.101003
-0.101003
-0.101003
-0.101003
-0.101003
-0.101003
-0.101003
-0.101003
-0.101003
-0.101003
-0.101003
-0.101003
-0.101003
-0.101003
-0.101003
-0.101003
-0.101003
-0.101003
-0.101003
-0.101003
-0.101003
-0.101003
-0.101003
-0.101003
-0.101003
-0.101003
-0.101003
-0.101003
-0.101003
-0.101003
-0.101003
-0.101003
-0.101003
-0.101003
-0.101003
-0.101003
-0.101003
-0.101003
-0.101003
-0.101003
-0.101003
-0.101003
-0.101003
-0.101003
-0.101003
-0.101003
-0.101003
-0.101003
-0.101003
-0.101003
-0.101003
-0.101003
-0.101003
-0.101003
-0.101003
-0.101003
-0.101003
-0.101003
-0.101003
-0.101003
-0.101003
-0.101003
-0.101003
-0.101003
-0.101003
-0.101003
-0.101003
-0.101003
-0.101003
-0.101003
-0.101003
-0.101003
-0.101003
0.000000
-0.010856
-0.010856
-0.010856
-0.010856
-0.010856
-0.010856
-0.010856
-0.010856
-0.010856
-0.010856
-0.010856
-0.010856
-0.010856
-0.010856
-0.010856
-0.010856
-0.010856
-0.010856
-0.010856
-0.010856
-0.010856
-0.010856
-0.010856
-0.010856
-0.010856
-0.010856
-0.010856
-0.010856
-0.010856
-0.010856
-0.010856
-0.010856
-0.010856
-0.010856
-0.010856
-0.010856
-0.010856
-0.010856
-0.010856
-0.010856
-0.010856
-0.010856
-0.010856
-0.010856
-0.010856
-0.010856
-0.010856
-0.010856
-0.010856
-0.010856
-0.010856
-0.010856
-0.010856
-0.010856
-0.010856
-0.010856
-0.010856
-0.010856
-0.010856
-0.010856
-0.010856
-0.010856
-0.010856
-0.010856
-0.010856
-0.010856
-0.010856
-0.010856
-0.010856
-0.010856
-0.010856
-0.010856
-0.010856
-0.010856
-0.010856
-0.010856
-0.010856
-0.010856
-0.010856
-0.010856
-0.010856
-0.010856
-0.010856
-0.010856
-0.010856
-0.010856
-0.010856
-0.010856
-0.010856
-0.010856
-0.010856
-0.010856
-0.010856
-0.010856
-0.010856
-0.010856
-0.010856
-0.010856
-0.010856
-0.010856
-0.010856
-0.010856
-0.010856
-0.010856
-0.010856
-0.010856
-0.010856
-0.010856
-0.010856
-0.010856
-0.010856
-0.010856
-0.010856
-0.010856
-0.010856
-0.010856
-0.010856
-0.010856
-0.010856
-0.010856
-0.010856
-0.010856
-0.010856
-0.010856
-0.010856
-0.010856
-0.010856
-0.010856
0.000000
-0.019965
-0.019965
-0.019965
-0.019965
-0.019965
-0.019965
-0.019965
-0.019965
-0.019965
-0.019965
-0.019965
-0.019965
-0.019965
-0.019965
-0.019965
-0.019965
-0.019965
-0.019965
-0.019965
-0.019965
-0.019965
-0.019965
-0.019965
-0.019965
-0.019965
-0.019965
-0.019965
-0.019965
-0.019965
-0.019965
-0.019965
-0.019965
-0.019965
-0.019965
-0.019965
-0.019965
-0.019965
-0.019965
-0.019965
-0.019965
-0.019965
-0.019965
-0.019965
-0.019965
-0.019965
-0.019965
-0.019965
-0.019965
-0.019965
-0.019965
-0.019965
-0.019965
-0.019965
-0.019965
-0.019965
-0.019965
-0.019965
-0.019965
-0.019965
-0.019965
-0.019965
-0.019965
-0.019965
-0.019965
-0.019965
-0.019965
-0.019965
-0.019965
-0.019965
-0.019965
-0.019965
-0.019965
-0.019965
-0.019965
-0.019965
-0.019965
-0.019965
-0.019965
-0.019965
-0.019965
-0.019965
-0.019965
-0.019965
-0.019965
-0.019965
-0.019965
-0.019965
-0.019965
-0.019965
-0.019965
-0.019965
-0.019965
-0.019965
-0.019965
-0.019965
-0.019965
-0.019965
-0.019965
-0.019965
-0.019965
-0.019965
-0.019965
-0.019965
-0.019965
-0.019965
-0.019965
-0.019965
-0.019965
-0.019965
-0.019965
-0.019965
-0.019965
-0.019965
-0.019965
-0.019965
-0.019965
-0.019965
-0.019965
-0.019965
-0.019965
-0.019965
-0.019965
-0.019965
-0.019965
-0.019965
-0.019965
-0.019965
-0.019965
0.000000
0.012623
0.012623
0.012623
0.012623
0.012623
0.012623
0.012623
0.012623
0.012623
0.012623
0.012623
0.012623
0.012623
0.012623
0.012623
0.012623
0.012623
0.012623
0.012623
0.012623
0.012623
0.012623
0.012623
0.012623
0.012623
0.012623
0.012623
0.012623
0.012623
0.012623
0.012623
0.012623
0.012623
0.012623
0.012623
0.012623
0.012623
0.012623
0.012623
0.012623
0.012623
0.012623
0.012623
0.012623
0.012623
0.012623
0.012623
0.012623
0.012623
0.012623
0.012623
0.012623
0.012623
0.012623
0.012623
0.012623
0.012623
0.012623
0.012623
0.012623
0.012623
0.012623
0.012623
0.012623
0.012623
0.012623
0.012623
0.012623
0.012623
0.012623
0.012623
0.012623
0.012623
0.012623
0.012623
0.012623
0.012623
0.012623
0.012623
0.012623
0.012623
0.012623
0.012623
0.012623
0.012623
0.012623
0.012623
0.012623
0.012623
0.012623
0.012623
0.012623
0.012623
0.012623
0.012623
0.012623
0.012623
0.012623
0.012623
0.012623
0.012623
0.012623
0.012623
0.012623
0.012623
0.012623
0.012623
0.012623
0.012623
0.012623
0.012623
0.012623
0.012623
0.012623
0.012623
0.012623
0.012623
0.012623
0.012623
0.012623
0.012623
0.012623
0.012623
0.012623
0.012623
0.012623
0.012623
0.012623
0.000000
-0.071386
-0.071386
-0.071386
-0.071386
-0.071386
-0.071386
-0.071386
-0.071386
-0.071386
-0.071386
-0.071386
-0.071386
-0.071386
-0.071386
-0.071386
-0.071386
-0.071386
-0.071386
-0.071386
-0.071386
-0.071386
-0.071386
-0.071386
-0.071386
-0.071386
-0.071386
-0.071386
-0.071386
-0.071386
-0.071386
-0.071386
-0.071386
-0.071386
-0.071386
-0.071386
-0.071386
-0.071386
-0.071386
-0.071386
-0.071386
-0.071386
-0.071386
-0.071386
-0.071386
-0.071386
-0.071386
-0.071386
-0.071386
-0.071386
-0.071386
-0.071386
-0.071386
-0.071386
-0.071386
-0.071386
-0.071386
-0.071386
-0.071386
-0.071386
-0.071386
-0.071386
-0.071386
-0.071386
-0.071386
-0.071386
-0.071386
-0.071386
-0.071386
-0.071386
-0.071386
-0.071386
-0.071386
-0.071386
-0.071386
-0.071386
-0.071386
-0.071386
-0.071386
-0.071386
-0.071386
-0.071386
-0.071386
-0.071386
-0.071386
-0.071386
-0.071386
-0.071386
-0.071386
-0.071386
-0.071386
-0.071386
-0.071386
-0.071386
-0.071386
-0.071386
-0.071386
-0.071386
-0.071386
-0.071386
-0.071386
-0.071386
-0.071386
-0.071386
-0.071386
-0.071386
-0.071386
-0.071386
-0.071386
-0.071386
-0.071386
-0.071386
-0.071386
-0.071386
-0.071386
-0.071386
-0.071386
-0.071386
-0.071386
-0.071386
-0.071386
-0.071386
-0.071386
-0.071386
-0.071386
-0.071386
-0.071386
-0.071386
-0.071386
0.000000
-0.047420
-0.047420
-0.047420
-0.047420
-0.047420
-0.047420
-0.047420
-0.047420
-0.047420
-0.047420
-0.047420
-0.047420
-0.047420
-0.047420
-0.047420
-0.047420
-0.047420
-0.047420
-0.047420
-0.047420
-0.047420
-0.047420
-0.047420
-0.047420
-0.047420
-0.047420
-0.047420
-0.047420
-0.047420
-0.047420
-0.047420
-0.047420
-0.047420
-0.047420
-0.047420
-0.047420
-0.047420
-0.047420
-0.047420
-0.047420
-0.047420
-0.047420
-0.047420
-0.047420
-0.047420
-0.047420
-0.047420
-0.047420
-0.047420
-0.047420
-0.047420
-0.047420
-0.047420
-0.047420
-0.047420
-0.047420
-0.047420
-0.047420
-0.047420
-0.047420
-0.047420
-0.047420
-0.047420
-0.047420
-0.047420
-0.047420
-0.047420
-0.047420
-0.047420
-0.047420
-0.047420
-0.047420
-0.047420
-0.047420
-0.047420
-0.047420
-0.047420
-0.047420
-0.047420
-0.047420
-0.047420
-0.047420
-0.047420
-0.047420
-0.047420
-0.047420
-0.047420
-0.047420
-0.047420
-0.047420
-0.047420
-0.047420
-0.047420
-0.047420
-0.047420
-0.047420
-0.047420
-0.047420
-0.047420
-0.047420
-0.047420
-0.047420
-0.047420
-0.047420
-0.047420
-0.047420
-0.047420
-0.047420
-0.047420
-0.047420
-0.047420
-0.047420
-0.047420
-0.047420
-0.047420
-0.047420
-0.047420
-0.047420
-0.047420
-0.047420
-0.047420
-0.047420
-0.047420
-0.047420
-0.047420
-0.047420
-0.047420
-0.047420
0.000000
-0.006026
-0.006026
-0.006026
-0.006026
-0.006026
-0.006026
-0.006026
-0.006026
-0.006026
-0.006026
-0.006026
-0.006026
-0.006026
-0.006026
-0.006026
-0.006026
-0.006026
-0.006026
-0.006026
-0.006026
-0.006026
-0.006026
-0.006026
-0.006026
-0.006026
-0.006026
-0.006026
-0.006026
-0.006026
-0.006026
-0.006026
-0.006026
-0.006026
-0.006026
-0.006026
-0.006026
-0.006026
-0.006026
-0.006026
-0.006026
-0.006026
-0.006026
-0.006026
-0.006026
-0.006026
-0.006026
-0.006026
-0.006026
-0.006026
-0.006026
-0.006026
-0.006026
-0.006026
-0.006026
-0.006026
-0.006026
-0.006026
-0.006026
-0.006026
-0.006026
-0.006026
-0.006026
-0.006026
-0.006026
-0.006026
-0.006026
-0.006026
-0.006026
-0.006026
-0.006026
-0.006026
-0.006026
-0.006026
-0.006026
-0.006026
-0.006026
-0.006026
-0.006026
-0.006026
-0.006026
-0.006026
-0.006026
-0.006026
-0.006026
-0.006026
-0.006026
-0.006026
-0.006026
-0.006026
-0.006026
-0.006026
-0.006026
-0.006026
-0.006026
-0.006026
-0.006026
-0.006026
-0.006026
-0.006026
-0.006026
-0.006026
-0.006026
-0.006026
-0.006026
-0.006026
-0.006026
-0.006026
-0.006026
-0.006026
-0.006026
-0.006026
-0.006026
-0.006026
-0.006026
-0.006026
-0.006026
-0.006026
-0.006026
-0.006026
-0.006026
-0.006026
-0.006026
-0.006026
-0.006026
-0.006026
-0.006026
-0.006026
-0.006026
0.000000
0.000000
0.000000
0.000000
0.000000
0.000000
0.000000
0.000000
0.000000
0.000000
0.000000
0.000000
0.000000
0.000000
0.000000
0.000000
0.000000
0.000000
0.000000
0.000000
0.000000
0.000000
0.000000
0.000000
0.000000
0.000000
0.000000
0.000000
0.000000
0.000000
0.000000
0.000000
0.000000
0.000000
0.000000
0.000000
0.000000
0.000000
0.000000
0.000000
0.000000
0.000000
0.000000
0.000000
0.000000
0.000000
0.000000
0.000000
0.000000
0.000000
0.000000
0.000000
0.000000
0.000000
0.000000
0.000000
0.000000
0.000000
0.000000
0.000000
0.000000
0.000000
0.000000
0.000000
0.000000
0.000000
0.000000
0.000000
0.000000
0.000000
0.000000
0.000000
0.000000
0.000000
0.000000
0.000000
0.000000
0.000000
0.000000
0.000000
0.000000
0.000000
0.000000
0.000000
0.000000
0.000000
0.000000
0.000000
0.000000
0.000000
0.000000
0.000000
0.000000
0.000000
0.000000
0.000000
0.000000
0.000000
0.000000
0.000000
0.000000
0.000000
0.000000
0.000000
0.000000
0.000000
0.000000
0.000000
0.000000
0.000000
0.000000
0.000000
0.000000
0.000000
0.000000
0.000000
0.000000
0.000000
0.000000
0.000000
0.000000
0.000000
0.000000
0.000000
0.000000
0.000000
0.000000
0.000000
0.000000
0.000000
-0.012792
-0.012792
-0.012792
-0.012792
-0.012792
-0.012792
-0.012792
-0.012792
-0.012792
-0.012792
-0.012792
-0.012792
-0.012792
-0.012792
-0.012792
-0.012792
-0.012792
-0.012792
-0.012792
-0.012792
-0.012792
-0.012792
-0.012792
-0.012792
-0.012792
-0.012792
-0.012792
-0.012792
-0.012792
-0.012792
-0.012792
-0.012792
-0.012792
-0.012792
-0.012792
-0.012792
-0.012792
-0.012792
-0.012792
-0.012792
-0.012792
-0.012792
-0.012792
-0.012792
-0.012792
-0.012792
-0.012792
-0.012792
-0.012792
-0.012792
-0.012792
-0.012792
-0.012792
-0.012792
-0.012792
-0.012792
-0.012792
-0.012792
-0.012792
-0.012792
-0.012792
-0.012792
-0.012792
-0.012792
-0.012792
-0.012792
-0.012792
-0.012792
-0.012792
-0.012792
-0.012792
-0.012792
-0.012792
-0.012792
-0.012792
-0.012792
-0.012792
-0.012792
-0.012792
-0.012792
-0.012792
-0.012792
-0.012792
-0.012792
-0.012792
-0.012792
-0.012792
-0.012792
-0.012792
-0.012792
-0.012792
-0.012792
-0.012792
-0.012792
-0.012792
-0.012792
-0.012792
-0.012792
-0.012792
-0.012792
-0.012792
-0.012792
-0.012792
-0.012792
-0.012792
-0.012792
-0.012792
-0.012792
-0.012792
-0.012792
-0.012792
-0.012792
-0.012792
-0.012792
-0.012792
-0.012792
-0.012792
-0.012792
-0.012792
-0.012792
-0.012792
-0.012792
-0.012792
-0.012792
-0.012792
-0.012792
-0.012792
-0.012792
0.000000
-0.002508
-0.002508
-0.002508
-0.002508
-0.002508
-0.002508
-0.002508
-0.002508
-0.002508
-0.002508
-0.002508
-0.002508
-0.002508
-0.002508
-0.002508
-0.002508
-0.002508
-0.002508
-0.002508
-0.002508
-0.002508
-0.002508
-0.002508
-0.002508
-0.002508
-0.002508
-0.002508
-0.002508
-0.002508
-0.002508
-0.002508
-0.002508
-0.002508
-0.002508
-0.002508
-0.002508
-0.002508
-0.002508
-0.002508
-0.002508
-0.002508
-0.002508
-0.002508
-0.002508
-0.002508
-0.002508
-0.002508
-0.002508
-0.002508
-0.002508
-0.002508
-0.002508
-0.002508
-0.002508
-0.002508
-0.002508
-0.002508
-0.002508
-0.002508
-0.002508
-0.002508
-0.002508
-0.002508
-0.002508
-0.002508
-0.002508
-0.002508
-0.002508
-0.002508
-0.002508
-0.002508
-0.002508
-0.002508
-0.002508
-0.002508
-0.002508
-0.002508
-0.002508
-0.002508
-0.002508
-0.002508
-0.002508
-0.002508
-0.002508
-0.002508
-0.002508
-0.002508
-0.002508
-0.002508
-0.002508
-0.002508
-0.002508
-0.002508
-0.002508
-0.002508
-0.002508
-0.002508
-0.002508
-0.002508
-0.002508
-0.002508
-0.002508
-0.002508
-0.002508
-0.002508
-0.002508
-0.002508
-0.002508
-0.002508
-0.002508
-0.002508
-0.002508
-0.002508
-0.002508
-0.002508
-0.002508
-0.002508
-0.002508
-0.002508
-0.002508
-0.002508
-0.002508
-0.002508
-0.002508
-0.002508
-0.002508
-0.002508
-0.002508
0.000000
0.000000
0.000000
0.000000
0.000000
0.000000
0.000000
0.000000
0.000000
0.000000
0.000000
0.000000
0.000000
0.000000
0.000000
0.000000
0.000000
0.000000
0.000000
0.000000
0.000000
0.000000
0.000000
0.000000
0.000000
0.000000
0.000000
0.000000
0.000000
0.000000
0.000000
0.000000
0.000000
0.000000
0.000000
0.000000
0.000000
0.000000
0.000000
0.000000
0.000000
0.000000
0.000000
0.000000
0.000000
0.000000
0.000000
0.000000
0.000000
0.000000
0.000000
0.000000
0.000000
0.000000
0.000000
0.000000
0.000000
0.000000
0.000000
0.000000
0.000000
0.000000
0.000000
0.000000
0.000000
0.000000
0.000000
0.000000
0.000000
0.000000
0.000000
0.000000
0.000000
0.000000
0.000000
0.000000
0.000000
0.000000
0.000000
0.000000
0.000000
0.000000
0.000000
0.000000
0.000000
0.000000
0.000000
0.000000
0.000000
0.000000
0.000000
0.000000
0.000000
0.000000
0.000000
0.000000
0.000000
0.000000
0.000000
0.000000
0.000000
0.000000
0.000000
0.000000
0.000000
0.000000
0.000000
0.000000
0.000000
0.000000
0.000000
0.000000
0.000000
0.000000
0.000000
0.000000
0.000000
0.000000
0.000000
0.000000
0.000000
0.000000
0.000000
0.000000
0.000000
0.000000
0.000000
0.000000
0.000000
0.000000
-0.012792
-0.012792
-0.012792
-0.012792
-0.012792
-0.012792
-0.012792
-0.012792
-0.012792
-0.012792
-0.012792
-0.012792
-0.012792
-0.012792
-0.012792
-0.012792
-0.012792
-0.012792
-0.012792
-0.012792
-0.012792
-0.012792
-0.012792
-0.012792
-0.012792
-0.012792
-0.012792
-0.012792
-0.012792
-0.012792
-0.012792
-0.012792
-0.012792
-0.012792
-0.012792
-0.012792
-0.012792
-0.012792
-0.012792
-0.012792
-0.012792
-0.012792
-0.012792
-0.012792
-0.012792
-0.012792
-0.012792
-0.012792
-0.012792
-0.012792
-0.012792
-0.012792
-0.012792
-0.012792
-0.012792
-0.012792
-0.012792
-0.012792
-0.012792
-0.012792
-0.012792
-0.012792
-0.012792
-0.012792
-0.012792
-0.012792
-0.012792
-0.012792
-0.012792
-0.012792
-0.012792
-0.012792
-0.012792
-0.012792
-0.012792
-0.012792
-0.012792
-0.012792
-0.012792
-0.012792
-0.012792
-0.012792
-0.012792
-0.012792
-0.012792
-0.012792
-0.012792
-0.012792
-0.012792
-0.012792
-0.012792
-0.012792
-0.012792
-0.012792
-0.012792
-0.012792
-0.012792
-0.012792
-0.012792
-0.012792
-0.012792
-0.012792
-0.012792
-0.012792
-0.012792
-0.012792
-0.012792
-0.012792
-0.012792
-0.012792
-0.012792
-0.012792
-0.012792
-0.012792
-0.012792
-0.012792
-0.012792
-0.012792
-0.012792
-0.012792
-0.012792
-0.012792
-0.012792
-0.012792
-0.012792
-0.012792
-0.012792
-0.012792
0.000000
-0.080589
-0.080589
-0.080589
-0.080589
-0.080589
-0.080589
-0.080589
-0.080589
-0.080589
-0.080589
-0.080589
-0.080589
-0.080589
-0.080589
-0.080589
-0.080589
-0.080589
-0.080589
-0.080589
-0.080589
-0.080589
-0.080589
-0.080589
-0.080589
-0.080589
-0.080589
-0.080589
-0.080589
-0.080589
-0.080589
-0.080589
-0.080589
-0.080589
-0.080589
-0.080589
-0.080589
-0.080589
-0.080589
-0.080589
-0.080589
-0.080589
-0.080589
-0.080589
-0.080589
-0.080589
-0.080589
-0.080589
-0.080589
-0.080589
-0.080589
-0.080589
-0.080589
-0.080589
-0.080589
-0.080589
-0.080589
-0.080589
-0.080589
-0.080589
-0.080589
-0.080589
-0.080589
-0.080589
-0.080589
-0.080589
-0.080589
-0.080589
-0.080589
-0.080589
-0.080589
-0.080589
-0.080589
-0.080589
-0.080589
-0.080589
-0.080589
-0.080589
-0.080589
-0.080589
-0.080589
-0.080589
-0.080589
-0.080589
-0.080589
-0.080589
-0.080589
-0.080589
-0.080589
-0.080589
-0.080589
-0.080589
-0.080589
-0.080589
-0.080589
-0.080589
-0.080589
-0.080589
-0.080589
-0.080589
-0.080589
-0.080589
-0.080589
-0.080589
-0.080589
-0.080589
-0.080589
-0.080589
-0.080589
-0.080589
-0.080589
-0.080589
-0.080589
-0.080589
-0.080589
-0.080589
-0.080589
-0.080589
-0.080589
-0.080589
-0.080589
-0.080589
-0.080589
-0.080589
-0.080589
-0.080589
-0.080589
-0.080589
-0.080589
0.000000
0.023598
0.023598
0.023598
0.023598
0.023598
0.023598
0.023598
0.023598
0.023598
0.023598
0.023598
0.023598
0.023598
0.023598
0.023598
0.023598
0.023598
0.023598
0.023598
0.023598
0.023598
0.023598
0.023598
0.023598
0.023598
0.023598
0.023598
0.023598
0.023598
0.023598
0.023598
0.023598
0.023598
0.023598
0.023598
0.023598
0.023598
0.023598
0.023598
0.023598
0.023598
0.023598
0.023598
0.023598
0.023598
0.023598
0.023598
0.023598
0.023598
0.023598
0.023598
0.023598
0.023598
0.023598
0.023598
0.023598
0.023598
0.023598
0.023598
0.023598
0.023598
0.023598
0.023598
0.023598
0.023598
0.023598
0.023598
0.023598
0.023598
0.023598
0.023598
0.023598
0.023598
0.023598
0.023598
0.023598
0.023598
0.023598
0.023598
0.023598
0.023598
0.023598
0.023598
0.023598
0.023598
0.023598
0.023598
0.023598
0.023598
0.023598
0.023598
0.023598
0.023598
0.023598
0.023598
0.023598
0.023598
0.023598
0.023598
0.023598
0.023598
0.023598
0.023598
0.023598
0.023598
0.023598
0.023598
0.023598
0.023598
0.023598
0.023598
0.023598
0.023598
0.023598
0.023598
0.023598
0.023598
0.023598
0.023598
0.023598
0.023598
0.023598
0.023598
0.023598
0.023598
0.023598
0.023598
0.023598
0.000000
-0.017000
-0.017000
-0.017000
-0.017000
-0.017000
-0.017000
-0.017000
-0.017000
-0.017000
-0.017000
-0.017000
-0.017000
-0.017000
-0.017000
-0.017000
-0.017000
-0.017000
-0.017000
-0.017000
-0.017000
-0.017000
-0.017000
-0.017000
-0.017000
-0.017000
-0.017000
-0.017000
-0.017000
-0.017000
-0.017000
-0.017000
-0.017000
-0.017000
-0.017000
-0.017000
-0.017000
-0.017000
-0.017000
-0.017000
-0.017000
-0.017000
-0.017000
-0.017000
-0.017000
-0.017000
-0.017000
-0.017000
-0.017000
-0.017000
-0.017000
-0.017000
-0.017000
-0.017000
-0.017000
-0.017000
-0.017000
-0.017000
-0.017000
-0.017000
-0.017000
-0.017000
-0.017000
-0.017000
-0.017000
-0.017000
-0.017000
-0.017000
-0.017000
-0.017000
-0.017000
-0.017000
-0.017000
-0.017000
-0.017000
-0.017000
-0.017000
-0.017000
-0.017000
-0.017000
-0.017000
-0.017000
-0.017000
-0.017000
-0.017000
-0.017000
-0.017000
-0.017000
-0.017000
-0.017000
-0.017000
-0.017000
-0.017000
-0.017000
-0.017000
-0.017000
-0.017000
-0.017000
-0.017000
-0.017000
-0.017000
-0.017000
-0.017000
-0.017000
-0.017000
-0.017000
-0.017000
-0.017000
-0.017000
-0.017000
-0.017000
-0.017000
-0.017000
-0.017000
-0.017000
-0.017000
-0.017000
-0.017000
-0.017000
-0.017000
-0.017000
-0.017000
-0.017000
-0.017000
-0.017000
-0.017000
-0.017000
-0.017000
-0.017000
0.000000
0.000377
0.000377
0.000377
0.000377
0.000377
0.000377
0.000377
0.000377
0.000377
0.000377
0.000377
0.000377
0.000377
0.000377
0.000377
0.000377
0.000377
0.000377
0.000377
0.000377
0.000377
0.000377
0.000377
0.000377
0.000377
0.000377
0.000377
0.000377
0.000377
0.000377
0.000377
0.000377
0.000377
0.000377
0.000377
0.000377
0.000377
0.000377
0.000377
0.000377
0.000377
0.000377
0.000377
0.000377
0.000377
0.000377
0.000377
0.000377
0.000377
0.000377
0.000377
0.000377
0.000377
0.000377
0.000377
0.000377
0.000377
0.000377
0.000377
0.000377
0.000377
0.000377
0.000377
0.000377
0.000377
0.000377
0.000377
0.000377
0.000377
0.000377
0.000377
0.000377
0.000377
0.000377
0.000377
0.000377
0.000377
0.000377
0.000377
0.000377
0.000377
0.000377
0.000377
0.000377
0.000377
0.000377
0.000377
0.000377
0.000377
0.000377
0.000377
0.000377
0.000377
0.000377
0.000377
0.000377
0.000377
0.000377
0.000377
0.000377
0.000377
0.000377
0.000377
0.000377
0.000377
0.000377
0.000377
0.000377
0.000377
0.000377
0.000377
0.000377
0.000377
0.000377
0.000377
0.000377
0.000377
0.000377
0.000377
0.000377
0.000377
0.000377
0.000377
0.000377
0.000377
0.000377
0.000377
0.000377
0.000000
-0.106802
-0.106802
-0.106802
-0.106802
-0.106802
-0.106802
-0.106802
-0.106802
-0.106802
-0.106802
-0.106802
-0.106802
-0.106802
-0.106802
-0.106802
-0.106802
-0.106802
-0.106802
-0.106802
-0.106802
-0.106802
-0.106802
-0.106802
-0.106802
-0.106802
-0.106802
-0.106802
-0.106802
-0.106802
-0.106802
-0.106802
-0.106802
-0.106802
-0.106802
-0.106802
-0.106802
-0.106802
-0.106802
-0.106802
-0.106802
-0.106802
-0.106802
-0.106802
-0.106802
-0.106802
-0.106802
-0.106802
-0.106802
-0.106802
-0.106802
-0.106802
-0.106802
-0.106802
-0.106802
-0.106802
-0.106802
-0.106802
-0.106802
-0.106802
-0.106802
-0.106802
-0.106802
-0.106802
-0.106802
-0.106802
-0.106802
-0.106802
-0.106802
-0.106802
-0.106802
-0.106802
-0.106802
-0.106802
-0.106802
-0.106802
-0.106802
-0.106802
-0.106802
-0.106802
-0.106802
-0.106802
-0.106802
-0.106802
-0.106802
-0.106802
-0.106802
-0.106802
-0.106802
-0.106802
-0.106802
-0.106802
-0.106802
-0.106802
-0.106802
-0.106802
-0.106802
-0.106802
-0.106802
-0.106802
-0.106802
-0.106802
-0.106802
-0.106802
-0.106802
-0.106802
-0.106802
-0.106802
-0.106802
-0.106802
-0.106802
-0.106802
-0.106802
-0.106802
-0.106802
-0.106802
-0.106802
-0.106802
-0.106802
-0.106802
-0.106802
-0.106802
-0.106802
-0.106802
-0.106802
-0.106802
-0.106802
-0.106802
-0.106802
0.000000
-0.067384
-0.067384
-0.067384
-0.067384
-0.067384
-0.067384
-0.067384
-0.067384
-0.067384
-0.067384
-0.067384
-0.067384
-0.067384
-0.067384
-0.067384
-0.067384
-0.067384
-0.067384
-0.067384
-0.067384
-0.067384
-0.067384
-0.067384
-0.067384
-0.067384
-0.067384
-0.067384
-0.067384
-0.067384
-0.067384
-0.067384
-0.067384
-0.067384
-0.067384
-0.067384
-0.067384
-0.067384
-0.067384
-0.067384
-0.067384
-0.067384
-0.067384
-0.067384
-0.067384
-0.067384
-0.067384
-0.067384
-0.067384
-0.067384
-0.067384
-0.067384
-0.067384
-0.067384
-0.067384
-0.067384
-0.067384
-0.067384
-0.067384
-0.067384
-0.067384
-0.067384
-0.067384
-0.067384
-0.067384
-0.067384
-0.067384
-0.067384
-0.067384
-0.067384
-0.067384
-0.067384
-0.067384
-0.067384
-0.067384
-0.067384
-0.067384
-0.067384
-0.067384
-0.067384
-0.067384
-0.067384
-0.067384
-0.067384
-0.067384
-0.067384
-0.067384
-0.067384
-0.067384
-0.067384
-0.067384
-0.067384
-0.067384
-0.067384
-0.067384
-0.067384
-0.067384
-0.067384
-0.067384
-0.067384
-0.067384
-0.067384
-0.067384
-0.067384
-0.067384
-0.067384
-0.067384
-0.067384
-0.067384
-0.067384
-0.067384
-0.067384
-0.067384
-0.067384
-0.067384
-0.067384
-0.067384
-0.067384
-0.067384
-0.067384
-0.067384
-0.067384
-0.067384
-0.067384
-0.067384
-0.067384
-0.067384
-0.067384
-0.067384
0.000000
-0.008083
-0.008083
-0.008083
-0.008083
-0.008083
-0.008083
-0.008083
-0.008083
-0.008083
-0.008083
-0.008083
-0.008083
-0.008083
-0.008083
-0.008083
-0.008083
-0.008083
-0.008083
-0.008083
-0.008083
-0.008083
-0.008083
-0.008083
-0.008083
-0.008083
-0.008083
-0.008083
-0.008083
-0.008083
-0.008083
-0.008083
-0.008083
-0.008083
-0.008083
-0.008083
-0.008083
-0.008083
-0.008083
-0.008083
-0.008083
-0.008083
-0.008083
-0.008083
-0.008083
-0.008083
-0.008083
-0.008083
-0.008083
-0.008083
-0.008083
-0.008083
-0.008083
-0.008083
-0.008083
-0.008083
-0.008083
-0.008083
-0.008083
-0.008083
-0.008083
-0.008083
-0.008083
-0.008083
-0.008083
-0.008083
-0.008083
-0.008083
-0.008083
-0.008083
-0.008083
-0.008083
-0.008083
-0.008083
-0.008083
-0.008083
-0.008083
-0.008083
-0.008083
-0.008083
-0.008083
-0.008083
-0.008083
-0.008083
-0.008083
-0.008083
-0.008083
-0.008083
-0.008083
-0.008083
-0.008083
-0.008083
-0.008083
-0.008083
-0.008083
-0.008083
-0.008083
-0.008083
-0.008083
-0.008083
-0.008083
-0.008083
-0.008083
-0.008083
-0.008083
-0.008083
-0.008083
-0.008083
-0.008083
-0.008083
-0.008083
-0.008083
-0.008083
-0.008083
-0.008083
-0.008083
-0.008083
-0.008083
-0.008083
-0.008083
-0.008083
-0.008083
-0.008083
-0.008083
-0.008083
-0.008083
-0.008083
-0.008083
-0.008083
0.000000
-0.000167
-0.000167
-0.000167
-0.000167
-0.000167
-0.000167
-0.000167
-0.000167
-0.000167
-0.000167
-0.000167
-0.000167
-0.000167
-0.000167
-0.000167
-0.000167
-0.000167
-0.000167
-0.000167
-0.000167
-0.000167
-0.000167
-0.000167
-0.000167
-0.000167
-0.000167
-0.000167
-0.000167
-0.000167
-0.000167
-0.000167
-0.000167
-0.000167
-0.000167
-0.000167
-0.000167
-0.000167
-0.000167
-0.000167
-0.000167
-0.000167
-0.000167
-0.000167
-0.000167
-0.000167
-0.000167
-0.000167
-0.000167
-0.000167
-0.000167
-0.000167
-0.000167
-0.000167
-0.000167
-0.000167
-0.000167
-0.000167
-0.000167
-0.000167
-0.000167
-0.000167
-0.000167
-0.000167
-0.000167
-0.000167
-0.000167
-0.000167
-0.000167
-0.000167
-0.000167
-0.000167
-0.000167
-0.000167
-0.000167
-0.000167
-0.000167
-0.000167
-0.000167
-0.000167
-0.000167
-0.000167
-0.000167
-0.000167
-0.000167
-0.000167
-0.000167
-0.000167
-0.000167
-0.000167
-0.000167
-0.000167
-0.000167
-0.000167
-0.000167
-0.000167
-0.000167
-0.000167
-0.000167
-0.000167
-0.000167
-0.000167
-0.000167
-0.000167
-0.000167
-0.000167
-0.000167
-0.000167
-0.000167
-0.000167
-0.000167
-0.000167
-0.000167
-0.000167
-0.000167
-0.000167
-0.000167
-0.000167
-0.000167
-0.000167
-0.000167
-0.000167
-0.000167
-0.000167
-0.000167
-0.000167
-0.000167
-0.000167
-0.000167
0.000000
-0.004017
-0.004017
-0.004017
-0.004017
-0.004017
-0.004017
-0.004017
-0.004017
-0.004017
-0.004017
-0.004017
-0.004017
-0.004017
-0.004017
-0.004017
-0.004017
-0.004017
-0.004017
-0.004017
-0.004017
-0.004017
-0.004017
-0.004017
-0.004017
-0.004017
-0.004017
-0.004017
-0.004017
-0.004017
-0.004017
-0.004017
-0.004017
-0.004017
-0.004017
-0.004017
-0.004017
-0.004017
-0.004017
-0.004017
-0.004017
-0.004017
-0.004017
-0.004017
-0.004017
-0.004017
-0.004017
-0.004017
-0.004017
-0.004017
-0.004017
-0.004017
-0.004017
-0.004017
-0.004017
-0.004017
-0.004017
-0.004017
-0.004017
-0.004017
-0.004017
-0.004017
-0.004017
-0.004017
-0.004017
-0.004017
-0.004017
-0.004017
-0.004017
-0.004017
-0.004017
-0.004017
-0.004017
-0.004017
-0.004017
-0.004017
-0.004017
-0.004017
-0.004017
-0.004017
-0.004017
-0.004017
-0.004017
-0.004017
-0.004017
-0.004017
-0.004017
-0.004017
-0.004017
-0.004017
-0.004017
-0.004017
-0.004017
-0.004017
-0.004017
-0.004017
-0.004017
-0.004017
-0.004017
-0.004017
-0.004017
-0.004017
-0.004017
-0.004017
-0.004017
-0.004017
-0.004017
-0.004017
-0.004017
-0.004017
-0.004017
-0.004017
-0.004017
-0.004017
-0.004017
-0.004017
-0.004017
-0.004017
-0.004017
-0.004017
-0.004017
-0.004017
-0.004017
-0.004017
-0.004017
-0.004017
-0.004017
-0.004017
-0.004017
0.000000
-0.017000
-0.017000
-0.017000
-0.017000
-0.017000
-0.017000
-0.017000
-0.017000
-0.017000
-0.017000
-0.017000
-0.017000
-0.017000
-0.017000
-0.017000
-0.017000
-0.017000
-0.017000
-0.017000
-0.017000
-0.017000
-0.017000
-0.017000
-0.017000
-0.017000
-0.017000
-0.017000
-0.017000
-0.017000
-0.017000
-0.017000
-0.017000
-0.017000
-0.017000
-0.017000
-0.017000
-0.017000
-0.017000
-0.017000
-0.017000
-0.017000
-0.017000
-0.017000
-0.017000
-0.017000
-0.017000
-0.017000
-0.017000
-0.017000
-0.017000
-0.017000
-0.017000
-0.017000
-0.017000
-0.017000
-0.017000
-0.017000
-0.017000
-0.017000
-0.017000
-0.017000
-0.017000
-0.017000
-0.017000
-0.017000
-0.017000
-0.017000
-0.017000
-0.017000
-0.017000
-0.017000
-0.017000
-0.017000
-0.017000
-0.017000
-0.017000
-0.017000
-0.017000
-0.017000
-0.017000
-0.017000
-0.017000
-0.017000
-0.017000
-0.017000
-0.017000
-0.017000
-0.017000
-0.017000
-0.017000
-0.017000
-0.017000
-0.017000
-0.017000
-0.017000
-0.017000
-0.017000
-0.017000
-0.017000
-0.017000
-0.017000
-0.017000
-0.017000
-0.017000
-0.017000
-0.017000
-0.017000
-0.017000
-0.017000
-0.017000
-0.017000
-0.017000
-0.017000
-0.017000
-0.017000
-0.017000
-0.017000
-0.017000
-0.017000
-0.017000
-0.017000
-0.017000
-0.017000
-0.017000
-0.017000
-0.017000
-0.017000
-0.017000
0.000000
0.000859
0.000859
0.000859
0.000859
0.000859
0.000859
0.000859
0.000859
0.000859
0.000859
0.000859
0.000859
0.000859
0.000859
0.000859
0.000859
0.000859
0.000859
0.000859
0.000859
0.000859
0.000859
0.000859
0.000859
0.000859
0.000859
0.000859
0.000859
0.000859
0.000859
0.000859
0.000859
0.000859
0.000859
0.000859
0.000859
0.000859
0.000859
0.000859
0.000859
0.000859
0.000859
0.000859
0.000859
0.000859
0.000859
0.000859
0.000859
0.000859
0.000859
0.000859
0.000859
0.000859
0.000859
0.000859
0.000859
0.000859
0.000859
0.000859
0.000859
0.000859
0.000859
0.000859
0.000859
0.000859
0.000859
0.000859
0.000859
0.000859
0.000859
0.000859
0.000859
0.000859
0.000859
0.000859
0.000859
0.000859
0.000859
0.000859
0.000859
0.000859
0.000859
0.000859
0.000859
0.000859
0.000859
0.000859
0.000859
0.000859
0.000859
0.000859
0.000859
0.000859
0.000859
0.000859
0.000859
0.000859
0.000859
0.000859
0.000859
0.000859
0.000859
0.000859
0.000859
0.000859
0.000859
0.000859
0.000859
0.000859
0.000859
0.000859
0.000859
0.000859
0.000859
0.000859
0.000859
0.000859
0.000859
0.000859
0.000859
0.000859
0.000859
0.000859
0.000859
0.000859
0.000859
0.000859
0.000859
0.000000
-0.017000
-0.017000
-0.017000
-0.017000
-0.017000
-0.017000
-0.017000
-0.017000
-0.017000
-0.017000
-0.017000
-0.017000
-0.017000
-0.017000
-0.017000
-0.017000
-0.017000
-0.017000
-0.017000
-0.017000
-0.017000
-0.017000
-0.017000
-0.017000
-0.017000
-0.017000
-0.017000
-0.017000
-0.017000
-0.017000
-0.017000
-0.017000
-0.017000
-0.017000
-0.017000
-0.017000
-0.017000
-0.017000
-0.017000
-0.017000
-0.017000
-0.017000
-0.017000
-0.017000
-0.017000
-0.017000
-0.017000
-0.017000
-0.017000
-0.017000
-0.017000
-0.017000
-0.017000
-0.017000
-0.017000
-0.017000
-0.017000
-0.017000
-0.017000
-0.017000
-0.017000
-0.017000
-0.017000
-0.017000
-0.017000
-0.017000
-0.017000
-0.017000
-0.017000
-0.017000
-0.017000
-0.017000
-0.017000
-0.017000
-0.017000
-0.017000
-0.017000
-0.017000
-0.017000
-0.017000
-0.017000
-0.017000
-0.017000
-0.017000
-0.017000
-0.017000
-0.017000
-0.017000
-0.017000
-0.017000
-0.017000
-0.017000
-0.017000
-0.017000
-0.017000
-0.017000
-0.017000
-0.017000
-0.017000
-0.017000
-0.017000
-0.017000
-0.017000
-0.017000
-0.017000
-0.017000
-0.017000
-0.017000
-0.017000
-0.017000
-0.017000
-0.017000
-0.017000
-0.017000
-0.017000
-0.017000
-0.017000
-0.017000
-0.017000
-0.017000
-0.017000
-0.017000
-0.017000
-0.017000
-0.017000
-0.017000
-0.017000
-0.017000
0.000000
0.000000
0.000000
0.000000
0.000000
0.000000
0.000000
0.000000
0.000000
0.000000
0.000000
0.000000
0.000000
0.000000
0.000000
0.000000
0.000000
0.000000
0.000000
0.000000
0.000000
0.000000
0.000000
0.000000
0.000000
0.000000
0.000000
0.000000
0.000000
0.000000
0.000000
0.000000
0.000000
0.000000
0.000000
0.000000
0.000000
0.000000
