0.000000
0.000000
0.000000
0.000000
0.000000
0.000000
0.000000
0.000000
0.000000
0.000000
0.000000
0.000000
0.000000
0.000000
0.000000
0.000000
0.000000
0.000000
0.000000
0.000000
0.000000
0.000000
0.000000
0.000000
0.000000
0.000000
0.000000
0.000000
0.000000
0.000000
0.000000
0.000000
0.000000
0.000000
0.000000
0.000000
0.000000
0.000000
0.000000
0.000000
0.000000
0.000000
0.000000
0.000000
0.000000
0.000000
0.000000
0.000000
0.000000
0.000000
0.000000
0.000000
0.000000
0.000000
0.000000
0.000000
0.000000
0.000000
0.000000
0.000000
0.000000
0.000000
0.000000
0.000000
0.000000
0.000000
0.000000
0.000000
0.000000
0.000000
0.000000
0.000000
0.000000
0.000000
0.000000
0.000000
0.000000
0.000000
0.000000
0.000000
0.000000
0.000000
0.000000
0.000000
0.000000
0.000000
0.000000
0.000000
0.000000
0.000000
0.000000
0.000000
0.000000
0.000000
0.000000
0.000000
0.000000
0.000000
0.000000
0.000000
0.000000
0.000000
0.000000
0.000000
0.000000
0.000000
0.000000
0.000000
0.000000
0.000000
0.000000
0.000000
0.000000
0.000000
0.000000
0.000000
0.000000
0.000000
0.000000
0.000000
0.000000
0.000000
0.000000
0.000000
0.000000
0.000000
0.000000
0.000000
0.000000
-0.010665
-0.010665
-0.010665
-0.010665
-0.010665
-0.010665
-0.010665
-0.010665
-0.010665
-0.010665
-0.010665
-0.010665
-0.010665
-0.010665
-0.010665
-0.010665
-0.010665
-0.010665
-0.010665
-0.010665
-0.010665
-0.010665
-0.010665
-0.010665
-0.010665
-0.010665
-0.010665
-0.010665
-0.010665
-0.010665
-0.010665
-0.010665
-0.010665
-0.010665
-0.010665
-0.010665
-0.010665
-0.010665
-0.010665
-0.010665
-0.010665
-0.010665
-0.010665
-0.010665
-0.010665
-0.010665
-0.010665
-0.010665
-0.010665
-0.010665
-0.010665
-0.010665
-0.010665
-0.010665
-0.010665
-0.010665
-0.010665
-0.010665
-0.010665
-0.010665
-0.010665
-0.010665
-0.010665
-0.010665
-0.010665
-0.010665
-0.010665
-0.010665
-0.010665
-0.010665
-0.010665
-0.010665
-0.010665
-0.010665
-0.010665
-0.010665
-0.010665
-0.010665
-0.010665
-0.010665
-0.010665
-0.010665
-0.010665
-0.010665
-0.010665
-0.010665
-0.010665
-0.010665
-0.010665
-0.010665
-0.010665
-0.010665
-0.010665
-0.010665
-0.010665
-0.010665
-0.010665
-0.010665
-0.010665
-0.010665
-0.010665
-0.010665
-0.010665
-0.010665
-0.010665
-0.010665
-0.010665
-0.010665
-0.010665
-0.010665
-0.010665
-0.010665
-0.010665
-0.010665
-0.010665
-0.010665
-0.010665
-0.010665
-0.010665
-0.010665
-0.010665
-0.010665
-0.010665
-0.010665
-0.010665
-0.010665
-0.010665
-0.010665
0.000000
0.003466
0.003466
0.003466
0.003466
0.003466
0.003466
0.003466
0.003466
0.003466
0.003466
0.003466
0.003466
0.003466
0.003466
0.003466
0.003466
0.003466
0.003466
0.003466
0.003466
0.003466
0.003466
0.003466
0.003466
0.003466
0.003466
0.003466
0.003466
0.003466
0.003466
0.003466
0.003466
0.003466
0.003466
0.003466
0.003466
0.003466
0.003466
0.003466
0.003466
0.003466
0.003466
0.003466
0.003466
0.003466
0.003466
0.003466
0.003466
0.003466
0.003466
0.003466
0.003466
0.003466
0.003466
0.003466
0.003466
0.003466
0.003466
0.003466
0.003466
0.003466
0.003466
0.003466
0.003466
0.003466
0.003466
0.003466
0.003466
0.003466
0.003466
0.003466
0.003466
0.003466
0.003466
0.003466
0.003466
0.003466
0.003466
0.003466
0.003466
0.003466
0.003466
0.003466
0.003466
0.003466
0.003466
0.003466
0.003466
0.003466
0.003466
0.003466
0.003466
0.003466
0.003466
0.003466
0.003466
0.003466
0.003466
0.003466
0.003466
0.003466
0.003466
0.003466
0.003466
0.003466
0.003466
0.003466
0.003466
0.003466
0.003466
0.003466
0.003466
0.003466
0.003466
0.003466
0.003466
0.003466
0.003466
0.003466
0.003466
0.003466
0.003466
0.003466
0.003466
0.003466
0.003466
0.003466
0.003466
0.000000
0.003753
0.003753
0.003753
0.003753
0.003753
0.003753
0.003753
0.003753
0.003753
0.003753
0.003753
0.003753
0.003753
0.003753
0.003753
0.003753
0.003753
0.003753
0.003753
0.003753
0.003753
0.003753
0.003753
0.003753
0.003753
0.003753
0.003753
0.003753
0.003753
0.003753
0.003753
0.003753
0.003753
0.003753
0.003753
0.003753
0.003753
0.003753
0.003753
0.003753
0.003753
0.003753
0.003753
0.003753
0.003753
0.003753
0.003753
0.003753
0.003753
0.003753
0.003753
0.003753
0.003753
0.003753
0.003753
0.003753
0.003753
0.003753
0.003753
0.003753
0.003753
0.003753
0.003753
0.003753
0.003753
0.003753
0.003753
0.003753
0.003753
0.003753
0.003753
0.003753
0.003753
0.003753
0.003753
0.003753
0.003753
0.003753
0.003753
0.003753
0.003753
0.003753
0.003753
0.003753
0.003753
0.003753
0.003753
0.003753
0.003753
0.003753
0.003753
0.003753
0.003753
0.003753
0.003753
0.003753
0.003753
0.003753
0.003753
0.003753
0.003753
0.003753
0.003753
0.003753
0.003753
0.003753
0.003753
0.003753
0.003753
0.003753
0.003753
0.003753
0.003753
0.003753
0.003753
0.003753
0.003753
0.003753
0.003753
0.003753
0.003753
0.003753
0.003753
0.003753
0.003753
0.003753
0.003753
0.003753
0.000000
-0.014297
-0.014297
-0.014297
-0.014297
-0.014297
-0.014297
-0.014297
-0.014297
-0.014297
-0.014297
-0.014297
-0.014297
-0.014297
-0.014297
-0.014297
-0.014297
-0.014297
-0.014297
-0.014297
-0.014297
-0.014297
-0.014297
-0.014297
-0.014297
-0.014297
-0.014297
-0.014297
-0.014297
-0.014297
-0.014297
-0.014297
-0.014297
-0.014297
-0.014297
-0.014297
-0.014297
-0.014297
-0.014297
-0.014297
-0.014297
-0.014297
-0.014297
-0.014297
-0.014297
-0.014297
-0.014297
-0.014297
-0.014297
-0.014297
-0.014297
-0.014297
-0.014297
-0.014297
-0.014297
-0.014297
-0.014297
-0.014297
-0.014297
-0.014297
-0.014297
-0.014297
-0.014297
-0.014297
-0.014297
-0.014297
-0.014297
-0.014297
-0.014297
-0.014297
-0.014297
-0.014297
-0.014297
-0.014297
-0.014297
-0.014297
-0.014297
-0.014297
-0.014297
-0.014297
-0.014297
-0.014297
-0.014297
-0.014297
-0.014297
-0.014297
-0.014297
-0.014297
-0.014297
-0.014297
-0.014297
-0.014297
-0.014297
-0.014297
-0.014297
-0.014297
-0.014297
-0.014297
-0.014297
-0.014297
-0.014297
-0.014297
-0.014297
-0.014297
-0.014297
-0.014297
-0.014297
-0.014297
-0.014297
-0.014297
-0.014297
-0.014297
-0.014297
-0.014297
-0.014297
-0.014297
-0.014297
-0.014297
-0.014297
-0.014297
-0.014297
-0.014297
-0.014297
-0.014297
-0.014297
-0.014297
-0.014297
-0.014297
-0.014297
0.000000
-0.029048
-0.029048
-0.029048
-0.029048
-0.029048
-0.029048
-0.029048
-0.029048
-0.029048
-0.029048
-0.029048
-0.029048
-0.029048
-0.029048
-0.029048
-0.029048
-0.029048
-0.029048
-0.029048
-0.029048
-0.029048
-0.029048
-0.029048
-0.029048
-0.029048
-0.029048
-0.029048
-0.029048
-0.029048
-0.029048
-0.029048
-0.029048
-0.029048
-0.029048
-0.029048
-0.029048
-0.029048
-0.029048
-0.029048
-0.029048
-0.029048
-0.029048
-0.029048
-0.029048
-0.029048
-0.029048
-0.029048
-0.029048
-0.029048
-0.029048
-0.029048
-0.029048
-0.029048
-0.029048
-0.029048
-0.029048
-0.029048
-0.029048
-0.029048
-0.029048
-0.029048
-0.029048
-0.029048
-0.029048
-0.029048
-0.029048
-0.029048
-0.029048
-0.029048
-0.029048
-0.029048
-0.029048
-0.029048
-0.029048
-0.029048
-0.029048
-0.029048
-0.029048
-0.029048
-0.029048
-0.029048
-0.029048
-0.029048
-0.029048
-0.029048
-0.029048
-0.029048
-0.029048
-0.029048
-0.029048
-0.029048
-0.029048
-0.029048
-0.029048
-0.029048
-0.029048
-0.029048
-0.029048
-0.029048
-0.029048
-0.029048
-0.029048
-0.029048
-0.029048
-0.029048
-0.029048
-0.029048
-0.029048
-0.029048
-0.029048
-0.029048
-0.029048
-0.029048
-0.029048
-0.029048
-0.029048
-0.029048
-0.029048
-0.029048
-0.029048
-0.029048
-0.029048
-0.029048
-0.029048
-0.029048
-0.029048
-0.029048
-0.029048
0.000000
0.003901
0.003901
0.003901
0.003901
0.003901
0.003901
0.003901
0.003901
0.003901
0.003901
0.003901
0.003901
0.003901
0.003901
0.003901
0.003901
0.003901
0.003901
0.003901
0.003901
0.003901
0.003901
0.003901
0.003901
0.003901
0.003901
0.003901
0.003901
0.003901
0.003901
0.003901
0.003901
0.003901
0.003901
0.003901
0.003901
0.003901
0.003901
0.003901
0.003901
0.003901
0.003901
0.003901
0.003901
0.003901
0.003901
0.003901
0.003901
0.003901
0.003901
0.003901
0.003901
0.003901
0.003901
0.003901
0.003901
0.003901
0.003901
0.003901
0.003901
0.003901
0.003901
0.003901
0.003901
0.003901
0.003901
0.003901
0.003901
0.003901
0.003901
0.003901
0.003901
0.003901
0.003901
0.003901
0.003901
0.003901
0.003901
0.003901
0.003901
0.003901
0.003901
0.003901
0.003901
0.003901
0.003901
0.003901
0.003901
0.003901
0.003901
0.003901
0.003901
0.003901
0.003901
0.003901
0.003901
0.003901
0.003901
0.003901
0.003901
0.003901
0.003901
0.003901
0.003901
0.003901
0.003901
0.003901
0.003901
0.003901
0.003901
0.003901
0.003901
0.003901
0.003901
0.003901
0.003901
0.003901
0.003901
0.003901
0.003901
0.003901
0.003901
0.003901
0.003901
0.003901
0.003901
0.003901
0.003901
0.000000
0.000000
0.000000
0.000000
0.000000
0.000000
0.000000
0.000000
0.000000
0.000000
0.000000
0.000000
0.000000
0.000000
0.000000
0.000000
0.000000
0.000000
0.000000
0.000000
0.000000
0.000000
0.000000
0.000000
0.000000
0.000000
0.000000
0.000000
0.000000
0.000000
0.000000
0.000000
0.000000
0.000000
0.000000
0.000000
0.000000
0.000000
0.000000
0.000000
0.000000
0.000000
0.000000
0.000000
0.000000
0.000000
0.000000
0.000000
0.000000
0.000000
0.000000
0.000000
0.000000
0.000000
0.000000
0.000000
0.000000
0.000000
0.000000
0.000000
0.000000
0.000000
0.000000
0.000000
0.000000
0.000000
0.000000
0.000000
0.000000
0.000000
0.000000
0.000000
0.000000
0.000000
0.000000
0.000000
0.000000
0.000000
0.000000
0.000000
0.000000
0.000000
0.000000
0.000000
0.000000
0.000000
0.000000
0.000000
0.000000
0.000000
0.000000
0.000000
0.000000
0.000000
0.000000
0.000000
0.000000
0.000000
0.000000
0.000000
0.000000
0.000000
0.000000
0.000000
0.000000
0.000000
0.000000
0.000000
0.000000
0.000000
0.000000
0.000000
0.000000
0.000000
0.000000
0.000000
0.000000
0.000000
0.000000
0.000000
0.000000
0.000000
0.000000
0.000000
0.000000
0.000000
0.000000
0.000000
0.000000
0.000000
-0.010379
-0.010379
-0.010379
-0.010379
-0.010379
-0.010379
-0.010379
-0.010379
-0.010379
-0.010379
-0.010379
-0.010379
-0.010379
-0.010379
-0.010379
-0.010379
-0.010379
-0.010379
-0.010379
-0.010379
-0.010379
-0.010379
-0.010379
-0.010379
-0.010379
-0.010379
-0.010379
-0.010379
-0.010379
-0.010379
-0.010379
-0.010379
-0.010379
-0.010379
-0.010379
-0.010379
-0.010379
-0.010379
-0.010379
-0.010379
-0.010379
-0.010379
-0.010379
-0.010379
-0.010379
-0.010379
-0.010379
-0.010379
-0.010379
-0.010379
-0.010379
-0.010379
-0.010379
-0.010379
-0.010379
-0.010379
-0.010379
-0.010379
-0.010379
-0.010379
-0.010379
-0.010379
-0.010379
-0.010379
-0.010379
-0.010379
-0.010379
-0.010379
-0.010379
-0.010379
-0.010379
-0.010379
-0.010379
-0.010379
-0.010379
-0.010379
-0.010379
-0.010379
-0.010379
-0.010379
-0.010379
-0.010379
-0.010379
-0.010379
-0.010379
-0.010379
-0.010379
-0.010379
-0.010379
-0.010379
-0.010379
-0.010379
-0.010379
-0.010379
-0.010379
-0.010379
-0.010379
-0.010379
-0.010379
-0.010379
-0.010379
-0.010379
-0.010379
-0.010379
-0.010379
-0.010379
-0.010379
-0.010379
-0.010379
-0.010379
-0.010379
-0.010379
-0.010379
-0.010379
-0.010379
-0.010379
-0.010379
-0.010379
-0.010379
-0.010379
-0.010379
-0.010379
-0.010379
-0.010379
-0.010379
-0.010379
-0.010379
-0.010379
0.000000
-0.019304
-0.019304
-0.019304
-0.019304
-0.019304
-0.019304
-0.019304
-0.019304
-0.019304
-0.019304
-0.019304
-0.019304
-0.019304
-0.019304
-0.019304
-0.019304
-0.019304
-0.019304
-0.019304
-0.019304
-0.019304
-0.019304
-0.019304
-0.019304
-0.019304
-0.019304
-0.019304
-0.019304
-0.019304
-0.019304
-0.019304
-0.019304
-0.019304
-0.019304
-0.019304
-0.019304
-0.019304
-0.019304
-0.019304
-0.019304
-0.019304
-0.019304
-0.019304
-0.019304
-0.019304
-0.019304
-0.019304
-0.019304
-0.019304
-0.019304
-0.019304
-0.019304
-0.019304
-0.019304
-0.019304
-0.019304
-0.019304
-0.019304
-0.019304
-0.019304
-0.019304
-0.019304
-0.019304
-0.019304
-0.019304
-0.019304
-0.019304
-0.019304
-0.019304
-0.019304
-0.019304
-0.019304
-0.019304
-0.019304
-0.019304
-0.019304
-0.019304
-0.019304
-0.019304
-0.019304
-0.019304
-0.019304
-0.019304
-0.019304
-0.019304
-0.019304
-0.019304
-0.019304
-0.019304
-0.019304
-0.019304
-0.019304
-0.019304
-0.019304
-0.019304
-0.019304
-0.019304
-0.019304
-0.019304
-0.019304
-0.019304
-0.019304
-0.019304
-0.019304
-0.019304
-0.019304
-0.019304
-0.019304
-0.019304
-0.019304
-0.019304
-0.019304
-0.019304
-0.019304
-0.019304
-0.019304
-0.019304
-0.019304
-0.019304
-0.019304
-0.019304
-0.019304
-0.019304
-0.019304
-0.019304
-0.019304
-0.019304
-0.019304
0.000000
-0.014297
-0.014297
-0.014297
-0.014297
-0.014297
-0.014297
-0.014297
-0.014297
-0.014297
-0.014297
-0.014297
-0.014297
-0.014297
-0.014297
-0.014297
-0.014297
-0.014297
-0.014297
-0.014297
-0.014297
-0.014297
-0.014297
-0.014297
-0.014297
-0.014297
-0.014297
-0.014297
-0.014297
-0.014297
-0.014297
-0.014297
-0.014297
-0.014297
-0.014297
-0.014297
-0.014297
-0.014297
-0.014297
-0.014297
-0.014297
-0.014297
-0.014297
-0.014297
-0.014297
-0.014297
-0.014297
-0.014297
-0.014297
-0.014297
-0.014297
-0.014297
-0.014297
-0.014297
-0.014297
-0.014297
-0.014297
-0.014297
-0.014297
-0.014297
-0.014297
-0.014297
-0.014297
-0.014297
-0.014297
-0.014297
-0.014297
-0.014297
-0.014297
-0.014297
-0.014297
-0.014297
-0.014297
-0.014297
-0.014297
-0.014297
-0.014297
-0.014297
-0.014297
-0.014297
-0.014297
-0.014297
-0.014297
-0.014297
-0.014297
-0.014297
-0.014297
-0.014297
-0.014297
-0.014297
-0.014297
-0.014297
-0.014297
-0.014297
-0.014297
-0.014297
-0.014297
-0.014297
-0.014297
-0.014297
-0.014297
-0.014297
-0.014297
-0.014297
-0.014297
-0.014297
-0.014297
-0.014297
-0.014297
-0.014297
-0.014297
-0.014297
-0.014297
-0.014297
-0.014297
-0.014297
-0.014297
-0.014297
-0.014297
-0.014297
-0.014297
-0.014297
-0.014297
-0.014297
-0.014297
-0.014297
-0.014297
-0.014297
-0.014297
0.000000
-0.010665
-0.010665
-0.010665
-0.010665
-0.010665
-0.010665
-0.010665
-0.010665
-0.010665
-0.010665
-0.010665
-0.010665
-0.010665
-0.010665
-0.010665
-0.010665
-0.010665
-0.010665
-0.010665
-0.010665
-0.010665
-0.010665
-0.010665
-0.010665
-0.010665
-0.010665
-0.010665
-0.010665
-0.010665
-0.010665
-0.010665
-0.010665
-0.010665
-0.010665
-0.010665
-0.010665
-0.010665
-0.010665
-0.010665
-0.010665
-0.010665
-0.010665
-0.010665
-0.010665
-0.010665
-0.010665
-0.010665
-0.010665
-0.010665
-0.010665
-0.010665
-0.010665
-0.010665
-0.010665
-0.010665
-0.010665
-0.010665
-0.010665
-0.010665
-0.010665
-0.010665
-0.010665
-0.010665
-0.010665
-0.010665
-0.010665
-0.010665
-0.010665
-0.010665
-0.010665
-0.010665
-0.010665
-0.010665
-0.010665
-0.010665
-0.010665
-0.010665
-0.010665
-0.010665
-0.010665
-0.010665
-0.010665
-0.010665
-0.010665
-0.010665
-0.010665
-0.010665
-0.010665
-0.010665
-0.010665
-0.010665
-0.010665
-0.010665
-0.010665
-0.010665
-0.010665
-0.010665
-0.010665
-0.010665
-0.010665
-0.010665
-0.010665
-0.010665
-0.010665
-0.010665
-0.010665
-0.010665
-0.010665
-0.010665
-0.010665
-0.010665
-0.010665
-0.010665
-0.010665
-0.010665
-0.010665
-0.010665
-0.010665
-0.010665
-0.010665
-0.010665
-0.010665
-0.010665
-0.010665
-0.010665
-0.010665
-0.010665
-0.010665
0.000000
0.000000
0.000000
0.000000
0.000000
0.000000
0.000000
0.000000
0.000000
0.000000
0.000000
0.000000
0.000000
0.000000
0.000000
0.000000
0.000000
0.000000
0.000000
0.000000
0.000000
0.000000
0.000000
0.000000
0.000000
0.000000
0.000000
0.000000
0.000000
0.000000
0.000000
0.000000
0.000000
0.000000
0.000000
0.000000
0.000000
0.000000
0.000000
0.000000
0.000000
0.000000
0.000000
0.000000
0.000000
0.000000
0.000000
0.000000
0.000000
0.000000
0.000000
0.000000
0.000000
0.000000
0.000000
0.000000
0.000000
0.000000
0.000000
0.000000
0.000000
0.000000
0.000000
0.000000
0.000000
0.000000
0.000000
0.000000
0.000000
0.000000
0.000000
0.000000
0.000000
0.000000
0.000000
0.000000
0.000000
0.000000
0.000000
0.000000
0.000000
0.000000
0.000000
0.000000
0.000000
0.000000
0.000000
0.000000
0.000000
0.000000
0.000000
0.000000
0.000000
0.000000
0.000000
0.000000
0.000000
0.000000
0.000000
0.000000
0.000000
0.000000
0.000000
0.000000
0.000000
0.000000
0.000000
0.000000
0.000000
0.000000
0.000000
0.000000
0.000000
0.000000
0.000000
0.000000
0.000000
0.000000
0.000000
0.000000
0.000000
0.000000
0.000000
0.000000
0.000000
0.000000
0.000000
0.000000
0.000000
0.000000
0.000000
0.000000
0.000000
0.000000
0.000000
0.000000
0.000000
0.000000
0.000000
0.000000
0.000000
0.000000
0.000000
0.000000
0.000000
0.000000
0.000000
0.000000
0.000000
0.000000
0.000000
0.000000
0.000000
0.000000
0.000000
0.000000
0.000000
0.000000
0.000000
0.000000
0.000000
0.000000
0.000000
0.000000
0.000000
0.000000
0.000000
0.000000
0.000000
0.000000
0.000000
0.000000
0.000000
0.000000
0.000000
0.000000
0.000000
0.000000
0.000000
0.000000
0.000000
0.000000
0.000000
0.000000
0.000000
0.000000
0.000000
0.000000
0.000000
0.000000
0.000000
0.000000
0.000000
0.000000
0.000000
0.000000
0.000000
0.000000
0.000000
0.000000
0.000000
0.000000
0.000000
0.000000
0.000000
0.000000
0.000000
0.000000
0.000000
0.000000
0.000000
0.000000
0.000000
0.000000
0.000000
0.000000
0.000000
0.000000
0.000000
0.000000
0.000000
0.000000
0.000000
0.000000
0.000000
0.000000
0.000000
0.000000
0.000000
0.000000
0.000000
0.000000
0.000000
0.000000
0.000000
0.000000
0.000000
0.000000
0.000000
0.000000
0.000000
0.000000
0.000000
0.000000
0.000000
0.000000
0.000000
0.000000
0.000000
0.000000
0.000000
0.000000
0.000000
0.000000
0.000000
0.000000
0.000000
0.000000
0.000000
0.003466
0.003466
0.003466
0.003466
0.003466
0.003466
0.003466
0.003466
0.003466
0.003466
0.003466
0.003466
0.003466
0.003466
0.003466
0.003466
0.003466
0.003466
0.003466
0.003466
0.003466
0.003466
0.003466
0.003466
0.003466
0.003466
0.003466
0.003466
0.003466
0.003466
0.003466
0.003466
0.003466
0.003466
0.003466
0.003466
0.003466
0.003466
0.003466
0.003466
0.003466
0.003466
0.003466
0.003466
0.003466
0.003466
0.003466
0.003466
0.003466
0.003466
0.003466
0.003466
0.003466
0.003466
0.003466
0.003466
0.003466
0.003466
0.003466
0.003466
0.003466
0.003466
0.003466
0.003466
0.003466
0.003466
0.003466
0.003466
0.003466
0.003466
0.003466
0.003466
0.003466
0.003466
0.003466
0.003466
0.003466
0.003466
0.003466
0.003466
0.003466
0.003466
0.003466
0.003466
0.003466
0.003466
0.003466
0.003466
0.003466
0.003466
0.003466
0.003466
0.003466
0.003466
0.003466
0.003466
0.003466
0.003466
0.003466
0.003466
0.003466
0.003466
0.003466
0.003466
0.003466
0.003466
0.003466
0.003466
0.003466
0.003466
0.003466
0.003466
0.003466
0.003466
0.003466
0.003466
0.003466
0.003466
0.003466
0.003466
0.003466
0.003466
0.003466
0.003466
0.003466
0.003466
0.003466
0.003466
0.000000
0.003466
0.003466
0.003466
0.003466
0.003466
0.003466
0.003466
0.003466
0.003466
0.003466
0.003466
0.003466
0.003466
0.003466
0.003466
0.003466
0.003466
0.003466
0.003466
0.003466
0.003466
0.003466
0.003466
0.003466
0.003466
0.003466
0.003466
0.003466
0.003466
0.003466
0.003466
0.003466
0.003466
0.003466
0.003466
0.003466
0.003466
0.003466
0.003466
0.003466
0.003466
0.003466
0.003466
0.003466
0.003466
0.003466
0.003466
0.003466
0.003466
0.003466
0.003466
0.003466
0.003466
0.003466
0.003466
0.003466
0.003466
0.003466
0.003466
0.003466
0.003466
0.003466
0.003466
0.003466
0.003466
0.003466
0.003466
0.003466
0.003466
0.003466
0.003466
0.003466
0.003466
0.003466
0.003466
0.003466
0.003466
0.003466
0.003466
0.003466
0.003466
0.003466
0.003466
0.003466
0.003466
0.003466
0.003466
0.003466
0.003466
0.003466
0.003466
0.003466
0.003466
0.003466
0.003466
0.003466
0.003466
0.003466
0.003466
0.003466
0.003466
0.003466
0.003466
0.003466
0.003466
0.003466
0.003466
0.003466
0.003466
0.003466
0.003466
0.003466
0.003466
0.003466
0.003466
0.003466
0.003466
0.003466
0.003466
0.003466
0.003466
0.003466
0.003466
0.003466
0.003466
0.003466
0.003466
0.003466
0.000000
0.000000
0.000000
0.000000
0.000000
0.000000
0.000000
0.000000
0.000000
0.000000
0.000000
0.000000
0.000000
0.000000
0.000000
0.000000
0.000000
0.000000
0.000000
0.000000
0.000000
0.000000
0.000000
0.000000
0.000000
0.000000
0.000000
0.000000
0.000000
0.000000
0.000000
0.000000
0.000000
0.000000
0.000000
0.000000
0.000000
0.000000
0.000000
0.000000
0.000000
0.000000
0.000000
0.000000
0.000000
0.000000
0.000000
0.000000
0.000000
0.000000
0.000000
0.000000
0.000000
0.000000
0.000000
0.000000
0.000000
0.000000
0.000000
0.000000
0.000000
0.000000
0.000000
0.000000
0.000000
0.000000
0.000000
0.000000
0.000000
0.000000
0.000000
0.000000
0.000000
0.000000
0.000000
0.000000
0.000000
0.000000
0.000000
0.000000
0.000000
0.000000
0.000000
0.000000
0.000000
0.000000
0.000000
0.000000
0.000000
0.000000
0.000000
0.000000
0.000000
0.000000
0.000000
0.000000
0.000000
0.000000
0.000000
0.000000
0.000000
0.000000
0.000000
0.000000
0.000000
0.000000
0.000000
0.000000
0.000000
0.000000
0.000000
0.000000
0.000000
0.000000
0.000000
0.000000
0.000000
0.000000
0.000000
0.000000
0.000000
0.000000
0.000000
0.000000
0.000000
0.000000
0.000000
0.000000
0.000000
0.000000
0.000000
0.000000
0.000000
0.000000
0.000000
0.000000
0.000000
0.000000
0.000000
0.000000
0.000000
0.000000
0.000000
0.000000
0.000000
0.000000
0.000000
0.000000
0.000000
0.000000
0.000000
0.000000
0.000000
0.000000
0.000000
0.000000
0.000000
0.000000
0.000000
0.000000
0.000000
0.000000
0.000000
0.000000
0.000000
0.000000
0.000000
0.000000
0.000000
0.000000
0.000000
0.000000
0.000000
0.000000
0.000000
0.000000
0.000000
0.000000
0.000000
0.000000
0.000000
0.000000
0.000000
0.000000
0.000000
0.000000
0.000000
0.000000
0.000000
0.000000
0.000000
0.000000
0.000000
0.000000
0.000000
0.000000
0.000000
0.000000
0.000000
0.000000
0.000000
0.000000
0.000000
0.000000
0.000000
0.000000
0.000000
0.000000
0.000000
0.000000
0.000000
0.000000
0.000000
0.000000
0.000000
0.000000
0.000000
0.000000
0.000000
0.000000
0.000000
0.000000
0.000000
0.000000
0.000000
0.000000
0.000000
0.000000
0.000000
0.000000
0.000000
0.000000
0.000000
0.000000
0.000000
0.000000
0.000000
0.000000
0.000000
0.000000
0.000000
0.000000
0.000000
0.000000
0.000000
0.000000
0.000000
0.000000
0.000000
0.000000
0.000000
0.000000
0.000000
0.000000
0.000000
0.000000
0.000000
0.000000
0.000000
-0.010830
-0.010830
-0.010830
-0.010830
-0.010830
-0.010830
-0.010830
-0.010830
-0.010830
-0.010830
-0.010830
-0.010830
-0.010830
-0.010830
-0.010830
-0.010830
-0.010830
-0.010830
-0.010830
-0.010830
-0.010830
-0.010830
-0.010830
-0.010830
-0.010830
-0.010830
-0.010830
-0.010830
-0.010830
-0.010830
-0.010830
-0.010830
-0.010830
-0.010830
-0.010830
-0.010830
-0.010830
-0.010830
-0.010830
-0.010830
-0.010830
-0.010830
-0.010830
-0.010830
-0.010830
-0.010830
-0.010830
-0.010830
-0.010830
-0.010830
-0.010830
-0.010830
-0.010830
-0.010830
-0.010830
-0.010830
-0.010830
-0.010830
-0.010830
-0.010830
-0.010830
-0.010830
-0.010830
-0.010830
-0.010830
-0.010830
-0.010830
-0.010830
-0.010830
-0.010830
-0.010830
-0.010830
-0.010830
-0.010830
-0.010830
-0.010830
-0.010830
-0.010830
-0.010830
-0.010830
-0.010830
-0.010830
-0.010830
-0.010830
-0.010830
-0.010830
-0.010830
-0.010830
-0.010830
-0.010830
-0.010830
-0.010830
-0.010830
-0.010830
-0.010830
-0.010830
-0.010830
-0.010830
-0.010830
-0.010830
-0.010830
-0.010830
-0.010830
-0.010830
-0.010830
-0.010830
-0.010830
-0.010830
-0.010830
-0.010830
-0.010830
-0.010830
-0.010830
-0.010830
-0.010830
-0.010830
-0.010830
-0.010830
-0.010830
-0.010830
-0.010830
-0.010830
-0.010830
-0.010830
-0.010830
-0.010830
-0.010830
-0.010830
0.000000
-0.010830
-0.010830
-0.010830
-0.010830
-0.010830
-0.010830
-0.010830
-0.010830
-0.010830
-0.010830
-0.010830
-0.010830
-0.010830
-0.010830
-0.010830
-0.010830
-0.010830
-0.010830
-0.010830
-0.010830
-0.010830
-0.010830
-0.010830
-0.010830
-0.010830
-0.010830
-0.010830
-0.010830
-0.010830
-0.010830
-0.010830
-0.010830
-0.010830
-0.010830
-0.010830
-0.010830
-0.010830
-0.010830
-0.010830
-0.010830
-0.010830
-0.010830
-0.010830
-0.010830
-0.010830
-0.010830
-0.010830
-0.010830
-0.010830
-0.010830
-0.010830
-0.010830
-0.010830
-0.010830
-0.010830
-0.010830
-0.010830
-0.010830
-0.010830
-0.010830
-0.010830
-0.010830
-0.010830
-0.010830
-0.010830
-0.010830
-0.010830
-0.010830
-0.010830
-0.010830
-0.010830
-0.010830
-0.010830
-0.010830
-0.010830
-0.010830
-0.010830
-0.010830
-0.010830
-0.010830
-0.010830
-0.010830
-0.010830
-0.010830
-0.010830
-0.010830
-0.010830
-0.010830
-0.010830
-0.010830
-0.010830
-0.010830
-0.010830
-0.010830
-0.010830
-0.010830
-0.010830
-0.010830
-0.010830
-0.010830
-0.010830
-0.010830
-0.010830
-0.010830
-0.010830
-0.010830
-0.010830
-0.010830
-0.010830
-0.010830
-0.010830
-0.010830
-0.010830
-0.010830
-0.010830
-0.010830
-0.010830
-0.010830
-0.010830
-0.010830
-0.010830
-0.010830
-0.010830
-0.010830
-0.010830
-0.010830
-0.010830
-0.010830
0.000000
0.000000
0.000000
0.000000
0.000000
0.000000
0.000000
0.000000
0.000000
0.000000
0.000000
0.000000
0.000000
0.000000
0.000000
0.000000
0.000000
0.000000
0.000000
0.000000
0.000000
0.000000
0.000000
0.000000
0.000000
0.000000
0.000000
0.000000
0.000000
0.000000
0.000000
0.000000
0.000000
0.000000
0.000000
0.000000
0.000000
0.000000
0.000000
0.000000
0.000000
0.000000
0.000000
0.000000
0.000000
0.000000
0.000000
0.000000
0.000000
0.000000
0.000000
0.000000
0.000000
0.000000
0.000000
0.000000
0.000000
0.000000
0.000000
0.000000
0.000000
0.000000
0.000000
0.000000
0.000000
0.000000
0.000000
0.000000
0.000000
0.000000
0.000000
0.000000
0.000000
0.000000
0.000000
0.000000
0.000000
0.000000
0.000000
0.000000
0.000000
0.000000
0.000000
0.000000
0.000000
0.000000
0.000000
0.000000
0.000000
0.000000
0.000000
0.000000
0.000000
0.000000
0.000000
0.000000
0.000000
0.000000
0.000000
0.000000
0.000000
0.000000
0.000000
0.000000
0.000000
0.000000
0.000000
0.000000
0.000000
0.000000
0.000000
0.000000
0.000000
0.000000
0.000000
0.000000
0.000000
0.000000
0.000000
0.000000
0.000000
0.000000
0.000000
0.000000
0.000000
0.000000
0.000000
0.000000
0.000000
0.000000
-0.046329
-0.046329
-0.046329
-0.046329
-0.046329
-0.046329
-0.046329
-0.046329
-0.046329
-0.046329
-0.046329
-0.046329
-0.046329
-0.046329
-0.046329
-0.046329
-0.046329
-0.046329
-0.046329
-0.046329
-0.046329
-0.046329
-0.046329
-0.046329
-0.046329
-0.046329
-0.046329
-0.046329
-0.046329
-0.046329
-0.046329
-0.046329
-0.046329
-0.046329
-0.046329
-0.046329
-0.046329
-0.046329
-0.046329
-0.046329
-0.046329
-0.046329
-0.046329
-0.046329
-0.046329
-0.046329
-0.046329
-0.046329
-0.046329
-0.046329
-0.046329
-0.046329
-0.046329
-0.046329
-0.046329
-0.046329
-0.046329
-0.046329
-0.046329
-0.046329
-0.046329
-0.046329
-0.046329
-0.046329
-0.046329
-0.046329
-0.046329
-0.046329
-0.046329
-0.046329
-0.046329
-0.046329
-0.046329
-0.046329
-0.046329
-0.046329
-0.046329
-0.046329
-0.046329
-0.046329
-0.046329
-0.046329
-0.046329
-0.046329
-0.046329
-0.046329
-0.046329
-0.046329
-0.046329
-0.046329
-0.046329
-0.046329
-0.046329
-0.046329
-0.046329
-0.046329
-0.046329
-0.046329
-0.046329
-0.046329
-0.046329
-0.046329
-0.046329
-0.046329
-0.046329
-0.046329
-0.046329
-0.046329
-0.046329
-0.046329
-0.046329
-0.046329
-0.046329
-0.046329
-0.046329
-0.046329
-0.046329
-0.046329
-0.046329
-0.046329
-0.046329
-0.046329
-0.046329
-0.046329
-0.046329
-0.046329
-0.046329
-0.046329
0.000000
-0.046329
-0.046329
-0.046329
-0.046329
-0.046329
-0.046329
-0.046329
-0.046329
-0.046329
-0.046329
-0.046329
-0.046329
-0.046329
-0.046329
-0.046329
-0.046329
-0.046329
-0.046329
-0.046329
-0.046329
-0.046329
-0.046329
-0.046329
-0.046329
-0.046329
-0.046329
-0.046329
-0.046329
-0.046329
-0.046329
-0.046329
-0.046329
-0.046329
-0.046329
-0.046329
-0.046329
-0.046329
-0.046329
-0.046329
-0.046329
-0.046329
-0.046329
-0.046329
-0.046329
-0.046329
-0.046329
-0.046329
-0.046329
-0.046329
-0.046329
-0.046329
-0.046329
-0.046329
-0.046329
-0.046329
-0.046329
-0.046329
-0.046329
-0.046329
-0.046329
-0.046329
-0.046329
-0.046329
-0.046329
-0.046329
-0.046329
-0.046329
-0.046329
-0.046329
-0.046329
-0.046329
-0.046329
-0.046329
-0.046329
-0.046329
-0.046329
-0.046329
-0.046329
-0.046329
-0.046329
-0.046329
-0.046329
-0.046329
-0.046329
-0.046329
-0.046329
-0.046329
-0.046329
-0.046329
-0.046329
-0.046329
-0.046329
-0.046329
-0.046329
-0.046329
-0.046329
-0.046329
-0.046329
-0.046329
-0.046329
-0.046329
-0.046329
-0.046329
-0.046329
-0.046329
-0.046329
-0.046329
-0.046329
-0.046329
-0.046329
-0.046329
-0.046329
-0.046329
-0.046329
-0.046329
-0.046329
-0.046329
-0.046329
-0.046329
-0.046329
-0.046329
-0.046329
-0.046329
-0.046329
-0.046329
-0.046329
-0.046329
-0.046329
0.000000
-0.021332
-0.021332
-0.021332
-0.021332
-0.021332
-0.021332
-0.021332
-0.021332
-0.021332
-0.021332
-0.021332
-0.021332
-0.021332
-0.021332
-0.021332
-0.021332
-0.021332
-0.021332
-0.021332
-0.021332
-0.021332
-0.021332
-0.021332
-0.021332
-0.021332
-0.021332
-0.021332
-0.021332
-0.021332
-0.021332
-0.021332
-0.021332
-0.021332
-0.021332
-0.021332
-0.021332
-0.021332
-0.021332
-0.021332
-0.021332
-0.021332
-0.021332
-0.021332
-0.021332
-0.021332
-0.021332
-0.021332
-0.021332
-0.021332
-0.021332
-0.021332
-0.021332
-0.021332
-0.021332
-0.021332
-0.021332
-0.021332
-0.021332
-0.021332
-0.021332
-0.021332
-0.021332
-0.021332
-0.021332
-0.021332
-0.021332
-0.021332
-0.021332
-0.021332
-0.021332
-0.021332
-0.021332
-0.021332
-0.021332
-0.021332
-0.021332
-0.021332
-0.021332
-0.021332
-0.021332
-0.021332
-0.021332
-0.021332
-0.021332
-0.021332
-0.021332
-0.021332
-0.021332
-0.021332
-0.021332
-0.021332
-0.021332
-0.021332
-0.021332
-0.021332
-0.021332
-0.021332
-0.021332
-0.021332
-0.021332
-0.021332
-0.021332
-0.021332
-0.021332
-0.021332
-0.021332
-0.021332
-0.021332
-0.021332
-0.021332
-0.021332
-0.021332
-0.021332
-0.021332
-0.021332
-0.021332
-0.021332
-0.021332
-0.021332
-0.021332
-0.021332
-0.021332
-0.021332
-0.021332
-0.021332
-0.021332
-0.021332
-0.021332
0.000000
0.000000
0.000000
0.000000
0.000000
0.000000
0.000000
0.000000
0.000000
0.000000
0.000000
0.000000
0.000000
0.000000
0.000000
0.000000
0.000000
0.000000
0.000000
0.000000
0.000000
0.000000
0.000000
0.000000
0.000000
0.000000
0.000000
0.000000
0.000000
0.000000
0.000000
0.000000
0.000000
0.000000
0.000000
0.000000
0.000000
0.000000
0.000000
0.000000
0.000000
0.000000
0.000000
0.000000
0.000000
0.000000
0.000000
0.000000
0.000000
0.000000
0.000000
0.000000
0.000000
0.000000
0.000000
0.000000
0.000000
0.000000
0.000000
0.000000
0.000000
0.000000
0.000000
0.000000
0.000000
0.000000
0.000000
0.000000
0.000000
0.000000
0.000000
0.000000
0.000000
0.000000
0.000000
0.000000
0.000000
0.000000
0.000000
0.000000
0.000000
0.000000
0.000000
0.000000
0.000000
0.000000
0.000000
0.000000
0.000000
0.000000
0.000000
0.000000
0.000000
0.000000
0.000000
0.000000
0.000000
0.000000
0.000000
0.000000
0.000000
0.000000
0.000000
0.000000
0.000000
0.000000
0.000000
0.000000
0.000000
0.000000
0.000000
0.000000
0.000000
0.000000
0.000000
0.000000
0.000000
0.000000
0.000000
0.000000
0.000000
0.000000
0.000000
0.000000
0.000000
0.000000
0.000000
0.000000
0.000000
0.000000
-0.041786
-0.041786
-0.041786
-0.041786
-0.041786
-0.041786
-0.041786
-0.041786
-0.041786
-0.041786
-0.041786
-0.041786
-0.041786
-0.041786
-0.041786
-0.041786
-0.041786
-0.041786
-0.041786
-0.041786
-0.041786
-0.041786
-0.041786
-0.041786
-0.041786
-0.041786
-0.041786
-0.041786
-0.041786
-0.041786
-0.041786
-0.041786
-0.041786
-0.041786
-0.041786
-0.041786
-0.041786
-0.041786
-0.041786
-0.041786
-0.041786
-0.041786
-0.041786
-0.041786
-0.041786
-0.041786
-0.041786
-0.041786
-0.041786
-0.041786
-0.041786
-0.041786
-0.041786
-0.041786
-0.041786
-0.041786
-0.041786
-0.041786
-0.041786
-0.041786
-0.041786
-0.041786
-0.041786
-0.041786
-0.041786
-0.041786
-0.041786
-0.041786
-0.041786
-0.041786
-0.041786
-0.041786
-0.041786
-0.041786
-0.041786
-0.041786
-0.041786
-0.041786
-0.041786
-0.041786
-0.041786
-0.041786
-0.041786
-0.041786
-0.041786
-0.041786
-0.041786
-0.041786
-0.041786
-0.041786
-0.041786
-0.041786
-0.041786
-0.041786
-0.041786
-0.041786
-0.041786
-0.041786
-0.041786
-0.041786
-0.041786
-0.041786
-0.041786
-0.041786
-0.041786
-0.041786
-0.041786
-0.041786
-0.041786
-0.041786
-0.041786
-0.041786
-0.041786
-0.041786
-0.041786
-0.041786
-0.041786
-0.041786
-0.041786
-0.041786
-0.041786
-0.041786
-0.041786
-0.041786
-0.041786
-0.041786
-0.041786
-0.041786
0.000000
0.000000
0.000000
0.000000
0.000000
0.000000
0.000000
0.000000
0.000000
0.000000
0.000000
0.000000
0.000000
0.000000
0.000000
0.000000
0.000000
0.000000
0.000000
0.000000
0.000000
0.000000
0.000000
0.000000
0.000000
0.000000
0.000000
0.000000
0.000000
0.000000
0.000000
0.000000
0.000000
0.000000
0.000000
0.000000
0.000000
0.000000
0.000000
0.000000
0.000000
0.000000
0.000000
0.000000
0.000000
0.000000
0.000000
0.000000
0.000000
0.000000
0.000000
0.000000
0.000000
0.000000
0.000000
0.000000
0.000000
0.000000
0.000000
0.000000
0.000000
0.000000
0.000000
0.000000
0.000000
0.000000
0.000000
0.000000
0.000000
0.000000
0.000000
0.000000
0.000000
0.000000
0.000000
0.000000
0.000000
0.000000
0.000000
0.000000
0.000000
0.000000
0.000000
0.000000
0.000000
0.000000
0.000000
0.000000
0.000000
0.000000
0.000000
0.000000
0.000000
0.000000
0.000000
0.000000
0.000000
0.000000
0.000000
0.000000
0.000000
0.000000
0.000000
0.000000
0.000000
0.000000
0.000000
0.000000
0.000000
0.000000
0.000000
0.000000
0.000000
0.000000
0.000000
0.000000
0.000000
0.000000
0.000000
0.000000
0.000000
0.000000
0.000000
0.000000
0.000000
0.000000
0.000000
0.000000
0.000000
0.000000
0.002740
0.002740
0.002740
0.002740
0.002740
0.002740
0.002740
0.002740
0.002740
0.002740
0.002740
0.002740
0.002740
0.002740
0.002740
0.002740
0.002740
0.002740
0.002740
0.002740
0.002740
0.002740
0.002740
0.002740
0.002740
0.002740
0.002740
0.002740
0.002740
0.002740
0.002740
0.002740
0.002740
0.002740
0.002740
0.002740
0.002740
0.002740
0.002740
0.002740
0.002740
0.002740
0.002740
0.002740
0.002740
0.002740
0.002740
0.002740
0.002740
0.002740
0.002740
0.002740
0.002740
0.002740
0.002740
0.002740
0.002740
0.002740
0.002740
0.002740
0.002740
0.002740
0.002740
0.002740
0.002740
0.002740
0.002740
0.002740
0.002740
0.002740
0.002740
0.002740
0.002740
0.002740
0.002740
0.002740
0.002740
0.002740
0.002740
0.002740
0.002740
0.002740
0.002740
0.002740
0.002740
0.002740
0.002740
0.002740
0.002740
0.002740
0.002740
0.002740
0.002740
0.002740
0.002740
0.002740
0.002740
0.002740
0.002740
0.002740
0.002740
0.002740
0.002740
0.002740
0.002740
0.002740
0.002740
0.002740
0.002740
0.002740
0.002740
0.002740
0.002740
0.002740
0.002740
0.002740
0.002740
0.002740
0.002740
0.002740
0.002740
0.002740
0.002740
0.002740
0.002740
0.002740
0.002740
0.002740
0.000000
0.000000
0.000000
0.000000
0.000000
0.000000
0.000000
0.000000
0.000000
0.000000
0.000000
0.000000
0.000000
0.000000
0.000000
0.000000
0.000000
0.000000
0.000000
0.000000
0.000000
0.000000
0.000000
0.000000
0.000000
0.000000
0.000000
0.000000
0.000000
0.000000
0.000000
0.000000
0.000000
0.000000
0.000000
0.000000
0.000000
0.000000
0.000000
0.000000
0.000000
0.000000
0.000000
0.000000
0.000000
0.000000
0.000000
0.000000
0.000000
0.000000
0.000000
0.000000
0.000000
0.000000
0.000000
0.000000
0.000000
0.000000
0.000000
0.000000
0.000000
0.000000
0.000000
0.000000
0.000000
0.000000
0.000000
0.000000
0.000000
0.000000
0.000000
0.000000
0.000000
0.000000
0.000000
0.000000
0.000000
0.000000
0.000000
0.000000
0.000000
0.000000
0.000000
0.000000
0.000000
0.000000
0.000000
0.000000
0.000000
0.000000
0.000000
0.000000
0.000000
0.000000
0.000000
0.000000
0.000000
0.000000
0.000000
0.000000
0.000000
0.000000
0.000000
0.000000
0.000000
0.000000
0.000000
0.000000
0.000000
0.000000
0.000000
0.000000
0.000000
0.000000
0.000000
0.000000
0.000000
0.000000
0.000000
0.000000
0.000000
0.000000
0.000000
0.000000
0.000000
0.000000
0.000000
0.000000
0.000000
0.000000
-0.014297
-0.014297
-0.014297
-0.014297
-0.014297
-0.014297
-0.014297
-0.014297
-0.014297
-0.014297
-0.014297
-0.014297
-0.014297
-0.014297
-0.014297
-0.014297
-0.014297
-0.014297
-0.014297
-0.014297
-0.014297
-0.014297
-0.014297
-0.014297
-0.014297
-0.014297
-0.014297
-0.014297
-0.014297
-0.014297
-0.014297
-0.014297
-0.014297
-0.014297
-0.014297
-0.014297
-0.014297
-0.014297
-0.014297
-0.014297
-0.014297
-0.014297
-0.014297
-0.014297
-0.014297
-0.014297
-0.014297
-0.014297
-0.014297
-0.014297
-0.014297
-0.014297
-0.014297
-0.014297
-0.014297
-0.014297
-0.014297
-0.014297
-0.014297
-0.014297
-0.014297
-0.014297
-0.014297
-0.014297
-0.014297
-0.014297
-0.014297
-0.014297
-0.014297
-0.014297
-0.014297
-0.014297
-0.014297
-0.014297
-0.014297
-0.014297
-0.014297
-0.014297
-0.014297
-0.014297
-0.014297
-0.014297
-0.014297
-0.014297
-0.014297
-0.014297
-0.014297
-0.014297
-0.014297
-0.014297
-0.014297
-0.014297
-0.014297
-0.014297
-0.014297
-0.014297
-0.014297
-0.014297
-0.014297
-0.014297
-0.014297
-0.014297
-0.014297
-0.014297
-0.014297
-0.014297
-0.014297
-0.014297
-0.014297
-0.014297
-0.014297
-0.014297
-0.014297
-0.014297
-0.014297
-0.014297
-0.014297
-0.014297
-0.014297
-0.014297
-0.014297
-0.014297
-0.014297
-0.014297
-0.014297
-0.014297
-0.014297
-0.014297
0.000000
0.000000
0.000000
0.000000
0.000000
0.000000
0.000000
0.000000
0.000000
0.000000
0.000000
0.000000
0.000000
0.000000
0.000000
0.000000
0.000000
0.000000
0.000000
0.000000
0.000000
0.000000
0.000000
0.000000
0.000000
0.000000
0.000000
0.000000
0.000000
0.000000
0.000000
0.000000
0.000000
0.000000
0.000000
0.000000
0.000000
0.000000
0.000000
0.000000
0.000000
0.000000
0.000000
0.000000
0.000000
0.000000
0.000000
0.000000
0.000000
0.000000
0.000000
0.000000
0.000000
0.000000
0.000000
0.000000
0.000000
0.000000
0.000000
0.000000
0.000000
0.000000
0.000000
0.000000
0.000000
0.000000
0.000000
0.000000
0.000000
0.000000
0.000000
0.000000
0.000000
0.000000
0.000000
0.000000
0.000000
0.000000
0.000000
0.000000
0.000000
0.000000
0.000000
0.000000
0.000000
0.000000
0.000000
0.000000
0.000000
0.000000
0.000000
0.000000
0.000000
0.000000
0.000000
0.000000
0.000000
0.000000
0.000000
0.000000
0.000000
0.000000
0.000000
0.000000
0.000000
0.000000
0.000000
0.000000
0.000000
0.000000
0.000000
0.000000
0.000000
0.000000
0.000000
0.000000
0.000000
0.000000
0.000000
0.000000
0.000000
0.000000
0.000000
0.000000
0.000000
0.000000
0.000000
0.000000
0.000000
0.000000
-0.010665
-0.010665
-0.010665
-0.010665
-0.010665
-0.010665
-0.010665
-0.010665
-0.010665
-0.010665
-0.010665
-0.010665
-0.010665
-0.010665
-0.010665
-0.010665
-0.010665
-0.010665
-0.010665
-0.010665
-0.010665
-0.010665
-0.010665
-0.010665
-0.010665
-0.010665
-0.010665
-0.010665
-0.010665
-0.010665
-0.010665
-0.010665
-0.010665
-0.010665
-0.010665
-0.010665
-0.010665
-0.010665
-0.010665
-0.010665
-0.010665
-0.010665
-0.010665
-0.010665
-0.010665
-0.010665
-0.010665
-0.010665
-0.010665
-0.010665
-0.010665
-0.010665
-0.010665
-0.010665
-0.010665
-0.010665
-0.010665
-0.010665
-0.010665
-0.010665
-0.010665
-0.010665
-0.010665
-0.010665
-0.010665
-0.010665
-0.010665
-0.010665
-0.010665
-0.010665
-0.010665
-0.010665
-0.010665
-0.010665
-0.010665
-0.010665
-0.010665
-0.010665
-0.010665
-0.010665
-0.010665
-0.010665
-0.010665
-0.010665
-0.010665
-0.010665
-0.010665
-0.010665
-0.010665
-0.010665
-0.010665
-0.010665
-0.010665
-0.010665
-0.010665
-0.010665
-0.010665
-0.010665
-0.010665
-0.010665
-0.010665
-0.010665
-0.010665
-0.010665
-0.010665
-0.010665
-0.010665
-0.010665
-0.010665
-0.010665
-0.010665
-0.010665
-0.010665
-0.010665
-0.010665
-0.010665
-0.010665
-0.010665
-0.010665
-0.010665
-0.010665
-0.010665
-0.010665
-0.010665
-0.010665
-0.010665
-0.010665
-0.010665
0.000000
-0.010665
-0.010665
-0.010665
-0.010665
-0.010665
-0.010665
-0.010665
-0.010665
-0.010665
-0.010665
-0.010665
-0.010665
-0.010665
-0.010665
-0.010665
-0.010665
-0.010665
-0.010665
-0.010665
-0.010665
-0.010665
-0.010665
-0.010665
-0.010665
-0.010665
-0.010665
-0.010665
-0.010665
-0.010665
-0.010665
-0.010665
-0.010665
-0.010665
-0.010665
-0.010665
-0.010665
-0.010665
-0.010665
-0.010665
-0.010665
-0.010665
-0.010665
-0.010665
-0.010665
-0.010665
-0.010665
-0.010665
-0.010665
-0.010665
-0.010665
-0.010665
-0.010665
-0.010665
-0.010665
-0.010665
-0.010665
-0.010665
-0.010665
-0.010665
-0.010665
-0.010665
-0.010665
-0.010665
-0.010665
-0.010665
-0.010665
-0.010665
-0.010665
-0.010665
-0.010665
-0.010665
-0.010665
-0.010665
-0.010665
-0.010665
-0.010665
-0.010665
-0.010665
-0.010665
-0.010665
-0.010665
-0.010665
-0.010665
-0.010665
-0.010665
-0.010665
-0.010665
-0.010665
-0.010665
-0.010665
-0.010665
-0.010665
-0.010665
-0.010665
-0.010665
-0.010665
-0.010665
-0.010665
-0.010665
-0.010665
-0.010665
-0.010665
-0.010665
-0.010665
-0.010665
-0.010665
-0.010665
-0.010665
-0.010665
-0.010665
-0.010665
-0.010665
-0.010665
-0.010665
-0.010665
-0.010665
-0.010665
-0.010665
-0.010665
-0.010665
-0.010665
-0.010665
-0.010665
-0.010665
-0.010665
-0.010665
-0.010665
-0.010665
0.000000
0.000000
0.000000
0.000000
0.000000
0.000000
0.000000
0.000000
0.000000
0.000000
0.000000
0.000000
0.000000
0.000000
0.000000
0.000000
0.000000
0.000000
0.000000
0.000000
0.000000
0.000000
0.000000
0.000000
0.000000
0.000000
0.000000
0.000000
0.000000
0.000000
0.000000
0.000000
0.000000
0.000000
0.000000
0.000000
0.000000
0.000000
0.000000
0.000000
0.000000
0.000000
0.000000
0.000000
0.000000
0.000000
0.000000
0.000000
0.000000
0.000000
0.000000
0.000000
0.000000
0.000000
0.000000
0.000000
0.000000
0.000000
0.000000
0.000000
0.000000
0.000000
0.000000
0.000000
0.000000
0.000000
0.000000
0.000000
0.000000
0.000000
0.000000
0.000000
0.000000
0.000000
0.000000
0.000000
0.000000
0.000000
0.000000
0.000000
0.000000
0.000000
0.000000
0.000000
0.000000
0.000000
0.000000
0.000000
0.000000
0.000000
0.000000
0.000000
0.000000
0.000000
0.000000
0.000000
0.000000
0.000000
0.000000
0.000000
0.000000
0.000000
0.000000
0.000000
0.000000
0.000000
0.000000
0.000000
0.000000
0.000000
0.000000
0.000000
0.000000
0.000000
0.000000
0.000000
0.000000
0.000000
0.000000
0.000000
0.000000
0.000000
0.000000
0.000000
0.000000
0.000000
0.000000
0.000000
0.000000
0.000000
-0.016564
-0.016564
-0.016564
-0.016564
-0.016564
-0.016564
-0.016564
-0.016564
-0.016564
-0.016564
-0.016564
-0.016564
-0.016564
-0.016564
-0.016564
-0.016564
-0.016564
-0.016564
-0.016564
-0.016564
-0.016564
-0.016564
-0.016564
-0.016564
-0.016564
-0.016564
-0.016564
-0.016564
-0.016564
-0.016564
-0.016564
-0.016564
-0.016564
-0.016564
-0.016564
-0.016564
-0.016564
-0.016564
-0.016564
-0.016564
-0.016564
-0.016564
-0.016564
-0.016564
-0.016564
-0.016564
-0.016564
-0.016564
-0.016564
-0.016564
-0.016564
-0.016564
-0.016564
-0.016564
-0.016564
-0.016564
-0.016564
-0.016564
-0.016564
-0.016564
-0.016564
-0.016564
-0.016564
-0.016564
-0.016564
-0.016564
-0.016564
-0.016564
-0.016564
-0.016564
-0.016564
-0.016564
-0.016564
-0.016564
-0.016564
-0.016564
-0.016564
-0.016564
-0.016564
-0.016564
-0.016564
-0.016564
-0.016564
-0.016564
-0.016564
-0.016564
-0.016564
-0.016564
-0.016564
-0.016564
-0.016564
-0.016564
-0.016564
-0.016564
-0.016564
-0.016564
-0.016564
-0.016564
-0.016564
-0.016564
-0.016564
-0.016564
-0.016564
-0.016564
-0.016564
-0.016564
-0.016564
-0.016564
-0.016564
-0.016564
-0.016564
-0.016564
-0.016564
-0.016564
-0.016564
-0.016564
-0.016564
-0.016564
-0.016564
-0.016564
-0.016564
-0.016564
-0.016564
-0.016564
-0.016564
-0.016564
-0.016564
-0.016564
0.000000
-0.033600
-0.033600
-0.033600
-0.033600
-0.033600
-0.033600
-0.033600
-0.033600
-0.033600
-0.033600
-0.033600
-0.033600
-0.033600
-0.033600
-0.033600
-0.033600
-0.033600
-0.033600
-0.033600
-0.033600
-0.033600
-0.033600
-0.033600
-0.033600
-0.033600
-0.033600
-0.033600
-0.033600
-0.033600
-0.033600
-0.033600
-0.033600
-0.033600
-0.033600
-0.033600
-0.033600
-0.033600
-0.033600
-0.033600
-0.033600
-0.033600
-0.033600
-0.033600
-0.033600
-0.033600
-0.033600
-0.033600
-0.033600
-0.033600
-0.033600
-0.033600
-0.033600
-0.033600
-0.033600
-0.033600
-0.033600
-0.033600
-0.033600
-0.033600
-0.033600
-0.033600
-0.033600
-0.033600
-0.033600
-0.033600
-0.033600
-0.033600
-0.033600
-0.033600
-0.033600
-0.033600
-0.033600
-0.033600
-0.033600
-0.033600
-0.033600
-0.033600
-0.033600
-0.033600
-0.033600
-0.033600
-0.033600
-0.033600
-0.033600
-0.033600
-0.033600
-0.033600
-0.033600
-0.033600
-0.033600
-0.033600
-0.033600
-0.033600
-0.033600
-0.033600
-0.033600
-0.033600
-0.033600
-0.033600
-0.033600
-0.033600
-0.033600
-0.033600
-0.033600
-0.033600
-0.033600
-0.033600
-0.033600
-0.033600
-0.033600
-0.033600
-0.033600
-0.033600
-0.033600
-0.033600
-0.033600
-0.033600
-0.033600
-0.033600
-0.033600
-0.033600
-0.033600
-0.033600
-0.033600
-0.033600
-0.033600
-0.033600
-0.033600
0.000000
-0.006579
-0.006579
-0.006579
-0.006579
-0.006579
-0.006579
-0.006579
-0.006579
-0.006579
-0.006579
-0.006579
-0.006579
-0.006579
-0.006579
-0.006579
-0.006579
-0.006579
-0.006579
-0.006579
-0.006579
-0.006579
-0.006579
-0.006579
-0.006579
-0.006579
-0.006579
-0.006579
-0.006579
-0.006579
-0.006579
-0.006579
-0.006579
-0.006579
-0.006579
-0.006579
-0.006579
-0.006579
-0.006579
-0.006579
-0.006579
-0.006579
-0.006579
-0.006579
-0.006579
-0.006579
-0.006579
-0.006579
-0.006579
-0.006579
-0.006579
-0.006579
-0.006579
-0.006579
-0.006579
-0.006579
-0.006579
-0.006579
-0.006579
-0.006579
-0.006579
-0.006579
-0.006579
-0.006579
-0.006579
-0.006579
-0.006579
-0.006579
-0.006579
-0.006579
-0.006579
-0.006579
-0.006579
-0.006579
-0.006579
-0.006579
-0.006579
-0.006579
-0.006579
-0.006579
-0.006579
-0.006579
-0.006579
-0.006579
-0.006579
-0.006579
-0.006579
-0.006579
-0.006579
-0.006579
-0.006579
-0.006579
-0.006579
-0.006579
-0.006579
-0.006579
-0.006579
-0.006579
-0.006579
-0.006579
-0.006579
-0.006579
-0.006579
-0.006579
-0.006579
-0.006579
-0.006579
-0.006579
-0.006579
-0.006579
-0.006579
-0.006579
-0.006579
-0.006579
-0.006579
-0.006579
-0.006579
-0.006579
-0.006579
-0.006579
-0.006579
-0.006579
-0.006579
-0.006579
-0.006579
-0.006579
-0.006579
-0.006579
-0.006579
0.000000
-0.034733
-0.034733
-0.034733
-0.034733
-0.034733
-0.034733
-0.034733
-0.034733
-0.034733
-0.034733
-0.034733
-0.034733
-0.034733
-0.034733
-0.034733
-0.034733
-0.034733
-0.034733
-0.034733
-0.034733
-0.034733
-0.034733
-0.034733
-0.034733
-0.034733
-0.034733
-0.034733
-0.034733
-0.034733
-0.034733
-0.034733
-0.034733
-0.034733
-0.034733
-0.034733
-0.034733
-0.034733
-0.034733
-0.034733
-0.034733
-0.034733
-0.034733
-0.034733
-0.034733
-0.034733
-0.034733
-0.034733
-0.034733
-0.034733
-0.034733
-0.034733
-0.034733
-0.034733
-0.034733
-0.034733
-0.034733
-0.034733
-0.034733
-0.034733
-0.034733
-0.034733
-0.034733
-0.034733
-0.034733
-0.034733
-0.034733
-0.034733
-0.034733
-0.034733
-0.034733
-0.034733
-0.034733
-0.034733
-0.034733
-0.034733
-0.034733
-0.034733
-0.034733
-0.034733
-0.034733
-0.034733
-0.034733
-0.034733
-0.034733
-0.034733
-0.034733
-0.034733
-0.034733
-0.034733
-0.034733
-0.034733
-0.034733
-0.034733
-0.034733
-0.034733
-0.034733
-0.034733
-0.034733
-0.034733
-0.034733
-0.034733
-0.034733
-0.034733
-0.034733
-0.034733
-0.034733
-0.034733
-0.034733
-0.034733
-0.034733
-0.034733
-0.034733
-0.034733
-0.034733
-0.034733
-0.034733
-0.034733
-0.034733
-0.034733
-0.034733
-0.034733
-0.034733
-0.034733
-0.034733
-0.034733
-0.034733
-0.034733
-0.034733
0.000000
-0.030233
-0.030233
-0.030233
-0.030233
-0.030233
-0.030233
-0.030233
-0.030233
-0.030233
-0.030233
-0.030233
-0.030233
-0.030233
-0.030233
-0.030233
-0.030233
-0.030233
-0.030233
-0.030233
-0.030233
-0.030233
-0.030233
-0.030233
-0.030233
-0.030233
-0.030233
-0.030233
-0.030233
-0.030233
-0.030233
-0.030233
-0.030233
-0.030233
-0.030233
-0.030233
-0.030233
-0.030233
-0.030233
-0.030233
-0.030233
-0.030233
-0.030233
-0.030233
-0.030233
-0.030233
-0.030233
-0.030233
-0.030233
-0.030233
-0.030233
-0.030233
-0.030233
-0.030233
-0.030233
-0.030233
-0.030233
-0.030233
-0.030233
-0.030233
-0.030233
-0.030233
-0.030233
-0.030233
-0.030233
-0.030233
-0.030233
-0.030233
-0.030233
-0.030233
-0.030233
-0.030233
-0.030233
-0.030233
-0.030233
-0.030233
-0.030233
-0.030233
-0.030233
-0.030233
-0.030233
-0.030233
-0.030233
-0.030233
-0.030233
-0.030233
-0.030233
-0.030233
-0.030233
-0.030233
-0.030233
-0.030233
-0.030233
-0.030233
-0.030233
-0.030233
-0.030233
-0.030233
-0.030233
-0.030233
-0.030233
-0.030233
-0.030233
-0.030233
-0.030233
-0.030233
-0.030233
-0.030233
-0.030233
-0.030233
-0.030233
-0.030233
-0.030233
-0.030233
-0.030233
-0.030233
-0.030233
-0.030233
-0.030233
-0.030233
-0.030233
-0.030233
-0.030233
-0.030233
-0.030233
-0.030233
-0.030233
-0.030233
-0.030233
0.000000
-0.029353
-0.029353
-0.029353
-0.029353
-0.029353
-0.029353
-0.029353
-0.029353
-0.029353
-0.029353
-0.029353
-0.029353
-0.029353
-0.029353
-0.029353
-0.029353
-0.029353
-0.029353
-0.029353
-0.029353
-0.029353
-0.029353
-0.029353
-0.029353
-0.029353
-0.029353
-0.029353
-0.029353
-0.029353
-0.029353
-0.029353
-0.029353
-0.029353
-0.029353
-0.029353
-0.029353
-0.029353
-0.029353
-0.029353
-0.029353
-0.029353
-0.029353
-0.029353
-0.029353
-0.029353
-0.029353
-0.029353
-0.029353
-0.029353
-0.029353
-0.029353
-0.029353
-0.029353
-0.029353
-0.029353
-0.029353
-0.029353
-0.029353
-0.029353
-0.029353
-0.029353
-0.029353
-0.029353
-0.029353
-0.029353
-0.029353
-0.029353
-0.029353
-0.029353
-0.029353
-0.029353
-0.029353
-0.029353
-0.029353
-0.029353
-0.029353
-0.029353
-0.029353
-0.029353
-0.029353
-0.029353
-0.029353
-0.029353
-0.029353
-0.029353
-0.029353
-0.029353
-0.029353
-0.029353
-0.029353
-0.029353
-0.029353
-0.029353
-0.029353
-0.029353
-0.029353
-0.029353
-0.029353
-0.029353
-0.029353
-0.029353
-0.029353
-0.029353
-0.029353
-0.029353
-0.029353
-0.029353
-0.029353
-0.029353
-0.029353
-0.029353
-0.029353
-0.029353
-0.029353
-0.029353
-0.029353
-0.029353
-0.029353
-0.029353
-0.029353
-0.029353
-0.029353
-0.029353
-0.029353
-0.029353
-0.029353
-0.029353
-0.029353
0.000000
-0.018627
-0.018627
-0.018627
-0.018627
-0.018627
-0.018627
-0.018627
-0.018627
-0.018627
-0.018627
-0.018627
-0.018627
-0.018627
-0.018627
-0.018627
-0.018627
-0.018627
-0.018627
-0.018627
-0.018627
-0.018627
-0.018627
-0.018627
-0.018627
-0.018627
-0.018627
-0.018627
-0.018627
-0.018627
-0.018627
-0.018627
-0.018627
-0.018627
-0.018627
-0.018627
-0.018627
-0.018627
-0.018627
-0.018627
-0.018627
-0.018627
-0.018627
-0.018627
-0.018627
-0.018627
-0.018627
-0.018627
-0.018627
-0.018627
-0.018627
-0.018627
-0.018627
-0.018627
-0.018627
-0.018627
-0.018627
-0.018627
-0.018627
-0.018627
-0.018627
-0.018627
-0.018627
-0.018627
-0.018627
-0.018627
-0.018627
-0.018627
-0.018627
-0.018627
-0.018627
-0.018627
-0.018627
-0.018627
-0.018627
-0.018627
-0.018627
-0.018627
-0.018627
-0.018627
-0.018627
-0.018627
-0.018627
-0.018627
-0.018627
-0.018627
-0.018627
-0.018627
-0.018627
-0.018627
-0.018627
-0.018627
-0.018627
-0.018627
-0.018627
-0.018627
-0.018627
-0.018627
-0.018627
-0.018627
-0.018627
-0.018627
-0.018627
-0.018627
-0.018627
-0.018627
-0.018627
-0.018627
-0.018627
-0.018627
-0.018627
-0.018627
-0.018627
-0.018627
-0.018627
-0.018627
-0.018627
-0.018627
-0.018627
-0.018627
-0.018627
-0.018627
-0.018627
-0.018627
-0.018627
-0.018627
-0.018627
-0.018627
-0.018627
0.000000
-0.040271
-0.040271
-0.040271
-0.040271
-0.040271
-0.040271
-0.040271
-0.040271
-0.040271
-0.040271
-0.040271
-0.040271
-0.040271
-0.040271
-0.040271
-0.040271
-0.040271
-0.040271
-0.040271
-0.040271
-0.040271
-0.040271
-0.040271
-0.040271
-0.040271
-0.040271
-0.040271
-0.040271
-0.040271
-0.040271
-0.040271
-0.040271
-0.040271
-0.040271
-0.040271
-0.040271
-0.040271
-0.040271
-0.040271
-0.040271
-0.040271
-0.040271
-0.040271
-0.040271
-0.040271
-0.040271
-0.040271
-0.040271
-0.040271
-0.040271
-0.040271
-0.040271
-0.040271
-0.040271
-0.040271
-0.040271
-0.040271
-0.040271
-0.040271
-0.040271
-0.040271
-0.040271
-0.040271
-0.040271
-0.040271
-0.040271
-0.040271
-0.040271
-0.040271
-0.040271
-0.040271
-0.040271
-0.040271
-0.040271
-0.040271
-0.040271
-0.040271
-0.040271
-0.040271
-0.040271
-0.040271
-0.040271
-0.040271
-0.040271
-0.040271
-0.040271
-0.040271
-0.040271
-0.040271
-0.040271
-0.040271
-0.040271
-0.040271
-0.040271
-0.040271
-0.040271
-0.040271
-0.040271
-0.040271
-0.040271
-0.040271
-0.040271
-0.040271
-0.040271
-0.040271
-0.040271
-0.040271
-0.040271
-0.040271
-0.040271
-0.040271
-0.040271
-0.040271
-0.040271
-0.040271
-0.040271
-0.040271
-0.040271
-0.040271
-0.040271
-0.040271
-0.040271
-0.040271
-0.040271
-0.040271
-0.040271
-0.040271
-0.040271
0.000000
-0.032756
-0.032756
-0.032756
-0.032756
-0.032756
-0.032756
-0.032756
-0.032756
-0.032756
-0.032756
-0.032756
-0.032756
-0.032756
-0.032756
-0.032756
-0.032756
-0.032756
-0.032756
-0.032756
-0.032756
-0.032756
-0.032756
-0.032756
-0.032756
-0.032756
-0.032756
-0.032756
-0.032756
-0.032756
-0.032756
-0.032756
-0.032756
-0.032756
-0.032756
-0.032756
-0.032756
-0.032756
-0.032756
-0.032756
-0.032756
-0.032756
-0.032756
-0.032756
-0.032756
-0.032756
-0.032756
-0.032756
-0.032756
-0.032756
-0.032756
-0.032756
-0.032756
-0.032756
-0.032756
-0.032756
-0.032756
-0.032756
-0.032756
-0.032756
-0.032756
-0.032756
-0.032756
-0.032756
-0.032756
-0.032756
-0.032756
-0.032756
-0.032756
-0.032756
-0.032756
-0.032756
-0.032756
-0.032756
-0.032756
-0.032756
-0.032756
-0.032756
-0.032756
-0.032756
-0.032756
-0.032756
-0.032756
-0.032756
-0.032756
-0.032756
-0.032756
-0.032756
-0.032756
-0.032756
-0.032756
-0.032756
-0.032756
-0.032756
-0.032756
-0.032756
-0.032756
-0.032756
-0.032756
-0.032756
-0.032756
-0.032756
-0.032756
-0.032756
-0.032756
-0.032756
-0.032756
-0.032756
-0.032756
-0.032756
-0.032756
-0.032756
-0.032756
-0.032756
-0.032756
-0.032756
-0.032756
-0.032756
-0.032756
-0.032756
-0.032756
-0.032756
-0.032756
-0.032756
-0.032756
-0.032756
-0.032756
-0.032756
-0.032756
0.000000
-0.029067
-0.029067
-0.029067
-0.029067
-0.029067
-0.029067
-0.029067
-0.029067
-0.029067
-0.029067
-0.029067
-0.029067
-0.029067
-0.029067
-0.029067
-0.029067
-0.029067
-0.029067
-0.029067
-0.029067
-0.029067
-0.029067
-0.029067
-0.029067
-0.029067
-0.029067
-0.029067
-0.029067
-0.029067
-0.029067
-0.029067
-0.029067
-0.029067
-0.029067
-0.029067
-0.029067
-0.029067
-0.029067
-0.029067
-0.029067
-0.029067
-0.029067
-0.029067
-0.029067
-0.029067
-0.029067
-0.029067
-0.029067
-0.029067
-0.029067
-0.029067
-0.029067
-0.029067
-0.029067
-0.029067
-0.029067
-0.029067
-0.029067
-0.029067
-0.029067
-0.029067
-0.029067
-0.029067
-0.029067
-0.029067
-0.029067
-0.029067
-0.029067
-0.029067
-0.029067
-0.029067
-0.029067
-0.029067
-0.029067
-0.029067
-0.029067
-0.029067
-0.029067
-0.029067
-0.029067
-0.029067
-0.029067
-0.029067
-0.029067
-0.029067
-0.029067
-0.029067
-0.029067
-0.029067
-0.029067
-0.029067
-0.029067
-0.029067
-0.029067
-0.029067
-0.029067
-0.029067
-0.029067
-0.029067
-0.029067
-0.029067
-0.029067
-0.029067
-0.029067
-0.029067
-0.029067
-0.029067
-0.029067
-0.029067
-0.029067
-0.029067
-0.029067
-0.029067
-0.029067
-0.029067
-0.029067
-0.029067
-0.029067
-0.029067
-0.029067
-0.029067
-0.029067
-0.029067
-0.029067
-0.029067
-0.029067
-0.029067
-0.029067
0.000000
-0.037718
-0.037718
-0.037718
-0.037718
-0.037718
-0.037718
-0.037718
-0.037718
-0.037718
-0.037718
-0.037718
-0.037718
-0.037718
-0.037718
-0.037718
-0.037718
-0.037718
-0.037718
-0.037718
-0.037718
-0.037718
-0.037718
-0.037718
-0.037718
-0.037718
-0.037718
-0.037718
-0.037718
-0.037718
-0.037718
-0.037718
-0.037718
-0.037718
-0.037718
-0.037718
-0.037718
-0.037718
-0.037718
-0.037718
-0.037718
-0.037718
-0.037718
-0.037718
-0.037718
-0.037718
-0.037718
-0.037718
-0.037718
-0.037718
-0.037718
-0.037718
-0.037718
-0.037718
-0.037718
-0.037718
-0.037718
-0.037718
-0.037718
-0.037718
-0.037718
-0.037718
-0.037718
-0.037718
-0.037718
-0.037718
-0.037718
-0.037718
-0.037718
-0.037718
-0.037718
-0.037718
-0.037718
-0.037718
-0.037718
-0.037718
-0.037718
-0.037718
-0.037718
-0.037718
-0.037718
-0.037718
-0.037718
-0.037718
-0.037718
-0.037718
-0.037718
-0.037718
-0.037718
-0.037718
-0.037718
-0.037718
-0.037718
-0.037718
-0.037718
-0.037718
-0.037718
-0.037718
-0.037718
-0.037718
-0.037718
-0.037718
-0.037718
-0.037718
-0.037718
-0.037718
-0.037718
-0.037718
-0.037718
-0.037718
-0.037718
-0.037718
-0.037718
-0.037718
-0.037718
-0.037718
-0.037718
-0.037718
-0.037718
-0.037718
-0.037718
-0.037718
-0.037718
-0.037718
-0.037718
-0.037718
-0.037718
-0.037718
-0.037718
0.000000
-0.010665
-0.010665
-0.010665
-0.010665
-0.010665
-0.010665
-0.010665
-0.010665
-0.010665
-0.010665
-0.010665
-0.010665
-0.010665
-0.010665
-0.010665
-0.010665
-0.010665
-0.010665
-0.010665
-0.010665
-0.010665
-0.010665
-0.010665
-0.010665
-0.010665
-0.010665
-0.010665
-0.010665
-0.010665
-0.010665
-0.010665
-0.010665
-0.010665
-0.010665
-0.010665
-0.010665
-0.010665
-0.010665
-0.010665
-0.010665
-0.010665
-0.010665
-0.010665
-0.010665
-0.010665
-0.010665
-0.010665
-0.010665
-0.010665
-0.010665
-0.010665
-0.010665
-0.010665
-0.010665
-0.010665
-0.010665
-0.010665
-0.010665
-0.010665
-0.010665
-0.010665
-0.010665
-0.010665
-0.010665
-0.010665
-0.010665
-0.010665
-0.010665
-0.010665
-0.010665
-0.010665
-0.010665
-0.010665
-0.010665
-0.010665
-0.010665
-0.010665
-0.010665
-0.010665
-0.010665
-0.010665
-0.010665
-0.010665
-0.010665
-0.010665
-0.010665
-0.010665
-0.010665
-0.010665
-0.010665
-0.010665
-0.010665
-0.010665
-0.010665
-0.010665
-0.010665
-0.010665
-0.010665
-0.010665
-0.010665
-0.010665
-0.010665
-0.010665
-0.010665
-0.010665
-0.010665
-0.010665
-0.010665
-0.010665
-0.010665
-0.010665
-0.010665
-0.010665
-0.010665
-0.010665
-0.010665
-0.010665
-0.010665
-0.010665
-0.010665
-0.010665
-0.010665
-0.010665
-0.010665
-0.010665
-0.010665
-0.010665
-0.010665
0.000000
-0.041527
-0.041527
-0.041527
-0.041527
-0.041527
-0.041527
-0.041527
-0.041527
-0.041527
-0.041527
-0.041527
-0.041527
-0.041527
-0.041527
-0.041527
-0.041527
-0.041527
-0.041527
-0.041527
-0.041527
-0.041527
-0.041527
-0.041527
-0.041527
-0.041527
-0.041527
-0.041527
-0.041527
-0.041527
-0.041527
-0.041527
-0.041527
-0.041527
-0.041527
-0.041527
-0.041527
-0.041527
-0.041527
-0.041527
-0.041527
-0.041527
-0.041527
-0.041527
-0.041527
-0.041527
-0.041527
-0.041527
-0.041527
-0.041527
-0.041527
-0.041527
-0.041527
-0.041527
-0.041527
-0.041527
-0.041527
-0.041527
-0.041527
-0.041527
-0.041527
-0.041527
-0.041527
-0.041527
-0.041527
-0.041527
-0.041527
-0.041527
-0.041527
-0.041527
-0.041527
-0.041527
-0.041527
-0.041527
-0.041527
-0.041527
-0.041527
-0.041527
-0.041527
-0.041527
-0.041527
-0.041527
-0.041527
-0.041527
-0.041527
-0.041527
-0.041527
-0.041527
-0.041527
-0.041527
-0.041527
-0.041527
-0.041527
-0.041527
-0.041527
-0.041527
-0.041527
-0.041527
-0.041527
-0.041527
-0.041527
-0.041527
-0.041527
-0.041527
-0.041527
-0.041527
-0.041527
-0.041527
-0.041527
-0.041527
-0.041527
-0.041527
-0.041527
-0.041527
-0.041527
-0.041527
-0.041527
-0.041527
-0.041527
-0.041527
-0.041527
-0.041527
-0.041527
-0.041527
-0.041527
-0.041527
-0.041527
-0.041527
-0.041527
0.000000
-0.010665
-0.010665
-0.010665
-0.010665
-0.010665
-0.010665
-0.010665
-0.010665
-0.010665
-0.010665
-0.010665
-0.010665
-0.010665
-0.010665
-0.010665
-0.010665
-0.010665
-0.010665
-0.010665
-0.010665
-0.010665
-0.010665
-0.010665
-0.010665
-0.010665
-0.010665
-0.010665
-0.010665
-0.010665
-0.010665
-0.010665
-0.010665
-0.010665
-0.010665
-0.010665
-0.010665
-0.010665
-0.010665
-0.010665
-0.010665
-0.010665
-0.010665
-0.010665
-0.010665
-0.010665
-0.010665
-0.010665
-0.010665
-0.010665
-0.010665
-0.010665
-0.010665
-0.010665
-0.010665
-0.010665
-0.010665
-0.010665
-0.010665
-0.010665
-0.010665
-0.010665
-0.010665
-0.010665
-0.010665
-0.010665
-0.010665
-0.010665
-0.010665
-0.010665
-0.010665
-0.010665
-0.010665
-0.010665
-0.010665
-0.010665
-0.010665
-0.010665
-0.010665
-0.010665
-0.010665
-0.010665
-0.010665
-0.010665
-0.010665
-0.010665
-0.010665
-0.010665
-0.010665
-0.010665
-0.010665
-0.010665
-0.010665
-0.010665
-0.010665
-0.010665
-0.010665
-0.010665
-0.010665
-0.010665
-0.010665
-0.010665
-0.010665
-0.010665
-0.010665
-0.010665
-0.010665
-0.010665
-0.010665
-0.010665
-0.010665
-0.010665
-0.010665
-0.010665
-0.010665
-0.010665
-0.010665
-0.010665
-0.010665
-0.010665
-0.010665
-0.010665
-0.010665
-0.010665
-0.010665
-0.010665
-0.010665
-0.010665
-0.010665
0.000000
0.000000
0.000000
0.000000
0.000000
0.000000
0.000000
0.000000
0.000000
0.000000
0.000000
0.000000
0.000000
0.000000
0.000000
0.000000
0.000000
0.000000
0.000000
0.000000
0.000000
0.000000
0.000000
0.000000
0.000000
0.000000
0.000000
0.000000
0.000000
0.000000
0.000000
0.000000
0.000000
0.000000
0.000000
0.000000
0.000000
0.000000
0.000000
0.000000
0.000000
0.000000
0.000000
0.000000
0.000000
0.000000
0.000000
0.000000
0.000000
0.000000
0.000000
0.000000
0.000000
0.000000
0.000000
0.000000
0.000000
0.000000
0.000000
0.000000
0.000000
0.000000
0.000000
0.000000
0.000000
0.000000
0.000000
0.000000
0.000000
0.000000
0.000000
0.000000
0.000000
0.000000
0.000000
0.000000
0.000000
0.000000
0.000000
0.000000
0.000000
0.000000
0.000000
0.000000
0.000000
0.000000
0.000000
0.000000
0.000000
0.000000
0.000000
0.000000
0.000000
0.000000
0.000000
0.000000
0.000000
0.000000
0.000000
0.000000
0.000000
0.000000
0.000000
0.000000
0.000000
0.000000
0.000000
0.000000
0.000000
0.000000
0.000000
0.000000
0.000000
0.000000
0.000000
0.000000
0.000000
0.000000
0.000000
0.000000
0.000000
0.000000
0.000000
0.000000
0.000000
0.000000
0.000000
0.000000
0.000000
0.000000
-0.011558
-0.011558
-0.011558
-0.011558
-0.011558
-0.011558
-0.011558
-0.011558
-0.011558
-0.011558
-0.011558
-0.011558
-0.011558
-0.011558
-0.011558
-0.011558
-0.011558
-0.011558
-0.011558
-0.011558
-0.011558
-0.011558
-0.011558
-0.011558
-0.011558
-0.011558
-0.011558
-0.011558
-0.011558
-0.011558
-0.011558
-0.011558
-0.011558
-0.011558
-0.011558
-0.011558
-0.011558
-0.011558
-0.011558
-0.011558
-0.011558
-0.011558
-0.011558
-0.011558
-0.011558
-0.011558
-0.011558
-0.011558
-0.011558
-0.011558
-0.011558
-0.011558
-0.011558
-0.011558
-0.011558
-0.011558
-0.011558
-0.011558
-0.011558
-0.011558
-0.011558
-0.011558
-0.011558
-0.011558
-0.011558
-0.011558
-0.011558
-0.011558
-0.011558
-0.011558
-0.011558
-0.011558
-0.011558
-0.011558
-0.011558
-0.011558
-0.011558
-0.011558
-0.011558
-0.011558
-0.011558
-0.011558
-0.011558
-0.011558
-0.011558
-0.011558
-0.011558
-0.011558
-0.011558
-0.011558
-0.011558
-0.011558
-0.011558
-0.011558
-0.011558
-0.011558
-0.011558
-0.011558
-0.011558
-0.011558
-0.011558
-0.011558
-0.011558
-0.011558
-0.011558
-0.011558
-0.011558
-0.011558
-0.011558
-0.011558
-0.011558
-0.011558
-0.011558
-0.011558
-0.011558
-0.011558
-0.011558
-0.011558
-0.011558
-0.011558
-0.011558
-0.011558
-0.011558
-0.011558
-0.011558
-0.011558
-0.011558
-0.011558
0.000000
0.000000
0.000000
0.000000
0.000000
0.000000
0.000000
0.000000
0.000000
0.000000
0.000000
0.000000
0.000000
0.000000
0.000000
0.000000
0.000000
0.000000
0.000000
0.000000
0.000000
0.000000
0.000000
0.000000
0.000000
0.000000
0.000000
0.000000
0.000000
0.000000
0.000000
0.000000
0.000000
0.000000
0.000000
0.000000
0.000000
0.000000
0.000000
0.000000
0.000000
0.000000
0.000000
0.000000
0.000000
0.000000
0.000000
0.000000
0.000000
0.000000
0.000000
0.000000
0.000000
0.000000
0.000000
0.000000
0.000000
0.000000
0.000000
0.000000
0.000000
0.000000
0.000000
0.000000
0.000000
0.000000
0.000000
0.000000
0.000000
0.000000
0.000000
0.000000
0.000000
0.000000
0.000000
0.000000
0.000000
0.000000
0.000000
0.000000
0.000000
0.000000
0.000000
0.000000
0.000000
0.000000
0.000000
0.000000
0.000000
0.000000
0.000000
0.000000
0.000000
0.000000
0.000000
0.000000
0.000000
0.000000
0.000000
0.000000
0.000000
0.000000
0.000000
0.000000
0.000000
0.000000
0.000000
0.000000
0.000000
0.000000
0.000000
0.000000
0.000000
0.000000
0.000000
0.000000
0.000000
0.000000
0.000000
0.000000
0.000000
0.000000
0.000000
0.000000
0.000000
0.000000
0.000000
0.000000
0.000000
0.000000
-0.010665
-0.010665
-0.010665
-0.010665
-0.010665
-0.010665
-0.010665
-0.010665
-0.010665
-0.010665
-0.010665
-0.010665
-0.010665
-0.010665
-0.010665
-0.010665
-0.010665
-0.010665
-0.010665
-0.010665
-0.010665
-0.010665
-0.010665
-0.010665
-0.010665
-0.010665
-0.010665
-0.010665
-0.010665
-0.010665
-0.010665
-0.010665
-0.010665
-0.010665
-0.010665
-0.010665
-0.010665
-0.010665
-0.010665
-0.010665
-0.010665
-0.010665
-0.010665
-0.010665
-0.010665
-0.010665
-0.010665
-0.010665
-0.010665
-0.010665
-0.010665
-0.010665
-0.010665
-0.010665
-0.010665
-0.010665
-0.010665
-0.010665
-0.010665
-0.010665
-0.010665
-0.010665
-0.010665
-0.010665
-0.010665
-0.010665
-0.010665
-0.010665
-0.010665
-0.010665
-0.010665
-0.010665
-0.010665
-0.010665
-0.010665
-0.010665
-0.010665
-0.010665
-0.010665
-0.010665
-0.010665
-0.010665
-0.010665
-0.010665
-0.010665
-0.010665
-0.010665
-0.010665
-0.010665
-0.010665
-0.010665
-0.010665
-0.010665
-0.010665
-0.010665
-0.010665
-0.010665
-0.010665
-0.010665
-0.010665
-0.010665
-0.010665
-0.010665
-0.010665
-0.010665
-0.010665
-0.010665
-0.010665
-0.010665
-0.010665
-0.010665
-0.010665
-0.010665
-0.010665
-0.010665
-0.010665
-0.010665
-0.010665
-0.010665
-0.010665
-0.010665
-0.010665
-0.010665
-0.010665
-0.010665
-0.010665
-0.010665
-0.010665
0.000000
-0.037980
-0.037980
-0.037980
-0.037980
-0.037980
-0.037980
-0.037980
-0.037980
-0.037980
-0.037980
-0.037980
-0.037980
-0.037980
-0.037980
-0.037980
-0.037980
-0.037980
-0.037980
-0.037980
-0.037980
-0.037980
-0.037980
-0.037980
-0.037980
-0.037980
-0.037980
-0.037980
-0.037980
-0.037980
-0.037980
-0.037980
-0.037980
-0.037980
-0.037980
-0.037980
-0.037980
-0.037980
-0.037980
-0.037980
-0.037980
-0.037980
-0.037980
-0.037980
-0.037980
-0.037980
-0.037980
-0.037980
-0.037980
-0.037980
-0.037980
-0.037980
-0.037980
-0.037980
-0.037980
-0.037980
-0.037980
-0.037980
-0.037980
-0.037980
-0.037980
-0.037980
-0.037980
-0.037980
-0.037980
-0.037980
-0.037980
-0.037980
-0.037980
-0.037980
-0.037980
-0.037980
-0.037980
-0.037980
-0.037980
-0.037980
-0.037980
-0.037980
-0.037980
-0.037980
-0.037980
-0.037980
-0.037980
-0.037980
-0.037980
-0.037980
-0.037980
-0.037980
-0.037980
-0.037980
-0.037980
-0.037980
-0.037980
-0.037980
-0.037980
-0.037980
-0.037980
-0.037980
-0.037980
-0.037980
-0.037980
-0.037980
-0.037980
-0.037980
-0.037980
-0.037980
-0.037980
-0.037980
-0.037980
-0.037980
-0.037980
-0.037980
-0.037980
-0.037980
-0.037980
-0.037980
-0.037980
-0.037980
-0.037980
-0.037980
-0.037980
-0.037980
-0.037980
-0.037980
-0.037980
-0.037980
-0.037980
-0.037980
-0.037980
0.000000
-0.021367
-0.021367
-0.021367
-0.021367
-0.021367
-0.021367
-0.021367
-0.021367
-0.021367
-0.021367
-0.021367
-0.021367
-0.021367
-0.021367
-0.021367
-0.021367
-0.021367
-0.021367
-0.021367
-0.021367
-0.021367
-0.021367
-0.021367
-0.021367
-0.021367
-0.021367
-0.021367
-0.021367
-0.021367
-0.021367
-0.021367
-0.021367
-0.021367
-0.021367
-0.021367
-0.021367
-0.021367
-0.021367
-0.021367
-0.021367
-0.021367
-0.021367
-0.021367
-0.021367
-0.021367
-0.021367
-0.021367
-0.021367
-0.021367
-0.021367
-0.021367
-0.021367
-0.021367
-0.021367
-0.021367
-0.021367
-0.021367
-0.021367
-0.021367
-0.021367
-0.021367
-0.021367
-0.021367
-0.021367
-0.021367
-0.021367
-0.021367
-0.021367
-0.021367
-0.021367
-0.021367
-0.021367
-0.021367
-0.021367
-0.021367
-0.021367
-0.021367
-0.021367
-0.021367
-0.021367
-0.021367
-0.021367
-0.021367
-0.021367
-0.021367
-0.021367
-0.021367
-0.021367
-0.021367
-0.021367
-0.021367
-0.021367
-0.021367
-0.021367
-0.021367
-0.021367
-0.021367
-0.021367
-0.021367
-0.021367
-0.021367
-0.021367
-0.021367
-0.021367
-0.021367
-0.021367
-0.021367
-0.021367
-0.021367
-0.021367
-0.021367
-0.021367
-0.021367
-0.021367
-0.021367
-0.021367
-0.021367
-0.021367
-0.021367
-0.021367
-0.021367
-0.021367
-0.021367
-0.021367
-0.021367
-0.021367
-0.021367
-0.021367
0.000000
-0.033600
-0.033600
-0.033600
-0.033600
-0.033600
-0.033600
-0.033600
-0.033600
-0.033600
-0.033600
-0.033600
-0.033600
-0.033600
-0.033600
-0.033600
-0.033600
-0.033600
-0.033600
-0.033600
-0.033600
-0.033600
-0.033600
-0.033600
-0.033600
-0.033600
-0.033600
-0.033600
-0.033600
-0.033600
-0.033600
-0.033600
-0.033600
-0.033600
-0.033600
-0.033600
-0.033600
-0.033600
-0.033600
-0.033600
-0.033600
-0.033600
-0.033600
-0.033600
-0.033600
-0.033600
-0.033600
-0.033600
-0.033600
-0.033600
-0.033600
-0.033600
-0.033600
-0.033600
-0.033600
-0.033600
-0.033600
-0.033600
-0.033600
-0.033600
-0.033600
-0.033600
-0.033600
-0.033600
-0.033600
-0.033600
-0.033600
-0.033600
-0.033600
-0.033600
-0.033600
-0.033600
-0.033600
-0.033600
-0.033600
-0.033600
-0.033600
-0.033600
-0.033600
-0.033600
-0.033600
-0.033600
-0.033600
-0.033600
-0.033600
-0.033600
-0.033600
-0.033600
-0.033600
-0.033600
-0.033600
-0.033600
-0.033600
-0.033600
-0.033600
-0.033600
-0.033600
-0.033600
-0.033600
-0.033600
-0.033600
-0.033600
-0.033600
-0.033600
-0.033600
-0.033600
-0.033600
-0.033600
-0.033600
-0.033600
-0.033600
-0.033600
-0.033600
-0.033600
-0.033600
-0.033600
-0.033600
-0.033600
-0.033600
-0.033600
-0.033600
-0.033600
-0.033600
-0.033600
-0.033600
-0.033600
-0.033600
-0.033600
-0.033600
0.000000
0.012029
0.012029
0.012029
0.012029
0.012029
0.012029
0.012029
0.012029
0.012029
0.012029
0.012029
0.012029
0.012029
0.012029
0.012029
0.012029
0.012029
0.012029
0.012029
0.012029
0.012029
0.012029
0.012029
0.012029
0.012029
0.012029
0.012029
0.012029
0.012029
0.012029
0.012029
0.012029
0.012029
0.012029
0.012029
0.012029
0.012029
0.012029
0.012029
0.012029
0.012029
0.012029
0.012029
0.012029
0.012029
0.012029
0.012029
0.012029
0.012029
0.012029
0.012029
0.012029
0.012029
0.012029
0.012029
0.012029
0.012029
0.012029
0.012029
0.012029
0.012029
0.012029
0.012029
0.012029
0.012029
0.012029
0.012029
0.012029
0.012029
0.012029
0.012029
0.012029
0.012029
0.012029
0.012029
0.012029
0.012029
0.012029
0.012029
0.012029
0.012029
0.012029
0.012029
0.012029
0.012029
0.012029
0.012029
0.012029
0.012029
0.012029
0.012029
0.012029
0.012029
0.012029
0.012029
0.012029
0.012029
0.012029
0.012029
0.012029
0.012029
0.012029
0.012029
0.012029
0.012029
0.012029
0.012029
0.012029
0.012029
0.012029
0.012029
0.012029
0.012029
0.012029
0.012029
0.012029
0.012029
0.012029
0.012029
0.012029
0.012029
0.012029
0.012029
0.012029
0.012029
0.012029
0.012029
0.012029
0.000000
-0.069750
-0.069750
-0.069750
-0.069750
-0.069750
-0.069750
-0.069750
-0.069750
-0.069750
-0.069750
-0.069750
-0.069750
-0.069750
-0.069750
-0.069750
-0.069750
-0.069750
-0.069750
-0.069750
-0.069750
-0.069750
-0.069750
-0.069750
-0.069750
-0.069750
-0.069750
-0.069750
-0.069750
-0.069750
-0.069750
-0.069750
-0.069750
-0.069750
-0.069750
-0.069750
-0.069750
-0.069750
-0.069750
-0.069750
-0.069750
-0.069750
-0.069750
-0.069750
-0.069750
-0.069750
-0.069750
-0.069750
-0.069750
-0.069750
-0.069750
-0.069750
-0.069750
-0.069750
-0.069750
-0.069750
-0.069750
-0.069750
-0.069750
-0.069750
-0.069750
-0.069750
-0.069750
-0.069750
-0.069750
-0.069750
-0.069750
-0.069750
-0.069750
-0.069750
-0.069750
-0.069750
-0.069750
-0.069750
-0.069750
-0.069750
-0.069750
-0.069750
-0.069750
-0.069750
-0.069750
-0.069750
-0.069750
-0.069750
-0.069750
-0.069750
-0.069750
-0.069750
-0.069750
-0.069750
-0.069750
-0.069750
-0.069750
-0.069750
-0.069750
-0.069750
-0.069750
-0.069750
-0.069750
-0.069750
-0.069750
-0.069750
-0.069750
-0.069750
-0.069750
-0.069750
-0.069750
-0.069750
-0.069750
-0.069750
-0.069750
-0.069750
-0.069750
-0.069750
-0.069750
-0.069750
-0.069750
-0.069750
-0.069750
-0.069750
-0.069750
-0.069750
-0.069750
-0.069750
-0.069750
-0.069750
-0.069750
-0.069750
-0.069750
0.000000
-0.015892
-0.015892
-0.015892
-0.015892
-0.015892
-0.015892
-0.015892
-0.015892
-0.015892
-0.015892
-0.015892
-0.015892
-0.015892
-0.015892
-0.015892
-0.015892
-0.015892
-0.015892
-0.015892
-0.015892
-0.015892
-0.015892
-0.015892
-0.015892
-0.015892
-0.015892
-0.015892
-0.015892
-0.015892
-0.015892
-0.015892
-0.015892
-0.015892
-0.015892
-0.015892
-0.015892
-0.015892
-0.015892
-0.015892
-0.015892
-0.015892
-0.015892
-0.015892
-0.015892
-0.015892
-0.015892
-0.015892
-0.015892
-0.015892
-0.015892
-0.015892
-0.015892
-0.015892
-0.015892
-0.015892
-0.015892
-0.015892
-0.015892
-0.015892
-0.015892
-0.015892
-0.015892
-0.015892
-0.015892
-0.015892
-0.015892
-0.015892
-0.015892
-0.015892
-0.015892
-0.015892
-0.015892
-0.015892
-0.015892
-0.015892
-0.015892
-0.015892
-0.015892
-0.015892
-0.015892
-0.015892
-0.015892
-0.015892
-0.015892
-0.015892
-0.015892
-0.015892
-0.015892
-0.015892
-0.015892
-0.015892
-0.015892
-0.015892
-0.015892
-0.015892
-0.015892
-0.015892
-0.015892
-0.015892
-0.015892
-0.015892
-0.015892
-0.015892
-0.015892
-0.015892
-0.015892
-0.015892
-0.015892
-0.015892
-0.015892
-0.015892
-0.015892
-0.015892
-0.015892
-0.015892
-0.015892
-0.015892
-0.015892
-0.015892
-0.015892
-0.015892
-0.015892
-0.015892
-0.015892
-0.015892
-0.015892
-0.015892
-0.015892
0.000000
-0.025728
-0.025728
-0.025728
-0.025728
-0.025728
-0.025728
-0.025728
-0.025728
-0.025728
-0.025728
-0.025728
-0.025728
-0.025728
-0.025728
-0.025728
-0.025728
-0.025728
-0.025728
-0.025728
-0.025728
-0.025728
-0.025728
-0.025728
-0.025728
-0.025728
-0.025728
-0.025728
-0.025728
-0.025728
-0.025728
-0.025728
-0.025728
-0.025728
-0.025728
-0.025728
-0.025728
-0.025728
-0.025728
-0.025728
-0.025728
-0.025728
-0.025728
-0.025728
-0.025728
-0.025728
-0.025728
-0.025728
-0.025728
-0.025728
-0.025728
-0.025728
-0.025728
-0.025728
-0.025728
-0.025728
-0.025728
-0.025728
-0.025728
-0.025728
-0.025728
-0.025728
-0.025728
-0.025728
-0.025728
-0.025728
-0.025728
-0.025728
-0.025728
-0.025728
-0.025728
-0.025728
-0.025728
-0.025728
-0.025728
-0.025728
-0.025728
-0.025728
-0.025728
-0.025728
-0.025728
-0.025728
-0.025728
-0.025728
-0.025728
-0.025728
-0.025728
-0.025728
-0.025728
-0.025728
-0.025728
-0.025728
-0.025728
-0.025728
-0.025728
-0.025728
-0.025728
-0.025728
-0.025728
-0.025728
-0.025728
-0.025728
-0.025728
-0.025728
-0.025728
-0.025728
-0.025728
-0.025728
-0.025728
-0.025728
-0.025728
-0.025728
-0.025728
-0.025728
-0.025728
-0.025728
-0.025728
-0.025728
-0.025728
-0.025728
-0.025728
-0.025728
-0.025728
-0.025728
-0.025728
-0.025728
-0.025728
-0.025728
-0.025728
0.000000
-0.009755
-0.009755
-0.009755
-0.009755
-0.009755
-0.009755
-0.009755
-0.009755
-0.009755
-0.009755
-0.009755
-0.009755
-0.009755
-0.009755
-0.009755
-0.009755
-0.009755
-0.009755
-0.009755
-0.009755
-0.009755
-0.009755
-0.009755
-0.009755
-0.009755
-0.009755
-0.009755
-0.009755
-0.009755
-0.009755
-0.009755
-0.009755
-0.009755
-0.009755
-0.009755
-0.009755
-0.009755
-0.009755
-0.009755
-0.009755
-0.009755
-0.009755
-0.009755
-0.009755
-0.009755
-0.009755
-0.009755
-0.009755
-0.009755
-0.009755
-0.009755
-0.009755
-0.009755
-0.009755
-0.009755
-0.009755
-0.009755
-0.009755
-0.009755
-0.009755
-0.009755
-0.009755
-0.009755
-0.009755
-0.009755
-0.009755
-0.009755
-0.009755
-0.009755
-0.009755
-0.009755
-0.009755
-0.009755
-0.009755
-0.009755
-0.009755
-0.009755
-0.009755
-0.009755
-0.009755
-0.009755
-0.009755
-0.009755
-0.009755
-0.009755
-0.009755
-0.009755
-0.009755
-0.009755
-0.009755
-0.009755
-0.009755
-0.009755
-0.009755
-0.009755
-0.009755
-0.009755
-0.009755
-0.009755
-0.009755
-0.009755
-0.009755
-0.009755
-0.009755
-0.009755
-0.009755
-0.009755
-0.009755
-0.009755
-0.009755
-0.009755
-0.009755
-0.009755
-0.009755
-0.009755
-0.009755
-0.009755
-0.009755
-0.009755
-0.009755
-0.009755
-0.009755
-0.009755
-0.009755
-0.009755
-0.009755
-0.009755
-0.009755
0.000000
-0.036871
-0.036871
-0.036871
-0.036871
-0.036871
-0.036871
-0.036871
-0.036871
-0.036871
-0.036871
-0.036871
-0.036871
-0.036871
-0.036871
-0.036871
-0.036871
-0.036871
-0.036871
-0.036871
-0.036871
-0.036871
-0.036871
-0.036871
-0.036871
-0.036871
-0.036871
-0.036871
-0.036871
-0.036871
-0.036871
-0.036871
-0.036871
-0.036871
-0.036871
-0.036871
-0.036871
-0.036871
-0.036871
-0.036871
-0.036871
-0.036871
-0.036871
-0.036871
-0.036871
-0.036871
-0.036871
-0.036871
-0.036871
-0.036871
-0.036871
-0.036871
-0.036871
-0.036871
-0.036871
-0.036871
-0.036871
-0.036871
-0.036871
-0.036871
-0.036871
-0.036871
-0.036871
-0.036871
-0.036871
-0.036871
-0.036871
-0.036871
-0.036871
-0.036871
-0.036871
-0.036871
-0.036871
-0.036871
-0.036871
-0.036871
-0.036871
-0.036871
-0.036871
-0.036871
-0.036871
-0.036871
-0.036871
-0.036871
-0.036871
-0.036871
-0.036871
-0.036871
-0.036871
-0.036871
-0.036871
-0.036871
-0.036871
-0.036871
-0.036871
-0.036871
-0.036871
-0.036871
-0.036871
-0.036871
-0.036871
-0.036871
-0.036871
-0.036871
-0.036871
-0.036871
-0.036871
-0.036871
-0.036871
-0.036871
-0.036871
-0.036871
-0.036871
-0.036871
-0.036871
-0.036871
-0.036871
-0.036871
-0.036871
-0.036871
-0.036871
-0.036871
-0.036871
-0.036871
-0.036871
-0.036871
-0.036871
-0.036871
-0.036871
0.000000
-0.033600
-0.033600
-0.033600
-0.033600
-0.033600
-0.033600
-0.033600
-0.033600
-0.033600
-0.033600
-0.033600
-0.033600
-0.033600
-0.033600
-0.033600
-0.033600
-0.033600
-0.033600
-0.033600
-0.033600
-0.033600
-0.033600
-0.033600
-0.033600
-0.033600
-0.033600
-0.033600
-0.033600
-0.033600
-0.033600
-0.033600
-0.033600
-0.033600
-0.033600
-0.033600
-0.033600
-0.033600
-0.033600
-0.033600
-0.033600
-0.033600
-0.033600
-0.033600
-0.033600
-0.033600
-0.033600
-0.033600
-0.033600
-0.033600
-0.033600
-0.033600
-0.033600
-0.033600
-0.033600
-0.033600
-0.033600
-0.033600
-0.033600
-0.033600
-0.033600
-0.033600
-0.033600
-0.033600
-0.033600
-0.033600
-0.033600
-0.033600
-0.033600
-0.033600
-0.033600
-0.033600
-0.033600
-0.033600
-0.033600
-0.033600
-0.033600
-0.033600
-0.033600
-0.033600
-0.033600
-0.033600
-0.033600
-0.033600
-0.033600
-0.033600
-0.033600
-0.033600
-0.033600
-0.033600
-0.033600
-0.033600
-0.033600
-0.033600
-0.033600
-0.033600
-0.033600
-0.033600
-0.033600
-0.033600
-0.033600
-0.033600
-0.033600
-0.033600
-0.033600
-0.033600
-0.033600
-0.033600
-0.033600
-0.033600
-0.033600
-0.033600
-0.033600
-0.033600
-0.033600
-0.033600
-0.033600
-0.033600
-0.033600
-0.033600
-0.033600
-0.033600
-0.033600
-0.033600
-0.033600
-0.033600
-0.033600
-0.033600
-0.033600
0.000000
0.005725
0.005725
0.005725
0.005725
0.005725
0.005725
0.005725
0.005725
0.005725
0.005725
0.005725
0.005725
0.005725
0.005725
0.005725
0.005725
0.005725
0.005725
0.005725
0.005725
0.005725
0.005725
0.005725
0.005725
0.005725
0.005725
0.005725
0.005725
0.005725
0.005725
0.005725
0.005725
0.005725
0.005725
0.005725
0.005725
0.005725
0.005725
0.005725
0.005725
0.005725
0.005725
0.005725
0.005725
0.005725
0.005725
0.005725
0.005725
0.005725
0.005725
0.005725
0.005725
0.005725
0.005725
0.005725
0.005725
0.005725
0.005725
0.005725
0.005725
0.005725
0.005725
0.005725
0.005725
0.005725
0.005725
0.005725
0.005725
0.005725
0.005725
0.005725
0.005725
0.005725
0.005725
0.005725
0.005725
0.005725
0.005725
0.005725
0.005725
0.005725
0.005725
0.005725
0.005725
0.005725
0.005725
0.005725
0.005725
0.005725
0.005725
0.005725
0.005725
0.005725
0.005725
0.005725
0.005725
0.005725
0.005725
0.005725
0.005725
0.005725
0.005725
0.005725
0.005725
0.005725
0.005725
0.005725
0.005725
0.005725
0.005725
0.005725
0.005725
0.005725
0.005725
0.005725
0.005725
0.005725
0.005725
0.005725
0.005725
0.005725
0.005725
0.005725
0.005725
0.005725
0.005725
0.005725
0.005725
0.000000
0.000000
0.000000
0.000000
0.000000
0.000000
0.000000
0.000000
0.000000
0.000000
0.000000
0.000000
0.000000
0.000000
0.000000
0.000000
0.000000
0.000000
0.000000
0.000000
0.000000
0.000000
0.000000
0.000000
0.000000
0.000000
0.000000
0.000000
0.000000
0.000000
0.000000
0.000000
0.000000
0.000000
0.000000
0.000000
0.000000
0.000000
0.000000
0.000000
0.000000
0.000000
0.000000
0.000000
0.000000
0.000000
0.000000
0.000000
0.000000
0.000000
0.000000
0.000000
0.000000
0.000000
0.000000
0.000000
0.000000
0.000000
0.000000
0.000000
0.000000
0.000000
0.000000
0.000000
0.000000
0.000000
0.000000
0.000000
0.000000
0.000000
0.000000
0.000000
0.000000
0.000000
0.000000
0.000000
0.000000
0.000000
0.000000
0.000000
0.000000
0.000000
0.000000
0.000000
0.000000
0.000000
0.000000
0.000000
0.000000
0.000000
0.000000
0.000000
0.000000
0.000000
0.000000
0.000000
0.000000
0.000000
0.000000
0.000000
0.000000
0.000000
0.000000
0.000000
0.000000
0.000000
0.000000
0.000000
0.000000
0.000000
0.000000
0.000000
0.000000
0.000000
0.000000
0.000000
0.000000
0.000000
0.000000
0.000000
0.000000
0.000000
0.000000
0.000000
0.000000
0.000000
0.000000
0.000000
0.000000
0.000000
-0.010665
-0.010665
-0.010665
-0.010665
-0.010665
-0.010665
-0.010665
-0.010665
-0.010665
-0.010665
-0.010665
-0.010665
-0.010665
-0.010665
-0.010665
-0.010665
-0.010665
-0.010665
-0.010665
-0.010665
-0.010665
-0.010665
-0.010665
-0.010665
-0.010665
-0.010665
-0.010665
-0.010665
-0.010665
-0.010665
-0.010665
-0.010665
-0.010665
-0.010665
-0.010665
-0.010665
-0.010665
-0.010665
-0.010665
-0.010665
-0.010665
-0.010665
-0.010665
-0.010665
-0.010665
-0.010665
-0.010665
-0.010665
-0.010665
-0.010665
-0.010665
-0.010665
-0.010665
-0.010665
-0.010665
-0.010665
-0.010665
-0.010665
-0.010665
-0.010665
-0.010665
-0.010665
-0.010665
-0.010665
-0.010665
-0.010665
-0.010665
-0.010665
-0.010665
-0.010665
-0.010665
-0.010665
-0.010665
-0.010665
-0.010665
-0.010665
-0.010665
-0.010665
-0.010665
-0.010665
-0.010665
-0.010665
-0.010665
-0.010665
-0.010665
-0.010665
-0.010665
-0.010665
-0.010665
-0.010665
-0.010665
-0.010665
-0.010665
-0.010665
-0.010665
-0.010665
-0.010665
-0.010665
-0.010665
-0.010665
-0.010665
-0.010665
-0.010665
-0.010665
-0.010665
-0.010665
-0.010665
-0.010665
-0.010665
-0.010665
-0.010665
-0.010665
-0.010665
-0.010665
-0.010665
-0.010665
-0.010665
-0.010665
-0.010665
-0.010665
-0.010665
-0.010665
-0.010665
-0.010665
-0.010665
-0.010665
-0.010665
-0.010665
0.000000
0.002740
0.002740
0.002740
0.002740
0.002740
0.002740
0.002740
0.002740
0.002740
0.002740
0.002740
0.002740
0.002740
0.002740
0.002740
0.002740
0.002740
0.002740
0.002740
0.002740
0.002740
0.002740
0.002740
0.002740
0.002740
0.002740
0.002740
0.002740
0.002740
0.002740
0.002740
0.002740
0.002740
0.002740
0.002740
0.002740
0.002740
0.002740
0.002740
0.002740
0.002740
0.002740
0.002740
0.002740
0.002740
0.002740
0.002740
0.002740
0.002740
0.002740
0.002740
0.002740
0.002740
0.002740
0.002740
0.002740
0.002740
0.002740
0.002740
0.002740
0.002740
0.002740
0.002740
0.002740
0.002740
0.002740
0.002740
0.002740
0.002740
0.002740
0.002740
0.002740
0.002740
0.002740
0.002740
0.002740
0.002740
0.002740
0.002740
0.002740
0.002740
0.002740
0.002740
0.002740
0.002740
0.002740
0.002740
0.002740
0.002740
0.002740
0.002740
0.002740
0.002740
0.002740
0.002740
0.002740
0.002740
0.002740
0.002740
0.002740
0.002740
0.002740
0.002740
0.002740
0.002740
0.002740
0.002740
0.002740
0.002740
0.002740
0.002740
0.002740
0.002740
0.002740
0.002740
0.002740
0.002740
0.002740
0.002740
0.002740
0.002740
0.002740
0.002740
0.002740
0.002740
0.002740
0.002740
0.002740
0.000000
0.000000
0.000000
0.000000
0.000000
0.000000
0.000000
0.000000
0.000000
0.000000
0.000000
0.000000
0.000000
0.000000
0.000000
0.000000
0.000000
0.000000
0.000000
0.000000
0.000000
0.000000
0.000000
0.000000
0.000000
0.000000
0.000000
0.000000
0.000000
0.000000
0.000000
0.000000
0.000000
0.000000
0.000000
0.000000
0.000000
0.000000
0.000000
0.000000
0.000000
0.000000
0.000000
0.000000
0.000000
0.000000
0.000000
0.000000
0.000000
0.000000
0.000000
0.000000
0.000000
0.000000
0.000000
0.000000
0.000000
0.000000
0.000000
0.000000
0.000000
0.000000
0.000000
0.000000
0.000000
0.000000
0.000000
0.000000
0.000000
0.000000
0.000000
0.000000
0.000000
0.000000
0.000000
0.000000
0.000000
0.000000
0.000000
0.000000
0.000000
0.000000
0.000000
0.000000
0.000000
0.000000
0.000000
0.000000
0.000000
0.000000
0.000000
0.000000
0.000000
0.000000
0.000000
0.000000
0.000000
0.000000
0.000000
0.000000
0.000000
0.000000
0.000000
0.000000
0.000000
0.000000
0.000000
0.000000
0.000000
0.000000
0.000000
0.000000
0.000000
0.000000
0.000000
0.000000
0.000000
0.000000
0.000000
0.000000
0.000000
0.000000
0.000000
0.000000
0.000000
0.000000
0.000000
0.000000
0.000000
0.000000
-0.010665
-0.010665
-0.010665
-0.010665
-0.010665
-0.010665
-0.010665
-0.010665
-0.010665
-0.010665
-0.010665
-0.010665
-0.010665
-0.010665
-0.010665
-0.010665
-0.010665
-0.010665
-0.010665
-0.010665
-0.010665
-0.010665
-0.010665
-0.010665
-0.010665
-0.010665
-0.010665
-0.010665
-0.010665
-0.010665
-0.010665
-0.010665
-0.010665
-0.010665
-0.010665
-0.010665
-0.010665
-0.010665
-0.010665
-0.010665
-0.010665
-0.010665
-0.010665
-0.010665
-0.010665
-0.010665
-0.010665
-0.010665
-0.010665
-0.010665
-0.010665
-0.010665
-0.010665
-0.010665
-0.010665
-0.010665
-0.010665
-0.010665
-0.010665
-0.010665
-0.010665
-0.010665
-0.010665
-0.010665
-0.010665
-0.010665
-0.010665
-0.010665
-0.010665
-0.010665
-0.010665
-0.010665
-0.010665
-0.010665
-0.010665
-0.010665
-0.010665
-0.010665
-0.010665
-0.010665
-0.010665
-0.010665
-0.010665
-0.010665
-0.010665
-0.010665
-0.010665
-0.010665
-0.010665
-0.010665
-0.010665
-0.010665
-0.010665
-0.010665
-0.010665
-0.010665
-0.010665
-0.010665
-0.010665
-0.010665
-0.010665
-0.010665
-0.010665
-0.010665
-0.010665
-0.010665
-0.010665
-0.010665
-0.010665
-0.010665
-0.010665
-0.010665
-0.010665
-0.010665
-0.010665
-0.010665
-0.010665
-0.010665
-0.010665
-0.010665
-0.010665
-0.010665
-0.010665
-0.010665
-0.010665
-0.010665
-0.010665
-0.010665
0.000000
-0.056394
-0.056394
-0.056394
-0.056394
-0.056394
-0.056394
-0.056394
-0.056394
-0.056394
-0.056394
-0.056394
-0.056394
-0.056394
-0.056394
-0.056394
-0.056394
-0.056394
-0.056394
-0.056394
-0.056394
-0.056394
-0.056394
-0.056394
-0.056394
-0.056394
-0.056394
-0.056394
-0.056394
-0.056394
-0.056394
-0.056394
-0.056394
-0.056394
-0.056394
-0.056394
-0.056394
-0.056394
-0.056394
-0.056394
-0.056394
-0.056394
-0.056394
-0.056394
-0.056394
-0.056394
-0.056394
-0.056394
-0.056394
-0.056394
-0.056394
-0.056394
-0.056394
-0.056394
-0.056394
-0.056394
-0.056394
-0.056394
-0.056394
-0.056394
-0.056394
-0.056394
-0.056394
-0.056394
-0.056394
-0.056394
-0.056394
-0.056394
-0.056394
-0.056394
-0.056394
-0.056394
-0.056394
-0.056394
-0.056394
-0.056394
-0.056394
-0.056394
-0.056394
-0.056394
-0.056394
-0.056394
-0.056394
-0.056394
-0.056394
-0.056394
-0.056394
-0.056394
-0.056394
-0.056394
-0.056394
-0.056394
-0.056394
-0.056394
-0.056394
-0.056394
-0.056394
-0.056394
-0.056394
-0.056394
-0.056394
-0.056394
-0.056394
-0.056394
-0.056394
-0.056394
-0.056394
-0.056394
-0.056394
-0.056394
-0.056394
-0.056394
-0.056394
-0.056394
-0.056394
-0.056394
-0.056394
-0.056394
-0.056394
-0.056394
-0.056394
-0.056394
-0.056394
-0.056394
-0.056394
-0.056394
-0.056394
-0.056394
-0.056394
0.000000
0.010268
0.010268
0.010268
0.010268
0.010268
0.010268
0.010268
0.010268
0.010268
0.010268
0.010268
0.010268
0.010268
0.010268
0.010268
0.010268
0.010268
0.010268
0.010268
0.010268
0.010268
0.010268
0.010268
0.010268
0.010268
0.010268
0.010268
0.010268
0.010268
0.010268
0.010268
0.010268
0.010268
0.010268
0.010268
0.010268
0.010268
0.010268
0.010268
0.010268
0.010268
0.010268
0.010268
0.010268
0.010268
0.010268
0.010268
0.010268
0.010268
0.010268
0.010268
0.010268
0.010268
0.010268
0.010268
0.010268
0.010268
0.010268
0.010268
0.010268
0.010268
0.010268
0.010268
0.010268
0.010268
0.010268
0.010268
0.010268
0.010268
0.010268
0.010268
0.010268
0.010268
0.010268
0.010268
0.010268
0.010268
0.010268
0.010268
0.010268
0.010268
0.010268
0.010268
0.010268
0.010268
0.010268
0.010268
0.010268
0.010268
0.010268
0.010268
0.010268
0.010268
0.010268
0.010268
0.010268
0.010268
0.010268
0.010268
0.010268
0.010268
0.010268
0.010268
0.010268
0.010268
0.010268
0.010268
0.010268
0.010268
0.010268
0.010268
0.010268
0.010268
0.010268
0.010268
0.010268
0.010268
0.010268
0.010268
0.010268
0.010268
0.010268
0.010268
0.010268
0.010268
0.010268
0.010268
0.010268
0.000000
-0.014297
-0.014297
-0.014297
-0.014297
-0.014297
-0.014297
-0.014297
-0.014297
-0.014297
-0.014297
-0.014297
-0.014297
-0.014297
-0.014297
-0.014297
-0.014297
-0.014297
-0.014297
-0.014297
-0.014297
-0.014297
-0.014297
-0.014297
-0.014297
-0.014297
-0.014297
-0.014297
-0.014297
-0.014297
-0.014297
-0.014297
-0.014297
-0.014297
-0.014297
-0.014297
-0.014297
-0.014297
-0.014297
-0.014297
-0.014297
-0.014297
-0.014297
-0.014297
-0.014297
-0.014297
-0.014297
-0.014297
-0.014297
-0.014297
-0.014297
-0.014297
-0.014297
-0.014297
-0.014297
-0.014297
-0.014297
-0.014297
-0.014297
-0.014297
-0.014297
-0.014297
-0.014297
-0.014297
-0.014297
-0.014297
-0.014297
-0.014297
-0.014297
-0.014297
-0.014297
-0.014297
-0.014297
-0.014297
-0.014297
-0.014297
-0.014297
-0.014297
-0.014297
-0.014297
-0.014297
-0.014297
-0.014297
-0.014297
-0.014297
-0.014297
-0.014297
-0.014297
-0.014297
-0.014297
-0.014297
-0.014297
-0.014297
-0.014297
-0.014297
-0.014297
-0.014297
-0.014297
-0.014297
-0.014297
-0.014297
-0.014297
-0.014297
-0.014297
-0.014297
-0.014297
-0.014297
-0.014297
-0.014297
-0.014297
-0.014297
-0.014297
-0.014297
-0.014297
-0.014297
-0.014297
-0.014297
-0.014297
-0.014297
-0.014297
-0.014297
-0.014297
-0.014297
-0.014297
-0.014297
-0.014297
-0.014297
-0.014297
-0.014297
0.000000
-0.009274
-0.009274
-0.009274
-0.009274
-0.009274
-0.009274
-0.009274
-0.009274
-0.009274
-0.009274
-0.009274
-0.009274
-0.009274
-0.009274
-0.009274
-0.009274
-0.009274
-0.009274
-0.009274
-0.009274
-0.009274
-0.009274
-0.009274
-0.009274
-0.009274
-0.009274
-0.009274
-0.009274
-0.009274
-0.009274
-0.009274
-0.009274
-0.009274
-0.009274
-0.009274
-0.009274
-0.009274
-0.009274
-0.009274
-0.009274
-0.009274
-0.009274
-0.009274
-0.009274
-0.009274
-0.009274
-0.009274
-0.009274
-0.009274
-0.009274
-0.009274
-0.009274
-0.009274
-0.009274
-0.009274
-0.009274
-0.009274
-0.009274
-0.009274
-0.009274
-0.009274
-0.009274
-0.009274
-0.009274
-0.009274
-0.009274
-0.009274
-0.009274
-0.009274
-0.009274
-0.009274
-0.009274
-0.009274
-0.009274
-0.009274
-0.009274
-0.009274
-0.009274
-0.009274
-0.009274
-0.009274
-0.009274
-0.009274
-0.009274
-0.009274
-0.009274
-0.009274
-0.009274
-0.009274
-0.009274
-0.009274
-0.009274
-0.009274
-0.009274
-0.009274
-0.009274
-0.009274
-0.009274
-0.009274
-0.009274
-0.009274
-0.009274
-0.009274
-0.009274
-0.009274
-0.009274
-0.009274
-0.009274
-0.009274
-0.009274
-0.009274
-0.009274
-0.009274
-0.009274
-0.009274
-0.009274
-0.009274
-0.009274
-0.009274
-0.009274
-0.009274
-0.009274
-0.009274
-0.009274
-0.009274
-0.009274
-0.009274
-0.009274
0.000000
-0.072066
-0.072066
-0.072066
-0.072066
-0.072066
-0.072066
-0.072066
-0.072066
-0.072066
-0.072066
-0.072066
-0.072066
-0.072066
-0.072066
-0.072066
-0.072066
-0.072066
-0.072066
-0.072066
-0.072066
-0.072066
-0.072066
-0.072066
-0.072066
-0.072066
-0.072066
-0.072066
-0.072066
-0.072066
-0.072066
-0.072066
-0.072066
-0.072066
-0.072066
-0.072066
-0.072066
-0.072066
-0.072066
-0.072066
-0.072066
-0.072066
-0.072066
-0.072066
-0.072066
-0.072066
-0.072066
-0.072066
-0.072066
-0.072066
-0.072066
-0.072066
-0.072066
-0.072066
-0.072066
-0.072066
-0.072066
-0.072066
-0.072066
-0.072066
-0.072066
-0.072066
-0.072066
-0.072066
-0.072066
-0.072066
-0.072066
-0.072066
-0.072066
-0.072066
-0.072066
-0.072066
-0.072066
-0.072066
-0.072066
-0.072066
-0.072066
-0.072066
-0.072066
-0.072066
-0.072066
-0.072066
-0.072066
-0.072066
-0.072066
-0.072066
-0.072066
-0.072066
-0.072066
-0.072066
-0.072066
-0.072066
-0.072066
-0.072066
-0.072066
-0.072066
-0.072066
-0.072066
-0.072066
-0.072066
-0.072066
-0.072066
-0.072066
-0.072066
-0.072066
-0.072066
-0.072066
-0.072066
-0.072066
-0.072066
-0.072066
-0.072066
-0.072066
-0.072066
-0.072066
-0.072066
-0.072066
-0.072066
-0.072066
-0.072066
-0.072066
-0.072066
-0.072066
-0.072066
-0.072066
-0.072066
-0.072066
-0.072066
-0.072066
0.000000
-0.042724
-0.042724
-0.042724
-0.042724
-0.042724
-0.042724
-0.042724
-0.042724
-0.042724
-0.042724
-0.042724
-0.042724
-0.042724
-0.042724
-0.042724
-0.042724
-0.042724
-0.042724
-0.042724
-0.042724
-0.042724
-0.042724
-0.042724
-0.042724
-0.042724
-0.042724
-0.042724
-0.042724
-0.042724
-0.042724
-0.042724
-0.042724
-0.042724
-0.042724
-0.042724
-0.042724
-0.042724
-0.042724
-0.042724
-0.042724
-0.042724
-0.042724
-0.042724
-0.042724
-0.042724
-0.042724
-0.042724
-0.042724
-0.042724
-0.042724
-0.042724
-0.042724
-0.042724
-0.042724
-0.042724
-0.042724
-0.042724
-0.042724
-0.042724
-0.042724
-0.042724
-0.042724
-0.042724
-0.042724
-0.042724
-0.042724
-0.042724
-0.042724
-0.042724
-0.042724
-0.042724
-0.042724
-0.042724
-0.042724
-0.042724
-0.042724
-0.042724
-0.042724
-0.042724
-0.042724
-0.042724
-0.042724
-0.042724
-0.042724
-0.042724
-0.042724
-0.042724
-0.042724
-0.042724
-0.042724
-0.042724
-0.042724
-0.042724
-0.042724
-0.042724
-0.042724
-0.042724
-0.042724
-0.042724
-0.042724
-0.042724
-0.042724
-0.042724
-0.042724
-0.042724
-0.042724
-0.042724
-0.042724
-0.042724
-0.042724
-0.042724
-0.042724
-0.042724
-0.042724
-0.042724
-0.042724
-0.042724
-0.042724
-0.042724
-0.042724
-0.042724
-0.042724
-0.042724
-0.042724
-0.042724
-0.042724
-0.042724
-0.042724
0.000000
0.003901
0.003901
0.003901
0.003901
0.003901
0.003901
0.003901
0.003901
0.003901
0.003901
0.003901
0.003901
0.003901
0.003901
0.003901
0.003901
0.003901
0.003901
0.003901
0.003901
0.003901
0.003901
0.003901
0.003901
0.003901
0.003901
0.003901
0.003901
0.003901
0.003901
0.003901
0.003901
0.003901
0.003901
0.003901
0.003901
0.003901
0.003901
0.003901
0.003901
0.003901
0.003901
0.003901
0.003901
0.003901
0.003901
0.003901
0.003901
0.003901
0.003901
0.003901
0.003901
0.003901
0.003901
0.003901
0.003901
0.003901
0.003901
0.003901
0.003901
0.003901
0.003901
0.003901
0.003901
0.003901
0.003901
0.003901
0.003901
0.003901
0.003901
0.003901
0.003901
0.003901
0.003901
0.003901
0.003901
0.003901
0.003901
0.003901
0.003901
0.003901
0.003901
0.003901
0.003901
0.003901
0.003901
0.003901
0.003901
0.003901
0.003901
0.003901
0.003901
0.003901
0.003901
0.003901
0.003901
0.003901
0.003901
0.003901
0.003901
0.003901
0.003901
0.003901
0.003901
0.003901
0.003901
0.003901
0.003901
0.003901
0.003901
0.003901
0.003901
0.003901
0.003901
0.003901
0.003901
0.003901
0.003901
0.003901
0.003901
0.003901
0.003901
0.003901
0.003901
0.003901
0.003901
0.003901
0.003901
0.000000
-0.020419
-0.020419
-0.020419
-0.020419
-0.020419
-0.020419
-0.020419
-0.020419
-0.020419
-0.020419
-0.020419
-0.020419
-0.020419
-0.020419
-0.020419
-0.020419
-0.020419
-0.020419
-0.020419
-0.020419
-0.020419
-0.020419
-0.020419
-0.020419
-0.020419
-0.020419
-0.020419
-0.020419
-0.020419
-0.020419
-0.020419
-0.020419
-0.020419
-0.020419
-0.020419
-0.020419
-0.020419
-0.020419
-0.020419
-0.020419
-0.020419
-0.020419
-0.020419
-0.020419
-0.020419
-0.020419
-0.020419
-0.020419
-0.020419
-0.020419
-0.020419
-0.020419
-0.020419
-0.020419
-0.020419
-0.020419
-0.020419
-0.020419
-0.020419
-0.020419
-0.020419
-0.020419
-0.020419
-0.020419
-0.020419
-0.020419
-0.020419
-0.020419
-0.020419
-0.020419
-0.020419
-0.020419
-0.020419
-0.020419
-0.020419
-0.020419
-0.020419
-0.020419
-0.020419
-0.020419
-0.020419
-0.020419
-0.020419
-0.020419
-0.020419
-0.020419
-0.020419
-0.020419
-0.020419
-0.020419
-0.020419
-0.020419
-0.020419
-0.020419
-0.020419
-0.020419
-0.020419
-0.020419
-0.020419
-0.020419
-0.020419
-0.020419
-0.020419
-0.020419
-0.020419
-0.020419
-0.020419
-0.020419
-0.020419
-0.020419
-0.020419
-0.020419
-0.020419
-0.020419
-0.020419
-0.020419
-0.020419
-0.020419
-0.020419
-0.020419
-0.020419
-0.020419
-0.020419
-0.020419
-0.020419
-0.020419
-0.020419
-0.020419
0.000000
-0.025947
-0.025947
-0.025947
-0.025947
-0.025947
-0.025947
-0.025947
-0.025947
-0.025947
-0.025947
-0.025947
-0.025947
-0.025947
-0.025947
-0.025947
-0.025947
-0.025947
-0.025947
-0.025947
-0.025947
-0.025947
-0.025947
-0.025947
-0.025947
-0.025947
-0.025947
-0.025947
-0.025947
-0.025947
-0.025947
-0.025947
-0.025947
-0.025947
-0.025947
-0.025947
-0.025947
-0.025947
-0.025947
-0.025947
-0.025947
-0.025947
-0.025947
-0.025947
-0.025947
-0.025947
-0.025947
-0.025947
-0.025947
-0.025947
-0.025947
-0.025947
-0.025947
-0.025947
-0.025947
-0.025947
-0.025947
-0.025947
-0.025947
-0.025947
-0.025947
-0.025947
-0.025947
-0.025947
-0.025947
-0.025947
-0.025947
-0.025947
-0.025947
-0.025947
-0.025947
-0.025947
-0.025947
-0.025947
-0.025947
-0.025947
-0.025947
-0.025947
-0.025947
-0.025947
-0.025947
-0.025947
-0.025947
-0.025947
-0.025947
-0.025947
-0.025947
-0.025947
-0.025947
-0.025947
-0.025947
-0.025947
-0.025947
-0.025947
-0.025947
-0.025947
-0.025947
-0.025947
-0.025947
-0.025947
-0.025947
-0.025947
-0.025947
-0.025947
-0.025947
-0.025947
-0.025947
-0.025947
-0.025947
-0.025947
-0.025947
-0.025947
-0.025947
-0.025947
-0.025947
-0.025947
-0.025947
-0.025947
-0.025947
-0.025947
-0.025947
-0.025947
-0.025947
-0.025947
-0.025947
-0.025947
-0.025947
-0.025947
-0.025947
0.000000
-0.014297
-0.014297
-0.014297
-0.014297
-0.014297
-0.014297
-0.014297
-0.014297
-0.014297
-0.014297
-0.014297
-0.014297
-0.014297
-0.014297
-0.014297
-0.014297
-0.014297
-0.014297
-0.014297
-0.014297
-0.014297
-0.014297
-0.014297
-0.014297
-0.014297
-0.014297
-0.014297
-0.014297
-0.014297
-0.014297
-0.014297
-0.014297
-0.014297
-0.014297
-0.014297
-0.014297
-0.014297
-0.014297
-0.014297
-0.014297
-0.014297
-0.014297
-0.014297
-0.014297
-0.014297
-0.014297
-0.014297
-0.014297
-0.014297
-0.014297
-0.014297
-0.014297
-0.014297
-0.014297
-0.014297
-0.014297
-0.014297
-0.014297
-0.014297
-0.014297
-0.014297
-0.014297
-0.014297
-0.014297
-0.014297
-0.014297
-0.014297
-0.014297
-0.014297
-0.014297
-0.014297
-0.014297
-0.014297
-0.014297
-0.014297
-0.014297
-0.014297
-0.014297
-0.014297
-0.014297
-0.014297
-0.014297
-0.014297
-0.014297
-0.014297
-0.014297
-0.014297
-0.014297
-0.014297
-0.014297
-0.014297
-0.014297
-0.014297
-0.014297
-0.014297
-0.014297
-0.014297
-0.014297
-0.014297
-0.014297
-0.014297
-0.014297
-0.014297
-0.014297
-0.014297
-0.014297
-0.014297
-0.014297
-0.014297
-0.014297
-0.014297
-0.014297
-0.014297
-0.014297
-0.014297
-0.014297
-0.014297
-0.014297
-0.014297
-0.014297
-0.014297
-0.014297
-0.014297
-0.014297
-0.014297
-0.014297
-0.014297
-0.014297
0.000000
0.007718
0.007718
0.007718
0.007718
0.007718
0.007718
0.007718
0.007718
0.007718
0.007718
0.007718
0.007718
0.007718
0.007718
0.007718
0.007718
0.007718
0.007718
0.007718
0.007718
0.007718
0.007718
0.007718
0.007718
0.007718
0.007718
0.007718
0.007718
0.007718
0.007718
0.007718
0.007718
0.007718
0.007718
0.007718
0.007718
0.007718
0.007718
0.007718
0.007718
0.007718
0.007718
0.007718
0.007718
0.007718
0.007718
0.007718
0.007718
0.007718
0.007718
0.007718
0.007718
0.007718
0.007718
0.007718
0.007718
0.007718
0.007718
0.007718
0.007718
0.007718
0.007718
0.007718
0.007718
0.007718
0.007718
0.007718
0.007718
0.007718
0.007718
0.007718
0.007718
0.007718
0.007718
0.007718
0.007718
0.007718
0.007718
0.007718
0.007718
0.007718
0.007718
0.007718
0.007718
0.007718
0.007718
0.007718
0.007718
0.007718
0.007718
0.007718
0.007718
0.007718
0.007718
0.007718
0.007718
0.007718
0.007718
0.007718
0.007718
0.007718
0.007718
0.007718
0.007718
0.007718
0.007718
0.007718
0.007718
0.007718
0.007718
0.007718
0.007718
0.007718
0.007718
0.007718
0.007718
0.007718
0.007718
0.007718
0.007718
0.007718
0.007718
0.007718
0.007718
0.007718
0.007718
0.007718
0.007718
0.000000
-0.014297
-0.014297
-0.014297
-0.014297
-0.014297
-0.014297
-0.014297
-0.014297
-0.014297
-0.014297
-0.014297
-0.014297
-0.014297
-0.014297
-0.014297
-0.014297
-0.014297
-0.014297
-0.014297
-0.014297
-0.014297
-0.014297
-0.014297
-0.014297
-0.014297
-0.014297
-0.014297
-0.014297
-0.014297
-0.014297
-0.014297
-0.014297
-0.014297
-0.014297
-0.014297
-0.014297
-0.014297
-0.014297
-0.014297
-0.014297
-0.014297
-0.014297
-0.014297
-0.014297
-0.014297
-0.014297
-0.014297
-0.014297
-0.014297
-0.014297
-0.014297
-0.014297
-0.014297
-0.014297
-0.014297
-0.014297
-0.014297
-0.014297
-0.014297
-0.014297
-0.014297
-0.014297
-0.014297
-0.014297
-0.014297
-0.014297
-0.014297
-0.014297
-0.014297
-0.014297
-0.014297
-0.014297
-0.014297
-0.014297
-0.014297
-0.014297
-0.014297
-0.014297
-0.014297
-0.014297
-0.014297
-0.014297
-0.014297
-0.014297
-0.014297
-0.014297
-0.014297
-0.014297
-0.014297
-0.014297
-0.014297
-0.014297
-0.014297
-0.014297
-0.014297
-0.014297
-0.014297
-0.014297
-0.014297
-0.014297
-0.014297
-0.014297
-0.014297
-0.014297
-0.014297
-0.014297
-0.014297
-0.014297
-0.014297
-0.014297
-0.014297
-0.014297
-0.014297
-0.014297
-0.014297
-0.014297
-0.014297
-0.014297
-0.014297
-0.014297
-0.014297
-0.014297
-0.014297
-0.014297
-0.014297
-0.014297
-0.014297
-0.014297
0.000000
0.000000
0.000000
0.000000
0.000000
0.000000
0.000000
0.000000
0.000000
0.000000
0.000000
0.000000
0.000000
0.000000
0.000000
0.000000
0.000000
0.000000
0.000000
0.000000
0.000000
0.000000
0.000000
0.000000
0.000000
0.000000
0.000000
0.000000
0.000000
0.000000
0.000000
0.000000
0.000000
0.000000
0.000000
0.000000
0.000000
0.000000
0.000000
0.000000
0.000000
0.000000
0.000000
0.000000
0.000000
0.000000
0.000000
0.000000
0.000000
0.000000
0.000000
0.000000
