0.000000
0.000000
0.000000
0.000000
0.000000
0.000000
0.000000
0.000000
0.000000
0.000000
0.000000
0.000000
0.000000
0.000000
0.000000
0.000000
0.000000
0.000000
0.000000
0.000000
0.000000
0.000000
0.000000
0.000000
0.000000
0.000000
0.000000
0.000000
0.000000
0.000000
0.000000
0.000000
0.000000
0.000000
0.000000
0.000000
0.000000
0.000000
0.000000
0.000000
0.000000
0.000000
0.000000
0.000000
0.000000
0.000000
0.000000
0.000000
0.000000
0.000000
0.000000
0.000000
0.000000
0.000000
0.000000
0.000000
0.000000
0.000000
0.000000
0.000000
0.000000
0.000000
0.000000
0.000000
0.000000
0.000000
0.000000
0.000000
0.000000
0.000000
0.000000
0.000000
0.000000
0.000000
0.000000
0.000000
0.000000
0.000000
0.000000
0.000000
0.000000
0.000000
0.000000
0.000000
0.000000
0.000000
0.000000
0.000000
0.000000
0.000000
0.000000
0.000000
0.000000
0.000000
0.000000
0.000000
0.000000
0.000000
0.000000
0.000000
0.000000
0.000000
0.000000
0.000000
0.000000
0.000000
0.000000
0.000000
0.000000
0.000000
0.000000
0.000000
0.000000
0.000000
0.000000
0.000000
0.000000
0.000000
0.000000
0.000000
0.000000
0.000000
0.000000
0.000000
0.000000
0.000000
0.000000
0.000000
0.000000
-0.012601
-0.012601
-0.012601
-0.012601
-0.012601
-0.012601
-0.012601
-0.012601
-0.012601
-0.012601
-0.012601
-0.012601
-0.012601
-0.012601
-0.012601
-0.012601
-0.012601
-0.012601
-0.012601
-0.012601
-0.012601
-0.012601
-0.012601
-0.012601
-0.012601
-0.012601
-0.012601
-0.012601
-0.012601
-0.012601
-0.012601
-0.012601
-0.012601
-0.012601
-0.012601
-0.012601
-0.012601
-0.012601
-0.012601
-0.012601
-0.012601
-0.012601
-0.012601
-0.012601
-0.012601
-0.012601
-0.012601
-0.012601
-0.012601
-0.012601
-0.012601
-0.012601
-0.012601
-0.012601
-0.012601
-0.012601
-0.012601
-0.012601
-0.012601
-0.012601
-0.012601
-0.012601
-0.012601
-0.012601
-0.012601
-0.012601
-0.012601
-0.012601
-0.012601
-0.012601
-0.012601
-0.012601
-0.012601
-0.012601
-0.012601
-0.012601
-0.012601
-0.012601
-0.012601
-0.012601
-0.012601
-0.012601
-0.012601
-0.012601
-0.012601
-0.012601
-0.012601
-0.012601
-0.012601
-0.012601
-0.012601
-0.012601
-0.012601
-0.012601
-0.012601
-0.012601
-0.012601
-0.012601
-0.012601
-0.012601
-0.012601
-0.012601
-0.012601
-0.012601
-0.012601
-0.012601
-0.012601
-0.012601
-0.012601
-0.012601
-0.012601
-0.012601
-0.012601
-0.012601
-0.012601
-0.012601
-0.012601
-0.012601
-0.012601
-0.012601
-0.012601
-0.012601
-0.012601
-0.012601
-0.012601
-0.012601
-0.012601
-0.012601
0.000000
0.028015
0.028015
0.028015
0.028015
0.028015
0.028015
0.028015
0.028015
0.028015
0.028015
0.028015
0.028015
0.028015
0.028015
0.028015
0.028015
0.028015
0.028015
0.028015
0.028015
0.028015
0.028015
0.028015
0.028015
0.028015
0.028015
0.028015
0.028015
0.028015
0.028015
0.028015
0.028015
0.028015
0.028015
0.028015
0.028015
0.028015
0.028015
0.028015
0.028015
0.028015
0.028015
0.028015
0.028015
0.028015
0.028015
0.028015
0.028015
0.028015
0.028015
0.028015
0.028015
0.028015
0.028015
0.028015
0.028015
0.028015
0.028015
0.028015
0.028015
0.028015
0.028015
0.028015
0.028015
0.028015
0.028015
0.028015
0.028015
0.028015
0.028015
0.028015
0.028015
0.028015
0.028015
0.028015
0.028015
0.028015
0.028015
0.028015
0.028015
0.028015
0.028015
0.028015
0.028015
0.028015
0.028015
0.028015
0.028015
0.028015
0.028015
0.028015
0.028015
0.028015
0.028015
0.028015
0.028015
0.028015
0.028015
0.028015
0.028015
0.028015
0.028015
0.028015
0.028015
0.028015
0.028015
0.028015
0.028015
0.028015
0.028015
0.028015
0.028015
0.028015
0.028015
0.028015
0.028015
0.028015
0.028015
0.028015
0.028015
0.028015
0.028015
0.028015
0.028015
0.028015
0.028015
0.028015
0.028015
0.000000
-0.005812
-0.005812
-0.005812
-0.005812
-0.005812
-0.005812
-0.005812
-0.005812
-0.005812
-0.005812
-0.005812
-0.005812
-0.005812
-0.005812
-0.005812
-0.005812
-0.005812
-0.005812
-0.005812
-0.005812
-0.005812
-0.005812
-0.005812
-0.005812
-0.005812
-0.005812
-0.005812
-0.005812
-0.005812
-0.005812
-0.005812
-0.005812
-0.005812
-0.005812
-0.005812
-0.005812
-0.005812
-0.005812
-0.005812
-0.005812
-0.005812
-0.005812
-0.005812
-0.005812
-0.005812
-0.005812
-0.005812
-0.005812
-0.005812
-0.005812
-0.005812
-0.005812
-0.005812
-0.005812
-0.005812
-0.005812
-0.005812
-0.005812
-0.005812
-0.005812
-0.005812
-0.005812
-0.005812
-0.005812
-0.005812
-0.005812
-0.005812
-0.005812
-0.005812
-0.005812
-0.005812
-0.005812
-0.005812
-0.005812
-0.005812
-0.005812
-0.005812
-0.005812
-0.005812
-0.005812
-0.005812
-0.005812
-0.005812
-0.005812
-0.005812
-0.005812
-0.005812
-0.005812
-0.005812
-0.005812
-0.005812
-0.005812
-0.005812
-0.005812
-0.005812
-0.005812
-0.005812
-0.005812
-0.005812
-0.005812
-0.005812
-0.005812
-0.005812
-0.005812
-0.005812
-0.005812
-0.005812
-0.005812
-0.005812
-0.005812
-0.005812
-0.005812
-0.005812
-0.005812
-0.005812
-0.005812
-0.005812
-0.005812
-0.005812
-0.005812
-0.005812
-0.005812
-0.005812
-0.005812
-0.005812
-0.005812
-0.005812
-0.005812
0.000000
-0.015834
-0.015834
-0.015834
-0.015834
-0.015834
-0.015834
-0.015834
-0.015834
-0.015834
-0.015834
-0.015834
-0.015834
-0.015834
-0.015834
-0.015834
-0.015834
-0.015834
-0.015834
-0.015834
-0.015834
-0.015834
-0.015834
-0.015834
-0.015834
-0.015834
-0.015834
-0.015834
-0.015834
-0.015834
-0.015834
-0.015834
-0.015834
-0.015834
-0.015834
-0.015834
-0.015834
-0.015834
-0.015834
-0.015834
-0.015834
-0.015834
-0.015834
-0.015834
-0.015834
-0.015834
-0.015834
-0.015834
-0.015834
-0.015834
-0.015834
-0.015834
-0.015834
-0.015834
-0.015834
-0.015834
-0.015834
-0.015834
-0.015834
-0.015834
-0.015834
-0.015834
-0.015834
-0.015834
-0.015834
-0.015834
-0.015834
-0.015834
-0.015834
-0.015834
-0.015834
-0.015834
-0.015834
-0.015834
-0.015834
-0.015834
-0.015834
-0.015834
-0.015834
-0.015834
-0.015834
-0.015834
-0.015834
-0.015834
-0.015834
-0.015834
-0.015834
-0.015834
-0.015834
-0.015834
-0.015834
-0.015834
-0.015834
-0.015834
-0.015834
-0.015834
-0.015834
-0.015834
-0.015834
-0.015834
-0.015834
-0.015834
-0.015834
-0.015834
-0.015834
-0.015834
-0.015834
-0.015834
-0.015834
-0.015834
-0.015834
-0.015834
-0.015834
-0.015834
-0.015834
-0.015834
-0.015834
-0.015834
-0.015834
-0.015834
-0.015834
-0.015834
-0.015834
-0.015834
-0.015834
-0.015834
-0.015834
-0.015834
-0.015834
0.000000
-0.052235
-0.052235
-0.052235
-0.052235
-0.052235
-0.052235
-0.052235
-0.052235
-0.052235
-0.052235
-0.052235
-0.052235
-0.052235
-0.052235
-0.052235
-0.052235
-0.052235
-0.052235
-0.052235
-0.052235
-0.052235
-0.052235
-0.052235
-0.052235
-0.052235
-0.052235
-0.052235
-0.052235
-0.052235
-0.052235
-0.052235
-0.052235
-0.052235
-0.052235
-0.052235
-0.052235
-0.052235
-0.052235
-0.052235
-0.052235
-0.052235
-0.052235
-0.052235
-0.052235
-0.052235
-0.052235
-0.052235
-0.052235
-0.052235
-0.052235
-0.052235
-0.052235
-0.052235
-0.052235
-0.052235
-0.052235
-0.052235
-0.052235
-0.052235
-0.052235
-0.052235
-0.052235
-0.052235
-0.052235
-0.052235
-0.052235
-0.052235
-0.052235
-0.052235
-0.052235
-0.052235
-0.052235
-0.052235
-0.052235
-0.052235
-0.052235
-0.052235
-0.052235
-0.052235
-0.052235
-0.052235
-0.052235
-0.052235
-0.052235
-0.052235
-0.052235
-0.052235
-0.052235
-0.052235
-0.052235
-0.052235
-0.052235
-0.052235
-0.052235
-0.052235
-0.052235
-0.052235
-0.052235
-0.052235
-0.052235
-0.052235
-0.052235
-0.052235
-0.052235
-0.052235
-0.052235
-0.052235
-0.052235
-0.052235
-0.052235
-0.052235
-0.052235
-0.052235
-0.052235
-0.052235
-0.052235
-0.052235
-0.052235
-0.052235
-0.052235
-0.052235
-0.052235
-0.052235
-0.052235
-0.052235
-0.052235
-0.052235
-0.052235
0.000000
-0.009493
-0.009493
-0.009493
-0.009493
-0.009493
-0.009493
-0.009493
-0.009493
-0.009493
-0.009493
-0.009493
-0.009493
-0.009493
-0.009493
-0.009493
-0.009493
-0.009493
-0.009493
-0.009493
-0.009493
-0.009493
-0.009493
-0.009493
-0.009493
-0.009493
-0.009493
-0.009493
-0.009493
-0.009493
-0.009493
-0.009493
-0.009493
-0.009493
-0.009493
-0.009493
-0.009493
-0.009493
-0.009493
-0.009493
-0.009493
-0.009493
-0.009493
-0.009493
-0.009493
-0.009493
-0.009493
-0.009493
-0.009493
-0.009493
-0.009493
-0.009493
-0.009493
-0.009493
-0.009493
-0.009493
-0.009493
-0.009493
-0.009493
-0.009493
-0.009493
-0.009493
-0.009493
-0.009493
-0.009493
-0.009493
-0.009493
-0.009493
-0.009493
-0.009493
-0.009493
-0.009493
-0.009493
-0.009493
-0.009493
-0.009493
-0.009493
-0.009493
-0.009493
-0.009493
-0.009493
-0.009493
-0.009493
-0.009493
-0.009493
-0.009493
-0.009493
-0.009493
-0.009493
-0.009493
-0.009493
-0.009493
-0.009493
-0.009493
-0.009493
-0.009493
-0.009493
-0.009493
-0.009493
-0.009493
-0.009493
-0.009493
-0.009493
-0.009493
-0.009493
-0.009493
-0.009493
-0.009493
-0.009493
-0.009493
-0.009493
-0.009493
-0.009493
-0.009493
-0.009493
-0.009493
-0.009493
-0.009493
-0.009493
-0.009493
-0.009493
-0.009493
-0.009493
-0.009493
-0.009493
-0.009493
-0.009493
-0.009493
-0.009493
0.000000
0.000000
0.000000
0.000000
0.000000
0.000000
0.000000
0.000000
0.000000
0.000000
0.000000
0.000000
0.000000
0.000000
0.000000
0.000000
0.000000
0.000000
0.000000
0.000000
0.000000
0.000000
0.000000
0.000000
0.000000
0.000000
0.000000
0.000000
0.000000
0.000000
0.000000
0.000000
0.000000
0.000000
0.000000
0.000000
0.000000
0.000000
0.000000
0.000000
0.000000
0.000000
0.000000
0.000000
0.000000
0.000000
0.000000
0.000000
0.000000
0.000000
0.000000
0.000000
0.000000
0.000000
0.000000
0.000000
0.000000
0.000000
0.000000
0.000000
0.000000
0.000000
0.000000
0.000000
0.000000
0.000000
0.000000
0.000000
0.000000
0.000000
0.000000
0.000000
0.000000
0.000000
0.000000
0.000000
0.000000
0.000000
0.000000
0.000000
0.000000
0.000000
0.000000
0.000000
0.000000
0.000000
0.000000
0.000000
0.000000
0.000000
0.000000
0.000000
0.000000
0.000000
0.000000
0.000000
0.000000
0.000000
0.000000
0.000000
0.000000
0.000000
0.000000
0.000000
0.000000
0.000000
0.000000
0.000000
0.000000
0.000000
0.000000
0.000000
0.000000
0.000000
0.000000
0.000000
0.000000
0.000000
0.000000
0.000000
0.000000
0.000000
0.000000
0.000000
0.000000
0.000000
0.000000
0.000000
0.000000
0.000000
-0.046427
-0.046427
-0.046427
-0.046427
-0.046427
-0.046427
-0.046427
-0.046427
-0.046427
-0.046427
-0.046427
-0.046427
-0.046427
-0.046427
-0.046427
-0.046427
-0.046427
-0.046427
-0.046427
-0.046427
-0.046427
-0.046427
-0.046427
-0.046427
-0.046427
-0.046427
-0.046427
-0.046427
-0.046427
-0.046427
-0.046427
-0.046427
-0.046427
-0.046427
-0.046427
-0.046427
-0.046427
-0.046427
-0.046427
-0.046427
-0.046427
-0.046427
-0.046427
-0.046427
-0.046427
-0.046427
-0.046427
-0.046427
-0.046427
-0.046427
-0.046427
-0.046427
-0.046427
-0.046427
-0.046427
-0.046427
-0.046427
-0.046427
-0.046427
-0.046427
-0.046427
-0.046427
-0.046427
-0.046427
-0.046427
-0.046427
-0.046427
-0.046427
-0.046427
-0.046427
-0.046427
-0.046427
-0.046427
-0.046427
-0.046427
-0.046427
-0.046427
-0.046427
-0.046427
-0.046427
-0.046427
-0.046427
-0.046427
-0.046427
-0.046427
-0.046427
-0.046427
-0.046427
-0.046427
-0.046427
-0.046427
-0.046427
-0.046427
-0.046427
-0.046427
-0.046427
-0.046427
-0.046427
-0.046427
-0.046427
-0.046427
-0.046427
-0.046427
-0.046427
-0.046427
-0.046427
-0.046427
-0.046427
-0.046427
-0.046427
-0.046427
-0.046427
-0.046427
-0.046427
-0.046427
-0.046427
-0.046427
-0.046427
-0.046427
-0.046427
-0.046427
-0.046427
-0.046427
-0.046427
-0.046427
-0.046427
-0.046427
-0.046427
0.000000
-0.030426
-0.030426
-0.030426
-0.030426
-0.030426
-0.030426
-0.030426
-0.030426
-0.030426
-0.030426
-0.030426
-0.030426
-0.030426
-0.030426
-0.030426
-0.030426
-0.030426
-0.030426
-0.030426
-0.030426
-0.030426
-0.030426
-0.030426
-0.030426
-0.030426
-0.030426
-0.030426
-0.030426
-0.030426
-0.030426
-0.030426
-0.030426
-0.030426
-0.030426
-0.030426
-0.030426
-0.030426
-0.030426
-0.030426
-0.030426
-0.030426
-0.030426
-0.030426
-0.030426
-0.030426
-0.030426
-0.030426
-0.030426
-0.030426
-0.030426
-0.030426
-0.030426
-0.030426
-0.030426
-0.030426
-0.030426
-0.030426
-0.030426
-0.030426
-0.030426
-0.030426
-0.030426
-0.030426
-0.030426
-0.030426
-0.030426
-0.030426
-0.030426
-0.030426
-0.030426
-0.030426
-0.030426
-0.030426
-0.030426
-0.030426
-0.030426
-0.030426
-0.030426
-0.030426
-0.030426
-0.030426
-0.030426
-0.030426
-0.030426
-0.030426
-0.030426
-0.030426
-0.030426
-0.030426
-0.030426
-0.030426
-0.030426
-0.030426
-0.030426
-0.030426
-0.030426
-0.030426
-0.030426
-0.030426
-0.030426
-0.030426
-0.030426
-0.030426
-0.030426
-0.030426
-0.030426
-0.030426
-0.030426
-0.030426
-0.030426
-0.030426
-0.030426
-0.030426
-0.030426
-0.030426
-0.030426
-0.030426
-0.030426
-0.030426
-0.030426
-0.030426
-0.030426
-0.030426
-0.030426
-0.030426
-0.030426
-0.030426
-0.030426
0.000000
-0.015834
-0.015834
-0.015834
-0.015834
-0.015834
-0.015834
-0.015834
-0.015834
-0.015834
-0.015834
-0.015834
-0.015834
-0.015834
-0.015834
-0.015834
-0.015834
-0.015834
-0.015834
-0.015834
-0.015834
-0.015834
-0.015834
-0.015834
-0.015834
-0.015834
-0.015834
-0.015834
-0.015834
-0.015834
-0.015834
-0.015834
-0.015834
-0.015834
-0.015834
-0.015834
-0.015834
-0.015834
-0.015834
-0.015834
-0.015834
-0.015834
-0.015834
-0.015834
-0.015834
-0.015834
-0.015834
-0.015834
-0.015834
-0.015834
-0.015834
-0.015834
-0.015834
-0.015834
-0.015834
-0.015834
-0.015834
-0.015834
-0.015834
-0.015834
-0.015834
-0.015834
-0.015834
-0.015834
-0.015834
-0.015834
-0.015834
-0.015834
-0.015834
-0.015834
-0.015834
-0.015834
-0.015834
-0.015834
-0.015834
-0.015834
-0.015834
-0.015834
-0.015834
-0.015834
-0.015834
-0.015834
-0.015834
-0.015834
-0.015834
-0.015834
-0.015834
-0.015834
-0.015834
-0.015834
-0.015834
-0.015834
-0.015834
-0.015834
-0.015834
-0.015834
-0.015834
-0.015834
-0.015834
-0.015834
-0.015834
-0.015834
-0.015834
-0.015834
-0.015834
-0.015834
-0.015834
-0.015834
-0.015834
-0.015834
-0.015834
-0.015834
-0.015834
-0.015834
-0.015834
-0.015834
-0.015834
-0.015834
-0.015834
-0.015834
-0.015834
-0.015834
-0.015834
-0.015834
-0.015834
-0.015834
-0.015834
-0.015834
-0.015834
0.000000
-0.012601
-0.012601
-0.012601
-0.012601
-0.012601
-0.012601
-0.012601
-0.012601
-0.012601
-0.012601
-0.012601
-0.012601
-0.012601
-0.012601
-0.012601
-0.012601
-0.012601
-0.012601
-0.012601
-0.012601
-0.012601
-0.012601
-0.012601
-0.012601
-0.012601
-0.012601
-0.012601
-0.012601
-0.012601
-0.012601
-0.012601
-0.012601
-0.012601
-0.012601
-0.012601
-0.012601
-0.012601
-0.012601
-0.012601
-0.012601
-0.012601
-0.012601
-0.012601
-0.012601
-0.012601
-0.012601
-0.012601
-0.012601
-0.012601
-0.012601
-0.012601
-0.012601
-0.012601
-0.012601
-0.012601
-0.012601
-0.012601
-0.012601
-0.012601
-0.012601
-0.012601
-0.012601
-0.012601
-0.012601
-0.012601
-0.012601
-0.012601
-0.012601
-0.012601
-0.012601
-0.012601
-0.012601
-0.012601
-0.012601
-0.012601
-0.012601
-0.012601
-0.012601
-0.012601
-0.012601
-0.012601
-0.012601
-0.012601
-0.012601
-0.012601
-0.012601
-0.012601
-0.012601
-0.012601
-0.012601
-0.012601
-0.012601
-0.012601
-0.012601
-0.012601
-0.012601
-0.012601
-0.012601
-0.012601
-0.012601
-0.012601
-0.012601
-0.012601
-0.012601
-0.012601
-0.012601
-0.012601
-0.012601
-0.012601
-0.012601
-0.012601
-0.012601
-0.012601
-0.012601
-0.012601
-0.012601
-0.012601
-0.012601
-0.012601
-0.012601
-0.012601
-0.012601
-0.012601
-0.012601
-0.012601
-0.012601
-0.012601
-0.012601
0.000000
0.000000
0.000000
0.000000
0.000000
0.000000
0.000000
0.000000
0.000000
0.000000
0.000000
0.000000
0.000000
0.000000
0.000000
0.000000
0.000000
0.000000
0.000000
0.000000
0.000000
0.000000
0.000000
0.000000
0.000000
0.000000
0.000000
0.000000
0.000000
0.000000
0.000000
0.000000
0.000000
0.000000
0.000000
0.000000
0.000000
0.000000
0.000000
0.000000
0.000000
0.000000
0.000000
0.000000
0.000000
0.000000
0.000000
0.000000
0.000000
0.000000
0.000000
0.000000
0.000000
0.000000
0.000000
0.000000
0.000000
0.000000
0.000000
0.000000
0.000000
0.000000
0.000000
0.000000
0.000000
0.000000
0.000000
0.000000
0.000000
0.000000
0.000000
0.000000
0.000000
0.000000
0.000000
0.000000
0.000000
0.000000
0.000000
0.000000
0.000000
0.000000
0.000000
0.000000
0.000000
0.000000
0.000000
0.000000
0.000000
0.000000
0.000000
0.000000
0.000000
0.000000
0.000000
0.000000
0.000000
0.000000
0.000000
0.000000
0.000000
0.000000
0.000000
0.000000
0.000000
0.000000
0.000000
0.000000
0.000000
0.000000
0.000000
0.000000
0.000000
0.000000
0.000000
0.000000
0.000000
0.000000
0.000000
0.000000
0.000000
0.000000
0.000000
0.000000
0.000000
0.000000
0.000000
0.000000
0.000000
0.000000
0.000000
0.000000
0.000000
0.000000
0.000000
0.000000
0.000000
0.000000
0.000000
0.000000
0.000000
0.000000
0.000000
0.000000
0.000000
0.000000
0.000000
0.000000
0.000000
0.000000
0.000000
0.000000
0.000000
0.000000
0.000000
0.000000
0.000000
0.000000
0.000000
0.000000
0.000000
0.000000
0.000000
0.000000
0.000000
0.000000
0.000000
0.000000
0.000000
0.000000
0.000000
0.000000
0.000000
0.000000
0.000000
0.000000
0.000000
0.000000
0.000000
0.000000
0.000000
0.000000
0.000000
0.000000
0.000000
0.000000
0.000000
0.000000
0.000000
0.000000
0.000000
0.000000
0.000000
0.000000
0.000000
0.000000
0.000000
0.000000
0.000000
0.000000
0.000000
0.000000
0.000000
0.000000
0.000000
0.000000
0.000000
0.000000
0.000000
0.000000
0.000000
0.000000
0.000000
0.000000
0.000000
0.000000
0.000000
0.000000
0.000000
0.000000
0.000000
0.000000
0.000000
0.000000
0.000000
0.000000
0.000000
0.000000
0.000000
0.000000
0.000000
0.000000
0.000000
0.000000
0.000000
0.000000
0.000000
0.000000
0.000000
0.000000
0.000000
0.000000
0.000000
0.000000
0.000000
0.000000
0.000000
0.000000
0.000000
0.000000
0.000000
0.000000
0.000000
0.000000
0.000000
0.000000
0.000000
0.000000
0.000000
0.028015
0.028015
0.028015
0.028015
0.028015
0.028015
0.028015
0.028015
0.028015
0.028015
0.028015
0.028015
0.028015
0.028015
0.028015
0.028015
0.028015
0.028015
0.028015
0.028015
0.028015
0.028015
0.028015
0.028015
0.028015
0.028015
0.028015
0.028015
0.028015
0.028015
0.028015
0.028015
0.028015
0.028015
0.028015
0.028015
0.028015
0.028015
0.028015
0.028015
0.028015
0.028015
0.028015
0.028015
0.028015
0.028015
0.028015
0.028015
0.028015
0.028015
0.028015
0.028015
0.028015
0.028015
0.028015
0.028015
0.028015
0.028015
0.028015
0.028015
0.028015
0.028015
0.028015
0.028015
0.028015
0.028015
0.028015
0.028015
0.028015
0.028015
0.028015
0.028015
0.028015
0.028015
0.028015
0.028015
0.028015
0.028015
0.028015
0.028015
0.028015
0.028015
0.028015
0.028015
0.028015
0.028015
0.028015
0.028015
0.028015
0.028015
0.028015
0.028015
0.028015
0.028015
0.028015
0.028015
0.028015
0.028015
0.028015
0.028015
0.028015
0.028015
0.028015
0.028015
0.028015
0.028015
0.028015
0.028015
0.028015
0.028015
0.028015
0.028015
0.028015
0.028015
0.028015
0.028015
0.028015
0.028015
0.028015
0.028015
0.028015
0.028015
0.028015
0.028015
0.028015
0.028015
0.028015
0.028015
0.000000
0.028015
0.028015
0.028015
0.028015
0.028015
0.028015
0.028015
0.028015
0.028015
0.028015
0.028015
0.028015
0.028015
0.028015
0.028015
0.028015
0.028015
0.028015
0.028015
0.028015
0.028015
0.028015
0.028015
0.028015
0.028015
0.028015
0.028015
0.028015
0.028015
0.028015
0.028015
0.028015
0.028015
0.028015
0.028015
0.028015
0.028015
0.028015
0.028015
0.028015
0.028015
0.028015
0.028015
0.028015
0.028015
0.028015
0.028015
0.028015
0.028015
0.028015
0.028015
0.028015
0.028015
0.028015
0.028015
0.028015
0.028015
0.028015
0.028015
0.028015
0.028015
0.028015
0.028015
0.028015
0.028015
0.028015
0.028015
0.028015
0.028015
0.028015
0.028015
0.028015
0.028015
0.028015
0.028015
0.028015
0.028015
0.028015
0.028015
0.028015
0.028015
0.028015
0.028015
0.028015
0.028015
0.028015
0.028015
0.028015
0.028015
0.028015
0.028015
0.028015
0.028015
0.028015
0.028015
0.028015
0.028015
0.028015
0.028015
0.028015
0.028015
0.028015
0.028015
0.028015
0.028015
0.028015
0.028015
0.028015
0.028015
0.028015
0.028015
0.028015
0.028015
0.028015
0.028015
0.028015
0.028015
0.028015
0.028015
0.028015
0.028015
0.028015
0.028015
0.028015
0.028015
0.028015
0.028015
0.028015
0.000000
0.000000
0.000000
0.000000
0.000000
0.000000
0.000000
0.000000
0.000000
0.000000
0.000000
0.000000
0.000000
0.000000
0.000000
0.000000
0.000000
0.000000
0.000000
0.000000
0.000000
0.000000
0.000000
0.000000
0.000000
0.000000
0.000000
0.000000
0.000000
0.000000
0.000000
0.000000
0.000000
0.000000
0.000000
0.000000
0.000000
0.000000
0.000000
0.000000
0.000000
0.000000
0.000000
0.000000
0.000000
0.000000
0.000000
0.000000
0.000000
0.000000
0.000000
0.000000
0.000000
0.000000
0.000000
0.000000
0.000000
0.000000
0.000000
0.000000
0.000000
0.000000
0.000000
0.000000
0.000000
0.000000
0.000000
0.000000
0.000000
0.000000
0.000000
0.000000
0.000000
0.000000
0.000000
0.000000
0.000000
0.000000
0.000000
0.000000
0.000000
0.000000
0.000000
0.000000
0.000000
0.000000
0.000000
0.000000
0.000000
0.000000
0.000000
0.000000
0.000000
0.000000
0.000000
0.000000
0.000000
0.000000
0.000000
0.000000
0.000000
0.000000
0.000000
0.000000
0.000000
0.000000
0.000000
0.000000
0.000000
0.000000
0.000000
0.000000
0.000000
0.000000
0.000000
0.000000
0.000000
0.000000
0.000000
0.000000
0.000000
0.000000
0.000000
0.000000
0.000000
0.000000
0.000000
0.000000
0.000000
0.000000
0.000000
0.000000
0.000000
0.000000
0.000000
0.000000
0.000000
0.000000
0.000000
0.000000
0.000000
0.000000
0.000000
0.000000
0.000000
0.000000
0.000000
0.000000
0.000000
0.000000
0.000000
0.000000
0.000000
0.000000
0.000000
0.000000
0.000000
0.000000
0.000000
0.000000
0.000000
0.000000
0.000000
0.000000
0.000000
0.000000
0.000000
0.000000
0.000000
0.000000
0.000000
0.000000
0.000000
0.000000
0.000000
0.000000
0.000000
0.000000
0.000000
0.000000
0.000000
0.000000
0.000000
0.000000
0.000000
0.000000
0.000000
0.000000
0.000000
0.000000
0.000000
0.000000
0.000000
0.000000
0.000000
0.000000
0.000000
0.000000
0.000000
0.000000
0.000000
0.000000
0.000000
0.000000
0.000000
0.000000
0.000000
0.000000
0.000000
0.000000
0.000000
0.000000
0.000000
0.000000
0.000000
0.000000
0.000000
0.000000
0.000000
0.000000
0.000000
0.000000
0.000000
0.000000
0.000000
0.000000
0.000000
0.000000
0.000000
0.000000
0.000000
0.000000
0.000000
0.000000
0.000000
0.000000
0.000000
0.000000
0.000000
0.000000
0.000000
0.000000
0.000000
0.000000
0.000000
0.000000
0.000000
0.000000
0.000000
0.000000
0.000000
0.000000
0.000000
0.000000
0.000000
0.000000
0.000000
0.000000
0.000000
0.012183
0.012183
0.012183
0.012183
0.012183
0.012183
0.012183
0.012183
0.012183
0.012183
0.012183
0.012183
0.012183
0.012183
0.012183
0.012183
0.012183
0.012183
0.012183
0.012183
0.012183
0.012183
0.012183
0.012183
0.012183
0.012183
0.012183
0.012183
0.012183
0.012183
0.012183
0.012183
0.012183
0.012183
0.012183
0.012183
0.012183
0.012183
0.012183
0.012183
0.012183
0.012183
0.012183
0.012183
0.012183
0.012183
0.012183
0.012183
0.012183
0.012183
0.012183
0.012183
0.012183
0.012183
0.012183
0.012183
0.012183
0.012183
0.012183
0.012183
0.012183
0.012183
0.012183
0.012183
0.012183
0.012183
0.012183
0.012183
0.012183
0.012183
0.012183
0.012183
0.012183
0.012183
0.012183
0.012183
0.012183
0.012183
0.012183
0.012183
0.012183
0.012183
0.012183
0.012183
0.012183
0.012183
0.012183
0.012183
0.012183
0.012183
0.012183
0.012183
0.012183
0.012183
0.012183
0.012183
0.012183
0.012183
0.012183
0.012183
0.012183
0.012183
0.012183
0.012183
0.012183
0.012183
0.012183
0.012183
0.012183
0.012183
0.012183
0.012183
0.012183
0.012183
0.012183
0.012183
0.012183
0.012183
0.012183
0.012183
0.012183
0.012183
0.012183
0.012183
0.012183
0.012183
0.012183
0.012183
0.000000
0.012183
0.012183
0.012183
0.012183
0.012183
0.012183
0.012183
0.012183
0.012183
0.012183
0.012183
0.012183
0.012183
0.012183
0.012183
0.012183
0.012183
0.012183
0.012183
0.012183
0.012183
0.012183
0.012183
0.012183
0.012183
0.012183
0.012183
0.012183
0.012183
0.012183
0.012183
0.012183
0.012183
0.012183
0.012183
0.012183
0.012183
0.012183
0.012183
0.012183
0.012183
0.012183
0.012183
0.012183
0.012183
0.012183
0.012183
0.012183
0.012183
0.012183
0.012183
0.012183
0.012183
0.012183
0.012183
0.012183
0.012183
0.012183
0.012183
0.012183
0.012183
0.012183
0.012183
0.012183
0.012183
0.012183
0.012183
0.012183
0.012183
0.012183
0.012183
0.012183
0.012183
0.012183
0.012183
0.012183
0.012183
0.012183
0.012183
0.012183
0.012183
0.012183
0.012183
0.012183
0.012183
0.012183
0.012183
0.012183
0.012183
0.012183
0.012183
0.012183
0.012183
0.012183
0.012183
0.012183
0.012183
0.012183
0.012183
0.012183
0.012183
0.012183
0.012183
0.012183
0.012183
0.012183
0.012183
0.012183
0.012183
0.012183
0.012183
0.012183
0.012183
0.012183
0.012183
0.012183
0.012183
0.012183
0.012183
0.012183
0.012183
0.012183
0.012183
0.012183
0.012183
0.012183
0.012183
0.012183
0.000000
0.000000
0.000000
0.000000
0.000000
0.000000
0.000000
0.000000
0.000000
0.000000
0.000000
0.000000
0.000000
0.000000
0.000000
0.000000
0.000000
0.000000
0.000000
0.000000
0.000000
0.000000
0.000000
0.000000
0.000000
0.000000
0.000000
0.000000
0.000000
0.000000
0.000000
0.000000
0.000000
0.000000
0.000000
0.000000
0.000000
0.000000
0.000000
0.000000
0.000000
0.000000
0.000000
0.000000
0.000000
0.000000
0.000000
0.000000
0.000000
0.000000
0.000000
0.000000
0.000000
0.000000
0.000000
0.000000
0.000000
0.000000
0.000000
0.000000
0.000000
0.000000
0.000000
0.000000
0.000000
0.000000
0.000000
0.000000
0.000000
0.000000
0.000000
0.000000
0.000000
0.000000
0.000000
0.000000
0.000000
0.000000
0.000000
0.000000
0.000000
0.000000
0.000000
0.000000
0.000000
0.000000
0.000000
0.000000
0.000000
0.000000
0.000000
0.000000
0.000000
0.000000
0.000000
0.000000
0.000000
0.000000
0.000000
0.000000
0.000000
0.000000
0.000000
0.000000
0.000000
0.000000
0.000000
0.000000
0.000000
0.000000
0.000000
0.000000
0.000000
0.000000
0.000000
0.000000
0.000000
0.000000
0.000000
0.000000
0.000000
0.000000
0.000000
0.000000
0.000000
0.000000
0.000000
0.000000
0.000000
0.000000
-0.062829
-0.062829
-0.062829
-0.062829
-0.062829
-0.062829
-0.062829
-0.062829
-0.062829
-0.062829
-0.062829
-0.062829
-0.062829
-0.062829
-0.062829
-0.062829
-0.062829
-0.062829
-0.062829
-0.062829
-0.062829
-0.062829
-0.062829
-0.062829
-0.062829
-0.062829
-0.062829
-0.062829
-0.062829
-0.062829
-0.062829
-0.062829
-0.062829
-0.062829
-0.062829
-0.062829
-0.062829
-0.062829
-0.062829
-0.062829
-0.062829
-0.062829
-0.062829
-0.062829
-0.062829
-0.062829
-0.062829
-0.062829
-0.062829
-0.062829
-0.062829
-0.062829
-0.062829
-0.062829
-0.062829
-0.062829
-0.062829
-0.062829
-0.062829
-0.062829
-0.062829
-0.062829
-0.062829
-0.062829
-0.062829
-0.062829
-0.062829
-0.062829
-0.062829
-0.062829
-0.062829
-0.062829
-0.062829
-0.062829
-0.062829
-0.062829
-0.062829
-0.062829
-0.062829
-0.062829
-0.062829
-0.062829
-0.062829
-0.062829
-0.062829
-0.062829
-0.062829
-0.062829
-0.062829
-0.062829
-0.062829
-0.062829
-0.062829
-0.062829
-0.062829
-0.062829
-0.062829
-0.062829
-0.062829
-0.062829
-0.062829
-0.062829
-0.062829
-0.062829
-0.062829
-0.062829
-0.062829
-0.062829
-0.062829
-0.062829
-0.062829
-0.062829
-0.062829
-0.062829
-0.062829
-0.062829
-0.062829
-0.062829
-0.062829
-0.062829
-0.062829
-0.062829
-0.062829
-0.062829
-0.062829
-0.062829
-0.062829
-0.062829
0.000000
-0.062829
-0.062829
-0.062829
-0.062829
-0.062829
-0.062829
-0.062829
-0.062829
-0.062829
-0.062829
-0.062829
-0.062829
-0.062829
-0.062829
-0.062829
-0.062829
-0.062829
-0.062829
-0.062829
-0.062829
-0.062829
-0.062829
-0.062829
-0.062829
-0.062829
-0.062829
-0.062829
-0.062829
-0.062829
-0.062829
-0.062829
-0.062829
-0.062829
-0.062829
-0.062829
-0.062829
-0.062829
-0.062829
-0.062829
-0.062829
-0.062829
-0.062829
-0.062829
-0.062829
-0.062829
-0.062829
-0.062829
-0.062829
-0.062829
-0.062829
-0.062829
-0.062829
-0.062829
-0.062829
-0.062829
-0.062829
-0.062829
-0.062829
-0.062829
-0.062829
-0.062829
-0.062829
-0.062829
-0.062829
-0.062829
-0.062829
-0.062829
-0.062829
-0.062829
-0.062829
-0.062829
-0.062829
-0.062829
-0.062829
-0.062829
-0.062829
-0.062829
-0.062829
-0.062829
-0.062829
-0.062829
-0.062829
-0.062829
-0.062829
-0.062829
-0.062829
-0.062829
-0.062829
-0.062829
-0.062829
-0.062829
-0.062829
-0.062829
-0.062829
-0.062829
-0.062829
-0.062829
-0.062829
-0.062829
-0.062829
-0.062829
-0.062829
-0.062829
-0.062829
-0.062829
-0.062829
-0.062829
-0.062829
-0.062829
-0.062829
-0.062829
-0.062829
-0.062829
-0.062829
-0.062829
-0.062829
-0.062829
-0.062829
-0.062829
-0.062829
-0.062829
-0.062829
-0.062829
-0.062829
-0.062829
-0.062829
-0.062829
-0.062829
0.000000
0.022175
0.022175
0.022175
0.022175
0.022175
0.022175
0.022175
0.022175
0.022175
0.022175
0.022175
0.022175
0.022175
0.022175
0.022175
0.022175
0.022175
0.022175
0.022175
0.022175
0.022175
0.022175
0.022175
0.022175
0.022175
0.022175
0.022175
0.022175
0.022175
0.022175
0.022175
0.022175
0.022175
0.022175
0.022175
0.022175
0.022175
0.022175
0.022175
0.022175
0.022175
0.022175
0.022175
0.022175
0.022175
0.022175
0.022175
0.022175
0.022175
0.022175
0.022175
0.022175
0.022175
0.022175
0.022175
0.022175
0.022175
0.022175
0.022175
0.022175
0.022175
0.022175
0.022175
0.022175
0.022175
0.022175
0.022175
0.022175
0.022175
0.022175
0.022175
0.022175
0.022175
0.022175
0.022175
0.022175
0.022175
0.022175
0.022175
0.022175
0.022175
0.022175
0.022175
0.022175
0.022175
0.022175
0.022175
0.022175
0.022175
0.022175
0.022175
0.022175
0.022175
0.022175
0.022175
0.022175
0.022175
0.022175
0.022175
0.022175
0.022175
0.022175
0.022175
0.022175
0.022175
0.022175
0.022175
0.022175
0.022175
0.022175
0.022175
0.022175
0.022175
0.022175
0.022175
0.022175
0.022175
0.022175
0.022175
0.022175
0.022175
0.022175
0.022175
0.022175
0.022175
0.022175
0.022175
0.022175
0.000000
0.000000
0.000000
0.000000
0.000000
0.000000
0.000000
0.000000
0.000000
0.000000
0.000000
0.000000
0.000000
0.000000
0.000000
0.000000
0.000000
0.000000
0.000000
0.000000
0.000000
0.000000
0.000000
0.000000
0.000000
0.000000
0.000000
0.000000
0.000000
0.000000
0.000000
0.000000
0.000000
0.000000
0.000000
0.000000
0.000000
0.000000
0.000000
0.000000
0.000000
0.000000
0.000000
0.000000
0.000000
0.000000
0.000000
0.000000
0.000000
0.000000
0.000000
0.000000
0.000000
0.000000
0.000000
0.000000
0.000000
0.000000
0.000000
0.000000
0.000000
0.000000
0.000000
0.000000
0.000000
0.000000
0.000000
0.000000
0.000000
0.000000
0.000000
0.000000
0.000000
0.000000
0.000000
0.000000
0.000000
0.000000
0.000000
0.000000
0.000000
0.000000
0.000000
0.000000
0.000000
0.000000
0.000000
0.000000
0.000000
0.000000
0.000000
0.000000
0.000000
0.000000
0.000000
0.000000
0.000000
0.000000
0.000000
0.000000
0.000000
0.000000
0.000000
0.000000
0.000000
0.000000
0.000000
0.000000
0.000000
0.000000
0.000000
0.000000
0.000000
0.000000
0.000000
0.000000
0.000000
0.000000
0.000000
0.000000
0.000000
0.000000
0.000000
0.000000
0.000000
0.000000
0.000000
0.000000
0.000000
0.000000
-0.029789
-0.029789
-0.029789
-0.029789
-0.029789
-0.029789
-0.029789
-0.029789
-0.029789
-0.029789
-0.029789
-0.029789
-0.029789
-0.029789
-0.029789
-0.029789
-0.029789
-0.029789
-0.029789
-0.029789
-0.029789
-0.029789
-0.029789
-0.029789
-0.029789
-0.029789
-0.029789
-0.029789
-0.029789
-0.029789
-0.029789
-0.029789
-0.029789
-0.029789
-0.029789
-0.029789
-0.029789
-0.029789
-0.029789
-0.029789
-0.029789
-0.029789
-0.029789
-0.029789
-0.029789
-0.029789
-0.029789
-0.029789
-0.029789
-0.029789
-0.029789
-0.029789
-0.029789
-0.029789
-0.029789
-0.029789
-0.029789
-0.029789
-0.029789
-0.029789
-0.029789
-0.029789
-0.029789
-0.029789
-0.029789
-0.029789
-0.029789
-0.029789
-0.029789
-0.029789
-0.029789
-0.029789
-0.029789
-0.029789
-0.029789
-0.029789
-0.029789
-0.029789
-0.029789
-0.029789
-0.029789
-0.029789
-0.029789
-0.029789
-0.029789
-0.029789
-0.029789
-0.029789
-0.029789
-0.029789
-0.029789
-0.029789
-0.029789
-0.029789
-0.029789
-0.029789
-0.029789
-0.029789
-0.029789
-0.029789
-0.029789
-0.029789
-0.029789
-0.029789
-0.029789
-0.029789
-0.029789
-0.029789
-0.029789
-0.029789
-0.029789
-0.029789
-0.029789
-0.029789
-0.029789
-0.029789
-0.029789
-0.029789
-0.029789
-0.029789
-0.029789
-0.029789
-0.029789
-0.029789
-0.029789
-0.029789
-0.029789
-0.029789
0.000000
0.000000
0.000000
0.000000
0.000000
0.000000
0.000000
0.000000
0.000000
0.000000
0.000000
0.000000
0.000000
0.000000
0.000000
0.000000
0.000000
0.000000
0.000000
0.000000
0.000000
0.000000
0.000000
0.000000
0.000000
0.000000
0.000000
0.000000
0.000000
0.000000
0.000000
0.000000
0.000000
0.000000
0.000000
0.000000
0.000000
0.000000
0.000000
0.000000
0.000000
0.000000
0.000000
0.000000
0.000000
0.000000
0.000000
0.000000
0.000000
0.000000
0.000000
0.000000
0.000000
0.000000
0.000000
0.000000
0.000000
0.000000
0.000000
0.000000
0.000000
0.000000
0.000000
0.000000
0.000000
0.000000
0.000000
0.000000
0.000000
0.000000
0.000000
0.000000
0.000000
0.000000
0.000000
0.000000
0.000000
0.000000
0.000000
0.000000
0.000000
0.000000
0.000000
0.000000
0.000000
0.000000
0.000000
0.000000
0.000000
0.000000
0.000000
0.000000
0.000000
0.000000
0.000000
0.000000
0.000000
0.000000
0.000000
0.000000
0.000000
0.000000
0.000000
0.000000
0.000000
0.000000
0.000000
0.000000
0.000000
0.000000
0.000000
0.000000
0.000000
0.000000
0.000000
0.000000
0.000000
0.000000
0.000000
0.000000
0.000000
0.000000
0.000000
0.000000
0.000000
0.000000
0.000000
0.000000
0.000000
0.000000
-0.004839
-0.004839
-0.004839
-0.004839
-0.004839
-0.004839
-0.004839
-0.004839
-0.004839
-0.004839
-0.004839
-0.004839
-0.004839
-0.004839
-0.004839
-0.004839
-0.004839
-0.004839
-0.004839
-0.004839
-0.004839
-0.004839
-0.004839
-0.004839
-0.004839
-0.004839
-0.004839
-0.004839
-0.004839
-0.004839
-0.004839
-0.004839
-0.004839
-0.004839
-0.004839
-0.004839
-0.004839
-0.004839
-0.004839
-0.004839
-0.004839
-0.004839
-0.004839
-0.004839
-0.004839
-0.004839
-0.004839
-0.004839
-0.004839
-0.004839
-0.004839
-0.004839
-0.004839
-0.004839
-0.004839
-0.004839
-0.004839
-0.004839
-0.004839
-0.004839
-0.004839
-0.004839
-0.004839
-0.004839
-0.004839
-0.004839
-0.004839
-0.004839
-0.004839
-0.004839
-0.004839
-0.004839
-0.004839
-0.004839
-0.004839
-0.004839
-0.004839
-0.004839
-0.004839
-0.004839
-0.004839
-0.004839
-0.004839
-0.004839
-0.004839
-0.004839
-0.004839
-0.004839
-0.004839
-0.004839
-0.004839
-0.004839
-0.004839
-0.004839
-0.004839
-0.004839
-0.004839
-0.004839
-0.004839
-0.004839
-0.004839
-0.004839
-0.004839
-0.004839
-0.004839
-0.004839
-0.004839
-0.004839
-0.004839
-0.004839
-0.004839
-0.004839
-0.004839
-0.004839
-0.004839
-0.004839
-0.004839
-0.004839
-0.004839
-0.004839
-0.004839
-0.004839
-0.004839
-0.004839
-0.004839
-0.004839
-0.004839
-0.004839
0.000000
0.000000
0.000000
0.000000
0.000000
0.000000
0.000000
0.000000
0.000000
0.000000
0.000000
0.000000
0.000000
0.000000
0.000000
0.000000
0.000000
0.000000
0.000000
0.000000
0.000000
0.000000
0.000000
0.000000
0.000000
0.000000
0.000000
0.000000
0.000000
0.000000
0.000000
0.000000
0.000000
0.000000
0.000000
0.000000
0.000000
0.000000
0.000000
0.000000
0.000000
0.000000
0.000000
0.000000
0.000000
0.000000
0.000000
0.000000
0.000000
0.000000
0.000000
0.000000
0.000000
0.000000
0.000000
0.000000
0.000000
0.000000
0.000000
0.000000
0.000000
0.000000
0.000000
0.000000
0.000000
0.000000
0.000000
0.000000
0.000000
0.000000
0.000000
0.000000
0.000000
0.000000
0.000000
0.000000
0.000000
0.000000
0.000000
0.000000
0.000000
0.000000
0.000000
0.000000
0.000000
0.000000
0.000000
0.000000
0.000000
0.000000
0.000000
0.000000
0.000000
0.000000
0.000000
0.000000
0.000000
0.000000
0.000000
0.000000
0.000000
0.000000
0.000000
0.000000
0.000000
0.000000
0.000000
0.000000
0.000000
0.000000
0.000000
0.000000
0.000000
0.000000
0.000000
0.000000
0.000000
0.000000
0.000000
0.000000
0.000000
0.000000
0.000000
0.000000
0.000000
0.000000
0.000000
0.000000
0.000000
0.000000
-0.015834
-0.015834
-0.015834
-0.015834
-0.015834
-0.015834
-0.015834
-0.015834
-0.015834
-0.015834
-0.015834
-0.015834
-0.015834
-0.015834
-0.015834
-0.015834
-0.015834
-0.015834
-0.015834
-0.015834
-0.015834
-0.015834
-0.015834
-0.015834
-0.015834
-0.015834
-0.015834
-0.015834
-0.015834
-0.015834
-0.015834
-0.015834
-0.015834
-0.015834
-0.015834
-0.015834
-0.015834
-0.015834
-0.015834
-0.015834
-0.015834
-0.015834
-0.015834
-0.015834
-0.015834
-0.015834
-0.015834
-0.015834
-0.015834
-0.015834
-0.015834
-0.015834
-0.015834
-0.015834
-0.015834
-0.015834
-0.015834
-0.015834
-0.015834
-0.015834
-0.015834
-0.015834
-0.015834
-0.015834
-0.015834
-0.015834
-0.015834
-0.015834
-0.015834
-0.015834
-0.015834
-0.015834
-0.015834
-0.015834
-0.015834
-0.015834
-0.015834
-0.015834
-0.015834
-0.015834
-0.015834
-0.015834
-0.015834
-0.015834
-0.015834
-0.015834
-0.015834
-0.015834
-0.015834
-0.015834
-0.015834
-0.015834
-0.015834
-0.015834
-0.015834
-0.015834
-0.015834
-0.015834
-0.015834
-0.015834
-0.015834
-0.015834
-0.015834
-0.015834
-0.015834
-0.015834
-0.015834
-0.015834
-0.015834
-0.015834
-0.015834
-0.015834
-0.015834
-0.015834
-0.015834
-0.015834
-0.015834
-0.015834
-0.015834
-0.015834
-0.015834
-0.015834
-0.015834
-0.015834
-0.015834
-0.015834
-0.015834
-0.015834
0.000000
0.000000
0.000000
0.000000
0.000000
0.000000
0.000000
0.000000
0.000000
0.000000
0.000000
0.000000
0.000000
0.000000
0.000000
0.000000
0.000000
0.000000
0.000000
0.000000
0.000000
0.000000
0.000000
0.000000
0.000000
0.000000
0.000000
0.000000
0.000000
0.000000
0.000000
0.000000
0.000000
0.000000
0.000000
0.000000
0.000000
0.000000
0.000000
0.000000
0.000000
0.000000
0.000000
0.000000
0.000000
0.000000
0.000000
0.000000
0.000000
0.000000
0.000000
0.000000
0.000000
0.000000
0.000000
0.000000
0.000000
0.000000
0.000000
0.000000
0.000000
0.000000
0.000000
0.000000
0.000000
0.000000
0.000000
0.000000
0.000000
0.000000
0.000000
0.000000
0.000000
0.000000
0.000000
0.000000
0.000000
0.000000
0.000000
0.000000
0.000000
0.000000
0.000000
0.000000
0.000000
0.000000
0.000000
0.000000
0.000000
0.000000
0.000000
0.000000
0.000000
0.000000
0.000000
0.000000
0.000000
0.000000
0.000000
0.000000
0.000000
0.000000
0.000000
0.000000
0.000000
0.000000
0.000000
0.000000
0.000000
0.000000
0.000000
0.000000
0.000000
0.000000
0.000000
0.000000
0.000000
0.000000
0.000000
0.000000
0.000000
0.000000
0.000000
0.000000
0.000000
0.000000
0.000000
0.000000
0.000000
0.000000
-0.012601
-0.012601
-0.012601
-0.012601
-0.012601
-0.012601
-0.012601
-0.012601
-0.012601
-0.012601
-0.012601
-0.012601
-0.012601
-0.012601
-0.012601
-0.012601
-0.012601
-0.012601
-0.012601
-0.012601
-0.012601
-0.012601
-0.012601
-0.012601
-0.012601
-0.012601
-0.012601
-0.012601
-0.012601
-0.012601
-0.012601
-0.012601
-0.012601
-0.012601
-0.012601
-0.012601
-0.012601
-0.012601
-0.012601
-0.012601
-0.012601
-0.012601
-0.012601
-0.012601
-0.012601
-0.012601
-0.012601
-0.012601
-0.012601
-0.012601
-0.012601
-0.012601
-0.012601
-0.012601
-0.012601
-0.012601
-0.012601
-0.012601
-0.012601
-0.012601
-0.012601
-0.012601
-0.012601
-0.012601
-0.012601
-0.012601
-0.012601
-0.012601
-0.012601
-0.012601
-0.012601
-0.012601
-0.012601
-0.012601
-0.012601
-0.012601
-0.012601
-0.012601
-0.012601
-0.012601
-0.012601
-0.012601
-0.012601
-0.012601
-0.012601
-0.012601
-0.012601
-0.012601
-0.012601
-0.012601
-0.012601
-0.012601
-0.012601
-0.012601
-0.012601
-0.012601
-0.012601
-0.012601
-0.012601
-0.012601
-0.012601
-0.012601
-0.012601
-0.012601
-0.012601
-0.012601
-0.012601
-0.012601
-0.012601
-0.012601
-0.012601
-0.012601
-0.012601
-0.012601
-0.012601
-0.012601
-0.012601
-0.012601
-0.012601
-0.012601
-0.012601
-0.012601
-0.012601
-0.012601
-0.012601
-0.012601
-0.012601
-0.012601
0.000000
-0.012601
-0.012601
-0.012601
-0.012601
-0.012601
-0.012601
-0.012601
-0.012601
-0.012601
-0.012601
-0.012601
-0.012601
-0.012601
-0.012601
-0.012601
-0.012601
-0.012601
-0.012601
-0.012601
-0.012601
-0.012601
-0.012601
-0.012601
-0.012601
-0.012601
-0.012601
-0.012601
-0.012601
-0.012601
-0.012601
-0.012601
-0.012601
-0.012601
-0.012601
-0.012601
-0.012601
-0.012601
-0.012601
-0.012601
-0.012601
-0.012601
-0.012601
-0.012601
-0.012601
-0.012601
-0.012601
-0.012601
-0.012601
-0.012601
-0.012601
-0.012601
-0.012601
-0.012601
-0.012601
-0.012601
-0.012601
-0.012601
-0.012601
-0.012601
-0.012601
-0.012601
-0.012601
-0.012601
-0.012601
-0.012601
-0.012601
-0.012601
-0.012601
-0.012601
-0.012601
-0.012601
-0.012601
-0.012601
-0.012601
-0.012601
-0.012601
-0.012601
-0.012601
-0.012601
-0.012601
-0.012601
-0.012601
-0.012601
-0.012601
-0.012601
-0.012601
-0.012601
-0.012601
-0.012601
-0.012601
-0.012601
-0.012601
-0.012601
-0.012601
-0.012601
-0.012601
-0.012601
-0.012601
-0.012601
-0.012601
-0.012601
-0.012601
-0.012601
-0.012601
-0.012601
-0.012601
-0.012601
-0.012601
-0.012601
-0.012601
-0.012601
-0.012601
-0.012601
-0.012601
-0.012601
-0.012601
-0.012601
-0.012601
-0.012601
-0.012601
-0.012601
-0.012601
-0.012601
-0.012601
-0.012601
-0.012601
-0.012601
-0.012601
0.000000
0.000000
0.000000
0.000000
0.000000
0.000000
0.000000
0.000000
0.000000
0.000000
0.000000
0.000000
0.000000
0.000000
0.000000
0.000000
0.000000
0.000000
0.000000
0.000000
0.000000
0.000000
0.000000
0.000000
0.000000
0.000000
0.000000
0.000000
0.000000
0.000000
0.000000
0.000000
0.000000
0.000000
0.000000
0.000000
0.000000
0.000000
0.000000
0.000000
0.000000
0.000000
0.000000
0.000000
0.000000
0.000000
0.000000
0.000000
0.000000
0.000000
0.000000
0.000000
0.000000
0.000000
0.000000
0.000000
0.000000
0.000000
0.000000
0.000000
0.000000
0.000000
0.000000
0.000000
0.000000
0.000000
0.000000
0.000000
0.000000
0.000000
0.000000
0.000000
0.000000
0.000000
0.000000
0.000000
0.000000
0.000000
0.000000
0.000000
0.000000
0.000000
0.000000
0.000000
0.000000
0.000000
0.000000
0.000000
0.000000
0.000000
0.000000
0.000000
0.000000
0.000000
0.000000
0.000000
0.000000
0.000000
0.000000
0.000000
0.000000
0.000000
0.000000
0.000000
0.000000
0.000000
0.000000
0.000000
0.000000
0.000000
0.000000
0.000000
0.000000
0.000000
0.000000
0.000000
0.000000
0.000000
0.000000
0.000000
0.000000
0.000000
0.000000
0.000000
0.000000
0.000000
0.000000
0.000000
0.000000
0.000000
-0.035265
-0.035265
-0.035265
-0.035265
-0.035265
-0.035265
-0.035265
-0.035265
-0.035265
-0.035265
-0.035265
-0.035265
-0.035265
-0.035265
-0.035265
-0.035265
-0.035265
-0.035265
-0.035265
-0.035265
-0.035265
-0.035265
-0.035265
-0.035265
-0.035265
-0.035265
-0.035265
-0.035265
-0.035265
-0.035265
-0.035265
-0.035265
-0.035265
-0.035265
-0.035265
-0.035265
-0.035265
-0.035265
-0.035265
-0.035265
-0.035265
-0.035265
-0.035265
-0.035265
-0.035265
-0.035265
-0.035265
-0.035265
-0.035265
-0.035265
-0.035265
-0.035265
-0.035265
-0.035265
-0.035265
-0.035265
-0.035265
-0.035265
-0.035265
-0.035265
-0.035265
-0.035265
-0.035265
-0.035265
-0.035265
-0.035265
-0.035265
-0.035265
-0.035265
-0.035265
-0.035265
-0.035265
-0.035265
-0.035265
-0.035265
-0.035265
-0.035265
-0.035265
-0.035265
-0.035265
-0.035265
-0.035265
-0.035265
-0.035265
-0.035265
-0.035265
-0.035265
-0.035265
-0.035265
-0.035265
-0.035265
-0.035265
-0.035265
-0.035265
-0.035265
-0.035265
-0.035265
-0.035265
-0.035265
-0.035265
-0.035265
-0.035265
-0.035265
-0.035265
-0.035265
-0.035265
-0.035265
-0.035265
-0.035265
-0.035265
-0.035265
-0.035265
-0.035265
-0.035265
-0.035265
-0.035265
-0.035265
-0.035265
-0.035265
-0.035265
-0.035265
-0.035265
-0.035265
-0.035265
-0.035265
-0.035265
-0.035265
-0.035265
0.000000
-0.046261
-0.046261
-0.046261
-0.046261
-0.046261
-0.046261
-0.046261
-0.046261
-0.046261
-0.046261
-0.046261
-0.046261
-0.046261
-0.046261
-0.046261
-0.046261
-0.046261
-0.046261
-0.046261
-0.046261
-0.046261
-0.046261
-0.046261
-0.046261
-0.046261
-0.046261
-0.046261
-0.046261
-0.046261
-0.046261
-0.046261
-0.046261
-0.046261
-0.046261
-0.046261
-0.046261
-0.046261
-0.046261
-0.046261
-0.046261
-0.046261
-0.046261
-0.046261
-0.046261
-0.046261
-0.046261
-0.046261
-0.046261
-0.046261
-0.046261
-0.046261
-0.046261
-0.046261
-0.046261
-0.046261
-0.046261
-0.046261
-0.046261
-0.046261
-0.046261
-0.046261
-0.046261
-0.046261
-0.046261
-0.046261
-0.046261
-0.046261
-0.046261
-0.046261
-0.046261
-0.046261
-0.046261
-0.046261
-0.046261
-0.046261
-0.046261
-0.046261
-0.046261
-0.046261
-0.046261
-0.046261
-0.046261
-0.046261
-0.046261
-0.046261
-0.046261
-0.046261
-0.046261
-0.046261
-0.046261
-0.046261
-0.046261
-0.046261
-0.046261
-0.046261
-0.046261
-0.046261
-0.046261
-0.046261
-0.046261
-0.046261
-0.046261
-0.046261
-0.046261
-0.046261
-0.046261
-0.046261
-0.046261
-0.046261
-0.046261
-0.046261
-0.046261
-0.046261
-0.046261
-0.046261
-0.046261
-0.046261
-0.046261
-0.046261
-0.046261
-0.046261
-0.046261
-0.046261
-0.046261
-0.046261
-0.046261
-0.046261
-0.046261
0.000000
-0.019827
-0.019827
-0.019827
-0.019827
-0.019827
-0.019827
-0.019827
-0.019827
-0.019827
-0.019827
-0.019827
-0.019827
-0.019827
-0.019827
-0.019827
-0.019827
-0.019827
-0.019827
-0.019827
-0.019827
-0.019827
-0.019827
-0.019827
-0.019827
-0.019827
-0.019827
-0.019827
-0.019827
-0.019827
-0.019827
-0.019827
-0.019827
-0.019827
-0.019827
-0.019827
-0.019827
-0.019827
-0.019827
-0.019827
-0.019827
-0.019827
-0.019827
-0.019827
-0.019827
-0.019827
-0.019827
-0.019827
-0.019827
-0.019827
-0.019827
-0.019827
-0.019827
-0.019827
-0.019827
-0.019827
-0.019827
-0.019827
-0.019827
-0.019827
-0.019827
-0.019827
-0.019827
-0.019827
-0.019827
-0.019827
-0.019827
-0.019827
-0.019827
-0.019827
-0.019827
-0.019827
-0.019827
-0.019827
-0.019827
-0.019827
-0.019827
-0.019827
-0.019827
-0.019827
-0.019827
-0.019827
-0.019827
-0.019827
-0.019827
-0.019827
-0.019827
-0.019827
-0.019827
-0.019827
-0.019827
-0.019827
-0.019827
-0.019827
-0.019827
-0.019827
-0.019827
-0.019827
-0.019827
-0.019827
-0.019827
-0.019827
-0.019827
-0.019827
-0.019827
-0.019827
-0.019827
-0.019827
-0.019827
-0.019827
-0.019827
-0.019827
-0.019827
-0.019827
-0.019827
-0.019827
-0.019827
-0.019827
-0.019827
-0.019827
-0.019827
-0.019827
-0.019827
-0.019827
-0.019827
-0.019827
-0.019827
-0.019827
-0.019827
0.000000
-0.057738
-0.057738
-0.057738
-0.057738
-0.057738
-0.057738
-0.057738
-0.057738
-0.057738
-0.057738
-0.057738
-0.057738
-0.057738
-0.057738
-0.057738
-0.057738
-0.057738
-0.057738
-0.057738
-0.057738
-0.057738
-0.057738
-0.057738
-0.057738
-0.057738
-0.057738
-0.057738
-0.057738
-0.057738
-0.057738
-0.057738
-0.057738
-0.057738
-0.057738
-0.057738
-0.057738
-0.057738
-0.057738
-0.057738
-0.057738
-0.057738
-0.057738
-0.057738
-0.057738
-0.057738
-0.057738
-0.057738
-0.057738
-0.057738
-0.057738
-0.057738
-0.057738
-0.057738
-0.057738
-0.057738
-0.057738
-0.057738
-0.057738
-0.057738
-0.057738
-0.057738
-0.057738
-0.057738
-0.057738
-0.057738
-0.057738
-0.057738
-0.057738
-0.057738
-0.057738
-0.057738
-0.057738
-0.057738
-0.057738
-0.057738
-0.057738
-0.057738
-0.057738
-0.057738
-0.057738
-0.057738
-0.057738
-0.057738
-0.057738
-0.057738
-0.057738
-0.057738
-0.057738
-0.057738
-0.057738
-0.057738
-0.057738
-0.057738
-0.057738
-0.057738
-0.057738
-0.057738
-0.057738
-0.057738
-0.057738
-0.057738
-0.057738
-0.057738
-0.057738
-0.057738
-0.057738
-0.057738
-0.057738
-0.057738
-0.057738
-0.057738
-0.057738
-0.057738
-0.057738
-0.057738
-0.057738
-0.057738
-0.057738
-0.057738
-0.057738
-0.057738
-0.057738
-0.057738
-0.057738
-0.057738
-0.057738
-0.057738
-0.057738
0.000000
-0.046949
-0.046949
-0.046949
-0.046949
-0.046949
-0.046949
-0.046949
-0.046949
-0.046949
-0.046949
-0.046949
-0.046949
-0.046949
-0.046949
-0.046949
-0.046949
-0.046949
-0.046949
-0.046949
-0.046949
-0.046949
-0.046949
-0.046949
-0.046949
-0.046949
-0.046949
-0.046949
-0.046949
-0.046949
-0.046949
-0.046949
-0.046949
-0.046949
-0.046949
-0.046949
-0.046949
-0.046949
-0.046949
-0.046949
-0.046949
-0.046949
-0.046949
-0.046949
-0.046949
-0.046949
-0.046949
-0.046949
-0.046949
-0.046949
-0.046949
-0.046949
-0.046949
-0.046949
-0.046949
-0.046949
-0.046949
-0.046949
-0.046949
-0.046949
-0.046949
-0.046949
-0.046949
-0.046949
-0.046949
-0.046949
-0.046949
-0.046949
-0.046949
-0.046949
-0.046949
-0.046949
-0.046949
-0.046949
-0.046949
-0.046949
-0.046949
-0.046949
-0.046949
-0.046949
-0.046949
-0.046949
-0.046949
-0.046949
-0.046949
-0.046949
-0.046949
-0.046949
-0.046949
-0.046949
-0.046949
-0.046949
-0.046949
-0.046949
-0.046949
-0.046949
-0.046949
-0.046949
-0.046949
-0.046949
-0.046949
-0.046949
-0.046949
-0.046949
-0.046949
-0.046949
-0.046949
-0.046949
-0.046949
-0.046949
-0.046949
-0.046949
-0.046949
-0.046949
-0.046949
-0.046949
-0.046949
-0.046949
-0.046949
-0.046949
-0.046949
-0.046949
-0.046949
-0.046949
-0.046949
-0.046949
-0.046949
-0.046949
-0.046949
0.000000
-0.048023
-0.048023
-0.048023
-0.048023
-0.048023
-0.048023
-0.048023
-0.048023
-0.048023
-0.048023
-0.048023
-0.048023
-0.048023
-0.048023
-0.048023
-0.048023
-0.048023
-0.048023
-0.048023
-0.048023
-0.048023
-0.048023
-0.048023
-0.048023
-0.048023
-0.048023
-0.048023
-0.048023
-0.048023
-0.048023
-0.048023
-0.048023
-0.048023
-0.048023
-0.048023
-0.048023
-0.048023
-0.048023
-0.048023
-0.048023
-0.048023
-0.048023
-0.048023
-0.048023
-0.048023
-0.048023
-0.048023
-0.048023
-0.048023
-0.048023
-0.048023
-0.048023
-0.048023
-0.048023
-0.048023
-0.048023
-0.048023
-0.048023
-0.048023
-0.048023
-0.048023
-0.048023
-0.048023
-0.048023
-0.048023
-0.048023
-0.048023
-0.048023
-0.048023
-0.048023
-0.048023
-0.048023
-0.048023
-0.048023
-0.048023
-0.048023
-0.048023
-0.048023
-0.048023
-0.048023
-0.048023
-0.048023
-0.048023
-0.048023
-0.048023
-0.048023
-0.048023
-0.048023
-0.048023
-0.048023
-0.048023
-0.048023
-0.048023
-0.048023
-0.048023
-0.048023
-0.048023
-0.048023
-0.048023
-0.048023
-0.048023
-0.048023
-0.048023
-0.048023
-0.048023
-0.048023
-0.048023
-0.048023
-0.048023
-0.048023
-0.048023
-0.048023
-0.048023
-0.048023
-0.048023
-0.048023
-0.048023
-0.048023
-0.048023
-0.048023
-0.048023
-0.048023
-0.048023
-0.048023
-0.048023
-0.048023
-0.048023
-0.048023
0.000000
-0.039234
-0.039234
-0.039234
-0.039234
-0.039234
-0.039234
-0.039234
-0.039234
-0.039234
-0.039234
-0.039234
-0.039234
-0.039234
-0.039234
-0.039234
-0.039234
-0.039234
-0.039234
-0.039234
-0.039234
-0.039234
-0.039234
-0.039234
-0.039234
-0.039234
-0.039234
-0.039234
-0.039234
-0.039234
-0.039234
-0.039234
-0.039234
-0.039234
-0.039234
-0.039234
-0.039234
-0.039234
-0.039234
-0.039234
-0.039234
-0.039234
-0.039234
-0.039234
-0.039234
-0.039234
-0.039234
-0.039234
-0.039234
-0.039234
-0.039234
-0.039234
-0.039234
-0.039234
-0.039234
-0.039234
-0.039234
-0.039234
-0.039234
-0.039234
-0.039234
-0.039234
-0.039234
-0.039234
-0.039234
-0.039234
-0.039234
-0.039234
-0.039234
-0.039234
-0.039234
-0.039234
-0.039234
-0.039234
-0.039234
-0.039234
-0.039234
-0.039234
-0.039234
-0.039234
-0.039234
-0.039234
-0.039234
-0.039234
-0.039234
-0.039234
-0.039234
-0.039234
-0.039234
-0.039234
-0.039234
-0.039234
-0.039234
-0.039234
-0.039234
-0.039234
-0.039234
-0.039234
-0.039234
-0.039234
-0.039234
-0.039234
-0.039234
-0.039234
-0.039234
-0.039234
-0.039234
-0.039234
-0.039234
-0.039234
-0.039234
-0.039234
-0.039234
-0.039234
-0.039234
-0.039234
-0.039234
-0.039234
-0.039234
-0.039234
-0.039234
-0.039234
-0.039234
-0.039234
-0.039234
-0.039234
-0.039234
-0.039234
-0.039234
0.000000
-0.063875
-0.063875
-0.063875
-0.063875
-0.063875
-0.063875
-0.063875
-0.063875
-0.063875
-0.063875
-0.063875
-0.063875
-0.063875
-0.063875
-0.063875
-0.063875
-0.063875
-0.063875
-0.063875
-0.063875
-0.063875
-0.063875
-0.063875
-0.063875
-0.063875
-0.063875
-0.063875
-0.063875
-0.063875
-0.063875
-0.063875
-0.063875
-0.063875
-0.063875
-0.063875
-0.063875
-0.063875
-0.063875
-0.063875
-0.063875
-0.063875
-0.063875
-0.063875
-0.063875
-0.063875
-0.063875
-0.063875
-0.063875
-0.063875
-0.063875
-0.063875
-0.063875
-0.063875
-0.063875
-0.063875
-0.063875
-0.063875
-0.063875
-0.063875
-0.063875
-0.063875
-0.063875
-0.063875
-0.063875
-0.063875
-0.063875
-0.063875
-0.063875
-0.063875
-0.063875
-0.063875
-0.063875
-0.063875
-0.063875
-0.063875
-0.063875
-0.063875
-0.063875
-0.063875
-0.063875
-0.063875
-0.063875
-0.063875
-0.063875
-0.063875
-0.063875
-0.063875
-0.063875
-0.063875
-0.063875
-0.063875
-0.063875
-0.063875
-0.063875
-0.063875
-0.063875
-0.063875
-0.063875
-0.063875
-0.063875
-0.063875
-0.063875
-0.063875
-0.063875
-0.063875
-0.063875
-0.063875
-0.063875
-0.063875
-0.063875
-0.063875
-0.063875
-0.063875
-0.063875
-0.063875
-0.063875
-0.063875
-0.063875
-0.063875
-0.063875
-0.063875
-0.063875
-0.063875
-0.063875
-0.063875
-0.063875
-0.063875
-0.063875
0.000000
-0.047250
-0.047250
-0.047250
-0.047250
-0.047250
-0.047250
-0.047250
-0.047250
-0.047250
-0.047250
-0.047250
-0.047250
-0.047250
-0.047250
-0.047250
-0.047250
-0.047250
-0.047250
-0.047250
-0.047250
-0.047250
-0.047250
-0.047250
-0.047250
-0.047250
-0.047250
-0.047250
-0.047250
-0.047250
-0.047250
-0.047250
-0.047250
-0.047250
-0.047250
-0.047250
-0.047250
-0.047250
-0.047250
-0.047250
-0.047250
-0.047250
-0.047250
-0.047250
-0.047250
-0.047250
-0.047250
-0.047250
-0.047250
-0.047250
-0.047250
-0.047250
-0.047250
-0.047250
-0.047250
-0.047250
-0.047250
-0.047250
-0.047250
-0.047250
-0.047250
-0.047250
-0.047250
-0.047250
-0.047250
-0.047250
-0.047250
-0.047250
-0.047250
-0.047250
-0.047250
-0.047250
-0.047250
-0.047250
-0.047250
-0.047250
-0.047250
-0.047250
-0.047250
-0.047250
-0.047250
-0.047250
-0.047250
-0.047250
-0.047250
-0.047250
-0.047250
-0.047250
-0.047250
-0.047250
-0.047250
-0.047250
-0.047250
-0.047250
-0.047250
-0.047250
-0.047250
-0.047250
-0.047250
-0.047250
-0.047250
-0.047250
-0.047250
-0.047250
-0.047250
-0.047250
-0.047250
-0.047250
-0.047250
-0.047250
-0.047250
-0.047250
-0.047250
-0.047250
-0.047250
-0.047250
-0.047250
-0.047250
-0.047250
-0.047250
-0.047250
-0.047250
-0.047250
-0.047250
-0.047250
-0.047250
-0.047250
-0.047250
-0.047250
0.000000
-0.081849
-0.081849
-0.081849
-0.081849
-0.081849
-0.081849
-0.081849
-0.081849
-0.081849
-0.081849
-0.081849
-0.081849
-0.081849
-0.081849
-0.081849
-0.081849
-0.081849
-0.081849
-0.081849
-0.081849
-0.081849
-0.081849
-0.081849
-0.081849
-0.081849
-0.081849
-0.081849
-0.081849
-0.081849
-0.081849
-0.081849
-0.081849
-0.081849
-0.081849
-0.081849
-0.081849
-0.081849
-0.081849
-0.081849
-0.081849
-0.081849
-0.081849
-0.081849
-0.081849
-0.081849
-0.081849
-0.081849
-0.081849
-0.081849
-0.081849
-0.081849
-0.081849
-0.081849
-0.081849
-0.081849
-0.081849
-0.081849
-0.081849
-0.081849
-0.081849
-0.081849
-0.081849
-0.081849
-0.081849
-0.081849
-0.081849
-0.081849
-0.081849
-0.081849
-0.081849
-0.081849
-0.081849
-0.081849
-0.081849
-0.081849
-0.081849
-0.081849
-0.081849
-0.081849
-0.081849
-0.081849
-0.081849
-0.081849
-0.081849
-0.081849
-0.081849
-0.081849
-0.081849
-0.081849
-0.081849
-0.081849
-0.081849
-0.081849
-0.081849
-0.081849
-0.081849
-0.081849
-0.081849
-0.081849
-0.081849
-0.081849
-0.081849
-0.081849
-0.081849
-0.081849
-0.081849
-0.081849
-0.081849
-0.081849
-0.081849
-0.081849
-0.081849
-0.081849
-0.081849
-0.081849
-0.081849
-0.081849
-0.081849
-0.081849
-0.081849
-0.081849
-0.081849
-0.081849
-0.081849
-0.081849
-0.081849
-0.081849
-0.081849
0.000000
-0.052497
-0.052497
-0.052497
-0.052497
-0.052497
-0.052497
-0.052497
-0.052497
-0.052497
-0.052497
-0.052497
-0.052497
-0.052497
-0.052497
-0.052497
-0.052497
-0.052497
-0.052497
-0.052497
-0.052497
-0.052497
-0.052497
-0.052497
-0.052497
-0.052497
-0.052497
-0.052497
-0.052497
-0.052497
-0.052497
-0.052497
-0.052497
-0.052497
-0.052497
-0.052497
-0.052497
-0.052497
-0.052497
-0.052497
-0.052497
-0.052497
-0.052497
-0.052497
-0.052497
-0.052497
-0.052497
-0.052497
-0.052497
-0.052497
-0.052497
-0.052497
-0.052497
-0.052497
-0.052497
-0.052497
-0.052497
-0.052497
-0.052497
-0.052497
-0.052497
-0.052497
-0.052497
-0.052497
-0.052497
-0.052497
-0.052497
-0.052497
-0.052497
-0.052497
-0.052497
-0.052497
-0.052497
-0.052497
-0.052497
-0.052497
-0.052497
-0.052497
-0.052497
-0.052497
-0.052497
-0.052497
-0.052497
-0.052497
-0.052497
-0.052497
-0.052497
-0.052497
-0.052497
-0.052497
-0.052497
-0.052497
-0.052497
-0.052497
-0.052497
-0.052497
-0.052497
-0.052497
-0.052497
-0.052497
-0.052497
-0.052497
-0.052497
-0.052497
-0.052497
-0.052497
-0.052497
-0.052497
-0.052497
-0.052497
-0.052497
-0.052497
-0.052497
-0.052497
-0.052497
-0.052497
-0.052497
-0.052497
-0.052497
-0.052497
-0.052497
-0.052497
-0.052497
-0.052497
-0.052497
-0.052497
-0.052497
-0.052497
-0.052497
0.000000
-0.012601
-0.012601
-0.012601
-0.012601
-0.012601
-0.012601
-0.012601
-0.012601
-0.012601
-0.012601
-0.012601
-0.012601
-0.012601
-0.012601
-0.012601
-0.012601
-0.012601
-0.012601
-0.012601
-0.012601
-0.012601
-0.012601
-0.012601
-0.012601
-0.012601
-0.012601
-0.012601
-0.012601
-0.012601
-0.012601
-0.012601
-0.012601
-0.012601
-0.012601
-0.012601
-0.012601
-0.012601
-0.012601
-0.012601
-0.012601
-0.012601
-0.012601
-0.012601
-0.012601
-0.012601
-0.012601
-0.012601
-0.012601
-0.012601
-0.012601
-0.012601
-0.012601
-0.012601
-0.012601
-0.012601
-0.012601
-0.012601
-0.012601
-0.012601
-0.012601
-0.012601
-0.012601
-0.012601
-0.012601
-0.012601
-0.012601
-0.012601
-0.012601
-0.012601
-0.012601
-0.012601
-0.012601
-0.012601
-0.012601
-0.012601
-0.012601
-0.012601
-0.012601
-0.012601
-0.012601
-0.012601
-0.012601
-0.012601
-0.012601
-0.012601
-0.012601
-0.012601
-0.012601
-0.012601
-0.012601
-0.012601
-0.012601
-0.012601
-0.012601
-0.012601
-0.012601
-0.012601
-0.012601
-0.012601
-0.012601
-0.012601
-0.012601
-0.012601
-0.012601
-0.012601
-0.012601
-0.012601
-0.012601
-0.012601
-0.012601
-0.012601
-0.012601
-0.012601
-0.012601
-0.012601
-0.012601
-0.012601
-0.012601
-0.012601
-0.012601
-0.012601
-0.012601
-0.012601
-0.012601
-0.012601
-0.012601
-0.012601
-0.012601
0.000000
-0.063700
-0.063700
-0.063700
-0.063700
-0.063700
-0.063700
-0.063700
-0.063700
-0.063700
-0.063700
-0.063700
-0.063700
-0.063700
-0.063700
-0.063700
-0.063700
-0.063700
-0.063700
-0.063700
-0.063700
-0.063700
-0.063700
-0.063700
-0.063700
-0.063700
-0.063700
-0.063700
-0.063700
-0.063700
-0.063700
-0.063700
-0.063700
-0.063700
-0.063700
-0.063700
-0.063700
-0.063700
-0.063700
-0.063700
-0.063700
-0.063700
-0.063700
-0.063700
-0.063700
-0.063700
-0.063700
-0.063700
-0.063700
-0.063700
-0.063700
-0.063700
-0.063700
-0.063700
-0.063700
-0.063700
-0.063700
-0.063700
-0.063700
-0.063700
-0.063700
-0.063700
-0.063700
-0.063700
-0.063700
-0.063700
-0.063700
-0.063700
-0.063700
-0.063700
-0.063700
-0.063700
-0.063700
-0.063700
-0.063700
-0.063700
-0.063700
-0.063700
-0.063700
-0.063700
-0.063700
-0.063700
-0.063700
-0.063700
-0.063700
-0.063700
-0.063700
-0.063700
-0.063700
-0.063700
-0.063700
-0.063700
-0.063700
-0.063700
-0.063700
-0.063700
-0.063700
-0.063700
-0.063700
-0.063700
-0.063700
-0.063700
-0.063700
-0.063700
-0.063700
-0.063700
-0.063700
-0.063700
-0.063700
-0.063700
-0.063700
-0.063700
-0.063700
-0.063700
-0.063700
-0.063700
-0.063700
-0.063700
-0.063700
-0.063700
-0.063700
-0.063700
-0.063700
-0.063700
-0.063700
-0.063700
-0.063700
-0.063700
-0.063700
0.000000
-0.012601
-0.012601
-0.012601
-0.012601
-0.012601
-0.012601
-0.012601
-0.012601
-0.012601
-0.012601
-0.012601
-0.012601
-0.012601
-0.012601
-0.012601
-0.012601
-0.012601
-0.012601
-0.012601
-0.012601
-0.012601
-0.012601
-0.012601
-0.012601
-0.012601
-0.012601
-0.012601
-0.012601
-0.012601
-0.012601
-0.012601
-0.012601
-0.012601
-0.012601
-0.012601
-0.012601
-0.012601
-0.012601
-0.012601
-0.012601
-0.012601
-0.012601
-0.012601
-0.012601
-0.012601
-0.012601
-0.012601
-0.012601
-0.012601
-0.012601
-0.012601
-0.012601
-0.012601
-0.012601
-0.012601
-0.012601
-0.012601
-0.012601
-0.012601
-0.012601
-0.012601
-0.012601
-0.012601
-0.012601
-0.012601
-0.012601
-0.012601
-0.012601
-0.012601
-0.012601
-0.012601
-0.012601
-0.012601
-0.012601
-0.012601
-0.012601
-0.012601
-0.012601
-0.012601
-0.012601
-0.012601
-0.012601
-0.012601
-0.012601
-0.012601
-0.012601
-0.012601
-0.012601
-0.012601
-0.012601
-0.012601
-0.012601
-0.012601
-0.012601
-0.012601
-0.012601
-0.012601
-0.012601
-0.012601
-0.012601
-0.012601
-0.012601
-0.012601
-0.012601
-0.012601
-0.012601
-0.012601
-0.012601
-0.012601
-0.012601
-0.012601
-0.012601
-0.012601
-0.012601
-0.012601
-0.012601
-0.012601
-0.012601
-0.012601
-0.012601
-0.012601
-0.012601
-0.012601
-0.012601
-0.012601
-0.012601
-0.012601
-0.012601
0.000000
0.000000
0.000000
0.000000
0.000000
0.000000
0.000000
0.000000
0.000000
0.000000
0.000000
0.000000
0.000000
0.000000
0.000000
0.000000
0.000000
0.000000
0.000000
0.000000
0.000000
0.000000
0.000000
0.000000
0.000000
0.000000
0.000000
0.000000
0.000000
0.000000
0.000000
0.000000
0.000000
0.000000
0.000000
0.000000
0.000000
0.000000
0.000000
0.000000
0.000000
0.000000
0.000000
0.000000
0.000000
0.000000
0.000000
0.000000
0.000000
0.000000
0.000000
0.000000
0.000000
0.000000
0.000000
0.000000
0.000000
0.000000
0.000000
0.000000
0.000000
0.000000
0.000000
0.000000
0.000000
0.000000
0.000000
0.000000
0.000000
0.000000
0.000000
0.000000
0.000000
0.000000
0.000000
0.000000
0.000000
0.000000
0.000000
0.000000
0.000000
0.000000
0.000000
0.000000
0.000000
0.000000
0.000000
0.000000
0.000000
0.000000
0.000000
0.000000
0.000000
0.000000
0.000000
0.000000
0.000000
0.000000
0.000000
0.000000
0.000000
0.000000
0.000000
0.000000
0.000000
0.000000
0.000000
0.000000
0.000000
0.000000
0.000000
0.000000
0.000000
0.000000
0.000000
0.000000
0.000000
0.000000
0.000000
0.000000
0.000000
0.000000
0.000000
0.000000
0.000000
0.000000
0.000000
0.000000
0.000000
0.000000
-0.020670
-0.020670
-0.020670
-0.020670
-0.020670
-0.020670
-0.020670
-0.020670
-0.020670
-0.020670
-0.020670
-0.020670
-0.020670
-0.020670
-0.020670
-0.020670
-0.020670
-0.020670
-0.020670
-0.020670
-0.020670
-0.020670
-0.020670
-0.020670
-0.020670
-0.020670
-0.020670
-0.020670
-0.020670
-0.020670
-0.020670
-0.020670
-0.020670
-0.020670
-0.020670
-0.020670
-0.020670
-0.020670
-0.020670
-0.020670
-0.020670
-0.020670
-0.020670
-0.020670
-0.020670
-0.020670
-0.020670
-0.020670
-0.020670
-0.020670
-0.020670
-0.020670
-0.020670
-0.020670
-0.020670
-0.020670
-0.020670
-0.020670
-0.020670
-0.020670
-0.020670
-0.020670
-0.020670
-0.020670
-0.020670
-0.020670
-0.020670
-0.020670
-0.020670
-0.020670
-0.020670
-0.020670
-0.020670
-0.020670
-0.020670
-0.020670
-0.020670
-0.020670
-0.020670
-0.020670
-0.020670
-0.020670
-0.020670
-0.020670
-0.020670
-0.020670
-0.020670
-0.020670
-0.020670
-0.020670
-0.020670
-0.020670
-0.020670
-0.020670
-0.020670
-0.020670
-0.020670
-0.020670
-0.020670
-0.020670
-0.020670
-0.020670
-0.020670
-0.020670
-0.020670
-0.020670
-0.020670
-0.020670
-0.020670
-0.020670
-0.020670
-0.020670
-0.020670
-0.020670
-0.020670
-0.020670
-0.020670
-0.020670
-0.020670
-0.020670
-0.020670
-0.020670
-0.020670
-0.020670
-0.020670
-0.020670
-0.020670
-0.020670
0.000000
0.000000
0.000000
0.000000
0.000000
0.000000
0.000000
0.000000
0.000000
0.000000
0.000000
0.000000
0.000000
0.000000
0.000000
0.000000
0.000000
0.000000
0.000000
0.000000
0.000000
0.000000
0.000000
0.000000
0.000000
0.000000
0.000000
0.000000
0.000000
0.000000
0.000000
0.000000
0.000000
0.000000
0.000000
0.000000
0.000000
0.000000
0.000000
0.000000
0.000000
0.000000
0.000000
0.000000
0.000000
0.000000
0.000000
0.000000
0.000000
0.000000
0.000000
0.000000
0.000000
0.000000
0.000000
0.000000
0.000000
0.000000
0.000000
0.000000
0.000000
0.000000
0.000000
0.000000
0.000000
0.000000
0.000000
0.000000
0.000000
0.000000
0.000000
0.000000
0.000000
0.000000
0.000000
0.000000
0.000000
0.000000
0.000000
0.000000
0.000000
0.000000
0.000000
0.000000
0.000000
0.000000
0.000000
0.000000
0.000000
0.000000
0.000000
0.000000
0.000000
0.000000
0.000000
0.000000
0.000000
0.000000
0.000000
0.000000
0.000000
0.000000
0.000000
0.000000
0.000000
0.000000
0.000000
0.000000
0.000000
0.000000
0.000000
0.000000
0.000000
0.000000
0.000000
0.000000
0.000000
0.000000
0.000000
0.000000
0.000000
0.000000
0.000000
0.000000
0.000000
0.000000
0.000000
0.000000
0.000000
0.000000
-0.012601
-0.012601
-0.012601
-0.012601
-0.012601
-0.012601
-0.012601
-0.012601
-0.012601
-0.012601
-0.012601
-0.012601
-0.012601
-0.012601
-0.012601
-0.012601
-0.012601
-0.012601
-0.012601
-0.012601
-0.012601
-0.012601
-0.012601
-0.012601
-0.012601
-0.012601
-0.012601
-0.012601
-0.012601
-0.012601
-0.012601
-0.012601
-0.012601
-0.012601
-0.012601
-0.012601
-0.012601
-0.012601
-0.012601
-0.012601
-0.012601
-0.012601
-0.012601
-0.012601
-0.012601
-0.012601
-0.012601
-0.012601
-0.012601
-0.012601
-0.012601
-0.012601
-0.012601
-0.012601
-0.012601
-0.012601
-0.012601
-0.012601
-0.012601
-0.012601
-0.012601
-0.012601
-0.012601
-0.012601
-0.012601
-0.012601
-0.012601
-0.012601
-0.012601
-0.012601
-0.012601
-0.012601
-0.012601
-0.012601
-0.012601
-0.012601
-0.012601
-0.012601
-0.012601
-0.012601
-0.012601
-0.012601
-0.012601
-0.012601
-0.012601
-0.012601
-0.012601
-0.012601
-0.012601
-0.012601
-0.012601
-0.012601
-0.012601
-0.012601
-0.012601
-0.012601
-0.012601
-0.012601
-0.012601
-0.012601
-0.012601
-0.012601
-0.012601
-0.012601
-0.012601
-0.012601
-0.012601
-0.012601
-0.012601
-0.012601
-0.012601
-0.012601
-0.012601
-0.012601
-0.012601
-0.012601
-0.012601
-0.012601
-0.012601
-0.012601
-0.012601
-0.012601
-0.012601
-0.012601
-0.012601
-0.012601
-0.012601
-0.012601
0.000000
-0.056705
-0.056705
-0.056705
-0.056705
-0.056705
-0.056705
-0.056705
-0.056705
-0.056705
-0.056705
-0.056705
-0.056705
-0.056705
-0.056705
-0.056705
-0.056705
-0.056705
-0.056705
-0.056705
-0.056705
-0.056705
-0.056705
-0.056705
-0.056705
-0.056705
-0.056705
-0.056705
-0.056705
-0.056705
-0.056705
-0.056705
-0.056705
-0.056705
-0.056705
-0.056705
-0.056705
-0.056705
-0.056705
-0.056705
-0.056705
-0.056705
-0.056705
-0.056705
-0.056705
-0.056705
-0.056705
-0.056705
-0.056705
-0.056705
-0.056705
-0.056705
-0.056705
-0.056705
-0.056705
-0.056705
-0.056705
-0.056705
-0.056705
-0.056705
-0.056705
-0.056705
-0.056705
-0.056705
-0.056705
-0.056705
-0.056705
-0.056705
-0.056705
-0.056705
-0.056705
-0.056705
-0.056705
-0.056705
-0.056705
-0.056705
-0.056705
-0.056705
-0.056705
-0.056705
-0.056705
-0.056705
-0.056705
-0.056705
-0.056705
-0.056705
-0.056705
-0.056705
-0.056705
-0.056705
-0.056705
-0.056705
-0.056705
-0.056705
-0.056705
-0.056705
-0.056705
-0.056705
-0.056705
-0.056705
-0.056705
-0.056705
-0.056705
-0.056705
-0.056705
-0.056705
-0.056705
-0.056705
-0.056705
-0.056705
-0.056705
-0.056705
-0.056705
-0.056705
-0.056705
-0.056705
-0.056705
-0.056705
-0.056705
-0.056705
-0.056705
-0.056705
-0.056705
-0.056705
-0.056705
-0.056705
-0.056705
-0.056705
-0.056705
0.000000
-0.034396
-0.034396
-0.034396
-0.034396
-0.034396
-0.034396
-0.034396
-0.034396
-0.034396
-0.034396
-0.034396
-0.034396
-0.034396
-0.034396
-0.034396
-0.034396
-0.034396
-0.034396
-0.034396
-0.034396
-0.034396
-0.034396
-0.034396
-0.034396
-0.034396
-0.034396
-0.034396
-0.034396
-0.034396
-0.034396
-0.034396
-0.034396
-0.034396
-0.034396
-0.034396
-0.034396
-0.034396
-0.034396
-0.034396
-0.034396
-0.034396
-0.034396
-0.034396
-0.034396
-0.034396
-0.034396
-0.034396
-0.034396
-0.034396
-0.034396
-0.034396
-0.034396
-0.034396
-0.034396
-0.034396
-0.034396
-0.034396
-0.034396
-0.034396
-0.034396
-0.034396
-0.034396
-0.034396
-0.034396
-0.034396
-0.034396
-0.034396
-0.034396
-0.034396
-0.034396
-0.034396
-0.034396
-0.034396
-0.034396
-0.034396
-0.034396
-0.034396
-0.034396
-0.034396
-0.034396
-0.034396
-0.034396
-0.034396
-0.034396
-0.034396
-0.034396
-0.034396
-0.034396
-0.034396
-0.034396
-0.034396
-0.034396
-0.034396
-0.034396
-0.034396
-0.034396
-0.034396
-0.034396
-0.034396
-0.034396
-0.034396
-0.034396
-0.034396
-0.034396
-0.034396
-0.034396
-0.034396
-0.034396
-0.034396
-0.034396
-0.034396
-0.034396
-0.034396
-0.034396
-0.034396
-0.034396
-0.034396
-0.034396
-0.034396
-0.034396
-0.034396
-0.034396
-0.034396
-0.034396
-0.034396
-0.034396
-0.034396
-0.034396
0.000000
-0.046261
-0.046261
-0.046261
-0.046261
-0.046261
-0.046261
-0.046261
-0.046261
-0.046261
-0.046261
-0.046261
-0.046261
-0.046261
-0.046261
-0.046261
-0.046261
-0.046261
-0.046261
-0.046261
-0.046261
-0.046261
-0.046261
-0.046261
-0.046261
-0.046261
-0.046261
-0.046261
-0.046261
-0.046261
-0.046261
-0.046261
-0.046261
-0.046261
-0.046261
-0.046261
-0.046261
-0.046261
-0.046261
-0.046261
-0.046261
-0.046261
-0.046261
-0.046261
-0.046261
-0.046261
-0.046261
-0.046261
-0.046261
-0.046261
-0.046261
-0.046261
-0.046261
-0.046261
-0.046261
-0.046261
-0.046261
-0.046261
-0.046261
-0.046261
-0.046261
-0.046261
-0.046261
-0.046261
-0.046261
-0.046261
-0.046261
-0.046261
-0.046261
-0.046261
-0.046261
-0.046261
-0.046261
-0.046261
-0.046261
-0.046261
-0.046261
-0.046261
-0.046261
-0.046261
-0.046261
-0.046261
-0.046261
-0.046261
-0.046261
-0.046261
-0.046261
-0.046261
-0.046261
-0.046261
-0.046261
-0.046261
-0.046261
-0.046261
-0.046261
-0.046261
-0.046261
-0.046261
-0.046261
-0.046261
-0.046261
-0.046261
-0.046261
-0.046261
-0.046261
-0.046261
-0.046261
-0.046261
-0.046261
-0.046261
-0.046261
-0.046261
-0.046261
-0.046261
-0.046261
-0.046261
-0.046261
-0.046261
-0.046261
-0.046261
-0.046261
-0.046261
-0.046261
-0.046261
-0.046261
-0.046261
-0.046261
-0.046261
-0.046261
0.000000
0.018673
0.018673
0.018673
0.018673
0.018673
0.018673
0.018673
0.018673
0.018673
0.018673
0.018673
0.018673
0.018673
0.018673
0.018673
0.018673
0.018673
0.018673
0.018673
0.018673
0.018673
0.018673
0.018673
0.018673
0.018673
0.018673
0.018673
0.018673
0.018673
0.018673
0.018673
0.018673
0.018673
0.018673
0.018673
0.018673
0.018673
0.018673
0.018673
0.018673
0.018673
0.018673
0.018673
0.018673
0.018673
0.018673
0.018673
0.018673
0.018673
0.018673
0.018673
0.018673
0.018673
0.018673
0.018673
0.018673
0.018673
0.018673
0.018673
0.018673
0.018673
0.018673
0.018673
0.018673
0.018673
0.018673
0.018673
0.018673
0.018673
0.018673
0.018673
0.018673
0.018673
0.018673
0.018673
0.018673
0.018673
0.018673
0.018673
0.018673
0.018673
0.018673
0.018673
0.018673
0.018673
0.018673
0.018673
0.018673
0.018673
0.018673
0.018673
0.018673
0.018673
0.018673
0.018673
0.018673
0.018673
0.018673
0.018673
0.018673
0.018673
0.018673
0.018673
0.018673
0.018673
0.018673
0.018673
0.018673
0.018673
0.018673
0.018673
0.018673
0.018673
0.018673
0.018673
0.018673
0.018673
0.018673
0.018673
0.018673
0.018673
0.018673
0.018673
0.018673
0.018673
0.018673
0.018673
0.018673
0.000000
-0.099495
-0.099495
-0.099495
-0.099495
-0.099495
-0.099495
-0.099495
-0.099495
-0.099495
-0.099495
-0.099495
-0.099495
-0.099495
-0.099495
-0.099495
-0.099495
-0.099495
-0.099495
-0.099495
-0.099495
-0.099495
-0.099495
-0.099495
-0.099495
-0.099495
-0.099495
-0.099495
-0.099495
-0.099495
-0.099495
-0.099495
-0.099495
-0.099495
-0.099495
-0.099495
-0.099495
-0.099495
-0.099495
-0.099495
-0.099495
-0.099495
-0.099495
-0.099495
-0.099495
-0.099495
-0.099495
-0.099495
-0.099495
-0.099495
-0.099495
-0.099495
-0.099495
-0.099495
-0.099495
-0.099495
-0.099495
-0.099495
-0.099495
-0.099495
-0.099495
-0.099495
-0.099495
-0.099495
-0.099495
-0.099495
-0.099495
-0.099495
-0.099495
-0.099495
-0.099495
-0.099495
-0.099495
-0.099495
-0.099495
-0.099495
-0.099495
-0.099495
-0.099495
-0.099495
-0.099495
-0.099495
-0.099495
-0.099495
-0.099495
-0.099495
-0.099495
-0.099495
-0.099495
-0.099495
-0.099495
-0.099495
-0.099495
-0.099495
-0.099495
-0.099495
-0.099495
-0.099495
-0.099495
-0.099495
-0.099495
-0.099495
-0.099495
-0.099495
-0.099495
-0.099495
-0.099495
-0.099495
-0.099495
-0.099495
-0.099495
-0.099495
-0.099495
-0.099495
-0.099495
-0.099495
-0.099495
-0.099495
-0.099495
-0.099495
-0.099495
-0.099495
-0.099495
-0.099495
-0.099495
-0.099495
-0.099495
-0.099495
-0.099495
0.000000
-0.008864
-0.008864
-0.008864
-0.008864
-0.008864
-0.008864
-0.008864
-0.008864
-0.008864
-0.008864
-0.008864
-0.008864
-0.008864
-0.008864
-0.008864
-0.008864
-0.008864
-0.008864
-0.008864
-0.008864
-0.008864
-0.008864
-0.008864
-0.008864
-0.008864
-0.008864
-0.008864
-0.008864
-0.008864
-0.008864
-0.008864
-0.008864
-0.008864
-0.008864
-0.008864
-0.008864
-0.008864
-0.008864
-0.008864
-0.008864
-0.008864
-0.008864
-0.008864
-0.008864
-0.008864
-0.008864
-0.008864
-0.008864
-0.008864
-0.008864
-0.008864
-0.008864
-0.008864
-0.008864
-0.008864
-0.008864
-0.008864
-0.008864
-0.008864
-0.008864
-0.008864
-0.008864
-0.008864
-0.008864
-0.008864
-0.008864
-0.008864
-0.008864
-0.008864
-0.008864
-0.008864
-0.008864
-0.008864
-0.008864
-0.008864
-0.008864
-0.008864
-0.008864
-0.008864
-0.008864
-0.008864
-0.008864
-0.008864
-0.008864
-0.008864
-0.008864
-0.008864
-0.008864
-0.008864
-0.008864
-0.008864
-0.008864
-0.008864
-0.008864
-0.008864
-0.008864
-0.008864
-0.008864
-0.008864
-0.008864
-0.008864
-0.008864
-0.008864
-0.008864
-0.008864
-0.008864
-0.008864
-0.008864
-0.008864
-0.008864
-0.008864
-0.008864
-0.008864
-0.008864
-0.008864
-0.008864
-0.008864
-0.008864
-0.008864
-0.008864
-0.008864
-0.008864
-0.008864
-0.008864
-0.008864
-0.008864
-0.008864
-0.008864
0.000000
-0.014546
-0.014546
-0.014546
-0.014546
-0.014546
-0.014546
-0.014546
-0.014546
-0.014546
-0.014546
-0.014546
-0.014546
-0.014546
-0.014546
-0.014546
-0.014546
-0.014546
-0.014546
-0.014546
-0.014546
-0.014546
-0.014546
-0.014546
-0.014546
-0.014546
-0.014546
-0.014546
-0.014546
-0.014546
-0.014546
-0.014546
-0.014546
-0.014546
-0.014546
-0.014546
-0.014546
-0.014546
-0.014546
-0.014546
-0.014546
-0.014546
-0.014546
-0.014546
-0.014546
-0.014546
-0.014546
-0.014546
-0.014546
-0.014546
-0.014546
-0.014546
-0.014546
-0.014546
-0.014546
-0.014546
-0.014546
-0.014546
-0.014546
-0.014546
-0.014546
-0.014546
-0.014546
-0.014546
-0.014546
-0.014546
-0.014546
-0.014546
-0.014546
-0.014546
-0.014546
-0.014546
-0.014546
-0.014546
-0.014546
-0.014546
-0.014546
-0.014546
-0.014546
-0.014546
-0.014546
-0.014546
-0.014546
-0.014546
-0.014546
-0.014546
-0.014546
-0.014546
-0.014546
-0.014546
-0.014546
-0.014546
-0.014546
-0.014546
-0.014546
-0.014546
-0.014546
-0.014546
-0.014546
-0.014546
-0.014546
-0.014546
-0.014546
-0.014546
-0.014546
-0.014546
-0.014546
-0.014546
-0.014546
-0.014546
-0.014546
-0.014546
-0.014546
-0.014546
-0.014546
-0.014546
-0.014546
-0.014546
-0.014546
-0.014546
-0.014546
-0.014546
-0.014546
-0.014546
-0.014546
-0.014546
-0.014546
-0.014546
-0.014546
0.000000
0.017207
0.017207
0.017207
0.017207
0.017207
0.017207
0.017207
0.017207
0.017207
0.017207
0.017207
0.017207
0.017207
0.017207
0.017207
0.017207
0.017207
0.017207
0.017207
0.017207
0.017207
0.017207
0.017207
0.017207
0.017207
0.017207
0.017207
0.017207
0.017207
0.017207
0.017207
0.017207
0.017207
0.017207
0.017207
0.017207
0.017207
0.017207
0.017207
0.017207
0.017207
0.017207
0.017207
0.017207
0.017207
0.017207
0.017207
0.017207
0.017207
0.017207
0.017207
0.017207
0.017207
0.017207
0.017207
0.017207
0.017207
0.017207
0.017207
0.017207
0.017207
0.017207
0.017207
0.017207
0.017207
0.017207
0.017207
0.017207
0.017207
0.017207
0.017207
0.017207
0.017207
0.017207
0.017207
0.017207
0.017207
0.017207
0.017207
0.017207
0.017207
0.017207
0.017207
0.017207
0.017207
0.017207
0.017207
0.017207
0.017207
0.017207
0.017207
0.017207
0.017207
0.017207
0.017207
0.017207
0.017207
0.017207
0.017207
0.017207
0.017207
0.017207
0.017207
0.017207
0.017207
0.017207
0.017207
0.017207
0.017207
0.017207
0.017207
0.017207
0.017207
0.017207
0.017207
0.017207
0.017207
0.017207
0.017207
0.017207
0.017207
0.017207
0.017207
0.017207
0.017207
0.017207
0.017207
0.017207
0.000000
-0.074867
-0.074867
-0.074867
-0.074867
-0.074867
-0.074867
-0.074867
-0.074867
-0.074867
-0.074867
-0.074867
-0.074867
-0.074867
-0.074867
-0.074867
-0.074867
-0.074867
-0.074867
-0.074867
-0.074867
-0.074867
-0.074867
-0.074867
-0.074867
-0.074867
-0.074867
-0.074867
-0.074867
-0.074867
-0.074867
-0.074867
-0.074867
-0.074867
-0.074867
-0.074867
-0.074867
-0.074867
-0.074867
-0.074867
-0.074867
-0.074867
-0.074867
-0.074867
-0.074867
-0.074867
-0.074867
-0.074867
-0.074867
-0.074867
-0.074867
-0.074867
-0.074867
-0.074867
-0.074867
-0.074867
-0.074867
-0.074867
-0.074867
-0.074867
-0.074867
-0.074867
-0.074867
-0.074867
-0.074867
-0.074867
-0.074867
-0.074867
-0.074867
-0.074867
-0.074867
-0.074867
-0.074867
-0.074867
-0.074867
-0.074867
-0.074867
-0.074867
-0.074867
-0.074867
-0.074867
-0.074867
-0.074867
-0.074867
-0.074867
-0.074867
-0.074867
-0.074867
-0.074867
-0.074867
-0.074867
-0.074867
-0.074867
-0.074867
-0.074867
-0.074867
-0.074867
-0.074867
-0.074867
-0.074867
-0.074867
-0.074867
-0.074867
-0.074867
-0.074867
-0.074867
-0.074867
-0.074867
-0.074867
-0.074867
-0.074867
-0.074867
-0.074867
-0.074867
-0.074867
-0.074867
-0.074867
-0.074867
-0.074867
-0.074867
-0.074867
-0.074867
-0.074867
-0.074867
-0.074867
-0.074867
-0.074867
-0.074867
-0.074867
0.000000
-0.046261
-0.046261
-0.046261
-0.046261
-0.046261
-0.046261
-0.046261
-0.046261
-0.046261
-0.046261
-0.046261
-0.046261
-0.046261
-0.046261
-0.046261
-0.046261
-0.046261
-0.046261
-0.046261
-0.046261
-0.046261
-0.046261
-0.046261
-0.046261
-0.046261
-0.046261
-0.046261
-0.046261
-0.046261
-0.046261
-0.046261
-0.046261
-0.046261
-0.046261
-0.046261
-0.046261
-0.046261
-0.046261
-0.046261
-0.046261
-0.046261
-0.046261
-0.046261
-0.046261
-0.046261
-0.046261
-0.046261
-0.046261
-0.046261
-0.046261
-0.046261
-0.046261
-0.046261
-0.046261
-0.046261
-0.046261
-0.046261
-0.046261
-0.046261
-0.046261
-0.046261
-0.046261
-0.046261
-0.046261
-0.046261
-0.046261
-0.046261
-0.046261
-0.046261
-0.046261
-0.046261
-0.046261
-0.046261
-0.046261
-0.046261
-0.046261
-0.046261
-0.046261
-0.046261
-0.046261
-0.046261
-0.046261
-0.046261
-0.046261
-0.046261
-0.046261
-0.046261
-0.046261
-0.046261
-0.046261
-0.046261
-0.046261
-0.046261
-0.046261
-0.046261
-0.046261
-0.046261
-0.046261
-0.046261
-0.046261
-0.046261
-0.046261
-0.046261
-0.046261
-0.046261
-0.046261
-0.046261
-0.046261
-0.046261
-0.046261
-0.046261
-0.046261
-0.046261
-0.046261
-0.046261
-0.046261
-0.046261
-0.046261
-0.046261
-0.046261
-0.046261
-0.046261
-0.046261
-0.046261
-0.046261
-0.046261
-0.046261
-0.046261
0.000000
-0.010075
-0.010075
-0.010075
-0.010075
-0.010075
-0.010075
-0.010075
-0.010075
-0.010075
-0.010075
-0.010075
-0.010075
-0.010075
-0.010075
-0.010075
-0.010075
-0.010075
-0.010075
-0.010075
-0.010075
-0.010075
-0.010075
-0.010075
-0.010075
-0.010075
-0.010075
-0.010075
-0.010075
-0.010075
-0.010075
-0.010075
-0.010075
-0.010075
-0.010075
-0.010075
-0.010075
-0.010075
-0.010075
-0.010075
-0.010075
-0.010075
-0.010075
-0.010075
-0.010075
-0.010075
-0.010075
-0.010075
-0.010075
-0.010075
-0.010075
-0.010075
-0.010075
-0.010075
-0.010075
-0.010075
-0.010075
-0.010075
-0.010075
-0.010075
-0.010075
-0.010075
-0.010075
-0.010075
-0.010075
-0.010075
-0.010075
-0.010075
-0.010075
-0.010075
-0.010075
-0.010075
-0.010075
-0.010075
-0.010075
-0.010075
-0.010075
-0.010075
-0.010075
-0.010075
-0.010075
-0.010075
-0.010075
-0.010075
-0.010075
-0.010075
-0.010075
-0.010075
-0.010075
-0.010075
-0.010075
-0.010075
-0.010075
-0.010075
-0.010075
-0.010075
-0.010075
-0.010075
-0.010075
-0.010075
-0.010075
-0.010075
-0.010075
-0.010075
-0.010075
-0.010075
-0.010075
-0.010075
-0.010075
-0.010075
-0.010075
-0.010075
-0.010075
-0.010075
-0.010075
-0.010075
-0.010075
-0.010075
-0.010075
-0.010075
-0.010075
-0.010075
-0.010075
-0.010075
-0.010075
-0.010075
-0.010075
-0.010075
-0.010075
0.000000
0.000000
0.000000
0.000000
0.000000
0.000000
0.000000
0.000000
0.000000
0.000000
0.000000
0.000000
0.000000
0.000000
0.000000
0.000000
0.000000
0.000000
0.000000
0.000000
0.000000
0.000000
0.000000
0.000000
0.000000
0.000000
0.000000
0.000000
0.000000
0.000000
0.000000
0.000000
0.000000
0.000000
0.000000
0.000000
0.000000
0.000000
0.000000
0.000000
0.000000
0.000000
0.000000
0.000000
0.000000
0.000000
0.000000
0.000000
0.000000
0.000000
0.000000
0.000000
0.000000
0.000000
0.000000
0.000000
0.000000
0.000000
0.000000
0.000000
0.000000
0.000000
0.000000
0.000000
0.000000
0.000000
0.000000
0.000000
0.000000
0.000000
0.000000
0.000000
0.000000
0.000000
0.000000
0.000000
0.000000
0.000000
0.000000
0.000000
0.000000
0.000000
0.000000
0.000000
0.000000
0.000000
0.000000
0.000000
0.000000
0.000000
0.000000
0.000000
0.000000
0.000000
0.000000
0.000000
0.000000
0.000000
0.000000
0.000000
0.000000
0.000000
0.000000
0.000000
0.000000
0.000000
0.000000
0.000000
0.000000
0.000000
0.000000
0.000000
0.000000
0.000000
0.000000
0.000000
0.000000
0.000000
0.000000
0.000000
0.000000
0.000000
0.000000
0.000000
0.000000
0.000000
0.000000
0.000000
0.000000
0.000000
-0.012601
-0.012601
-0.012601
-0.012601
-0.012601
-0.012601
-0.012601
-0.012601
-0.012601
-0.012601
-0.012601
-0.012601
-0.012601
-0.012601
-0.012601
-0.012601
-0.012601
-0.012601
-0.012601
-0.012601
-0.012601
-0.012601
-0.012601
-0.012601
-0.012601
-0.012601
-0.012601
-0.012601
-0.012601
-0.012601
-0.012601
-0.012601
-0.012601
-0.012601
-0.012601
-0.012601
-0.012601
-0.012601
-0.012601
-0.012601
-0.012601
-0.012601
-0.012601
-0.012601
-0.012601
-0.012601
-0.012601
-0.012601
-0.012601
-0.012601
-0.012601
-0.012601
-0.012601
-0.012601
-0.012601
-0.012601
-0.012601
-0.012601
-0.012601
-0.012601
-0.012601
-0.012601
-0.012601
-0.012601
-0.012601
-0.012601
-0.012601
-0.012601
-0.012601
-0.012601
-0.012601
-0.012601
-0.012601
-0.012601
-0.012601
-0.012601
-0.012601
-0.012601
-0.012601
-0.012601
-0.012601
-0.012601
-0.012601
-0.012601
-0.012601
-0.012601
-0.012601
-0.012601
-0.012601
-0.012601
-0.012601
-0.012601
-0.012601
-0.012601
-0.012601
-0.012601
-0.012601
-0.012601
-0.012601
-0.012601
-0.012601
-0.012601
-0.012601
-0.012601
-0.012601
-0.012601
-0.012601
-0.012601
-0.012601
-0.012601
-0.012601
-0.012601
-0.012601
-0.012601
-0.012601
-0.012601
-0.012601
-0.012601
-0.012601
-0.012601
-0.012601
-0.012601
-0.012601
-0.012601
-0.012601
-0.012601
-0.012601
-0.012601
0.000000
-0.004839
-0.004839
-0.004839
-0.004839
-0.004839
-0.004839
-0.004839
-0.004839
-0.004839
-0.004839
-0.004839
-0.004839
-0.004839
-0.004839
-0.004839
-0.004839
-0.004839
-0.004839
-0.004839
-0.004839
-0.004839
-0.004839
-0.004839
-0.004839
-0.004839
-0.004839
-0.004839
-0.004839
-0.004839
-0.004839
-0.004839
-0.004839
-0.004839
-0.004839
-0.004839
-0.004839
-0.004839
-0.004839
-0.004839
-0.004839
-0.004839
-0.004839
-0.004839
-0.004839
-0.004839
-0.004839
-0.004839
-0.004839
-0.004839
-0.004839
-0.004839
-0.004839
-0.004839
-0.004839
-0.004839
-0.004839
-0.004839
-0.004839
-0.004839
-0.004839
-0.004839
-0.004839
-0.004839
-0.004839
-0.004839
-0.004839
-0.004839
-0.004839
-0.004839
-0.004839
-0.004839
-0.004839
-0.004839
-0.004839
-0.004839
-0.004839
-0.004839
-0.004839
-0.004839
-0.004839
-0.004839
-0.004839
-0.004839
-0.004839
-0.004839
-0.004839
-0.004839
-0.004839
-0.004839
-0.004839
-0.004839
-0.004839
-0.004839
-0.004839
-0.004839
-0.004839
-0.004839
-0.004839
-0.004839
-0.004839
-0.004839
-0.004839
-0.004839
-0.004839
-0.004839
-0.004839
-0.004839
-0.004839
-0.004839
-0.004839
-0.004839
-0.004839
-0.004839
-0.004839
-0.004839
-0.004839
-0.004839
-0.004839
-0.004839
-0.004839
-0.004839
-0.004839
-0.004839
-0.004839
-0.004839
-0.004839
-0.004839
-0.004839
0.000000
0.000000
0.000000
0.000000
0.000000
0.000000
0.000000
0.000000
0.000000
0.000000
0.000000
0.000000
0.000000
0.000000
0.000000
0.000000
0.000000
0.000000
0.000000
0.000000
0.000000
0.000000
0.000000
0.000000
0.000000
0.000000
0.000000
0.000000
0.000000
0.000000
0.000000
0.000000
0.000000
0.000000
0.000000
0.000000
0.000000
0.000000
0.000000
0.000000
0.000000
0.000000
0.000000
0.000000
0.000000
0.000000
0.000000
0.000000
0.000000
0.000000
0.000000
0.000000
0.000000
0.000000
0.000000
0.000000
0.000000
0.000000
0.000000
0.000000
0.000000
0.000000
0.000000
0.000000
0.000000
0.000000
0.000000
0.000000
0.000000
0.000000
0.000000
0.000000
0.000000
0.000000
0.000000
0.000000
0.000000
0.000000
0.000000
0.000000
0.000000
0.000000
0.000000
0.000000
0.000000
0.000000
0.000000
0.000000
0.000000
0.000000
0.000000
0.000000
0.000000
0.000000
0.000000
0.000000
0.000000
0.000000
0.000000
0.000000
0.000000
0.000000
0.000000
0.000000
0.000000
0.000000
0.000000
0.000000
0.000000
0.000000
0.000000
0.000000
0.000000
0.000000
0.000000
0.000000
0.000000
0.000000
0.000000
0.000000
0.000000
0.000000
0.000000
0.000000
0.000000
0.000000
0.000000
0.000000
0.000000
0.000000
-0.012601
-0.012601
-0.012601
-0.012601
-0.012601
-0.012601
-0.012601
-0.012601
-0.012601
-0.012601
-0.012601
-0.012601
-0.012601
-0.012601
-0.012601
-0.012601
-0.012601
-0.012601
-0.012601
-0.012601
-0.012601
-0.012601
-0.012601
-0.012601
-0.012601
-0.012601
-0.012601
-0.012601
-0.012601
-0.012601
-0.012601
-0.012601
-0.012601
-0.012601
-0.012601
-0.012601
-0.012601
-0.012601
-0.012601
-0.012601
-0.012601
-0.012601
-0.012601
-0.012601
-0.012601
-0.012601
-0.012601
-0.012601
-0.012601
-0.012601
-0.012601
-0.012601
-0.012601
-0.012601
-0.012601
-0.012601
-0.012601
-0.012601
-0.012601
-0.012601
-0.012601
-0.012601
-0.012601
-0.012601
-0.012601
-0.012601
-0.012601
-0.012601
-0.012601
-0.012601
-0.012601
-0.012601
-0.012601
-0.012601
-0.012601
-0.012601
-0.012601
-0.012601
-0.012601
-0.012601
-0.012601
-0.012601
-0.012601
-0.012601
-0.012601
-0.012601
-0.012601
-0.012601
-0.012601
-0.012601
-0.012601
-0.012601
-0.012601
-0.012601
-0.012601
-0.012601
-0.012601
-0.012601
-0.012601
-0.012601
-0.012601
-0.012601
-0.012601
-0.012601
-0.012601
-0.012601
-0.012601
-0.012601
-0.012601
-0.012601
-0.012601
-0.012601
-0.012601
-0.012601
-0.012601
-0.012601
-0.012601
-0.012601
-0.012601
-0.012601
-0.012601
-0.012601
-0.012601
-0.012601
-0.012601
-0.012601
-0.012601
-0.012601
0.000000
-0.078775
-0.078775
-0.078775
-0.078775
-0.078775
-0.078775
-0.078775
-0.078775
-0.078775
-0.078775
-0.078775
-0.078775
-0.078775
-0.078775
-0.078775
-0.078775
-0.078775
-0.078775
-0.078775
-0.078775
-0.078775
-0.078775
-0.078775
-0.078775
-0.078775
-0.078775
-0.078775
-0.078775
-0.078775
-0.078775
-0.078775
-0.078775
-0.078775
-0.078775
-0.078775
-0.078775
-0.078775
-0.078775
-0.078775
-0.078775
-0.078775
-0.078775
-0.078775
-0.078775
-0.078775
-0.078775
-0.078775
-0.078775
-0.078775
-0.078775
-0.078775
-0.078775
-0.078775
-0.078775
-0.078775
-0.078775
-0.078775
-0.078775
-0.078775
-0.078775
-0.078775
-0.078775
-0.078775
-0.078775
-0.078775
-0.078775
-0.078775
-0.078775
-0.078775
-0.078775
-0.078775
-0.078775
-0.078775
-0.078775
-0.078775
-0.078775
-0.078775
-0.078775
-0.078775
-0.078775
-0.078775
-0.078775
-0.078775
-0.078775
-0.078775
-0.078775
-0.078775
-0.078775
-0.078775
-0.078775
-0.078775
-0.078775
-0.078775
-0.078775
-0.078775
-0.078775
-0.078775
-0.078775
-0.078775
-0.078775
-0.078775
-0.078775
-0.078775
-0.078775
-0.078775
-0.078775
-0.078775
-0.078775
-0.078775
-0.078775
-0.078775
-0.078775
-0.078775
-0.078775
-0.078775
-0.078775
-0.078775
-0.078775
-0.078775
-0.078775
-0.078775
-0.078775
-0.078775
-0.078775
-0.078775
-0.078775
-0.078775
-0.078775
0.000000
0.022964
0.022964
0.022964
0.022964
0.022964
0.022964
0.022964
0.022964
0.022964
0.022964
0.022964
0.022964
0.022964
0.022964
0.022964
0.022964
0.022964
0.022964
0.022964
0.022964
0.022964
0.022964
0.022964
0.022964
0.022964
0.022964
0.022964
0.022964
0.022964
0.022964
0.022964
0.022964
0.022964
0.022964
0.022964
0.022964
0.022964
0.022964
0.022964
0.022964
0.022964
0.022964
0.022964
0.022964
0.022964
0.022964
0.022964
0.022964
0.022964
0.022964
0.022964
0.022964
0.022964
0.022964
0.022964
0.022964
0.022964
0.022964
0.022964
0.022964
0.022964
0.022964
0.022964
0.022964
0.022964
0.022964
0.022964
0.022964
0.022964
0.022964
0.022964
0.022964
0.022964
0.022964
0.022964
0.022964
0.022964
0.022964
0.022964
0.022964
0.022964
0.022964
0.022964
0.022964
0.022964
0.022964
0.022964
0.022964
0.022964
0.022964
0.022964
0.022964
0.022964
0.022964
0.022964
0.022964
0.022964
0.022964
0.022964
0.022964
0.022964
0.022964
0.022964
0.022964
0.022964
0.022964
0.022964
0.022964
0.022964
0.022964
0.022964
0.022964
0.022964
0.022964
0.022964
0.022964
0.022964
0.022964
0.022964
0.022964
0.022964
0.022964
0.022964
0.022964
0.022964
0.022964
0.022964
0.022964
0.000000
-0.015834
-0.015834
-0.015834
-0.015834
-0.015834
-0.015834
-0.015834
-0.015834
-0.015834
-0.015834
-0.015834
-0.015834
-0.015834
-0.015834
-0.015834
-0.015834
-0.015834
-0.015834
-0.015834
-0.015834
-0.015834
-0.015834
-0.015834
-0.015834
-0.015834
-0.015834
-0.015834
-0.015834
-0.015834
-0.015834
-0.015834
-0.015834
-0.015834
-0.015834
-0.015834
-0.015834
-0.015834
-0.015834
-0.015834
-0.015834
-0.015834
-0.015834
-0.015834
-0.015834
-0.015834
-0.015834
-0.015834
-0.015834
-0.015834
-0.015834
-0.015834
-0.015834
-0.015834
-0.015834
-0.015834
-0.015834
-0.015834
-0.015834
-0.015834
-0.015834
-0.015834
-0.015834
-0.015834
-0.015834
-0.015834
-0.015834
-0.015834
-0.015834
-0.015834
-0.015834
-0.015834
-0.015834
-0.015834
-0.015834
-0.015834
-0.015834
-0.015834
-0.015834
-0.015834
-0.015834
-0.015834
-0.015834
-0.015834
-0.015834
-0.015834
-0.015834
-0.015834
-0.015834
-0.015834
-0.015834
-0.015834
-0.015834
-0.015834
-0.015834
-0.015834
-0.015834
-0.015834
-0.015834
-0.015834
-0.015834
-0.015834
-0.015834
-0.015834
-0.015834
-0.015834
-0.015834
-0.015834
-0.015834
-0.015834
-0.015834
-0.015834
-0.015834
-0.015834
-0.015834
-0.015834
-0.015834
-0.015834
-0.015834
-0.015834
-0.015834
-0.015834
-0.015834
-0.015834
-0.015834
-0.015834
-0.015834
-0.015834
-0.015834
0.000000
0.000816
0.000816
0.000816
0.000816
0.000816
0.000816
0.000816
0.000816
0.000816
0.000816
0.000816
0.000816
0.000816
0.000816
0.000816
0.000816
0.000816
0.000816
0.000816
0.000816
0.000816
0.000816
0.000816
0.000816
0.000816
0.000816
0.000816
0.000816
0.000816
0.000816
0.000816
0.000816
0.000816
0.000816
0.000816
0.000816
0.000816
0.000816
0.000816
0.000816
0.000816
0.000816
0.000816
0.000816
0.000816
0.000816
0.000816
0.000816
0.000816
0.000816
0.000816
0.000816
0.000816
0.000816
0.000816
0.000816
0.000816
0.000816
0.000816
0.000816
0.000816
0.000816
0.000816
0.000816
0.000816
0.000816
0.000816
0.000816
0.000816
0.000816
0.000816
0.000816
0.000816
0.000816
0.000816
0.000816
0.000816
0.000816
0.000816
0.000816
0.000816
0.000816
0.000816
0.000816
0.000816
0.000816
0.000816
0.000816
0.000816
0.000816
0.000816
0.000816
0.000816
0.000816
0.000816
0.000816
0.000816
0.000816
0.000816
0.000816
0.000816
0.000816
0.000816
0.000816
0.000816
0.000816
0.000816
0.000816
0.000816
0.000816
0.000816
0.000816
0.000816
0.000816
0.000816
0.000816
0.000816
0.000816
0.000816
0.000816
0.000816
0.000816
0.000816
0.000816
0.000816
0.000816
0.000816
0.000816
0.000000
-0.105971
-0.105971
-0.105971
-0.105971
-0.105971
-0.105971
-0.105971
-0.105971
-0.105971
-0.105971
-0.105971
-0.105971
-0.105971
-0.105971
-0.105971
-0.105971
-0.105971
-0.105971
-0.105971
-0.105971
-0.105971
-0.105971
-0.105971
-0.105971
-0.105971
-0.105971
-0.105971
-0.105971
-0.105971
-0.105971
-0.105971
-0.105971
-0.105971
-0.105971
-0.105971
-0.105971
-0.105971
-0.105971
-0.105971
-0.105971
-0.105971
-0.105971
-0.105971
-0.105971
-0.105971
-0.105971
-0.105971
-0.105971
-0.105971
-0.105971
-0.105971
-0.105971
-0.105971
-0.105971
-0.105971
-0.105971
-0.105971
-0.105971
-0.105971
-0.105971
-0.105971
-0.105971
-0.105971
-0.105971
-0.105971
-0.105971
-0.105971
-0.105971
-0.105971
-0.105971
-0.105971
-0.105971
-0.105971
-0.105971
-0.105971
-0.105971
-0.105971
-0.105971
-0.105971
-0.105971
-0.105971
-0.105971
-0.105971
-0.105971
-0.105971
-0.105971
-0.105971
-0.105971
-0.105971
-0.105971
-0.105971
-0.105971
-0.105971
-0.105971
-0.105971
-0.105971
-0.105971
-0.105971
-0.105971
-0.105971
-0.105971
-0.105971
-0.105971
-0.105971
-0.105971
-0.105971
-0.105971
-0.105971
-0.105971
-0.105971
-0.105971
-0.105971
-0.105971
-0.105971
-0.105971
-0.105971
-0.105971
-0.105971
-0.105971
-0.105971
-0.105971
-0.105971
-0.105971
-0.105971
-0.105971
-0.105971
-0.105971
-0.105971
0.000000
-0.067092
-0.067092
-0.067092
-0.067092
-0.067092
-0.067092
-0.067092
-0.067092
-0.067092
-0.067092
-0.067092
-0.067092
-0.067092
-0.067092
-0.067092
-0.067092
-0.067092
-0.067092
-0.067092
-0.067092
-0.067092
-0.067092
-0.067092
-0.067092
-0.067092
-0.067092
-0.067092
-0.067092
-0.067092
-0.067092
-0.067092
-0.067092
-0.067092
-0.067092
-0.067092
-0.067092
-0.067092
-0.067092
-0.067092
-0.067092
-0.067092
-0.067092
-0.067092
-0.067092
-0.067092
-0.067092
-0.067092
-0.067092
-0.067092
-0.067092
-0.067092
-0.067092
-0.067092
-0.067092
-0.067092
-0.067092
-0.067092
-0.067092
-0.067092
-0.067092
-0.067092
-0.067092
-0.067092
-0.067092
-0.067092
-0.067092
-0.067092
-0.067092
-0.067092
-0.067092
-0.067092
-0.067092
-0.067092
-0.067092
-0.067092
-0.067092
-0.067092
-0.067092
-0.067092
-0.067092
-0.067092
-0.067092
-0.067092
-0.067092
-0.067092
-0.067092
-0.067092
-0.067092
-0.067092
-0.067092
-0.067092
-0.067092
-0.067092
-0.067092
-0.067092
-0.067092
-0.067092
-0.067092
-0.067092
-0.067092
-0.067092
-0.067092
-0.067092
-0.067092
-0.067092
-0.067092
-0.067092
-0.067092
-0.067092
-0.067092
-0.067092
-0.067092
-0.067092
-0.067092
-0.067092
-0.067092
-0.067092
-0.067092
-0.067092
-0.067092
-0.067092
-0.067092
-0.067092
-0.067092
-0.067092
-0.067092
-0.067092
-0.067092
0.000000
-0.009493
-0.009493
-0.009493
-0.009493
-0.009493
-0.009493
-0.009493
-0.009493
-0.009493
-0.009493
-0.009493
-0.009493
-0.009493
-0.009493
-0.009493
-0.009493
-0.009493
-0.009493
-0.009493
-0.009493
-0.009493
-0.009493
-0.009493
-0.009493
-0.009493
-0.009493
-0.009493
-0.009493
-0.009493
-0.009493
-0.009493
-0.009493
-0.009493
-0.009493
-0.009493
-0.009493
-0.009493
-0.009493
-0.009493
-0.009493
-0.009493
-0.009493
-0.009493
-0.009493
-0.009493
-0.009493
-0.009493
-0.009493
-0.009493
-0.009493
-0.009493
-0.009493
-0.009493
-0.009493
-0.009493
-0.009493
-0.009493
-0.009493
-0.009493
-0.009493
-0.009493
-0.009493
-0.009493
-0.009493
-0.009493
-0.009493
-0.009493
-0.009493
-0.009493
-0.009493
-0.009493
-0.009493
-0.009493
-0.009493
-0.009493
-0.009493
-0.009493
-0.009493
-0.009493
-0.009493
-0.009493
-0.009493
-0.009493
-0.009493
-0.009493
-0.009493
-0.009493
-0.009493
-0.009493
-0.009493
-0.009493
-0.009493
-0.009493
-0.009493
-0.009493
-0.009493
-0.009493
-0.009493
-0.009493
-0.009493
-0.009493
-0.009493
-0.009493
-0.009493
-0.009493
-0.009493
-0.009493
-0.009493
-0.009493
-0.009493
-0.009493
-0.009493
-0.009493
-0.009493
-0.009493
-0.009493
-0.009493
-0.009493
-0.009493
-0.009493
-0.009493
-0.009493
-0.009493
-0.009493
-0.009493
-0.009493
-0.009493
-0.009493
0.000000
0.004607
0.004607
0.004607
0.004607
0.004607
0.004607
0.004607
0.004607
0.004607
0.004607
0.004607
0.004607
0.004607
0.004607
0.004607
0.004607
0.004607
0.004607
0.004607
0.004607
0.004607
0.004607
0.004607
0.004607
0.004607
0.004607
0.004607
0.004607
0.004607
0.004607
0.004607
0.004607
0.004607
0.004607
0.004607
0.004607
0.004607
0.004607
0.004607
0.004607
0.004607
0.004607
0.004607
0.004607
0.004607
0.004607
0.004607
0.004607
0.004607
0.004607
0.004607
0.004607
0.004607
0.004607
0.004607
0.004607
0.004607
0.004607
0.004607
0.004607
0.004607
0.004607
0.004607
0.004607
0.004607
0.004607
0.004607
0.004607
0.004607
0.004607
0.004607
0.004607
0.004607
0.004607
0.004607
0.004607
0.004607
0.004607
0.004607
0.004607
0.004607
0.004607
0.004607
0.004607
0.004607
0.004607
0.004607
0.004607
0.004607
0.004607
0.004607
0.004607
0.004607
0.004607
0.004607
0.004607
0.004607
0.004607
0.004607
0.004607
0.004607
0.004607
0.004607
0.004607
0.004607
0.004607
0.004607
0.004607
0.004607
0.004607
0.004607
0.004607
0.004607
0.004607
0.004607
0.004607
0.004607
0.004607
0.004607
0.004607
0.004607
0.004607
0.004607
0.004607
0.004607
0.004607
0.004607
0.004607
0.000000
0.005284
0.005284
0.005284
0.005284
0.005284
0.005284
0.005284
0.005284
0.005284
0.005284
0.005284
0.005284
0.005284
0.005284
0.005284
0.005284
0.005284
0.005284
0.005284
0.005284
0.005284
0.005284
0.005284
0.005284
0.005284
0.005284
0.005284
0.005284
0.005284
0.005284
0.005284
0.005284
0.005284
0.005284
0.005284
0.005284
0.005284
0.005284
0.005284
0.005284
0.005284
0.005284
0.005284
0.005284
0.005284
0.005284
0.005284
0.005284
0.005284
0.005284
0.005284
0.005284
0.005284
0.005284
0.005284
0.005284
0.005284
0.005284
0.005284
0.005284
0.005284
0.005284
0.005284
0.005284
0.005284
0.005284
0.005284
0.005284
0.005284
0.005284
0.005284
0.005284
0.005284
0.005284
0.005284
0.005284
0.005284
0.005284
0.005284
0.005284
0.005284
0.005284
0.005284
0.005284
0.005284
0.005284
0.005284
0.005284
0.005284
0.005284
0.005284
0.005284
0.005284
0.005284
0.005284
0.005284
0.005284
0.005284
0.005284
0.005284
0.005284
0.005284
0.005284
0.005284
0.005284
0.005284
0.005284
0.005284
0.005284
0.005284
0.005284
0.005284
0.005284
0.005284
0.005284
0.005284
0.005284
0.005284
0.005284
0.005284
0.005284
0.005284
0.005284
0.005284
0.005284
0.005284
0.005284
0.005284
0.000000
-0.015834
-0.015834
-0.015834
-0.015834
-0.015834
-0.015834
-0.015834
-0.015834
-0.015834
-0.015834
-0.015834
-0.015834
-0.015834
-0.015834
-0.015834
-0.015834
-0.015834
-0.015834
-0.015834
-0.015834
-0.015834
-0.015834
-0.015834
-0.015834
-0.015834
-0.015834
-0.015834
-0.015834
-0.015834
-0.015834
-0.015834
-0.015834
-0.015834
-0.015834
-0.015834
-0.015834
-0.015834
-0.015834
-0.015834
-0.015834
-0.015834
-0.015834
-0.015834
-0.015834
-0.015834
-0.015834
-0.015834
-0.015834
-0.015834
-0.015834
-0.015834
-0.015834
-0.015834
-0.015834
-0.015834
-0.015834
-0.015834
-0.015834
-0.015834
-0.015834
-0.015834
-0.015834
-0.015834
-0.015834
-0.015834
-0.015834
-0.015834
-0.015834
-0.015834
-0.015834
-0.015834
-0.015834
-0.015834
-0.015834
-0.015834
-0.015834
-0.015834
-0.015834
-0.015834
-0.015834
-0.015834
-0.015834
-0.015834
-0.015834
-0.015834
-0.015834
-0.015834
-0.015834
-0.015834
-0.015834
-0.015834
-0.015834
-0.015834
-0.015834
-0.015834
-0.015834
-0.015834
-0.015834
-0.015834
-0.015834
-0.015834
-0.015834
-0.015834
-0.015834
-0.015834
-0.015834
-0.015834
-0.015834
-0.015834
-0.015834
-0.015834
-0.015834
-0.015834
-0.015834
-0.015834
-0.015834
-0.015834
-0.015834
-0.015834
-0.015834
-0.015834
-0.015834
-0.015834
-0.015834
-0.015834
-0.015834
-0.015834
-0.015834
0.000000
-0.003996
-0.003996
-0.003996
-0.003996
-0.003996
-0.003996
-0.003996
-0.003996
-0.003996
-0.003996
-0.003996
-0.003996
-0.003996
-0.003996
-0.003996
-0.003996
-0.003996
-0.003996
-0.003996
-0.003996
-0.003996
-0.003996
-0.003996
-0.003996
-0.003996
-0.003996
-0.003996
-0.003996
-0.003996
-0.003996
-0.003996
-0.003996
-0.003996
-0.003996
-0.003996
-0.003996
-0.003996
-0.003996
-0.003996
-0.003996
-0.003996
-0.003996
-0.003996
-0.003996
-0.003996
-0.003996
-0.003996
-0.003996
-0.003996
-0.003996
-0.003996
-0.003996
-0.003996
-0.003996
-0.003996
-0.003996
-0.003996
-0.003996
-0.003996
-0.003996
-0.003996
-0.003996
-0.003996
-0.003996
-0.003996
-0.003996
-0.003996
-0.003996
-0.003996
-0.003996
-0.003996
-0.003996
-0.003996
-0.003996
-0.003996
-0.003996
-0.003996
-0.003996
-0.003996
-0.003996
-0.003996
-0.003996
-0.003996
-0.003996
-0.003996
-0.003996
-0.003996
-0.003996
-0.003996
-0.003996
-0.003996
-0.003996
-0.003996
-0.003996
-0.003996
-0.003996
-0.003996
-0.003996
-0.003996
-0.003996
-0.003996
-0.003996
-0.003996
-0.003996
-0.003996
-0.003996
-0.003996
-0.003996
-0.003996
-0.003996
-0.003996
-0.003996
-0.003996
-0.003996
-0.003996
-0.003996
-0.003996
-0.003996
-0.003996
-0.003996
-0.003996
-0.003996
-0.003996
-0.003996
-0.003996
-0.003996
-0.003996
-0.003996
0.000000
-0.015834
-0.015834
-0.015834
-0.015834
-0.015834
-0.015834
-0.015834
-0.015834
-0.015834
-0.015834
-0.015834
-0.015834
-0.015834
-0.015834
-0.015834
-0.015834
-0.015834
-0.015834
-0.015834
-0.015834
-0.015834
-0.015834
-0.015834
-0.015834
-0.015834
-0.015834
-0.015834
-0.015834
-0.015834
-0.015834
-0.015834
-0.015834
-0.015834
-0.015834
-0.015834
-0.015834
-0.015834
-0.015834
-0.015834
-0.015834
-0.015834
-0.015834
-0.015834
-0.015834
-0.015834
-0.015834
-0.015834
-0.015834
-0.015834
-0.015834
-0.015834
-0.015834
-0.015834
-0.015834
-0.015834
-0.015834
-0.015834
-0.015834
-0.015834
-0.015834
-0.015834
-0.015834
-0.015834
-0.015834
-0.015834
-0.015834
-0.015834
-0.015834
-0.015834
-0.015834
-0.015834
-0.015834
-0.015834
-0.015834
-0.015834
-0.015834
-0.015834
-0.015834
-0.015834
-0.015834
-0.015834
-0.015834
-0.015834
-0.015834
-0.015834
-0.015834
-0.015834
-0.015834
-0.015834
-0.015834
-0.015834
-0.015834
-0.015834
-0.015834
-0.015834
-0.015834
-0.015834
-0.015834
-0.015834
-0.015834
-0.015834
-0.015834
-0.015834
-0.015834
-0.015834
-0.015834
-0.015834
-0.015834
-0.015834
-0.015834
-0.015834
-0.015834
-0.015834
-0.015834
-0.015834
-0.015834
-0.015834
-0.015834
-0.015834
-0.015834
-0.015834
-0.015834
-0.015834
-0.015834
-0.015834
-0.015834
-0.015834
-0.015834
0.000000
0.000000
0.000000
0.000000
0.000000
0.000000
0.000000
0.000000
0.000000
0.000000
0.000000
0.000000
0.000000
0.000000
0.000000
0.000000
0.000000
0.000000
0.000000
0.000000
0.000000
0.000000
0.000000
0.000000
0.000000
0.000000
0.000000
0.000000
0.000000
0.000000
0.000000
0.000000
0.000000
0.000000
0.000000
0.000000
0.000000
0.000000
0.000000
0.000000
0.000000
0.000000
0.000000
0.000000
0.000000
0.000000
0.000000
0.000000
0.000000
0.000000
0.000000
0.000000
